437 700
president -0.229364 -0.0713166 -0.151472 -0.225196 0.085218 0.132233 -0.172246 -0.0196389 0.04872 0.114139 0.0557373 -0.150365 -0.0794615 0.0391281 0.116161 0.173571 0.264643 0.208881 -0.274944 0.072425 0.186777 0.121752 -0.0657634 -0.118315 0.190268 0.30226 -0.0667841 -0.131817 -0.0481466 0.0681993 -0.0673683 0.132182 0.0532171 -0.0249502 0.0879674 -0.0447456 -0.0615815 -0.191098 -0.287083 -0.183983 -0.00154403 0.154598 -0.0471699 0.0957017 0.0569496 -0.109283 -0.236634 0.244824 -0.189408 -5.20917e-05 0.0344827 -0.204459 0.155578 0.155471 0.140271 0.227367 0.187119 0.264991 -0.0428151 0.0557845 -0.010315 -0.0136659 0.0242046 0.295308 0.0239453 0.0537636 -0.212591 -0.113842 0.24295 0.0025957 0.0219483 0.0502792 -0.0594411 0.025536 -0.00990298 -0.108658 0.0361462 0.122968 -0.118765 0.195613 0.00525157 -0.130611 0.160257 0.297067 -0.189553 0.00772623 -0.00594795 -0.142235 0.245655 -0.113598 0.231049 -0.181529 0.00835668 -0.161317 -0.13155 -0.0515697 -0.0569975 0.077396 0.0440118 -0.084229 0.031002 -0.290356 0.112618 0.0263797 -0.0397033 0.122122 -0.00208335 -0.0333446 -0.155898 0.0167347 0.120653 0.0147017 0.096053 -0.313994 0.355406 -0.0860228 -0.0953455 -0.0380319 0.0780157 -0.0549319 -0.123333 0.247894 -0.00325428 0.0410577 -0.169264 -0.0677618 0.0923614 -0.122381 0.173598 -0.179201 -0.113037 -0.0947792 -0.118982 0.0493401 -0.199083 0.384013 -0.257486 -0.403609 -0.0703508 -0.0635978 0.0283469 -0.0667436 0.0743288 0.0758044 -0.200178 -0.133531 -0.124273 0.00171941 0.0505184 0.033988 -0.115315 -0.0353411 0.0830041 0.103585 0.189567 0.0873785 0.000845526 0.0686675 -0.0627736 0.0135499 -0.0741957 -0.140535 -0.15201 -0.351313 -0.164943 -0.0487309 0.0145629 -0.0943367 -0.00400309 0.0457789 0.202604 -0.149369 -0.0551268 -0.0623357 -0.13173 -0.0722088 0.239411 -0.0802993 -0.245582 0.292581 -0.403184 0.194113 0.232956 -0.347557 -0.0443903 -0.0174435 -0.110535 0.0273026 -0.109456 -0.287697 0.0532195 0.25421 -0.258673 0.22323 0.0807098 -0.0272776 -0.0049764 -0.0802463 0.124803 -0.10705 -0.224104 -0.313836 0.10818 -0.0460662 0.00100834 0.101885 0.0327686 -0.150659 0.0272559 -0.175272 -0.12428 0.0726264 0.092062 0.0962872 0.00128147 -0.0726261 0.165405 -0.263541 -0.0120412 -0.0368743 -0.136184 0.173797 0.160955 -0.0671541 -0.0241542 -0.0184835 -0.389432 0.0625567 0.125311 -0.154052 0.360991 -0.0925205 -0.3074 -0.0676066 -0.00615889 -0.0531943 0.0373706 -0.232614 0.0849526 -0.0319823 0.0512251 0.284244 -0.283028 0.0636913 -0.155159 0.0441211 -0.033559 -0.110521 -0.255827 0.0895953 -0.0304598 -0.00457156 -0.179337 -0.0237174 0.0452333 0.172406 0.0654758 -0.00596117 -0.148061 -0.105587 -0.091289 -0.133501 -0.0035023 -0.109209 0.0794226 0.23483 -0.204644 -0.0401582 0.21173 -0.258399 0.123427 -0.163991 -0.174221 -0.0474239 0.0673529 -0.19963 -0.236835 0.140866 -0.00714182 0.167994 0.162997 0.23275 -0.0149503 -0.272469 -0.0451245 -0.120804 0.0168265 -0.00701915 -0.0509358 -0.0673233 0.0887876 0.128362 0.226287 0.410111 -0.12031 -0.107854 -0.051083 0.0730547 0.0898172 -0.158762 -0.0191076 -0.139655 -0.0772332 0.0632512 0.194891 -0.0876246 0.0694449 -0.010576 0.150465 0.194376 0.14784 0.0516064 0.0417308 -0.047081 0.151672 0.0834775 -0.02898 0.0967603 -0.0981036 -0.018721 0.218859 -0.0267337 -0.161515 0.0421217 0.147579 0.0894784 0.279057 0.0398778 0.204522 0.07078 -0.299193 0.159546 -0.107841 -0.145695 0.0477548 0.234146 0.232069 -0.053639 -0.11695 -0.144733 0.0524081 0.0864241 0.180156 -0.127059 0.271858 0.233994 -0.0978902 -0.264387 0.0250676 -0.0855022 0.082385 0.0646555 0.17479 0.222947 0.310633 -0.0612585 0.0954619 0.265569 -0.241514 0.0161825 -0.0557276 -0.144304 0.0815124 0.0958323 0.249726 0.176561 -0.137119 -0.0913197 -0.211953 0.318076 0.0279333 0.0722585 -0.0174566 -0.138502 -0.0391619 0.137527 -0.0155825 0.175772 0.247906 -0.377239 -0.0509165 0.078315 0.0227218 -0.0549451 -0.148355 -0.0155301 0.0255566 0.034744 -0.188959 -0.3372 -0.193331 0.0312757 -0.0686168 -0.383349 -0.29258 0.113382 -0.0228716 -0.124427 -0.00949197 0.0176003 -0.0174102 -0.14935 0.00695362 0.124367 0.0013272 0.0809013 -0.0728562 -0.00738776 0.0734038 0.243999 -0.101068 0.0187847 0.145749 -0.0972105 0.0339922 0.158387 -0.00658059 0.196202 0.323757 0.164109 0.0810082 0.138258 -0.0219247 -0.16958 -0.321446 -0.173353 -0.13001 0.0123927 0.150044 -0.139359 0.0437581 -0.112656 0.0401022 0.017532 -0.0332973 0.210023 -0.102858 -0.135681 0.0227282 0.339922 0.107784 0.0898346 0.016907 0.049209 0.050679 -0.072437 -0.0356918 0.265321 -0.0596687 0.289654 0.355779 -0.21867 -0.0920559 -0.0487669 0.0415442 0.115949 0.241386 0.0248805 -0.108235 -0.0251495 -0.109386 -0.200141 -0.206668 0.26467 0.229607 -0.177884 0.378553 -0.105961 -0.0275867 -0.15992 0.101577 -0.0816731 0.382014 -0.297882 -0.177855 -0.0923036 -0.156042 0.12612 0.131056 0.25638 0.0589094 -0.277208 0.180972 0.0455172 0.118235 0.128523 -0.0738186 0.00239685 -0.160544 -0.1076 -0.161388 -0.00460012 -0.117204 -0.0104223 -0.048353 0.0158332 0.134547 -0.214118 -0.0919009 -0.179914 0.168106 -0.292828 0.202908 0.134269 0.308872 0.338319 -0.0581038 -0.178796 -0.0647924 0.456496 0.0873908 0.215929 0.11779 -0.127615 0.28107 0.187462 0.10428 -0.0617023 -0.0272152 0.000527221 -0.109462 -0.0446534 0.239138 -0.222782 0.217582 -0.0795838 -0.102018 -0.0398758 -0.182458 -0.249877 0.0463421 -0.0909966 -0.118201 0.116319 -0.0269796 -0.222027 -0.0684067 -0.460726 -0.0627471 0.104336 -0.0442732 -0.0397237 -0.198374 0.0362281 -0.176314 0.119867 0.209686 -0.166288 -0.232547 -0.174781 0.0666233 0.142231 0.149717 0.101122 -0.293607 0.056763 0.0353336 0.00794078 -0.164671 0.0178472 -0.247759 -0.0528959 0.123782 0.0329941 -0.0647189 0.047766 0.16731 -0.0420945 0.19277 -0.0722331 0.0397558 0.0199234 -0.214857 0.0729663 0.134067 0.00632341 0.174175 0.095985 -0.0430676 0.0477128 -0.116582 0.325783 0.04085 0.0195855 -0.135849 0.147261 -0.242205 0.0125103 -0.0138187 0.129134 -0.0579571 0.0571436 -0.0479157 0.151589 0.0631519 0.137158 -0.295348 -0.114597 -0.119866 0.179297 0.106145 -0.0632855 0.0386505 0.214462 0.0568032 0.272217 -0.0118675 -0.0365394 0.113988 0.0583231 0.0609637 -0.287862 -0.201311 -0.164775 -0.0834836 -0.250705 0.0523489 -0.0449956 -0.374662 0.0861174 0.156934 0.117918 0.0365311 -0.00760338 0.0813728 0.0500673 -0.082805 -0.056957 0.12874 -0.164266 -0.0480734 -0.144037 0.178606 -0.0768315 0.0551236 0.0220797 0.0792847 -0.111665 0.0449281 -0.00304087 0.0496846 0.18296 0.0998055 0.266325 -0.145199 0.418876 0.052645 -0.16871 -0.41614 0.0138844 -0.0341569 -0.114339 -0.137969 -0.0692457 0.137362 0.112637 -0.173906 0.108518 -0.31585 0.0833491 -0.0389339 -0.0106638 0.0823979 -0.354552 0.559026 0.0238462 0.0909099 -0.254324 -0.0929156 -0.0357255 0.0593972 0.114585 -0.0275488 -0.0597703 0.304561 -0.108556 -0.113765 -0.125469 -0.0752046 0.0312015 -0.0744448 0.137407 0.122862 -0.00191247 -0.257989 -0.177647 0.0613724 0.0957608 -0.265108 0.0204571 -0.0308117 -0.0580887 0.0346495 -0.0539926 -0.118682 -0.0385142 0.0963089 0.255533 -0.196469 0.0163789
monk -0.0377945 -0.052177 0.0162973 0.221858 0.103008 -0.00396468 0.136115 0.159962 -0.233829 -0.0715725 0.172092 0.00942623 -0.175047 0.0802662 -0.0956722 -0.00955305 0.2468 -0.031567 0.554497 0.0214381 -0.123845 -0.0193615 0.250675 -0.16913 -0.180421 -0.149293 0.129971 -0.0142415 -0.382169 0.0713269 -0.077869 0.0371694 0.348923 0.043283 0.0795723 -0.281279 -0.221684 -0.141469 0.0641359 0.0498493 0.0715043 -0.0948939 -0.279221 -0.0593163 0.0608487 -0.00761037 0.225874 -0.294258 0.0421451 -0.0835306 0.0740624 -0.276575 -0.0573984 -0.194906 -0.241469 0.00593869 0.0469144 -0.100699 -0.050516 0.160772 -0.189412 -0.0279949 -0.105091 -0.167391 -0.144716 -0.098379 0.180151 0.167701 0.216198 8.24658e-05 -0.0974719 0.0973178 -0.167517 0.0298031 0.0635555 -0.100692 -0.0583026 -0.036091 0.026962 0.0532253 -0.0329152 -0.0965071 -0.107057 -0.501631 0.102865 -0.0816195 -0.00431189 -0.121655 -0.063054 -0.0701543 0.0808234 0.196094 -0.0209821 0.116556 0.0665515 -0.186729 -0.163699 0.00630688 0.236692 -0.0382417 0.126558 0.185962 -0.123657 0.0736982 -0.0403661 -0.155051 -0.0808668 0.262726 -0.329363 -0.0463674 0.246779 -0.119847 0.184795 0.061977 0.0817021 -0.0613389 -0.254329 0.190694 0.171844 0.0591639 0.015599 0.175436 0.238193 -0.00608254 0.147518 -0.229585 0.0126936 0.0273969 0.180856 -0.246275 -0.149647 -0.0995142 0.0233707 -0.124952 -0.321748 0.257026 -0.0695791 0.0456611 -0.15906 -0.240524 -0.272186 0.175938 -0.120576 -0.228944 0.196975 0.0491646 -0.0712068 -0.210436 0.00623645 -0.142592 0.0475036 0.174296 -0.23269 -0.0411127 -0.159576 0.315017 -0.0383922 0.0161356 0.137688 0.184432 -0.0866435 -0.257033 0.223683 -0.188354 0.0487274 -0.090241 -0.00270012 -0.204619 -0.0571109 -0.166103 0.054438 0.0276427 6.96884e-06 0.0510096 -0.0736518 0.204428 0.368512 -0.131206 0.00688898 -0.066058 0.0804655 -0.00939723 -0.0464984 -0.142247 -0.131366 0.203673 0.0526558 0.091875 -0.0468441 -0.206422 0.0536926 0.0852048 0.217294 0.235325 -0.0941756 0.0674973 -0.340811 -0.112263 0.10153 -0.194985 0.20068 0.119684 0.120427 0.156363 0.230507 -0.0530682 -0.178017 0.0131011 0.0539135 0.21896 0.0173966 -0.293824 -0.0792998 -0.234371 -0.0490764 -0.125484 0.111761 -0.0992756 -0.100914 -0.681473 -0.0525742 -0.0163662 0.132092 0.0733434 0.0513694 -0.349202 0.00593572 0.0267351 -0.0576025 -0.133152 0.123851 0.226444 -0.0437537 -0.123703 -0.196103 -0.0829254 -0.127825 -0.302663 -0.191036 -0.0119087 -0.0464191 -0.182378 0.0193183 0.00793916 0.113159 0.0210026 0.0135562 0.109792 -0.0848866 -0.0883596 -0.392359 -0.0956287 0.181846 0.0517406 -0.0406963 0.40984 -0.0187325 -0.397655 0.251933 0.101119 0.0437281 -0.187622 0.0430172 -0.0178823 0.015975 -0.120266 0.0559662 0.143842 -0.0942415 -0.0592732 0.062085 -0.197542 0.112345 0.0932008 0.155563 -0.290794 -0.420207 0.0986326 -0.332845 -0.0418543 -0.166095 0.0609158 0.0902735 -0.0750361 -0.194156 -0.198527 -0.0252637 0.153745 -0.237501 0.0602758 0.102642 -0.365877 0.142302 0.283488 -0.175424 0.171041 0.00802943 0.340689 0.269764 0.00884674 -0.256015 0.0964349 -0.0958097 0.149231 0.00118315 0.0545574 0.0336658 -0.284924 0.262762 -0.120793 0.00998928 -0.16743 0.0478622 0.0292956 -0.0876965 -0.0966195 -0.000498722 -0.0350377 0.264365 0.164905 -0.220143 0.0707567 -0.254334 0.0581072 0.0460376 0.0479431 -0.0632287 0.00906566 0.0952996 0.121855 -0.00865339 -0.272584 -0.111825 0.138622 0.118211 0.212867 0.0157143 -0.201348 0.168981 -0.145425 -0.0518211 0.155599 0.0395989 -0.0151522 -0.232928 -0.0732368 -0.228654 0.209205 0.360717 -0.112992 -0.0183525 -0.0786166 -0.0797607 0.112777 0.0213202 0.0815494 -0.18714 -0.0894277 0.0296931 -0.127031 0.11693 -0.0456147 -0.0942716 0.123969 -0.121391 0.0907982 -0.0250808 -0.0209864 0.112835 -0.00246647 -0.104666 0.308642 0.180799 0.00609107 -0.0645986 -0.0960213 0.235147 0.111788 0.0879896 -0.386793 -0.0243033 0.0893134 0.117636 0.302858 -0.00538873 0.34127 -0.127915 -0.244888 -0.0492291 -0.199442 -0.0991912 0.0180882 -0.0771514 -0.0637884 0.27868 0.369963 -0.106484 -0.068352 -0.0797018 0.152057 0.063125 -0.0510863 -0.016265 0.153226 0.215856 -0.336323 0.088696 0.30666 0.220875 -0.102476 -0.0751369 -0.108788 0.104368 -0.222651 -0.016881 0.0583328 0.158415 0.00617682 0.0589921 0.10459 0.00444035 -0.251113 0.509894 0.23606 0.163762 -0.14559 -0.0905488 0.254949 -0.192147 -0.00197408 -0.0716625 -0.298604 -0.325992 0.333426 -0.043043 0.100881 -0.0925486 -0.364274 -0.155144 -0.0447831 0.0673552 -0.307373 -0.165349 -0.00577936 -0.121853 -0.179965 -0.105055 0.0632764 -0.171768 0.00359401 0.0812612 0.346907 0.0368034 -0.00354117 0.62253 0.0309417 -0.0792988 0.124029 -0.076034 -0.175171 -0.216923 0.0567708 -0.221174 0.0485817 0.208983 0.0146897 0.155384 -0.111161 0.0397519 0.0705513 0.179676 0.0851676 0.135553 -0.183231 0.114582 -0.113857 0.0867099 -0.278829 -0.0532188 -0.212548 0.328536 0.0541156 0.00411544 0.0262213 -0.163187 -0.0449144 0.304267 0.195948 -0.319999 0.0395041 -0.480577 0.0727223 0.0144613 0.231628 -0.18027 -0.0764163 0.0915757 0.441639 0.148968 -0.208339 0.172945 -0.0659167 0.130619 0.0846879 0.102657 -0.194997 -0.199162 -0.0681409 -0.0288385 0.0944404 -0.104912 0.107 -0.107827 -0.0174552 0.00117848 -0.11501 0.148829 0.219641 -0.380944 0.010386 0.00749751 -0.0732574 -0.0282546 0.00866268 0.0300974 -0.25136 -0.00395059 -0.178787 -0.127724 -0.137954 -0.0841511 0.0139599 0.122341 -0.105177 0.0837498 0.0429946 0.172059 0.0028632 0.053729 -0.0938405 0.197321 0.00754795 0.134738 -0.0366501 -0.169535 0.0859852 0.149133 -0.0526954 -0.180449 0.0339619 0.124877 -0.143196 -0.0205705 -0.108111 0.00111129 -0.0480802 -0.12312 -0.0282694 -0.363783 -0.0292966 0.240979 0.160526 -0.297927 0.214098 -0.129806 -0.0108589 0.0363125 -0.101093 -0.30161 -0.0188487 -0.0927196 -0.0393492 -0.153643 -0.0660656 0.0250728 0.0114207 -0.0787724 0.311167 -0.0255408 0.0746189 -0.00473096 0.125369 -0.0421192 -0.12459 -0.0200759 -0.171018 -0.191699 -0.121732 -0.30904 0.0484503 -0.123046 0.052918 -0.0830764 0.232768 -0.0131676 0.0593692 0.128134 0.0804422 -0.0024616 0.242066 0.0122471 0.20006 -0.08558 -0.188584 -0.121298 0.0443515 0.254277 -0.117586 -0.120483 -0.472285 0.376676 0.0219238 0.160558 0.286486 -0.0479128 -0.206786 0.168896 0.0658911 -0.0923777 0.143305 -0.00860263 0.214271 -0.0295402 -0.0651635 -0.156537 0.0321304 -0.0382399 0.240936 0.123683 -0.0540511 0.0992841 -0.249692 0.201457 0.0939434 -0.195798 0.0125987 -0.163391 -0.105449 0.245864 -0.308017 0.0630529 0.439357 -0.0610884 -0.0428303 -0.0134337 0.203821 0.372338 0.0309921 -0.455091 -0.114333 -0.0192592 -0.0569982 -0.117298 0.320834 -0.000778905 0.1218 0.198441 0.0445125 0.0792784 -0.197081 -0.131685 -0.0147627 0.161349 -0.0210373 0.0542155 0.26006 0.0348537 -0.156327 0.188828 0.163369 -0.173426 0.115837 0.255828 0.209245 0.147521 -0.0693676 -0.149508 -0.0370991 -0.0569978 -0.200339 0.0485203 0.153698 -0.0145858 -0.224149 -0.112443 -0.0670937 -0.29078 0.125374 0.0885513 0.126212 0.196972 -0.104314 0.0159585 0.155312 -0.0565881 -0.0757708 0.0240373 0.104564 0.0555126 0.0890045
chance 0.377886 0.000619823 -0.115067 -0.010468 0.140698 -0.0885752 -0.0568397 0.0690588 -0.0925603 0.0367009 0.0518322 0.0425024 0.192122 0.053165 0.076234 -0.200933 0.304502 0.108641 -0.0618976 0.20634 -0.107329 -0.0717783 -0.130214 -0.0470012 -0.111842 -0.200873 -0.178412 -0.126223 -0.151614 0.276605 0.0580281 0.11833 0.0754813 -0.0346796 -0.00772322 0.0991631 0.200033 -0.141707 -0.0802946 -0.0258168 -0.114799 -0.082738 0.0884119 0.12714 -0.0620209 -0.0119282 0.211048 -0.0538987 -0.0880306 -0.135251 -0.00957701 0.0461372 0.0929006 0.106032 -0.20943 0.0788632 0.433899 0.236974 0.0357946 -0.178432 0.0442001 -0.063069 -0.141167 0.0183817 -0.170805 -0.127263 0.0982258 -0.0593547 0.270192 -0.193334 0.121442 0.121555 -0.0260647 0.065478 0.0768351 0.0611546 -0.233105 -0.118291 -0.0658449 0.234659 -0.0366725 0.000695732 0.0476911 -0.0754076 0.00833236 -0.0631656 -0.169483 -0.0779596 0.262136 0.00235366 0.202609 -0.0212433 0.00054742 0.0812344 0.132724 0.269583 0.0118594 0.0289429 0.102516 -0.177817 -0.0496571 -0.173922 -0.286611 -0.0112713 0.0158513 0.0978773 0.114171 -0.214409 -0.329294 0.0479676 0.0478962 -0.0791799 0.208945 0.0125579 0.0913154 -0.024919 -0.199463 -0.0232742 -0.105385 -0.263954 -0.0145376 -0.0767794 -0.231151 -0.00974168 -0.0628406 -0.120248 0.11799 -0.157661 0.144433 -0.109809 0.0124152 0.0506704 -0.199261 0.134521 -0.142219 0.269504 -0.109819 0.14685 -0.0817241 -0.167864 -0.00980576 0.1868 0.0298911 -0.131223 -0.12653 0.124594 -0.131345 0.177071 0.248166 0.10944 0.212051 -0.0470343 -0.0749964 0.128718 -0.058551 -0.0757495 -0.110131 0.0661337 0.0577783 -0.153953 -0.0912025 -0.155634 -0.108846 -0.0382326 0.00279383 0.257875 -0.138217 -0.0959195 -0.0399369 0.012497 -0.35522 0.020483 0.0792674 -0.0993518 -0.0682466 0.0416413 -0.101266 -0.11436 -0.0401729 0.0248491 0.0133308 0.0617766 -0.0226698 -0.0411064 0.0400572 0.07076 -0.112329 -0.0318658 -0.181596 0.0940175 0.0498261 0.112491 -0.11822 0.2593 0.109595 -0.0900472 -0.0213557 -0.267661 0.0335545 -0.0604953 0.0894259 0.0263312 -0.0733381 0.0094651 0.00790333 -0.0869195 -0.0926084 -0.0307984 -0.00998919 0.049671 0.0551802 -0.0145851 0.0118135 -0.242318 -0.19522 -0.0184772 0.0574437 0.0249033 -0.0323467 -0.153375 -0.0959184 0.0380818 -0.0180664 -0.120009 0.0265739 -0.41521 -0.102859 -0.0877111 -0.0622637 0.00598472 -0.0519328 -0.175911 0.138812 0.120548 -0.0307579 -0.0432118 0.0534808 -0.215911 -0.190484 -0.0062594 0.015205 -0.0566693 -0.0126661 0.0728928 0.0920159 -0.104081 0.155749 0.0906727 0.0587126 -0.261263 0.0396049 0.0750906 -0.1403 0.165227 0.0249173 -0.0589121 0.240927 -0.106921 -0.140991 0.10217 -0.165242 0.0358655 -0.186123 -0.14324 -0.0650612 0.130187 0.0131391 -0.18118 -0.00197259 -0.162638 -0.0991817 0.0536998 0.0864758 0.0572201 -0.0207722 0.0940704 -0.116159 -0.090751 -0.018443 0.207701 -0.0851871 -0.273224 -0.227356 0.0580967 -0.315692 -0.0188654 -0.0394386 0.18667 0.128905 -0.100919 -0.12233 -0.191184 -0.238594 0.110555 0.0273082 0.132225 -0.0812938 0.347072 0.361441 0.27883 -0.199285 0.308528 -0.173926 0.0252871 -0.154614 0.182777 -0.212545 -0.00291054 -0.0458157 0.131931 0.292474 0.153554 -0.100122 0.21898 0.13344 0.0193992 -0.0789102 0.161434 -0.143224 -0.0144792 -0.0503425 -0.057567 -0.269992 -0.103264 0.101649 0.0283307 -0.0109099 0.0270079 -0.0830217 0.022387 0.1947 0.0944427 -0.058815 0.215981 -0.230503 -0.0397838 0.0817928 -0.13626 0.0324305 0.0950608 -0.0432581 -0.103286 0.0760187 -0.119191 0.133487 -0.0684546 0.13427 -0.00490895 0.259986 0.0405636 -0.189452 -0.0555136 0.0500494 0.0956216 0.159218 0.107416 0.00482057 0.0537458 -0.0950816 0.0556167 0.217186 -0.187235 0.0139412 0.182741 -0.133467 0.0594222 -0.138169 0.245874 -0.00053094 -0.105406 -0.17517 0.200017 0.0504633 -0.112905 0.289227 -0.151769 -0.0316326 -0.061647 0.0861975 -0.0830587 0.173728 0.0663743 -0.0443102 -0.0994365 -0.0164258 -0.0326285 -0.0352074 0.0886939 -0.16705 0.12893 0.111624 -0.0838865 -0.266759 -0.208759 0.167864 0.00828416 0.291768 -0.0242202 0.063128 0.185093 0.0442736 -0.0134875 -0.0941122 -0.0452083 -0.0794962 0.0456266 0.114405 0.137354 -0.124916 -0.157082 -0.179157 0.0706759 -0.119772 -0.0321006 -0.199023 0.241231 0.0970949 0.12477 0.103303 0.0395654 -0.16718 -0.224386 0.0182806 -0.17768 -0.174028 -0.238953 -0.0926318 -0.153961 -0.163867 -0.163684 -0.13149 0.0498192 -0.221193 -0.0489066 0.0414693 -0.0942642 0.0165272 0.12925 0.000127744 0.109861 -0.130421 0.0991416 -0.0260151 0.143783 -0.12195 0.109581 0.0680113 0.0608739 -0.181228 0.230389 0.135156 -0.0321857 -0.13069 -0.212919 0.14038 0.131567 0.0496639 0.113624 -0.19674 -0.211011 -0.0579005 -0.110546 -0.0697339 -0.180504 -0.0650904 0.101582 0.0777635 -0.0939268 -0.100097 0.044097 -0.0228382 -0.216681 -0.24888 -0.174049 -0.198967 -0.136527 -0.286661 0.0297859 0.280205 0.0244132 -0.142264 0.241602 -0.0246984 0.118847 0.0811073 0.185613 0.0554385 -0.0721673 -0.164392 0.112623 -0.0439929 0.0595773 -0.0276129 -0.0347227 -0.0611988 -0.0377234 -0.0956253 -0.152913 -0.122702 -0.0145655 0.0356714 -0.0387401 -0.0621247 -0.114793 -0.0380705 0.00616214 0.126072 -0.179625 -0.12656 -0.031407 0.0639393 -0.0138222 0.11942 -0.173018 -0.0957901 -0.0220067 0.052565 0.247296 -0.048821 0.0611276 0.0659172 0.0637292 0.126917 0.153481 0.11276 -0.140619 -0.0611318 0.0187635 -0.157362 0.0822403 0.0663025 0.182316 0.0481785 -0.178304 -0.00734957 -0.184962 0.197339 -0.333675 -0.167898 0.11121 0.0646279 0.150245 0.0769653 0.00837014 0.182491 -0.252067 0.172245 -0.0707699 0.167099 -0.0528155 -0.073079 -0.2599 -0.0507761 -0.125535 0.0278017 -0.0500204 -0.353447 0.00369274 -0.0580104 -0.0366472 0.0648616 -0.00455651 0.0287872 -0.123379 0.297771 -0.109355 -0.0536211 0.00337434 -0.0876744 -0.103948 -0.121966 0.244979 -0.0773229 -0.0774164 0.0881287 -0.0702341 0.182647 0.0125596 0.0531852 0.253208 0.0987424 0.00793505 -0.131052 -0.0339071 -0.310002 0.129933 0.119372 -0.0701732 -0.0393507 0.0646602 0.18631 0.154939 0.174126 -0.0179802 -0.058553 0.186731 -0.342916 0.204981 0.00822326 -0.139433 -0.0659334 0.324606 0.000336945 -0.0567556 0.0559001 -0.200498 0.0708507 0.186343 -0.0396415 -0.0953937 0.00567105 -0.0533022 0.0755203 0.0922311 -0.165201 0.0573622 -0.143972 -0.130845 -0.144426 0.0323976 -0.109726 0.122756 -0.0185381 -0.0147558 -0.2268 0.0443287 -0.0374931 0.182694 -0.00829986 0.161009 -0.0377925 -0.0150574 0.0833444 -0.136708 0.123662 0.11091 -0.00501609 0.122925 0.0118693 -0.277285 -0.180189 0.096186 -0.0781338 -0.0713889 0.0974524 0.214384 -0.0517065 -0.111501 0.268195 -0.103964 -0.314643 -0.231832 -0.0221337 0.0836707 0.00226699 -0.142474 -0.12957 -0.0886615 -0.0656187 -0.094003 -0.00456455 -0.123903 -0.113415 0.0553813 0.128008 -0.0446669 0.0798907 0.0192056 -0.0906053 -0.103663 0.0719852 -0.197247 0.100709 0.1785 0.0576389 0.0281029 0.206192 -0.00719567 0.0869244 -0.401092 -0.0629516 -0.00474428 -0.256358 -0.187619 0.0956681 0.120355 -0.017404 -0.00984453 -0.112008 0.00924753 -0.11038 -0.193205 0.142661 -0.2776 0.0739103 0.12762 -0.15651 -0.025221 0.0229033 -0.0285608
party 0.0933391 0.0662446 -0.0349056 0.0120001 0.150985 -0.0400939 0.243715 -0.235682 -0.204608 0.290712 0.0162713 -0.172682 0.0484549 0.00514688 0.108478 0.387781 -0.144092 0.43795 -0.0465453 0.0732263 0.147204 0.114477 0.259846 0.108892 0.086143 0.0595574 0.33599 0.209414 0.148062 0.0967443 -0.167517 -0.104933 -0.0627863 0.0255158 -0.152887 0.00473998 -0.184005 0.0330923 -0.0011773 -0.337692 -0.0258747 -0.110276 0.443074 0.0392497 0.118614 -0.0249914 0.237345 0.191062 0.022552 0.013443 0.112242 0.0839875 0.0165593 -0.0421363 0.174848 0.0415484 0.157319 -0.0534882 -0.186769 0.173851 0.19926 0.0318615 0.0370963 -0.0495795 0.05129 -0.117148 -0.0149519 -0.205658 0.342802 0.200239 0.0297628 -0.0399067 -0.251607 0.226645 -0.482953 -0.0216242 0.0777514 0.22252 -0.032316 0.298298 0.168328 0.14855 0.0666012 0.0916606 -0.0317575 0.00900151 0.108358 0.112636 0.0260738 0.0547488 -0.16938 -0.0841372 -0.14631 0.211543 -0.164893 0.0106139 -0.11183 0.235187 -0.0840935 -0.0193696 -0.310933 -0.256438 0.012529 0.0465202 0.0124672 -0.0322477 -0.0330419 0.122682 0.0644712 -0.0082745 -0.0867446 -0.078144 0.133038 -0.053734 -0.0867449 -0.150906 -0.0243299 -0.151605 0.0997389 0.0852159 0.0866724 -0.136359 -0.119935 0.172671 -0.169261 -0.0580577 -0.0973161 -0.0432088 0.168137 0.0100251 -0.112239 -0.450698 -0.0799075 0.116775 -0.0242926 0.147136 0.109672 -0.274648 -0.00173224 -0.140987 0.0303551 -0.000997299 0.0536036 0.0781744 0.0675279 -0.091516 0.0110227 -0.101299 0.0623377 0.058573 -0.032321 -0.146181 0.0583606 -0.193296 0.141438 -0.0901687 -0.0496463 0.114303 -0.085485 -0.0221695 0.253418 0.0302314 0.016384 0.0369854 0.0282979 -0.0093532 -0.161152 0.15728 0.0209541 0.0272337 0.264563 -0.244857 -0.30184 -0.220885 0.112869 -0.0786036 -0.0530481 0.0857611 -0.127298 -0.114896 -0.115451 0.239591 0.128181 -0.286539 0.125507 -0.16497 0.177536 0.0475191 0.14051 -0.23041 0.0713355 0.196177 -0.0239074 0.0814641 0.0645327 -0.0853775 -0.290732 -0.191412 0.0711676 -0.0630229 0.263311 -0.0064136 -0.122742 -0.156421 0.00793357 -0.131994 -0.0383221 0.134741 0.00201459 -0.0791451 -0.179403 -0.0479963 -0.156142 -0.100694 -0.274942 -0.0393915 0.105867 0.054695 -0.0610737 -0.352003 -0.137618 0.257081 0.174819 0.0880741 0.16637 -0.154083 -0.332536 -0.0325343 0.0471597 -0.176718 0.317522 -0.0614381 0.183451 0.0370411 0.040362 -0.0845181 -0.388001 -0.0952167 -0.1989 -0.0563274 0.0687406 0.0531255 -0.217032 -0.00637554 -0.0458005 0.17176 -0.197839 0.145781 0.0492494 -0.0243134 -0.0885296 0.119432 0.0802681 0.0491151 -0.110385 -0.0144335 0.0712582 -0.176548 0.187388 0.0501454 -0.124777 -0.151586 -0.188373 0.153415 -0.173367 0.0776742 -0.364854 0.0628438 -0.0835913 -0.0565546 -0.0951329 -0.00224367 -0.193112 0.0754762 -0.136558 -0.189335 0.0539525 -0.140692 0.0358008 0.105417 -0.0110565 0.350379 -0.0480039 -0.0743376 0.0785781 -0.266368 -0.164585 0.162827 -0.282708 -0.199297 -0.0401577 0.00631519 0.122277 0.0251146 -0.00630106 0.240288 -0.269989 -0.208135 0.116588 0.157056 -0.24699 0.1462 -0.192837 0.0188348 -0.0699948 -0.00749809 0.00812624 0.0824376 0.298926 -0.140487 0.143649 0.0288536 -0.124368 -0.113898 -0.119498 -0.130558 0.165967 -0.206603 0.337522 0.048267 0.0170558 0.163169 -0.259093 -0.0355744 -0.118061 0.0650283 -0.0130221 0.0836509 0.148039 -0.327918 -0.15273 0.230549 0.206247 -0.0372583 0.0175043 -0.099684 0.234858 -0.121056 -0.328702 -0.0641256 -0.169767 0.178522 0.0633094 0.176172 -0.164546 -0.0348595 0.0481739 -0.156852 -0.142868 0.0695751 0.165432 -0.0148054 0.130021 -0.165212 -0.0636292 0.073326 -0.123293 0.0914336 -0.0296045 0.0494294 0.3 -0.0079483 0.0703069 0.0627227 0.192195 0.218838 -0.246485 -0.0236752 -0.162181 0.181463 -0.166217 0.311671 -0.132625 -0.172115 0.0625915 -0.189572 0.186809 0.0826723 0.16865 -0.559711 -0.0567367 -0.167811 0.12731 0.170652 0.269526 0.0215038 0.0262141 0.00699624 -0.297463 -0.203145 -0.140264 -0.093711 0.0653136 -0.380391 -0.180536 0.21334 -0.0869137 0.0524581 0.0938029 0.111536 -0.00239451 0.231766 -0.243932 -0.000982904 0.175937 0.171921 -0.157989 0.00717187 -0.100748 0.0623774 0.318806 -0.112378 0.321845 0.0511286 -0.0492421 0.151788 -0.166514 0.0312683 0.124869 0.13086 0.0560754 0.0995931 0.13147 0.0201189 0.0998125 -0.253974 -0.385315 -0.183613 -0.0754189 0.0356126 -0.0957029 -0.100204 -0.170341 -0.0538021 -0.116023 -0.0347187 -0.064886 0.0153287 0.0615927 0.0567711 -0.143411 -0.148675 -0.122277 -0.112699 -0.0310578 -0.00476421 -0.0152697 0.283136 0.10663 0.412629 0.106552 0.224052 -0.181008 -0.323857 -0.17919 0.0778727 0.160981 0.0488422 0.0399277 -0.22465 -0.211105 -0.179641 0.0525954 -0.12573 0.343668 -0.503639 0.149697 -0.238865 -0.168264 -0.0934917 0.0263359 -0.00259505 -0.0576409 -0.406623 -0.0470079 0.0853099 0.165284 0.00189955 -0.061935 -0.0555682 -0.0795846 -0.0244865 0.150386 0.143151 -0.0733789 -0.11858 0.0881472 0.0564773 0.0549015 0.140338 0.12843 -0.139036 -0.170947 -0.00473781 -0.0354834 -0.116642 0.0238684 -0.0325411 0.0332339 -0.306414 0.284978 -0.174727 0.129659 -0.173374 -0.154659 -0.0166281 -0.173539 -0.038769 0.0656739 0.181425 -0.165051 0.0132864 -0.0535937 -0.141223 -0.373625 0.185843 0.0689917 -0.0303969 0.141591 0.318038 0.160519 -0.0693007 0.00880799 0.0236062 0.0721053 -0.181084 -0.233206 0.0379683 -0.232128 0.176011 0.13415 0.121814 -0.0598354 -0.110044 -0.0644315 -0.0932492 0.151637 -0.60459 0.208468 0.0258412 -0.208022 -0.061801 0.103124 0.00371448 -0.117996 -0.0120999 -0.0795833 -0.142101 -0.130637 -0.0400772 0.171521 -0.11866 0.162782 -0.23849 -0.118328 -0.0962768 -0.0202801 0.0732582 0.193355 0.0614017 -0.174925 -0.201909 -0.0769753 -0.123533 -0.299203 -0.00222422 0.004799 -0.0766741 0.275966 -0.0849762 0.0364234 0.160078 -0.217642 -0.0170162 0.104883 0.113557 -0.133374 0.314919 -0.102742 0.0608728 -0.0112694 -0.00620765 -0.00426209 0.0803837 -0.388738 -0.0726537 -0.0735128 0.0479463 0.128745 0.166581 0.0742961 0.222662 -0.0332358 -0.0117629 -0.23362 -0.0585347 0.181676 0.231296 -0.0985763 0.221156 -0.16444 0.0629085 0.0676999 0.255236 -0.204455 -0.0035884 0.27095 -0.0451527 0.0528079 0.0463501 -0.105499 -0.0676289 -0.0106642 -0.00976061 -0.303514 0.187056 -0.091917 0.0971441 -0.0862554 0.392306 0.132172 -0.0145826 -0.237118 -0.198517 -0.0713389 0.0887453 -0.0533524 0.0504542 -0.0166506 0.0127125 -0.114108 0.0897129 0.284887 0.293189 0.213571 0.079274 -0.0684059 -0.0764834 0.02327 -0.16067 0.0841603 0.180338 -0.0051011 0.180076 -0.0387384 0.0293133 0.056976 -0.121253 -0.0122145 0.181297 -0.317761 -0.244631 -0.221946 -0.179451 0.11398 -0.297932 -0.333716 -0.0834217 -0.12154 0.0623368 0.0982497 -0.115808 -0.0343082 0.0736537 0.255174 0.127211 0.484059 -0.0293042 -0.181699 0.0244142 -0.122032 0.144079 0.146877 -0.0267062 -0.274617 -0.166182 -0.0354754 -0.00220413 0.0582015 -0.0245403 0.00121255 -0.138725 -0.0715683 0.197608 -0.209196 -0.136722 -0.16342 0.0264506 -0.224484 0.129526 0.0649254 0.149125 -0.124493 -0.165818 -0.00279458 -0.0563147 -0.0209214 0.254338 -0.0615806 -0.191343
fuck 0.235111 -0.0408073 -0.31238 -0.0641604 0.228753 0.0187271 -0.0611117 -0.243789 0.0305564 0.105046 -0.0609565 0.0501032 0.0652566 -0.196166 0.174715 0.0272376 0.181 0.197062 0.168043 0.0247428 -0.217858 0.16118 0.0841657 -0.038837 -0.197221 0.0662023 0.0358597 0.200215 0.0739082 -0.0957652 -0.021145 -0.0458874 -0.226218 0.128159 0.0550985 -0.0506841 -0.0957632 -0.215689 -0.0827447 0.150177 -0.0209655 0.023586 -0.208281 0.216713 0.0143803 -0.198558 -0.0487144 0.116682 0.320149 -0.0224747 0.288165 -0.0537007 0.0759093 0.0399859 0.384766 -0.0909465 0.0826108 0.130374 0.159028 -0.3746 0.141588 0.212923 -0.067413 0.108513 -0.394554 -0.140433 0.034864 -0.130931 0.216828 0.11163 0.000842387 0.214758 0.000737369 0.0856898 0.130494 0.169437 0.0983017 0.0163698 0.0809355 0.223756 -0.0309979 0.00607078 -0.116392 0.0810805 0.0154784 -0.388568 -0.3326 0.0451379 0.18347 -0.307158 -0.0346645 -0.0617219 0.0558219 -0.329444 0.0907675 0.0960158 0.0267922 -0.315913 0.238161 0.125288 -0.175343 -0.0364805 0.0404766 0.164655 0.162316 -0.416818 0.0485797 -0.105295 -0.31202 0.103638 0.0588543 0.00681301 0.279131 -0.340318 0.128681 -0.0478492 -0.0266993 0.0190263 0.324551 0.340629 -0.164318 -0.328113 0.254046 -0.0978076 0.29017 0.112885 0.107528 0.306659 0.111765 -0.0158093 0.114206 -0.204478 -0.170315 0.0268896 -0.0535885 0.0734987 0.0999866 0.0261571 0.061359 0.00655579 0.0214322 0.180143 0.147358 -0.397761 0.191656 0.0828785 0.0569727 -0.116482 0.134084 0.207859 0.160458 -0.168468 0.10377 0.318253 -0.183699 0.0296649 -0.0849433 -0.167029 0.232887 -0.0224451 -0.0370061 0.0299587 -0.25152 -0.149444 -0.130143 -0.0317527 0.314864 -0.17164 -0.223886 0.156802 -0.0717203 -0.168041 0.11806 0.171407 -0.02983 -0.0328511 -0.119313 0.0838916 -0.0474047 -0.119499 -0.312057 0.251226 -0.00515479 -0.243752 0.0796689 -0.0342362 0.0833427 0.0745225 0.0972687 -0.157667 0.44573 -0.195219 0.0498383 0.160198 0.108301 0.0543046 0.0398871 -0.030616 0.181337 0.248718 0.078173 0.0544822 -0.0280961 -0.216415 0.105526 -0.0183968 0.138331 0.123019 -0.162933 -0.304735 -0.300637 -0.244527 -0.20503 0.0916146 -0.207433 0.00551706 -0.141935 0.0388024 0.237461 -0.100649 -0.00403857 0.0389873 0.065421 -0.0500201 0.148969 -0.186917 -0.3735 -0.0948548 -0.212508 -0.0338784 -0.265895 -0.3509 0.0850579 -0.0110073 -0.111357 -0.0836452 -0.147103 -0.242228 0.084004 -0.0342124 0.267974 0.0799391 -0.238128 0.385326 0.193861 -0.0589922 -0.176937 -0.066613 -0.280751 0.121365 0.128919 -0.106154 -0.034533 0.0243623 0.205748 0.267134 0.106423 -0.0706022 0.181626 -0.172355 -0.148552 0.0790965 0.0257406 0.133594 -0.00898789 -0.142955 0.144152 -0.0975951 0.357709 -0.111612 -0.0400952 0.224584 0.293926 0.213128 0.0384487 -0.0810591 -0.232819 0.0334606 0.188669 -0.283814 -0.330712 0.459673 -0.241996 -0.0193161 -0.128776 0.191036 -0.151088 0.0251186 -0.143944 -0.350262 -0.00909969 0.0567969 0.0924462 0.00551699 -0.0907056 -0.307865 0.0229033 0.247101 0.358487 -0.2533 -0.0716238 0.0817349 -0.173102 -0.124484 0.325321 -0.204506 0.12164 0.172231 0.21737 0.142357 -0.0539942 -0.0314518 -0.0573875 0.084465 0.152822 0.247038 0.160993 -0.124363 0.0739147 -0.146883 -0.0355317 -0.340905 -0.127042 -0.332478 -0.229228 -0.215114 0.0905221 0.2861 0.133965 0.268456 -0.115844 0.0964099 0.0184125 -0.194511 0.0442328 -0.265389 -0.142716 -0.0851634 0.127233 0.0654353 0.0817813 0.230121 0.166044 0.0661323 0.12708 -0.233485 0.0913263 -0.0855475 0.0980527 -0.114273 -0.301971 -0.251889 -0.238702 0.110565 0.113752 0.243826 -0.250998 0.06839 0.229005 0.125093 0.0052639 0.092106 0.122251 -0.0560324 -0.151359 0.224827 -0.0427171 0.260218 -0.234794 -0.145831 0.121289 0.204345 -0.216012 0.232911 0.15631 0.0199224 -0.00711571 0.1652 0.102779 0.0579285 0.27209 0.165853 -0.253635 0.0963176 0.0339622 -0.20119 0.14012 0.0169278 -0.121443 -0.30505 0.215287 -0.0514822 -0.220375 -0.0415393 0.0443295 0.139054 -0.0564017 0.110366 0.229593 0.161679 0.395134 0.1815 -0.197439 0.0406445 0.0578904 -0.0997631 0.184709 -0.0379083 -0.180767 -0.00705701 -0.194697 0.129318 -0.199022 0.00858563 -0.119434 -0.11653 0.0614132 0.141853 0.16961 0.161297 -0.0591648 0.11855 -0.000838054 0.355844 -0.157491 -0.0137352 -0.0338671 -0.139851 -0.31649 0.0156462 0.352367 -0.155112 -0.0982986 0.0737748 -0.179827 0.0423839 0.434231 0.103385 0.0306545 0.032526 0.168487 0.0903145 -0.111944 -0.111619 -0.244759 0.0506683 -0.0884473 0.0664254 0.0347071 0.201579 -0.108423 -0.154168 -0.133797 -0.158741 -0.139825 -0.11101 0.0234441 0.20099 -0.294879 -0.467505 -0.170704 -0.327863 -0.392398 0.0108032 -0.0678373 0.143931 -0.116966 0.150609 0.0857931 -0.20507 0.0636582 0.148377 -0.0243396 0.143574 -0.216333 -0.10493 0.0558732 -0.00905483 0.052046 -0.0914262 -0.0760615 -0.15413 -0.203893 0.063675 -0.0354232 -0.0246704 -0.212897 0.0422443 -0.0938976 -0.191786 0.169453 0.136161 -0.216942 0.0724429 -0.145418 0.0455156 0.264173 0.243827 0.279715 -0.0164739 0.12311 -0.199172 -0.121594 0.0784717 0.195233 0.0592504 -0.124663 -0.153458 -0.434491 0.0661946 0.187815 0.0935353 0.18134 -0.0608146 0.0462816 0.221189 -0.0923471 0.190396 -0.195847 0.150672 0.141766 -0.190259 0.119666 -0.0492164 0.133039 0.0162126 -0.102477 0.00196022 -0.192392 -0.0804069 0.32758 0.0539032 -0.0140951 -0.301458 -0.0217613 0.0568022 0.154923 -0.333871 -0.317934 0.126905 0.118971 0.128125 -0.482345 0.283532 -0.19098 -0.142441 0.244631 0.112513 0.169362 0.0381865 0.122143 -0.252894 0.0208468 0.294617 0.168633 -0.120353 -0.15297 -0.165105 0.0363792 -0.0682846 0.309737 -0.144739 0.0105108 0.209743 -0.00332211 0.200269 -0.189925 0.0890033 -0.118287 0.386111 0.241448 -0.192588 -0.0920272 -0.120557 0.108536 0.018421 -0.272078 0.0602364 0.0624204 0.00173981 -0.285344 -0.0930227 -0.0548128 0.0809845 0.0705631 0.167379 -0.0892341 0.0802604 -0.23054 0.00551247 -0.214906 0.121224 -0.0820365 -0.0307278 0.038656 -0.0675948 -0.0283176 -0.0219069 -0.123608 -0.089227 -0.014667 0.154507 -0.120291 0.0824458 -0.0248415 0.0355354 -0.0333264 0.00177161 -0.510829 -0.269308 0.0644398 -0.227777 0.0831713 -0.207274 0.0782799 0.0278764 0.0748334 -0.0578063 0.200371 0.0201314 -0.0203778 0.00788097 -0.340724 -0.0579477 0.0461622 0.291408 -0.389513 0.291209 0.0457067 -0.238896 0.161901 0.00915933 -0.237682 0.0164498 -0.0694409 -0.282512 -0.00978284 0.169822 0.176765 0.0709322 -0.219052 0.0640092 -0.125011 0.360309 0.118747 -0.134573 0.536656 -0.107229 -0.271019 -0.150353 -0.107067 0.252862 -0.00048959 -0.0727086 0.103726 -0.155694 0.115312 -0.0717547 -0.106483 0.0773188 -0.00789574 -0.0519118 -0.0886617 0.0753021 0.00596543 0.330529 -0.0164051 0.156537 0.154105 0.297116 0.0388421 0.152261 0.216433 -0.00449587 -0.236894 0.182987 -0.000227973 0.221665 0.0584774 0.0960819 -0.0689261 -0.294939 0.0343102 -0.00516028 -0.257044 -0.11131 -0.140109 0.252674 -0.278489 0.251382 0.127989 -0.0164886 0.13795 -0.0156033 -0.062164 0.121468 -0.138126 0.0876603 0.165032 0.0933861
psychology 0.0409589 -0.0344599 0.243943 0.0793507 -0.122459 -0.101922 0.00839066 -0.321776 0.0838969 -0.0120492 -0.0713841 0.150298 -0.0458784 0.017031 0.109118 -0.0460043 0.182419 0.0704898 -0.126848 -0.0804486 0.0542576 0.423628 -0.244408 0.0671735 0.384587 -0.071476 -0.213042 -0.197152 -0.10888 -0.0198893 0.0976449 0.196261 0.389169 -0.444956 -0.173162 -0.073055 -0.141585 -0.284506 -0.294614 0.110164 -0.175667 -0.0289843 -0.0233437 0.0638916 -0.247992 -0.139974 -0.0247006 0.0267056 -0.18467 0.0310852 0.106236 -0.213097 -0.0519138 -0.129913 -0.0436306 0.144031 0.337973 0.0512993 -0.136021 -0.0081128 -0.0263911 -0.210371 0.136567 -0.0627036 0.0901162 0.460527 -0.387851 0.00581029 0.0702103 0.132414 -0.00243393 -0.247311 0.0884448 0.0389758 0.0535678 -0.212766 0.221307 0.077752 0.253892 -0.00214885 -0.00529594 -0.141717 -0.23003 0.15392 0.152454 -0.0886301 -0.195049 -0.226913 -0.070095 0.0144949 -0.0743711 -0.185212 0.190417 0.125966 0.0532141 0.0235482 -0.0612977 0.0168792 -0.346939 0.0106682 -0.175395 0.214956 0.29367 0.344342 -0.0872431 -0.257877 -0.0234275 0.230332 -0.400386 -0.104845 0.0196372 0.234912 0.0839509 0.0791993 0.196456 -0.0912644 -0.142018 0.366962 0.0878904 0.196181 -0.0620428 -0.0368182 -0.131619 0.177251 -0.343281 -0.0147785 -0.522792 -0.168952 0.118879 0.0979502 -0.179532 -0.0538144 -0.41068 0.103083 0.145747 -0.222298 0.0653965 0.110494 0.0219201 -0.131781 -0.0360242 -0.121856 -0.0243264 0.0607116 0.0234421 -0.146667 -0.363554 -0.178816 0.247737 -0.0521058 -0.0219433 -0.0391585 -0.0278781 0.0906162 -0.163355 -0.107948 -0.0291364 0.0999692 0.00925285 0.269629 -0.170455 0.108051 -0.0541386 -0.144053 -0.220966 -0.147244 -0.133308 -0.164811 -0.14374 0.017819 -0.180579 -0.0286889 -0.145298 -0.0200455 -0.0226613 -0.162648 0.0270432 0.144381 -0.00494575 0.120291 -0.143765 -0.0795641 0.0574692 -0.0537945 -0.113796 0.0862338 0.0460633 0.0490044 0.01453 -0.0403163 0.0447206 0.126066 0.13667 -0.302926 -0.017081 0.0183129 0.140798 0.0558086 -0.158981 0.253987 -0.0683458 0.0122156 0.108347 -0.338725 -0.00945255 -0.19452 -0.0636165 0.137684 0.0889498 -0.0441962 0.0713803 -0.0404256 -0.272826 0.067603 0.139364 0.0798913 -0.309586 0.0454676 0.0244399 -0.0344572 0.1804 -0.128769 -0.184896 0.229309 0.240468 -0.216977 -0.283128 -0.190826 0.322876 -0.236553 0.028331 0.237921 0.119044 0.109626 0.103608 -0.0379143 -0.65112 -0.100136 0.103847 0.063188 -0.080222 -0.0346693 0.134351 -0.0203507 -0.00125028 0.401787 0.208342 0.269787 0.0850757 -0.043222 0.178669 -0.317749 0.0708132 0.23782 0.0223573 0.215511 -0.106181 -0.1089 0.170989 -0.073952 0.0356422 0.0385704 0.135605 -0.223444 -0.076859 0.043501 -0.135022 -0.0591514 -0.125295 -0.143656 0.311345 0.345624 0.143919 0.109785 0.10632 -0.136354 0.0674928 -0.0431108 0.000298864 -0.0878645 -0.141648 -0.172874 -0.174197 -0.108052 -0.0532856 -0.084888 -0.191198 0.206922 -0.24798 -0.0330963 -0.226467 0.142372 -0.122758 0.260956 -0.138809 0.0310938 0.131038 0.110737 0.106116 -0.181179 -0.146855 -0.00487883 0.108705 -0.18063 -0.0169741 0.186113 0.0149942 0.0282133 0.308321 0.153544 -0.219537 -0.228139 0.0946171 -0.175466 0.164334 0.369408 0.150714 -0.0720778 -0.100359 -0.221847 0.116244 0.0974217 -0.398638 -0.0242154 -0.160673 0.0780144 -0.193729 0.141242 0.201677 0.0973643 0.06062 0.15701 -0.312951 -0.130537 -0.035062 -0.0963454 0.266403 -0.252128 -0.173633 0.216793 -0.160809 -0.24531 -0.156523 -0.0289518 0.0732432 -0.0734797 -0.0295986 0.130881 0.227747 -0.0975919 -0.147743 0.0113917 0.0565588 0.0889383 -0.0911326 0.0177025 -0.526407 0.038873 -0.0272732 0.379685 0.124736 -0.241469 -0.0381367 -0.14654 0.0847881 0.582078 -0.153375 0.40199 0.0830017 0.185682 -0.0929871 0.0954652 0.00701617 -0.00379 -0.017131 0.0466084 0.0275351 -0.00717288 0.160868 -0.290247 0.0398037 -0.307422 -0.202921 0.266078 -0.0371104 -0.340717 0.196134 -0.193385 0.198329 -0.119982 0.16389 -0.126406 -0.0793739 0.0210909 0.338865 0.0575771 0.068028 -0.0880015 0.147922 -0.0466515 -0.167162 -0.063787 0.19093 -0.261638 -0.129114 -0.289831 -0.0018745 0.0994286 -0.0766896 0.246599 0.0492164 -0.329094 0.331021 0.0440737 -0.0519525 0.0986528 0.135898 0.272091 -0.0458529 0.0182495 -0.130569 -0.218326 0.0303444 0.035178 -0.222625 -0.271226 0.537516 0.00320063 0.201107 -0.275379 0.423888 -0.132595 -0.0541577 -0.0811426 -0.148677 0.0054841 0.125007 0.134178 0.241107 0.172848 -0.165639 -0.059387 0.00519864 0.00859174 -0.0795067 0.0196504 -0.123106 0.0896848 0.0736028 -0.0209589 0.205046 -0.139044 -0.012168 0.10384 0.373914 -0.239512 0.151928 -0.404161 -0.0612742 0.13784 -0.277007 -0.220697 -0.335981 0.0390598 0.311038 0.11212 -0.0195283 0.0640558 -0.087774 -0.113076 0.0465671 0.00464746 -0.178658 -0.320201 -0.212947 0.188567 -0.307709 -0.218359 0.0734947 0.365606 0.150011 0.119158 -0.000119737 0.154896 -0.0550851 0.230194 0.183538 -0.191108 -0.205488 -0.0120412 -0.118237 -0.000723636 -0.157132 0.13954 -0.116245 -0.161597 -0.0448874 0.091532 0.0258807 0.108893 -0.0967692 -0.143888 -0.0922039 0.108947 -0.196089 -0.0926084 -0.161548 0.339803 0.122119 0.101922 0.386048 0.00386094 0.0438318 -0.144094 -0.157223 -0.0207893 -0.173947 -0.103932 0.160833 -0.058836 0.184196 0.0265313 0.142034 -0.356972 0.174328 -0.00265548 -0.236517 -0.166391 -0.0790579 -0.178963 -0.0930667 -0.208418 -0.0445846 0.525898 0.0129126 -0.00511035 0.225339 0.183243 -0.0251626 0.126572 -0.0187709 -0.13213 0.0331351 -0.110914 -0.0844192 -0.196961 0.252459 -0.0254327 -0.154873 -0.187908 -0.0251609 -0.00597987 0.0866408 -0.151924 0.315306 -0.14483 0.349999 0.200127 0.117268 0.208346 0.087138 -0.208467 0.0106505 -0.283062 -0.161986 0.203573 -0.0821635 -0.118115 -0.0785838 0.288424 0.132917 -0.279371 -0.3397 0.0176554 0.282967 -0.251479 0.289197 0.51252 0.0213606 -0.182903 0.450939 0.0437948 0.143813 0.0671794 0.106684 0.374923 0.241816 0.178484 -0.024264 0.145391 0.258307 0.0103357 -0.112757 0.196322 -0.133277 -0.199796 0.170443 0.204877 0.0721621 0.0237233 0.21876 0.0568352 -0.219572 -0.179685 -0.0357643 -0.342165 0.146651 0.0091539 -0.00169765 -0.00501776 0.153834 -0.0128263 -0.0816149 0.283054 -0.115604 0.247807 -0.0526659 0.0963672 -0.00700402 0.193543 -0.013322 -0.122573 -0.0835008 0.355247 -0.149402 -0.0224045 -0.1628 0.0515478 0.0274562 0.0129973 0.122138 0.104973 -0.183503 -0.0390227 0.330931 0.00191564 -0.413596 -0.164554 0.168379 -0.133923 -0.150137 -0.04614 0.213425 0.292858 -0.190916 0.177185 -0.0566145 0.0227635 -0.154441 0.25394 -0.327865 0.147081 0.0196995 -0.0378512 -0.0953181 -0.14726 -0.185171 -0.403831 0.0917767 -0.223506 0.0846703 0.132096 0.0893332 -0.11805 0.228509 -0.101003 0.161124 0.0245796 -0.28456 0.097734 0.345411 -0.0605371 -0.0177062 0.0221173 -0.325012 -0.267779 -0.188891 0.101294 -0.101109 0.0455974 -0.139385 0.00719529 -0.142629 0.225268 -0.0582349 0.0594198 -0.107524 0.200664 0.0326506 0.0638115 0.174354 0.0255378 0.070307 -0.103978 0.05935 -0.121364 0.223931 0.416676 -0.0894206 -0.349173
government -0.0398621 -0.00670726 -0.0190279 -0.188894 0.0406221 0.2829 -0.0483473 -0.256527 -0.204011 0.271796 0.167992 -0.0185639 -0.0475418 0.189724 0.18164 0.204111 0.0932483 0.199769 -0.0382389 0.0422131 0.203085 0.1032 0.0748773 0.0291084 -0.104513 -0.0230036 -0.0748004 -0.0507003 0.206145 -0.0640769 -0.11981 -0.0818 0.0788665 0.0322737 0.0809065 0.255895 -0.221355 0.129065 0.126256 -0.2999 -0.156901 0.0447436 0.115192 0.0877356 0.182396 -0.10921 0.134524 0.098174 0.0679029 -0.0220031 -0.020927 0.184593 0.0141408 -0.0580727 -0.147285 0.0121765 0.262187 0.36346 -0.16932 0.227035 0.182495 0.068409 -0.0787196 0.077446 -0.0228417 -0.193599 -0.0515807 0.0664661 0.232881 0.0240223 0.118495 0.0115725 -0.0168326 -0.276677 0.103272 0.0668734 0.252611 0.0335011 -0.190162 0.095349 0.00523799 0.00207438 0.145269 0.213979 -0.12396 0.153309 -0.0517864 0.104602 0.0607879 -0.0162799 -0.0173554 0.118007 0.162465 -0.233563 -0.179768 0.129713 0.00166116 0.126446 0.180914 0.00362478 0.0437297 -0.200524 0.156845 0.193692 -0.119179 0.160153 -0.0219667 0.110973 -0.203642 -0.27665 0.191514 -0.121812 0.113291 -0.135021 0.040568 0.0394374 0.154025 -0.0953239 -0.208124 0.215606 -0.0931847 0.342031 -0.0998823 0.0530487 0.00204186 -0.0235237 -0.375403 0.055391 0.178192 0.143676 -0.141699 0.040278 -0.0126595 0.161509 0.0781 0.133554 -0.119567 -0.0737596 0.0241764 -0.190426 -0.0609241 0.0258093 -0.145918 0.20748 0.0128807 -0.17128 -0.129043 0.112368 0.119292 0.0782445 -0.0478281 -0.0388754 0.0542721 0.0280325 0.014644 0.114046 -0.107854 -0.0819739 -0.211686 0.131614 0.184225 -0.282179 -0.125639 0.0497974 -0.0517166 -0.0661265 -0.184889 0.00929988 -0.0869638 -0.114947 0.0596631 -0.135464 -0.0596804 -0.0678648 -0.0447175 -0.107335 -0.0959615 -0.160855 0.0733365 -0.119061 -0.159802 0.19206 -0.0347357 -0.331055 0.173335 -0.0854699 0.0326208 0.0751902 0.075054 -0.02893 0.105935 0.299317 0.0143539 -0.0275432 0.240589 -0.109911 0.122167 0.109346 0.0976939 -0.12436 -0.0210517 -0.223106 -0.084761 -0.261363 -0.0847652 0.0565616 0.076564 0.0743149 0.0308485 -0.108058 -0.221652 -0.124638 0.0353146 0.114255 -0.0891049 0.0874366 -0.0265201 -0.137844 -0.156599 -0.300359 -0.141458 0.32417 0.146888 -0.107075 -0.169195 0.0942612 -0.178358 0.0678347 0.0572938 -0.130039 0.109363 -0.0106624 -0.0847026 -0.0570946 -0.00852106 -0.231391 -0.0345516 0.118367 -0.2087 0.142144 0.109522 0.0185568 -0.267052 0.0974492 -0.086676 -0.0308541 -0.126402 -0.0239075 -0.159261 0.113189 -0.246578 -0.0311927 0.121182 0.0248341 -0.0446426 -0.018852 0.0600711 0.00225698 0.263766 -0.115692 -0.0357537 0.0400236 0.108926 -0.0373688 0.00723533 -0.108877 -0.209802 0.133013 0.00639661 -0.0817713 -0.177952 0.278534 0.135328 -0.110012 -0.0458512 -0.121929 -0.12368 -0.0908038 -0.183428 -0.225775 -0.0501124 0.155516 0.0320626 -0.211159 0.0532704 -0.283155 0.0388058 0.0761145 -0.0509869 0.0265018 0.0619114 0.198657 -0.150303 -0.0678193 -0.0197466 0.182258 -0.0821461 0.0288631 0.00615194 -0.147946 0.110444 0.00881245 0.0132922 0.0670227 -0.273256 -0.205221 0.0540743 -0.0702638 0.161477 0.048989 0.0675795 -0.128262 0.0781973 0.045991 -0.00731513 -0.0337182 -0.0428759 0.210028 0.266875 0.146119 0.0428874 0.057267 0.050777 -0.140722 0.00734064 0.119954 0.0956772 0.0992578 -0.0127202 -0.11093 0.0763191 -0.0290721 0.0237465 -0.107183 -0.0130429 0.17686 0.0825517 -0.209947 -0.0672237 -0.119721 -0.226991 0.0406098 -0.0185533 0.300205 -0.151742 0.00180273 -0.0799297 -0.287484 0.118384 -0.212808 -0.031023 -0.143807 0.0938754 -0.0325412 0.129365 -0.0509372 -0.0954261 0.0704026 -0.0138914 0.090823 0.0282831 -0.0437033 -0.0690345 -0.00835686 0.0829439 -0.00820245 -0.180015 -0.0801286 -0.0457734 0.179906 -0.061483 -0.0204441 -0.145707 -0.105946 0.115072 0.219692 -0.0483862 0.0724658 -0.00534459 -0.393799 0.138107 -0.0372617 -0.115438 0.0379343 -0.173071 0.0705565 -0.00135806 -0.207652 -0.233684 -0.242831 0.0713321 0.0395501 -0.0769269 -0.227667 -0.0180145 0.0944914 -0.308578 -0.060586 0.103546 0.0320514 -0.0803848 -0.0817291 -0.0630648 0.305683 -0.0997226 0.0821 -0.00722947 0.122234 -0.00447189 0.204163 0.0979867 -0.184528 0.145023 -0.125659 0.0711954 0.0278322 -0.153918 0.0983872 0.17831 -0.0277102 0.061332 0.0465098 -0.176223 0.0285703 0.148277 -0.244576 -0.138558 -0.0840684 0.104947 -0.180914 0.0179244 -0.16852 -0.00126515 -0.0565688 -0.189181 0.150716 0.11124 0.0529616 0.235499 0.253061 -0.13564 0.188974 0.189486 0.0645772 0.0747971 -0.10655 -0.190037 0.242247 0.106614 0.353412 0.239629 0.0582759 0.0561738 -0.0230179 -0.0559467 -0.0866898 0.0994568 0.0534168 -0.142346 -0.113791 0.0187219 -0.0459586 0.0642452 -0.0206571 0.401584 -0.0517066 0.303147 -0.202192 -0.030622 0.0900565 0.0978844 0.0951598 -0.0310699 -0.186221 -0.160703 -0.0886898 -0.185025 -0.0535673 -0.319504 0.0494869 0.202365 -0.00678212 -0.276908 0.0305487 0.0136989 0.0826672 0.171439 0.133167 -0.182172 0.194167 0.0383754 0.0795146 -0.160834 -0.040925 -0.0975507 -0.0202916 -0.113932 -0.16121 0.036534 -0.387731 0.0814245 0.124997 -0.00169976 -0.00861843 0.248412 0.0885679 -0.150231 -0.0711954 0.121903 0.0953085 -0.189761 0.0145489 -0.0329609 -0.201878 -0.0775184 -0.155071 0.0570449 -0.118646 -0.0497881 0.0505475 -0.0104565 -0.0392893 0.210415 -0.00125193 -0.0248772 -0.082998 0.0164063 0.000556883 -0.0472535 -0.027733 0.125875 -0.127389 -0.0440875 0.213873 -0.144551 -0.0683188 -0.0607291 -0.190485 -0.0174526 0.203505 -0.0102298 0.102896 -0.0356151 0.0953293 -0.115126 -0.107556 0.114973 -0.181867 -0.102206 -0.381031 -0.0331506 -0.00984382 0.242533 0.0336351 -0.201444 0.0190412 0.176419 -0.0378217 -0.0693197 0.123307 -0.0949907 -0.205975 -0.0639105 0.0195468 -0.00379096 0.0591923 0.0967479 -0.10166 0.384758 -0.107258 0.0760967 0.251497 -0.268795 -0.0251573 0.0435886 0.264271 0.0444134 0.3265 -0.230732 0.148134 0.131475 -0.00989852 -0.198267 -0.000236924 -0.154133 -0.0680766 -0.0951851 0.013416 -0.0588448 -0.0806237 0.0649009 0.0861208 0.0608042 -0.152318 -0.106787 -0.0346295 0.0382917 -0.00249831 0.0280391 -0.293898 0.0396998 0.0382372 0.0652791 0.227304 -0.176564 -0.0950976 -0.201406 0.0465879 0.0468298 0.108158 0.0777055 -0.361844 -0.069433 0.0257502 -0.112995 0.0176548 0.0371426 -0.046526 -0.0395598 0.108569 0.156051 0.215945 0.142254 -0.154801 -0.0298118 -0.0563293 -0.146117 0.0568674 0.0160408 -0.0800488 -0.211433 0.0367021 0.106621 -0.0947532 0.0792531 0.224402 0.0563563 -0.273932 0.0445598 0.0186704 0.0581734 0.0636059 -0.0779307 -0.00195446 -0.0212229 0.214917 -0.0552767 -0.0248678 -0.0669362 0.0602286 -0.0890184 -0.101687 -0.162131 -0.0364447 0.11936 -0.0697054 -0.136418 -0.1535 -0.160544 -0.281425 0.113613 0.132104 -0.00266866 -0.0576553 0.151542 0.0682575 0.171585 0.124849 -0.12669 -0.16226 -0.190976 0.0635928 0.0707462 -0.0369931 0.0889406 0.132815 -0.0619162 -0.231769 0.0915086 -0.00288923 -0.0203847 0.0105499 -0.0137445 -0.0427273 -0.119927 0.128739 0.0399867 -0.0796679 -0.183127 0.235316 0.0415628 0.0895424 -0.0525806 0.0695099 -0.0458988 0.0614594 -0.100166 -0.00842099 -0.404658 -0.257637
madhouse 0.194843 -0.0801915 0.144132 -0.0987468 0.194119 -0.177243 -0.342353 -0.129134 0.0654045 -0.215745 -0.132178 -0.0408206 -0.0746282 -0.0670732 0.265842 -0.0544466 0.319229 -0.178702 0.300029 -0.283724 0.151407 0.0111361 0.089162 -0.2639 0.0698028 -0.0758548 -0.0594583 0.17142 0.0176605 0.105631 -0.0394047 0.291229 -0.144773 0.128656 0.0758047 -0.122945 -0.240869 0.0836603 0.0910322 -0.268336 0.0226941 -0.216249 -0.115345 -0.00918419 -0.0362476 0.05022 0.121744 -0.209445 -0.129472 0.10317 -0.206392 -0.106017 0.146762 -0.085966 0.24006 0.0753794 0.322083 0.0114202 -0.0318941 0.0472375 0.00751497 -0.0148525 -0.225363 -0.101963 0.124448 -0.0940368 -0.0986411 0.376001 0.27064 0.177558 0.0562441 -0.123972 0.0713155 -0.0564041 -0.142805 0.00343223 -0.0894769 -0.0648165 0.220694 0.275611 -0.344479 -0.0792581 0.0528721 -0.120476 -0.210351 -0.193536 0.00221244 0.101717 0.233347 0.179852 0.181438 -0.338571 0.0182561 -0.0897097 -0.380866 0.298318 -0.0787292 -0.035391 0.329778 -0.0844089 -0.110651 0.0647796 -0.153505 -0.0927363 0.170417 0.0917777 -0.0901797 0.0242033 -0.441478 0.0686538 0.0927586 -0.0246708 0.121358 -0.260719 -0.0951274 -0.237465 0.103776 -0.150768 0.305823 0.0729429 -0.0535618 0.211429 -0.0753518 -0.22731 -0.0338288 -0.0857466 -0.12982 -0.0347242 -0.0552543 -0.117291 -0.240869 0.0587549 0.0465306 -0.0288295 0.0797958 -0.0469772 0.392139 0.0796486 0.0218529 -0.171672 -0.0893858 -0.0311012 0.319915 -0.0914877 -0.249967 -0.0677634 -0.0760608 -0.149873 -0.0668939 0.155022 0.166752 -0.00503774 -0.1644 -0.085823 0.14689 0.276921 0.317702 -0.192728 0.104698 0.327682 0.0907281 -0.245258 -0.159396 0.0122141 0.11783 0.0756077 0.220779 -0.0431422 -0.271762 0.0155423 -0.143116 0.0690403 0.0287678 0.211943 -0.303056 0.028093 0.130563 -0.162501 0.18078 0.0883541 0.0726443 0.253437 0.301876 0.0567928 -0.0341217 0.19705 0.197203 -0.0454316 0.0278078 0.24799 0.195509 -0.122689 -0.134498 -0.0527488 -0.121214 -0.201532 -0.0859285 -0.113431 0.206178 -0.268729 -0.00747643 0.256374 0.00793059 -0.140741 0.0955168 0.0423032 0.0450107 0.137269 0.00411773 -0.0283419 -0.281385 0.102532 0.2537 -0.356978 0.0299112 -0.163805 -0.132884 -0.14145 -0.489821 0.0757204 -0.0815133 -0.0834879 0.00146475 -0.0303697 -0.337515 -0.0677321 0.0785785 0.201954 0.18959 -0.328064 0.0607601 -0.0973788 0.0588858 0.0699908 -0.257138 0.147673 0.0927567 -0.181096 -0.225736 0.0175654 0.0791606 -0.117603 -0.0144921 0.116273 0.0360054 0.21468 -0.143635 0.112145 -0.0381083 -0.118541 -0.0877283 -0.183127 0.0816601 -0.0947273 0.0148739 0.0603557 0.0499053 -0.0152992 -0.0509798 -0.0976688 -0.2993 0.0527458 -0.138196 -0.025669 -0.353727 0.173821 -0.106979 0.210337 0.045821 -0.0402314 -0.0323529 0.329584 -0.107135 0.290975 0.190818 0.157755 0.0780284 0.062363 -0.14468 0.0598425 -0.204191 0.159241 -0.41006 -0.0153869 0.266353 -0.0407787 -0.226014 -0.0377875 -0.140616 -0.141059 0.135988 -0.103171 0.19936 0.317648 -0.0745677 0.273571 -0.230813 0.0702231 -0.0334286 0.203117 -0.00344685 -0.182086 0.251852 -0.116566 0.346384 0.154924 -0.265039 0.0311341 0.0703033 0.184442 -0.0654104 -0.130862 -0.076334 -0.150395 -0.278793 -0.037931 0.34297 0.0253871 -0.0915922 -0.0873585 -0.136562 0.0592836 -0.100668 0.131578 -0.197736 -0.0672472 0.334494 -0.305276 0.0764721 0.212879 0.177362 -0.0153464 0.31256 0.175687 0.0367705 -0.0179639 0.376358 -0.185238 -0.0214058 0.0468896 0.0353026 -0.106057 -0.299045 0.233859 0.143764 -0.237965 0.192934 -0.121885 0.0946452 -0.182835 -0.0828804 0.0288686 -0.285355 0.053221 0.0815209 0.212876 0.0686284 0.0103531 0.150013 -0.125077 0.417979 -0.363435 -0.0411785 0.202632 -0.091902 -0.0376362 -0.0696955 0.0975822 0.123933 -0.164541 0.16729 0.240378 -0.0444761 0.0832906 0.109346 0.161075 0.0361263 -0.378873 0.147801 -0.0239025 0.0209536 0.15475 0.00954673 0.339502 0.138236 0.183471 0.480946 0.0113076 0.196026 -0.280021 0.146461 0.289226 -0.265814 0.207427 0.0810119 0.197522 0.0152789 -0.0480429 -0.412852 0.121087 0.119642 -0.134246 -0.307263 -0.0153831 0.054986 -0.0529456 -0.28215 0.0669756 0.232165 -0.141572 -0.382212 0.355353 -0.00150365 -0.147066 -0.0145479 0.107602 -0.0404571 -0.15962 -0.0783302 -0.0656303 -0.348344 0.18593 -0.112253 -0.0892747 -0.200317 0.0419978 0.11275 0.284669 -0.519769 0.0157992 0.172174 -0.107031 -0.14258 0.231272 -0.124605 -0.0518552 0.289838 -0.112277 -0.0862897 -0.219888 0.119116 -0.0890374 -0.107233 0.099443 -0.0958748 -0.292664 0.342889 0.148138 -0.167776 0.46844 0.0672364 -0.108466 0.0367371 0.404344 -0.277172 0.116528 0.171715 0.30981 0.0457027 -0.353776 0.325161 -0.354353 -0.179281 -0.306755 0.285645 -0.0793978 0.168104 -0.330164 -0.235894 0.0873528 0.027756 -0.0329942 0.0524362 0.0532798 -0.202847 0.00947609 0.022719 -0.0120177 0.164981 0.080343 0.17516 0.166225 -0.0320441 -0.0637666 -0.532741 -0.243427 0.185664 0.257238 -0.488578 -0.233987 -0.355302 -0.0361367 0.152323 0.33861 -0.297881 -0.363674 0.404698 -0.0618907 -0.0501595 0.438191 -0.30456 -0.0890663 -0.0637857 0.235241 0.41478 0.00520482 -0.0199045 0.147698 -0.0690536 -0.115516 -0.0616605 0.05819 0.161869 -0.127255 0.244914 -0.0629581 0.145897 0.0652468 0.0388116 0.0241957 0.0997002 -0.171274 0.351981 -0.104672 -0.192188 -0.268274 -0.106317 -0.0323472 -0.052247 -0.174707 0.1846 -0.0782155 0.229799 -0.0622697 -0.187605 0.209972 0.18579 -0.217718 -0.316538 -0.0133361 -0.058574 0.00515794 0.225776 0.171345 -0.282001 -0.327319 0.164844 -0.0927095 -0.224081 0.0695948 0.25689 -0.373312 -0.199852 -0.367673 0.0687993 -0.15512 -0.05586 0.133304 0.0233247 -0.0202327 -0.0614757 0.0565505 -0.18334 0.243896 -0.0881036 -0.0411544 0.0285933 -0.188383 -0.189967 0.132724 -0.115598 0.0440471 0.13743 0.0908717 0.14728 0.0474905 -0.208055 0.202246 -0.0588402 -0.267269 0.145725 -0.0514358 0.311455 0.205662 0.104524 0.00371087 -0.00753629 0.0225036 0.0623966 0.27484 -0.127497 -0.00377443 0.0638649 0.216159 -0.330741 -0.102907 0.256761 0.0542957 0.0263217 0.172103 -0.0998113 -0.274032 -0.0320316 -0.141355 0.0120251 -0.0802659 -0.0945346 0.0794338 -0.145373 -0.47326 0.216553 -0.0743663 0.01806 0.107635 0.0262922 -0.146789 0.183915 0.102688 -0.209714 0.226713 -0.278085 0.284283 -0.00235318 -0.226676 0.0881432 -0.184443 -0.49142 0.0483824 0.00797957 -0.172754 -0.182537 -0.232757 -0.110698 -0.104366 -0.246923 0.316336 0.0168887 0.0621327 0.159268 -0.206806 -0.10473 -0.0751173 -0.0491217 0.19413 -0.232882 -0.157024 0.175404 -0.117153 -0.17832 0.22387 0.169366 -0.2162 -0.320546 0.268749 -0.0373275 -0.0329967 -0.0518368 -0.176557 -0.0220058 -0.436238 -0.0354626 0.106802 -0.224772 0.00187374 0.036009 0.315193 -0.0269665 0.27264 -0.0553383 0.140097 -0.232604 0.302068 0.0322856 -0.0298532 -0.134612 0.28526 -0.0986896 -0.245967 -0.000484556 0.03887 0.412398 -0.0645317 0.237513 -0.309919 -0.300998 0.0945312 -0.156218 0.0041106 -0.279279 -0.066808 0.10999 0.0941365 0.221832 0.10916 -0.301985 0.0541425 -0.225163 0.088902 0.294691 0.0253148
video 0.227226 0.13346 -0.32488 -0.0601274 -0.0397586 0.033074 -0.293911 -0.0604264 0.222237 -0.0431424 0.11568 0.0733584 -0.105381 -0.230556 0.122481 -0.0150836 -0.058293 0.0667152 0.328976 -0.2001 0.150159 -0.0378376 -0.0625078 -0.231429 -0.246892 0.217246 -0.179334 0.213136 -0.0652202 0.174339 0.0763708 0.247396 0.0690241 0.130414 -0.0542596 -0.0608643 0.215806 0.0847775 -0.0456244 -0.0534788 0.0243882 0.104075 -0.146647 0.14793 -0.0336443 0.0870795 0.267735 -0.168935 0.0348318 -0.114412 0.125086 0.0945886 0.172146 0.0343133 0.318979 -0.0541051 0.301561 0.150647 -0.0639813 -0.17855 -0.133456 0.123848 0.0427155 0.0977509 0.0279829 -0.0289638 0.06809 0.170468 0.198757 0.0136581 0.112009 -0.0580411 0.0841642 0.13256 0.0740065 -0.15674 -0.149696 -0.0502011 -0.122693 0.394071 0.185794 0.0452539 -0.10164 0.260139 -0.0751393 -0.119659 0.00358472 0.155577 0.0994992 -0.265757 -0.123858 -0.205312 -0.00591288 0.219397 0.141589 0.208683 0.0290221 0.254928 -0.0405201 0.0771663 -0.0868405 0.122521 -0.352275 -0.119753 0.107068 -0.170866 0.0904356 -0.0219272 -0.0879281 0.0582476 0.279252 0.0496957 -0.10208 -0.206531 0.199722 -0.113802 -0.313206 0.203898 0.142159 0.0181671 -0.280463 0.0670796 0.217147 -0.0302894 0.1898 0.0772748 0.0129199 0.0417689 0.219851 0.0651634 -0.241801 -0.270525 -0.0170359 0.057721 0.0312622 0.0156375 -0.111864 -0.109032 -0.0668064 -0.0835405 -0.100677 0.259156 0.0708937 -0.305503 0.142428 -0.119516 -0.305454 -0.183831 0.0626007 0.151763 0.195501 0.119235 0.450846 0.0136513 0.118176 -0.0255274 -0.132849 0.10386 -0.0240139 -0.0341873 -0.0191697 0.102954 0.328423 0.213048 -0.114838 -0.0391541 0.116963 -0.0576694 0.187203 -0.0701812 -0.116673 -0.0618689 0.0719479 -0.127028 -0.123183 -0.181659 0.128169 0.331458 -0.0600869 -0.354756 -0.193923 0.114249 -0.0184627 -0.193199 0.222881 -0.211377 0.253497 -0.139179 0.016395 -0.243965 0.252242 -0.182208 0.0381936 0.130904 0.118809 0.163835 -0.00726234 0.163701 -0.0865382 0.0590684 0.289344 0.178035 0.0116315 -0.128311 0.0621055 0.0866568 0.185769 0.074788 0.101187 -0.0985238 -0.0975768 -0.0270204 -0.228077 -0.0734603 0.0528026 -0.124174 -0.183069 0.0648913 -0.0224223 -0.0168734 0.254801 0.218911 -0.254595 -0.192923 0.125742 -0.30885 -0.291733 -0.143121 0.191906 0.0306472 -0.094472 -0.030763 0.10498 0.0887986 -0.157065 0.113441 -0.00747389 -0.179777 -0.298912 -0.0359132 -0.0693145 0.424685 -0.251863 0.0623006 -0.242591 0.024433 -0.0467559 0.345152 0.202758 -0.224507 0.159849 -0.297896 0.235349 0.0261755 0.280064 0.146142 0.0298524 -0.171577 0.0490172 -0.296108 -0.0944564 0.0862684 -0.0764792 -0.205415 0.206871 -0.0266693 -0.106504 0.211537 0.261599 0.0948705 -0.171948 0.0993748 0.0839569 0.147077 -0.00840402 -0.0179048 0.0428982 0.242354 -0.0740106 -0.114625 -0.0177087 0.0279341 -0.34489 0.203876 0.0468918 -0.0216629 0.0292379 0.0878552 -0.0593174 0.0768839 -0.14739 0.023379 0.184082 -0.0524929 -0.0283234 0.0852367 -0.0220407 0.117695 0.0584993 0.0216279 -0.185806 0.122556 0.0164205 0.0825849 0.281012 0.131593 0.178572 -0.0533748 0.0824966 -0.13779 0.0764565 0.0925672 0.0392809 -0.350568 0.00931368 0.14186 0.302892 -0.0975118 -0.0665372 -0.274598 -0.0494034 0.0422496 -0.230734 -0.0335495 -0.153469 -0.00186525 0.19795 0.350619 0.141499 0.00864761 0.0703951 0.395094 0.111508 -0.19462 0.0139626 -0.0248244 -0.0940417 -0.294495 -0.0686549 0.172567 0.0979277 0.0600454 -0.0391947 0.189289 -0.204539 0.177546 0.262882 -0.22305 0.0201149 -0.0694374 0.0298897 -0.178184 0.0872662 0.362406 -0.243277 0.284203 -0.146598 -0.190365 -0.0552595 -0.0424708 0.300504 0.2003 0.0502755 0.162902 0.154891 -0.123169 0.10372 -0.0101923 -0.0207727 -0.0294633 0.0773587 0.209105 -0.099483 0.108758 0.021484 0.172497 0.214212 -0.13203 -0.00663959 0.134742 -0.0385433 0.109013 -0.045126 0.0779714 0.106198 -0.221878 0.318161 0.347858 -0.146076 -0.375891 0.346702 -0.0695899 -0.487626 0.170014 -0.121332 -0.150464 -0.0441542 0.00348751 -0.19981 0.164709 0.0960549 -0.122042 -0.0701837 -0.120093 -0.168823 -0.0937322 0.126691 0.0884738 -0.218386 -0.208295 0.105056 0.0449556 -0.237264 0.0155642 0.0397526 0.0126443 -0.0733941 -0.135882 -0.172757 0.00126313 0.051507 0.057247 0.0717588 0.101334 -0.0864009 0.18035 -0.113059 -0.155695 -0.0694134 -0.0169707 0.166457 -0.139927 -0.123986 0.00684859 -0.198568 0.0308458 0.0619985 -0.0794959 -0.0651114 -0.217938 0.141251 0.0711481 -0.0542506 -0.154114 0.168695 -0.412805 0.168494 0.0674886 0.143704 0.0967399 -0.00883254 -0.0592822 -0.0221697 0.149193 -0.313234 -0.268823 0.0960539 0.0859487 -0.0160223 -0.0432949 0.153406 -0.0736556 -0.0207851 0.112227 -0.100433 -0.0747977 -0.0677216 -0.0558634 -0.128883 0.0109586 -0.103663 0.105728 -0.112795 0.354948 -0.243839 -0.0656873 -0.180742 -0.121753 0.054163 -0.0881672 -0.136456 0.340488 0.212802 0.0966073 -0.374245 -0.144728 0.288873 -0.0926206 -0.350341 0.174712 -0.0978206 0.138615 -0.0646716 0.233909 -0.188893 0.24871 -0.200718 -0.0820427 -0.0255174 -0.0964196 0.0109432 -0.0735478 0.253405 -0.0787515 0.0214048 -0.0968308 0.0599564 0.057693 0.0136241 0.244342 -0.0432873 0.0556396 0.110367 0.0731696 0.076139 -0.290308 -0.288773 0.124943 0.0186212 -0.163398 -0.203022 -0.118437 0.0597889 -0.19658 0.0577896 -0.219315 -0.262452 -0.220717 -0.140631 -0.230708 0.0224329 -0.123128 0.0339106 0.059205 -0.157142 0.0447837 0.0258964 -0.323105 0.0763429 0.0772363 -0.0609849 0.0292575 0.00149576 0.187913 -0.0592116 -0.0356406 -0.0213645 -0.186894 0.0684945 -0.0706568 -0.00316709 -0.364174 -0.161367 -0.0540741 -0.00391946 -0.151412 -0.0166805 0.0123948 -0.217626 0.0601277 0.114988 -0.201844 0.0355573 0.114711 -0.259199 0.323649 -0.0283727 0.246196 0.000571679 -0.197528 -0.240592 -0.136228 -0.110739 -0.172217 0.103652 -0.0687053 0.0105363 0.245371 -0.0446581 0.022134 -0.0898994 0.10378 0.0458255 0.00269999 0.0922264 0.210516 -0.261866 0.0290262 -0.121777 -0.141134 -0.120483 0.0962214 0.0389502 0.135574 0.122153 -0.0345782 0.0113779 -0.0296811 -0.0824392 0.180826 -0.194796 -0.0663723 0.0492205 0.0906533 -0.14785 -0.0446022 -0.000148475 -0.051932 -0.0378039 0.0110967 0.02483 -0.209775 0.131931 -0.0564824 0.0576663 -0.217373 -0.118909 -0.120397 -0.132758 -0.0362024 0.0532133 0.0441888 -0.0878922 -0.0780407 0.136619 0.270251 -0.191174 0.016126 0.034349 -0.158913 -0.194164 0.241279 -0.0571117 -0.138913 0.0486869 0.142039 0.062706 0.0116685 -0.144734 -0.0563667 -0.348164 -0.107532 -0.0361911 -0.00878045 0.224989 0.0597764 0.214833 -0.00814976 -0.0688622 0.0139058 -0.169898 -0.199133 -0.0429024 -0.0293397 0.067597 -0.000347942 0.0828475 -0.023096 0.0784547 -0.241096 0.0443999 0.0308667 -0.186053 0.199128 0.164517 -0.0755461 0.12013 0.152957 -0.173121 0.112188 0.0664768 0.182974 -0.361287 -0.174717 -0.191852 -0.0971381 0.108947 0.0486308 -0.0387486 -0.112368 -0.112055 -0.010924 0.0560303 -0.0366521 -0.189932 0.0655611 -0.403458 0.062116 -0.249662 -0.398299 -0.0246024 -0.0719192 0.277793 -0.137909 -0.0959024 0.388895 -0.265291 0.0706446 0.148826 -0.0418934
defeating -0.3175 -0.345845 -0.249252 -0.210587 0.153286 -0.554494 -0.164868 -0.0415934 -0.282628 -0.191256 0.130896 -0.0466221 0.290502 0.059257 -0.472729 0.0406643 -0.0850579 0.263644 -0.198929 0.198324 -0.157251 -0.364554 -0.195924 -0.108071 0.297018 0.0542642 -0.149257 0.0364952 0.210249 0.242977 -0.0059849 0.0439539 -0.097013 0.170953 0.125789 -0.0335006 -0.0353782 -0.161239 -0.349744 -0.363731 0.046236 0.224462 -0.0492861 0.455954 0.00340235 -0.078932 -0.195659 -0.0640964 0.159882 0.0967004 -0.0262325 0.165743 0.163649 0.288519 0.0866209 0.27236 0.231237 -0.0391073 -0.270141 0.205771 -0.188429 0.374504 -0.262669 -0.0107299 -0.0536648 -0.0911172 -0.0816934 0.162821 0.129998 -0.0226192 0.0250323 0.00479646 -0.356628 0.268723 0.00422288 0.189834 -0.141846 -0.173608 0.0746696 0.400683 0.055058 0.0554231 0.0597406 0.238928 0.264823 0.103358 0.0864109 -0.411235 -0.261865 -0.118513 0.157302 -0.251993 -0.178776 -0.317335 -0.109123 0.0178441 -0.474981 0.273286 -0.233156 0.268049 0.0303015 -0.0737883 0.139247 0.086095 0.0906811 0.176359 0.092106 -0.0686303 -0.118756 0.130133 0.0990039 0.0775708 0.243464 -0.158127 -0.051511 0.0793445 -0.270401 -0.10794 -0.470976 -0.0324719 -0.0572902 -0.0800586 -0.0884005 -0.113994 -0.199398 -0.188509 -0.351444 0.0267811 0.160876 -0.143256 -0.00424476 0.0796483 -0.265386 -0.089187 0.0040474 0.096525 -0.0684169 0.0128751 -0.0954224 -0.221287 -0.103975 0.185517 -0.150588 -0.0967384 -0.0901249 0.12572 -0.120367 -0.153374 0.099628 0.221235 0.0915767 -0.160378 -0.400653 -0.140967 -0.195986 -0.105634 0.00414417 -0.0743946 0.0132852 0.178157 -0.0642189 -0.0389722 0.101559 -0.149379 -0.312053 -0.0231204 -0.136036 0.131764 0.000843834 0.129125 0.216676 -0.146059 0.283984 -0.180972 -0.0589079 0.161949 0.0804956 -0.252333 0.140962 -0.00501943 -0.289629 0.251443 0.143388 -0.123095 -0.0305822 0.0633058 -0.101648 0.0801805 -0.0762305 -0.14127 0.0775023 -0.0980568 -0.302648 0.0689926 0.00446876 0.184178 0.00498622 -0.0840255 0.109618 -0.548142 0.0580484 -0.223536 -0.264041 0.206602 0.163184 -0.0912656 -0.0433355 0.0286139 0.320986 -0.115978 -0.185518 -0.396414 -0.057349 -0.224915 0.101551 -0.0456283 0.134191 0.11424 -0.18695 0.26359 0.0180091 -0.31923 0.114585 -0.0293809 -0.120712 -0.29822 -0.442131 -0.110409 0.108134 -0.0143798 -0.0111453 -0.232129 0.0810659 -0.0960995 0.157105 0.00882706 -0.498602 -0.0746086 -0.028913 0.0491873 0.0356836 0.366618 0.026204 0.122757 0.243359 -0.0295163 -0.0650175 0.0715979 0.216638 -0.069209 0.0527381 -0.0440062 -0.1304 -0.0206442 -0.178007 -0.268625 0.0903666 -0.0747488 0.040112 0.0465958 -0.00501395 -0.262097 -0.114113 -0.399655 -0.0491969 0.31266 -0.0348261 -0.242301 0.0286759 -0.100625 -0.093163 -0.102569 -0.337922 0.198691 -0.0271628 0.118918 0.28255 0.173139 0.166907 -0.127635 0.0149787 0.0145747 -0.0297224 -0.0293683 0.0721905 0.0229228 -0.333612 7.02015e-06 0.0139865 -0.379273 0.230534 -0.452468 -0.176372 0.242504 0.15747 -0.139791 -0.115185 0.26363 -0.149083 0.0160148 0.136843 0.0891293 0.0849768 -0.0372398 -0.183038 -0.0274124 -0.146155 -0.0857561 0.178066 0.0678503 0.0368149 -0.0767842 -0.201812 0.00538543 0.263576 -0.0683606 0.0511646 0.142638 0.0812038 0.0607417 0.0711674 -0.210817 -0.522802 0.124908 0.335792 0.101526 0.0334707 -0.154774 -0.282323 -0.00757431 0.0295219 0.516227 0.141395 -0.314793 0.0418135 0.361059 0.0329371 0.00205831 0.162885 0.36801 -0.0556997 -0.239679 0.128052 -0.0536631 0.0967798 -0.209061 -0.0796898 -0.282206 -0.129391 -0.114974 -0.242996 -0.0732324 0.217269 0.0848761 0.0746532 0.12956 -0.00910765 0.0038156 -0.219986 -0.177994 0.0619141 0.0124378 0.0175498 0.0293543 0.256748 0.159486 -0.140649 -0.202093 0.283643 0.12691 -0.39751 0.108174 0.0939092 -0.0531183 0.459526 -0.150281 0.514416 0.00447677 0.417546 -0.130785 -0.0037519 -0.0728378 -0.13793 0.111352 0.248933 -0.0366855 -0.434556 -0.148473 -0.399325 -0.451934 0.203877 0.031906 0.0508856 -0.20475 0.211199 0.664407 -0.0231854 0.0135481 0.253572 -0.00946583 0.176998 -0.256527 0.187872 0.0506598 -0.0437641 -0.0981866 0.05502 -0.00854418 0.057266 -0.00278462 -0.045099 0.113413 0.0165319 -0.131597 0.286418 -0.124606 0.0341223 0.13055 0.156506 0.172448 -0.197087 -0.27693 0.302218 -0.00111829 -0.139629 -0.00851471 0.145097 -0.075462 -0.198428 -0.290647 -0.0691718 -0.0187556 0.0447036 -0.0426512 -0.162922 0.120944 -0.14766 0.292925 -0.216857 0.0138353 0.0706598 0.235844 -0.156161 -0.473704 -0.252427 -0.105602 -0.0290846 0.326656 0.281502 0.115925 0.179038 0.228358 0.103634 -0.0943406 -0.0902072 0.0935434 0.0207157 0.00674582 0.0816446 -0.338413 -0.24591 0.130824 0.0594041 -0.277976 -0.120781 0.0836573 -0.154748 -0.167721 0.0200456 -0.0625224 -0.103637 -0.367085 -0.0552259 -0.395502 -0.230901 -0.199285 -0.00235467 -0.260862 0.0369488 -0.0812894 -0.0832391 -0.208744 -0.188123 0.406979 -0.129033 -0.0858457 -0.0804313 -0.15246 -0.261541 0.116745 -0.270586 0.0769256 -0.284043 0.0654283 -0.166517 0.268161 -0.155055 -0.333363 -0.0530708 0.0993474 0.481498 -0.329191 -0.0351325 0.0501088 -0.145275 -0.180578 -0.35557 0.189226 -0.10073 -0.111202 0.00381399 0.17441 -0.096039 0.00876425 0.036094 -0.213313 0.223164 -0.124004 0.28117 0.137819 -0.266048 0.144834 0.261563 0.257296 0.0157961 -0.33205 0.0745411 -0.222243 0.0168907 0.0419096 -0.0590756 0.0916671 0.154122 -0.305754 -0.104971 0.183702 0.26884 -0.285065 -0.146462 0.0197442 -0.121256 -0.373703 -0.188793 0.272566 -0.199395 -0.323179 0.347876 -0.24723 -0.18733 -0.198608 -0.475367 0.0742061 0.0962906 -0.170511 -0.271375 0.370084 0.194063 -0.146504 0.0340268 -0.231764 0.224869 0.233252 -0.225984 0.106034 0.130235 0.101087 0.249217 -0.0627175 0.244446 -0.186628 -0.145348 -0.245395 -0.146634 -0.0583539 0.0425648 0.016624 -0.375831 0.122712 -0.365067 0.101678 -0.184744 0.267514 0.0364786 0.158595 -0.560618 -0.181759 -0.0124225 -0.0463767 -0.238684 0.381466 -0.13076 0.103901 0.239738 0.151189 0.0177909 0.157927 0.0775816 0.0337431 -0.0360623 0.0177328 -0.337869 0.0809258 0.105886 0.419684 -0.0118812 -0.147508 0.513423 0.00011987 0.297541 -0.135041 -0.240862 0.109513 0.441043 -0.0751478 0.408888 -0.167084 -0.0206927 0.0812394 -0.11227 -0.167965 -0.149026 -0.0192333 -0.0684361 0.0300164 -0.0316017 -0.0317761 -0.215683 0.223375 -0.0743851 0.106614 -0.0139076 -0.148263 -0.00401341 -0.0272397 0.457532 0.070298 0.0391131 -0.0491799 0.179293 -0.238334 -0.204733 0.12593 -0.002475 0.0398557 -0.0868874 0.0102506 0.0515645 -0.0991521 0.0712533 -0.101597 -0.0917126 -0.426543 -0.10217 -0.219079 0.146922 -0.193901 -0.0979689 -0.0335064 0.332023 -0.0458727 0.0544515 -0.140174 -0.216908 0.0424286 0.123132 -0.0352708 0.347321 0.0101709 -0.206952 -0.0394672 0.109588 -0.0158273 -0.0919032 0.324145 0.201593 0.0542881 0.208692 0.032663 -0.0740277 -0.041092 -0.0993823 0.032874 -0.226366 0.133273 0.138284 -0.120238 -0.0184166 0.385002 -0.442499 0.370426 0.187127 -0.300038 -0.0388227 0.112755 -0.161285 0.111038 0.16382 0.142862 0.179949 -0.0128386
death -0.280827 -0.0336212 0.0231138 -0.171737 -0.060208 0.100212 -0.0405559 0.263333 0.0562424 -0.101791 0.0490353 -0.101425 0.0719339 -0.107159 -0.100036 0.201056 -0.00710265 0.0578933 -0.022104 0.185181 -0.0220983 0.0754834 -0.11996 -0.0510044 0.174455 0.14632 -0.263621 0.222685 0.0455632 0.0573936 0.0805029 0.0580037 -0.00496948 -0.0871901 -0.0243493 -0.258633 -0.307505 -0.0962791 0.0251852 0.0776181 0.150503 -0.136138 -0.0364093 0.0550259 0.0620192 0.154629 0.0956941 0.0524772 -0.137866 -0.00119229 -0.0517728 0.182623 0.136546 0.189185 -0.162383 0.101733 0.0988977 0.215856 -0.142519 0.13844 -0.286132 -0.0332141 0.189811 -0.171559 -0.0939245 0.0472876 -0.254256 -0.0514213 0.340005 0.0205666 0.292461 0.105988 -0.116331 0.00174246 0.00317749 -0.00423524 -0.222858 -0.289092 0.204668 0.274077 0.158549 0.221169 0.0279527 -0.0529452 0.0899257 -0.013531 -0.0880964 -0.215049 -0.0094339 -0.122896 0.176676 -0.223482 -0.0745486 0.0527246 -0.193597 -0.0942732 0.0561569 -0.0376274 0.17832 -0.137258 0.0224743 0.0199514 0.0210675 0.0575565 0.0277472 -0.16733 -0.191006 -0.0612848 -0.0255459 0.119558 0.0413477 -0.0570081 -0.048986 0.0458129 0.228918 -0.177006 -0.00126108 0.00294006 0.0102484 -0.123984 -0.0790537 0.0978694 0.0721677 0.254154 -0.0957759 0.105068 -0.0265955 0.0472639 0.0298785 -0.0670515 -0.0905639 0.0369512 0.23844 -0.0865481 0.162876 0.211955 -0.0658812 -0.148516 -0.240566 -0.111488 -0.212849 -0.20936 -0.0663826 -0.219999 -0.118411 -0.0315221 -0.0866954 0.108339 -0.0690815 -0.104701 0.12419 -0.0307983 -0.0292506 -0.225955 -0.0494066 0.186626 -0.0233238 -0.00938861 0.289066 -0.0361208 0.13275 0.0570625 -0.0462697 -0.00628468 -0.0816963 0.307313 -0.0231966 -0.0623068 -0.00590639 0.310887 0.0821308 -0.100647 0.101404 0.0739864 0.140416 -0.0762487 0.241692 -0.0825112 -0.188138 -0.0347766 -0.222074 0.0988727 -0.109207 -0.0751311 0.148783 0.036965 0.0868036 0.122025 0.357228 0.0429926 0.00774911 0.0316522 0.0337679 -0.0952787 0.0921881 -0.168348 -0.0135171 -0.19896 0.105196 -0.129561 0.244796 0.06742 -0.199596 -0.10835 -0.0533941 0.187545 -0.262779 -0.00278251 0.0772975 0.087095 -0.160408 -0.102079 -0.0280382 0.0764275 -0.101627 -0.0117346 0.0452795 -0.0363698 -0.162733 -0.223147 -0.148526 -0.0260294 0.0134143 -0.150282 -0.0487809 -0.113492 -0.196599 0.0577456 0.104352 0.0027654 -0.17283 -0.0623764 -0.118581 -0.115227 -0.171533 -0.273462 -0.23637 -0.223256 -0.351802 0.0915777 -0.0417624 -0.0768271 -0.263961 0.0332491 -0.0351438 0.184576 -0.195929 -0.0194499 0.0320347 0.0216524 -0.0355411 0.0609733 0.00075458 0.149977 0.0436355 0.133511 0.00712641 0.0625546 0.0142439 0.0826839 -0.327995 0.0597706 -0.226029 -0.225018 -0.202819 0.0189535 0.0551751 0.0194638 0.246965 -0.0058497 -0.129762 0.00827764 0.160787 0.0591693 0.469456 -0.171444 0.0292803 -0.0295906 -0.074656 -0.213102 0.047443 -0.0970922 -0.360589 0.0488515 0.0636115 0.20152 -0.161557 0.104431 0.0267235 -0.0698736 0.0487329 -0.0654462 -0.170969 -0.105899 0.176073 -0.258074 0.230799 -0.150017 -0.0578522 0.0702041 -0.106625 0.168389 -0.0890056 -0.115165 -0.00660577 0.0213948 0.227491 -0.161257 0.0835868 0.197939 0.229644 -0.172078 0.0278938 -0.0904098 -0.00741759 0.0614388 0.199905 -0.155646 -0.100633 0.0977402 -0.196213 -0.12916 -0.0205444 -0.271732 0.0563851 0.0262924 -0.234451 0.0637921 0.040801 0.12501 -0.241296 0.268195 0.219509 0.142259 -0.135434 0.109403 0.130945 -0.101294 -0.139311 -0.162378 -0.193708 -0.116864 0.344698 0.146111 -0.072076 -0.290371 -0.274624 0.00599858 0.070689 -0.0370699 0.022314 -0.0215564 0.0208223 -0.107816 0.115993 -0.133892 -0.0946849 0.0706013 0.155547 0.211753 0.254019 -0.132116 0.000940371 0.0359556 0.127062 0.0771041 0.0208868 -0.225303 0.147375 -0.164616 -0.184125 0.0504016 -0.129243 -0.0581391 0.133808 -0.0138076 0.176575 0.104165 0.200272 -0.236222 -0.0375142 -0.0956834 -0.181977 0.258102 -0.273298 -0.268256 0.0265747 -0.157228 -0.532481 0.0231319 -0.0139632 0.220991 -0.0624794 -0.20268 0.134406 0.10013 0.0109916 -0.169671 -0.186934 -0.140901 0.0385139 -0.215806 -0.244828 -0.00214816 -0.0859495 -0.0660852 -0.068737 0.233034 0.143187 0.311013 0.213816 -0.0729442 -0.181482 -0.167042 -0.0387363 0.0380092 -0.0466564 -0.288459 -0.138242 0.166592 -0.0712122 0.0891553 0.0593024 -0.0528675 0.0836816 0.1103 -0.00497865 0.0679665 -0.131188 -0.0666389 0.04132 -0.0542181 -0.346858 0.196341 -0.119806 -0.000483743 -0.00664781 0.0429066 0.0460743 -0.0947211 0.106987 0.0696346 -0.0360658 0.0112509 -0.419863 -0.13235 0.278033 0.252234 -0.143751 0.240684 -0.0269748 -0.118319 0.218324 -0.152647 0.0882951 0.0136286 0.231303 -0.138745 -0.249997 -0.0915403 -0.0443832 0.0764437 -0.308271 -0.0408168 0.20178 0.0962894 0.0547254 -0.00929616 0.167935 0.164301 -0.118244 0.0970989 0.082476 0.0125259 0.0351538 0.0485315 0.158224 0.0871013 -0.0112112 0.0343207 -0.0903305 -0.0251247 0.164114 -0.132934 0.0671052 -0.0357591 -0.187861 0.0199067 -0.496596 -0.100021 -0.236219 -0.00602681 -0.318418 0.0324927 0.0623086 0.0165347 -0.148296 -0.143247 -0.161974 -0.102648 0.0714617 0.132818 -0.170885 0.244184 0.124652 -0.0274705 -0.356672 -0.173901 -0.0505277 0.397671 -0.130888 -0.00576422 0.268945 -0.251005 0.107521 -0.0249344 -0.170655 0.114394 -0.245138 -0.225809 -0.322297 -0.16069 -0.0887336 -0.105568 0.142655 0.0980089 0.257602 -0.00248808 0.0064852 0.091887 0.0363798 0.00173888 0.159161 -0.0138422 0.155633 -0.107976 0.162496 -0.278742 -0.0651631 0.125871 0.0968893 -0.0391592 0.276266 0.117388 0.0201328 -0.1079 0.0489763 0.0479024 0.104918 -0.160535 -0.177347 -0.230389 -0.159625 -0.200218 -0.0497297 -0.00317435 -0.146565 -0.0566071 -0.0148241 0.267495 0.0996334 -0.0346269 -0.193225 0.0922102 -0.27236 -0.0206798 0.0384757 -0.1587 -0.0149003 -0.00632096 -0.145397 -0.11121 0.00843321 0.267478 0.229888 0.000317771 0.0103165 0.336589 -0.136913 -0.0737049 -0.304672 0.151708 -0.174213 0.259114 -0.0340275 0.139775 0.368756 -0.00322787 0.0713888 0.0174896 -0.107959 -0.15629 -0.120465 0.0363146 0.0752101 -0.059039 0.102844 -0.0446919 0.167413 0.212665 -0.0670311 -0.117588 -0.0364759 -0.17325 -0.154525 -0.125415 0.163756 0.0750486 0.101776 -0.0382489 -0.037108 -0.428808 0.0563997 -0.0442604 9.30253e-05 -0.024508 0.343088 -0.214295 -0.147496 0.065297 -0.0675815 0.0188914 0.0594982 0.178359 -0.000883417 -0.0357677 -0.0405178 -0.128825 0.092597 0.0252716 0.254104 -0.0776955 0.142932 0.22267 -0.0141251 0.293593 -0.075669 0.0394178 0.195619 0.0729628 0.0624566 0.0842164 -0.0287087 0.270986 -0.0187646 0.0922557 0.0802 -0.0678663 -0.138388 0.00276911 -0.107359 -0.177122 -0.199679 0.0248631 0.130588 0.0304226 -0.139665 0.0857841 0.0505108 0.0261961 0.0470216 -0.0632328 0.268222 -0.167375 0.0480343 -0.0168787 0.152291 0.121709 -0.227443 -0.0228454 0.355533 0.237127 0.130353 0.128726 0.00288101 -0.111141 -0.239408 0.0754974 -0.0456158 -0.174593 0.162298 -0.0233024 0.0615952 0.00647646 0.157345 -0.296273 0.0358065 0.0193279 -0.173371 0.290336 -0.056258 -0.0820882 -0.105883 0.192521 -0.0560402 0.0615828 -0.0398711 0.114711 -0.129244 -0.0656897
image 0.132276 0.0412586 -0.0585864 0.132897 -0.0790919 0.0573506 0.0567949 0.0137019 0.0552758 0.00877544 -0.0254829 -0.131328 -0.108601 0.0569257 0.113193 0.0847246 0.0287763 -0.0106035 -0.0339966 0.181185 0.0949695 0.0533262 0.222304 -0.0281936 -0.10805 0.200484 -0.0611137 -0.0332199 0.109041 -0.0243239 -0.0946152 0.182161 -0.15636 0.0716972 0.0130268 -0.0533034 0.021351 -0.0591986 0.05626 -0.13575 -0.0838402 -0.0435853 -0.207694 0.0501288 0.211577 -0.348913 -0.0968422 0.0383428 0.0713791 -0.0347255 0.038385 0.107755 0.203659 -0.172132 0.171044 -0.101986 0.274715 0.261338 0.158499 -0.106757 0.0352231 -0.14871 0.0632418 0.0200218 0.0898132 -0.0233637 -0.0609195 -0.0275297 0.0313722 -0.0980585 -0.168501 -0.113718 0.132685 0.0974541 -0.0668642 -0.0248521 -0.33894 0.0210549 0.323964 0.233111 -0.314518 -0.258703 -0.0856341 0.244548 0.0356942 -0.201935 -0.137049 -0.232097 -0.0682889 -0.0244507 -0.0445167 -0.107595 -0.0802259 -0.0501003 0.189587 0.065429 0.0519927 -0.0521135 -0.242292 0.105825 0.141394 -0.0257975 -0.201827 0.315612 0.0159428 -0.210984 0.106037 0.00677416 -0.391151 0.282696 -0.0848997 -0.278865 -0.0546405 -0.0583623 0.0127783 0.0538826 -0.383132 -0.00348059 0.195537 0.101627 -0.162764 0.257779 0.19138 -0.00292473 0.0871453 -0.105722 -0.211599 0.0946721 0.263823 -0.120879 -0.185824 0.109937 -0.169025 0.0806746 0.16163 -0.153594 -0.160123 -0.130134 -0.146894 0.00837215 0.191252 -0.0777714 -0.0920063 -0.1846 -0.0532732 -0.0910242 0.0397534 -0.0529331 0.0349751 0.0729679 0.186365 0.0236345 -0.0134353 0.236882 -0.0286049 -0.0222694 0.0109735 -0.0156204 -0.0694558 -0.235804 -0.15017 0.321875 0.243 0.0502409 -0.0722404 0.0750698 -0.108685 0.0367151 -0.125101 0.0703424 -0.0515721 0.0395043 -0.0965913 -0.141522 -0.0804661 -0.0802691 -0.0479463 0.261549 0.126835 -0.144383 -0.0444915 0.0579636 -0.298563 0.0341056 0.243782 -0.324924 -0.1717 -0.0074326 -0.20353 -0.287667 -0.00245071 0.0464719 0.38971 -0.00522952 0.0688251 0.100537 0.187206 0.0911429 -0.165842 0.20047 0.384308 -0.129464 -0.261936 0.0994756 -0.075472 0.0145238 0.000438568 0.219756 0.0426814 0.436209 0.0782081 0.107525 -0.111077 0.0266844 0.0302794 -0.0456144 -0.0730539 -0.0418515 -0.0390454 -0.128808 -0.0987954 -0.0270273 0.0515762 -0.0800038 -0.0207542 -0.293181 -0.0980609 0.370627 -0.0631538 0.197041 -0.080927 -0.103567 0.184336 0.0141147 -0.184415 0.240287 -0.0453327 -0.234621 -0.207336 -0.0407932 0.0759986 0.208455 -0.0385339 0.198389 0.0729548 -0.0629865 -0.085365 0.146919 0.0593084 0.0124557 -0.103065 -0.0452604 -0.0492166 0.180565 0.170508 0.2928 -0.171483 -0.296798 0.284608 -0.0557666 -0.0744491 -0.222148 -0.0508417 0.0312353 0.146679 -0.099286 -0.0360914 0.1327 0.115687 0.187422 0.16017 -0.101391 0.119912 0.010085 0.0292585 0.0762358 0.00579622 0.0107843 -0.114557 -0.0355862 -0.0579669 0.132098 -0.0695413 0.17455 0.0577927 0.0691161 -0.0659759 0.0424306 -0.0370893 -0.0908137 -0.238608 0.0877003 0.0819255 -0.0223457 0.208358 0.0761913 -0.0783171 0.253404 0.18411 -0.129298 0.0465221 -0.224677 -0.197393 -0.15021 -0.00263286 0.343136 0.14602 0.101467 0.077589 -0.0485253 0.155715 -0.24674 -0.205493 -0.218969 0.184267 -0.0777455 0.00986213 -0.0499026 -0.0774389 -0.0247719 -0.0665259 -0.0266904 -0.0386969 -0.100609 0.0811249 0.255894 0.112883 0.273212 0.00654812 0.0503691 0.0530609 0.00794481 0.0299446 0.0909108 -0.0533331 0.0205637 0.0627467 -0.179293 0.0728317 0.0181038 0.042375 0.0230212 -0.102075 0.203165 -0.288001 0.240788 0.0360316 -0.0600588 0.109709 -0.292806 -0.157768 0.0395617 0.219133 0.0070131 -0.264643 0.21342 -0.145211 0.0227831 0.0605539 -0.158751 0.0440903 -0.0349511 0.181325 0.186244 0.237652 0.134675 0.0739378 0.0989331 0.0949676 0.0330724 0.103984 0.213335 -0.115841 -0.0733575 0.0672969 0.119356 0.221356 -0.0384453 0.224846 0.0974964 0.15062 -0.107073 -0.0422696 -0.114039 0.113072 -0.0585003 -0.0587471 0.0346766 0.00361472 -0.244176 0.228237 0.0430821 -0.0373221 0.172027 0.0293515 -0.103724 -0.412249 0.245378 0.113492 0.186059 0.0314408 -0.162774 0.16392 -0.126888 0.229858 -0.0525151 0.143404 -0.000640077 -0.0126406 -0.281001 -0.0872247 -0.11363 0.23304 0.0467935 0.0701158 0.0951508 -0.0160274 0.141409 -0.0690127 -0.216716 0.0516672 0.00457917 -0.185447 -0.268714 -0.0668918 -0.021264 -0.158017 0.141103 -0.0689933 -0.0601851 0.121488 -0.428358 -0.166922 0.187206 -0.191807 0.144397 0.233073 0.0791753 -0.00309961 -0.0281361 0.180824 -0.200625 -0.0174784 -0.269113 -0.0987617 -0.224106 0.226374 0.112438 0.059978 0.203742 -0.0667555 0.256927 0.176585 -0.00270746 -0.0166596 -0.0738755 0.268816 -0.185123 -0.00973856 -0.0155084 -0.225958 -0.257116 -0.0452994 0.0962235 0.0526773 -0.0480731 0.0909839 0.0848622 0.0155867 0.167987 0.045813 0.0249887 -0.036229 0.052433 0.145827 0.0278825 -0.141599 -0.0471559 -0.0559294 0.193709 0.00896427 0.0368933 0.0327754 0.0914738 -0.191093 -0.0833231 0.0134886 -0.159752 -0.0664212 0.164337 -0.0201735 -0.0964938 -0.0557068 0.186083 -0.0117661 -0.051044 0.00866705 -0.154026 -0.5421 -0.014868 0.152945 -0.09707 0.0611359 0.0275285 0.425684 0.0746352 -0.294516 -0.0687775 0.0292365 0.199412 -0.0108579 0.0763997 -0.170457 -0.203955 -0.104038 -0.0198687 -0.00806389 0.0730651 0.00321619 -0.0971095 -0.218962 -0.102829 -0.040136 -0.330938 0.10616 -0.346132 -0.0364911 -0.105215 0.0976212 -0.00400582 0.0463423 -0.0776991 -0.108143 0.0187672 0.0304463 0.0461524 -0.047893 0.0144807 0.122476 -0.218033 -0.233999 0.00127181 0.0182657 0.174479 0.367895 0.0357737 -0.299055 -0.346739 0.0412795 -0.215296 -0.0227372 0.012763 0.168779 -0.221729 -0.0287594 0.121802 0.0183763 0.0796408 -0.200952 0.224663 0.119188 -0.00203829 0.105211 0.0545605 -0.0846792 0.331976 0.0719903 0.306509 -0.0180769 -0.036793 -0.0675701 -0.0661132 -0.0726399 -0.349715 0.058951 -0.0862249 0.104739 0.275748 -0.241085 -0.0998099 -0.103081 -0.131513 -0.226909 -0.0322801 0.0672284 0.0790482 -0.080302 -0.0155661 0.0246952 -0.100841 -0.086959 0.15072 0.254399 -0.047109 -0.0205411 -0.0295065 0.0184411 -0.0575422 0.0267327 0.159536 -0.0483333 0.0369494 -0.240787 -0.0715027 0.0297489 0.071321 -0.0877412 0.0457703 0.306801 0.0483783 0.169474 -0.101049 -0.135358 0.333394 -0.16795 -0.197566 0.00122115 -0.0196106 -0.250768 0.113373 -0.168079 -0.01363 -0.310419 0.263582 -0.0560571 -0.198295 0.087124 -0.00616958 -0.00739269 -0.227941 -0.0312931 0.193725 -0.0716946 -0.0223493 0.0286873 -0.0394127 -0.0124995 0.118377 -0.0504937 -0.0466203 -0.141581 -0.364922 -0.0360619 0.0271598 -0.0325999 -0.00299275 0.0682766 0.240107 -0.167125 -0.096366 -0.119799 -0.0866836 -0.179802 -0.0436413 0.0997981 0.107649 -0.136206 0.0342805 0.0696682 -0.0269302 -0.0520567 -0.230957 0.0797729 0.190124 0.00291889 -0.0858249 -0.0208862 -0.0861777 0.119579 -0.048537 0.143132 0.258176 0.0361043 -0.0101703 0.0513119 -0.0818311 -0.0388468 0.17582 0.0957777 -0.292717 0.0629639 -0.228138 0.0468515 -0.0107142 -0.12843 0.0935186 -0.21219 0.125957 0.208687 0.129531 0.0598423 0.0672951 -0.0856032 -0.262418 -0.0472515 0.119781 -0.0433268 0.13653 0.106354 -0.0208116
theater -0.284618 0.129953 -0.287491 0.175181 0.0485697 -0.11555 -0.116546 -0.146312 0.146015 0.191005 -0.0991741 0.0186483 0.0756487 0.00719099 0.181187 -0.0633941 -0.167643 0.173969 -0.151525 -0.278648 -0.293166 0.0256894 0.134619 0.123355 0.0810475 0.534876 -0.153365 0.121102 0.112113 0.130173 -0.0607597 -0.18549 0.154908 0.013248 0.0311377 -0.463168 0.0302234 0.0207813 -0.267734 -0.0301837 -0.0565403 0.0265883 -0.0622754 -0.0928348 -0.178538 0.0592894 0.227218 0.0434212 -0.060383 -0.250576 -0.0481834 -0.204811 0.15453 -0.00959739 -0.0213952 -0.276241 0.29555 0.16288 0.00242523 -0.24655 0.111012 0.0364316 0.204709 -0.0104157 0.0867361 -0.0765966 0.091398 0.319526 0.126714 -0.342602 0.098757 0.0465885 0.111721 0.0753983 -0.110901 0.309586 -0.0332279 0.0177835 -0.153021 0.145816 0.0350502 -0.2849 -0.340044 -0.0079091 -0.0351491 -0.0810135 0.15696 -0.237563 0.31609 0.173852 0.0653659 -0.225699 -0.0675787 0.117826 0.151472 0.0398781 -0.0130423 -0.0958533 -0.204466 0.0432972 -0.168995 -0.113075 -0.132 0.112 -0.0295388 -0.101312 0.0966276 -0.0969138 -0.130715 -0.127188 -0.103137 -0.0648061 0.318225 0.243159 0.0599011 -0.386131 0.117263 0.0414357 -0.0331798 0.18118 -0.184468 0.24101 0.0092688 0.0860248 -0.163689 -0.184019 -0.0944084 -0.216388 0.165276 0.076287 0.0140468 0.10782 -0.0276334 0.175544 0.0916431 -0.339117 0.128684 -0.0432022 -0.0244408 -0.0617585 0.0255457 0.0274401 0.0938949 0.207331 -0.172045 -0.0787254 -0.146179 -0.160692 0.10996 -0.00294754 0.0204966 0.0554663 0.166795 -0.0325022 -0.0349032 0.06189 -0.0520783 -0.0258722 -0.172442 0.237281 0.135451 -0.0155058 -0.120098 -0.0283746 -0.108257 0.072781 -0.0139896 0.0744065 0.106891 0.0274454 -0.0217228 0.123042 -0.0523724 -0.103632 -0.261332 0.0423858 -0.0827794 -0.148107 -0.0821409 0.27841 -0.167013 0.250353 -0.121189 0.0923402 -0.0269365 0.120016 0.219427 -0.0448534 0.0205103 0.058358 0.220945 -0.0461278 0.143365 -0.143696 -0.120235 0.0651999 0.0404282 0.0546287 -0.0388305 -0.252679 0.077926 -0.207257 0.0638719 -0.177785 0.111193 0.057663 0.0459896 0.213976 -0.138037 -0.0641905 -0.0284653 0.0584082 -0.183724 -0.126441 0.0529108 -0.0547967 -0.0703205 0.083096 -0.285057 -0.109555 0.157786 0.00623427 -0.0656985 0.171468 -0.181249 -0.172082 0.0545211 0.215022 0.138895 -0.0216698 0.0535545 0.0358081 0.0240799 -0.0421623 0.204607 -0.207046 0.0425882 -0.642364 -0.255136 -0.0673507 0.180418 -0.0829803 -0.12535 -0.326033 -0.111544 -0.118322 -0.0567113 0.278092 -0.180881 -0.280369 -0.0371091 0.0432446 0.067716 -0.0539092 0.309307 0.408751 -0.309878 -0.179729 0.00486227 -0.0117671 0.0388395 -0.101979 0.172007 0.379056 0.0749267 0.213311 -0.134344 0.131226 0.492504 -0.0411433 0.264377 -0.113746 -0.0653814 -0.0685693 -0.176239 0.0881665 -0.0672191 -0.22547 -0.0303847 0.129626 -0.0794464 -0.24942 -0.269355 -0.0612569 0.0241769 -0.0235189 -0.00299301 0.144708 0.0454737 -0.0914054 0.384734 -0.408267 0.241319 0.222589 -0.266205 -0.0340027 0.174184 0.0283314 0.165352 0.144717 -0.359458 -0.109707 0.117441 0.0465771 0.213676 -0.0323502 0.00368285 0.190712 0.229856 0.0236164 -0.0396576 -0.312433 -0.0114072 0.032524 0.238205 -0.0534845 0.0154121 -0.013763 -0.0376687 -0.277169 -0.338389 -0.0202243 -0.299254 -0.0520897 -0.302074 -0.237234 -0.266461 -0.128891 0.0186002 -0.130394 0.130646 0.148858 -0.201212 -0.0132553 0.189308 0.149686 0.228285 -0.0699453 -0.064119 -0.115102 -0.0609315 -0.0925728 -0.134965 0.440548 -0.034062 -0.0145201 -0.031768 0.11812 0.0611418 -0.153273 -0.183362 -0.0443857 0.130544 0.0661798 0.183925 -0.0888363 -0.311369 0.111534 -0.0735565 0.0862952 0.323942 -0.0917259 -0.0266867 0.256063 0.00397799 0.216607 -0.149641 0.128745 0.0936316 0.0705522 -0.00741188 0.208087 -0.113394 -0.0972557 -0.139007 0.31178 0.118337 -0.0227043 0.193457 -0.0180474 -0.130651 0.187379 0.112224 0.343072 0.0991489 0.0142476 0.326829 -0.0433857 0.0371495 -0.22579 0.259258 0.291095 -0.0879811 -0.191625 0.145087 -0.112922 0.0965468 -0.379052 -0.054886 0.09901 -0.126441 -0.327898 -0.152071 -0.304825 0.0383089 0.0469625 0.0276275 -0.327633 0.0424245 0.235443 -0.0868031 0.183696 0.158252 -0.311217 -0.338411 -0.13929 -0.141449 -0.0638199 0.168145 -0.218278 -0.169067 0.0493191 -0.190759 -0.277362 -0.0514066 0.137394 0.169418 0.113328 0.0170675 0.111695 0.00298538 -0.058352 0.0180709 -0.0786478 -0.143427 0.166525 0.126058 0.105091 -0.0337331 0.0647111 -0.167244 0.0622504 0.280998 -0.0362513 0.11899 -0.109231 0.00731054 0.162254 -0.0129368 -0.243604 -0.0469528 -0.225955 0.200378 -0.146803 0.0578533 -0.155575 0.129537 0.0252301 -0.0302478 -0.102101 0.00745707 0.0769817 -0.244009 -0.0651264 0.0681544 0.0415989 -0.05623 -0.0796328 0.132553 0.0988724 -0.0380544 -0.0994896 0.0663073 0.31357 -0.015457 -0.284198 -0.225065 0.0333019 -0.186378 -0.132982 -0.0428194 0.301565 -0.291414 0.23732 -0.225843 -0.142496 -0.0493994 0.164436 -0.172977 0.24933 -0.424489 -0.0234641 -0.0854801 0.148328 -0.19968 0.0800402 0.1829 0.0700055 -0.0281347 -0.0550686 -0.199142 -0.113156 0.266695 -0.0197496 -0.0951878 0.0599174 -0.12082 0.256014 -0.141022 -0.00606188 -0.0422038 0.188248 -0.0307657 -0.140719 0.101534 -0.0782931 -0.109407 -0.116307 -0.196029 0.123516 -0.00217097 -0.118047 0.0356864 -0.0273493 -0.0137286 0.0433476 -0.207311 -0.281594 0.133029 -0.128544 -0.0232437 -0.200337 -0.0869506 0.0929851 -0.240703 -0.338262 0.00203456 -0.275844 0.0993453 -0.194739 0.0702614 -0.20857 -0.300599 -0.0541378 0.0439966 -0.146045 0.086903 -0.247196 -0.0560635 -0.0169416 -0.123123 0.027472 -0.140666 -0.251545 0.0917621 0.11411 -0.082462 -0.0987061 0.0707952 -0.194768 -0.151558 -0.209183 -0.119191 -0.167726 -0.0257177 0.0204682 0.293944 0.00012308 -0.0679736 -0.132959 -0.119227 -0.0908002 -0.0119434 0.254186 -0.195494 -0.178492 0.112792 -0.050568 0.0476235 0.0328928 -0.0427779 -0.111674 0.13716 -0.269318 -0.09734 -0.0773032 0.233583 0.158392 -0.102116 0.151854 -0.121784 0.243858 -0.115811 -0.0108256 -0.0705236 -0.127499 -0.199069 0.412051 0.0296005 0.0199436 -0.231042 0.0125068 0.220548 0.140868 0.20498 -0.217465 -0.0136204 -0.0566426 -0.132034 0.271979 0.00920482 -0.170037 -0.13451 0.126876 -0.291376 0.17292 0.27345 -0.0183467 -0.239187 0.273022 0.202419 0.0862553 -0.20965 0.148961 -0.0935398 0.0489631 0.18457 -0.0863144 0.0988976 -0.0461807 0.117766 0.0481961 0.207758 -0.170516 0.075158 -0.0038304 -0.159057 -0.00844382 0.0221 -0.0868832 -0.0656491 -0.146364 -0.0324358 -0.0192481 -0.134464 0.0186816 -0.061336 0.230192 0.231479 -0.0265344 -0.0581747 0.040825 -0.318386 0.0495827 0.279566 -0.0977065 -0.0165565 0.0591362 -0.102395 -0.2199 0.0475051 -0.0718415 -0.0309135 -0.286359 0.112006 0.107507 0.137432 0.0368553 -0.17451 0.252847 -0.0905894 0.173435 0.037001 -0.0351207 -0.00822111 0.259208 0.0715323 0.045496 0.165515 -0.239694 -0.202798 -0.0260726 0.0682266 -0.0877533 -0.0908481 0.109675 -0.0834759 -0.00184917 -0.36805 0.00602044 0.232671 -0.0719231 0.310817 0.0966393 -0.346902 -0.0995144 -0.0143077 0.111518 0.154876 0.017997
number 0.0344294 -0.0316 -0.0161715 0.224748 0.00402838 0.07473 0.0588201 -0.0815502 -0.050913 -0.169722 0.128162 -0.165502 -0.0932666 -0.183699 -0.279855 0.0134686 0.0068051 0.0830531 0.0635255 0.0556147 0.086571 -0.0203094 -0.00192517 0.0520617 -0.0741738 -0.00751085 -0.0123697 0.106077 0.00338133 0.188441 -0.130526 -0.0243311 -0.0901773 0.136751 0.087179 0.0103482 -0.0723002 0.244802 -0.144127 -0.250626 -0.199404 -0.00856354 -0.247227 0.127705 -0.148582 0.011001 0.160851 0.106146 -0.0203387 0.174585 -0.112558 0.126466 0.286642 0.0573165 0.0448163 -0.12128 0.0678774 -0.0153128 0.119987 -0.12963 -0.263858 -0.0042078 -0.0809836 0.0300737 -0.0421307 -0.167254 -0.104686 -0.0295824 -0.109981 -0.0395712 -0.0065965 0.00156267 -0.0031357 0.0767879 -0.071333 -0.324009 -0.203285 0.0420955 0.0335046 0.390655 -0.224745 0.0706453 0.0134993 -0.0546022 -0.0248698 0.0228952 -0.0737575 -0.159356 0.141973 0.105484 -0.145508 -0.132403 -0.0311907 -0.0620626 0.0108895 0.116086 0.0241016 0.209746 -0.00638596 -0.128162 0.124578 0.0563271 -0.0872579 0.0872787 -0.033432 0.00612257 0.0502862 -0.0275559 -0.0777229 0.0280185 0.232655 0.0112181 0.0741987 0.0575944 0.110432 -0.0924201 -0.142341 0.159713 -0.0203363 -0.108903 -0.135159 -0.208478 -0.0668458 0.108817 0.31684 0.0194359 0.0037055 0.0974742 0.0533754 0.191384 -0.132676 -0.00685567 -0.0222364 -0.0964889 0.0459967 0.266959 -0.144885 -0.0270431 0.223949 -0.0903547 -0.0439602 -0.0685166 -0.0217235 0.0918833 0.0476961 0.00512971 0.0249499 0.100406 0.183626 -0.0664014 -0.196806 -0.196702 0.226328 0.034006 0.0464844 -0.074828 -0.07395 0.0141326 -0.0185809 -0.127124 0.0142486 -0.0632799 0.207887 0.0356581 0.0321064 0.102989 -0.219082 -0.0648047 0.0613291 0.0607987 -0.0291433 0.041094 0.0302105 -0.0327669 -0.0455275 0.0267855 -0.203339 -0.0674724 -0.122962 0.0493462 -0.0396281 0.268748 -0.0688461 -0.0775147 0.109421 -0.0275152 0.0907931 0.029963 0.0709433 0.113352 0.0613109 0.0173016 0.064397 0.18052 0.224878 -0.0902957 -0.103281 0.0926833 -0.0016713 -0.236579 0.265206 0.0458759 0.0457081 0.0782837 -0.0238352 -0.102312 -0.0177753 0.257652 0.163111 -0.161636 0.0595042 0.0672605 -0.106731 -0.209171 -0.00900168 -0.0124698 0.0375347 -0.112648 -0.08616 -0.133217 0.0603467 -0.0345208 -0.126179 0.0418065 -0.0218754 -0.0845173 -0.197961 0.225606 0.0214129 -0.00944392 -0.0918688 0.00588882 0.183644 0.168223 0.0118578 0.222866 0.0343926 -0.0585433 -0.22192 -0.0780934 -0.0896334 -0.113378 -0.132544 0.124267 0.14572 -0.0661209 0.227977 0.122786 -0.0196411 -0.0239153 -0.134844 -0.0463329 -0.0674527 0.13 -0.00172555 -0.0149674 0.0270577 0.0509348 -0.0936125 -0.0404314 0.0567518 0.0889452 -0.0893738 0.101852 0.161657 0.0718059 -0.11865 -0.0178228 0.2632 0.087282 0.03161 0.0940509 0.0841967 0.0581719 -0.0262653 -0.170219 0.0665155 0.0482527 -0.109249 0.12185 -0.0103947 -0.0807109 -0.0595523 -0.0152445 0.000190555 -0.0358406 -0.0600653 -0.0501972 -0.134115 0.0317622 0.00201535 0.151224 -0.102892 0.106159 0.109969 -0.0765965 0.0573712 0.172388 -0.0741702 -0.184199 -0.186451 -0.116819 0.0665772 -0.110976 -0.152692 0.0338014 0.0101077 0.0859628 -0.0979071 -0.101664 -0.00717006 0.027106 0.101879 -0.125144 0.00515552 0.231444 -0.00929287 0.178959 -0.12976 -0.0403365 -0.00309921 0.0270484 0.00482651 0.0674097 0.12339 -0.0338142 -0.104115 -0.182767 0.133494 -0.0621905 -0.17437 0.21444 -0.0766664 -0.156762 -0.0524481 0.173806 0.102238 -0.236337 0.102691 -0.249045 -0.24789 -0.0317337 0.124472 0.00995236 0.118902 -0.185003 -0.101377 -0.0836271 -0.00442236 0.0820068 -0.0722117 -0.349262 0.0761788 0.0728135 0.13436 -0.00247407 -0.00377005 0.00607603 0.00659438 0.18998 0.268498 -0.101667 0.0690841 0.0493153 -0.0780084 0.122185 -0.230965 -0.175815 -0.0724664 -0.110554 -0.0253827 0.237235 -0.184992 -0.226112 0.105591 -0.0861479 0.145128 -0.208119 -0.0864153 0.041457 0.0751015 0.238727 -0.0994744 0.149642 -0.0371832 0.0826712 0.209623 0.0793991 -0.0775826 -0.0966643 -0.0328222 -0.0802787 -0.173213 -0.060159 -0.0771742 -0.0680477 -0.181305 -0.107654 -0.160462 -0.125046 0.140205 -0.156093 0.0259901 0.000801329 0.0655347 0.061933 0.159183 0.245853 0.018481 -0.178505 -0.0303676 -0.121145 -0.143471 -0.000340143 0.125436 -0.0612293 -0.0470016 0.100218 0.119179 0.246752 -0.101562 -0.0477292 0.092702 0.0632035 -0.0178207 0.0207779 0.114389 0.260549 0.0664284 -0.0836977 -0.0228003 -0.114814 -0.12834 -0.0962937 -0.124453 -0.0854189 0.151994 0.0626377 0.140597 0.21243 0.126437 0.0826566 -0.0436015 0.127351 -0.0961079 -0.105218 0.16024 -0.0753263 0.0729379 0.258133 0.23546 -0.0763355 -0.0229349 -0.202275 0.0978282 0.0940959 0.028184 -0.0326744 -0.161212 0.0163918 0.0674221 -0.0460887 -0.138452 -0.0622912 0.0285985 -0.181743 -0.0584469 0.0182124 0.0250375 0.219991 0.0462803 0.368508 -0.0232716 -0.068267 -0.0382374 -0.203642 0.0280634 -0.0490713 0.0992501 0.0876182 -0.0486543 -0.10434 -0.201113 -0.052896 0.304974 0.0456391 0.386526 0.151387 0.0339959 0.103494 0.0501226 -0.150322 0.105128 -0.158287 -0.243765 0.156529 -0.125807 -0.0714741 0.0255506 0.0758453 -0.0739143 0.0128972 0.201101 0.00144821 0.186911 -0.0986615 -0.0313178 -0.223859 0.092675 0.124918 -0.121398 -0.177618 0.0634545 -0.0919058 0.0589222 -0.148664 0.0625454 0.0287259 0.00623912 0.201033 -0.128926 -0.00502263 -0.0838882 0.1272 0.00336783 -0.253979 0.0610928 -0.0985056 -0.307843 0.0440079 0.0491104 -0.0719305 -0.238552 -0.200974 0.00837336 -0.200783 0.109922 -0.0796372 0.00669149 0.0161521 -0.0304722 0.135525 0.244815 0.098462 0.386679 -0.161672 -0.157798 0.00993073 -0.0323969 -0.202633 -0.0228192 -0.0539445 0.0597824 -0.0994722 -0.0397711 0.111621 -0.223804 0.0182774 -0.0384285 -0.0832365 -0.101466 0.0177009 -0.222156 -0.100759 -0.0284459 -0.147568 -0.0754673 0.220933 -0.138631 -0.0263241 0.280877 0.0476563 -0.11584 0.227103 0.169885 0.0203747 -0.02816 0.100195 0.0918305 -0.0428679 0.0862812 0.188351 -0.000989497 -0.18352 -0.131611 0.16101 0.0135605 0.00969497 0.0648449 -0.0149779 0.0887267 -0.0992335 0.162164 -0.0854591 0.0601689 -0.229051 0.0483285 0.172173 -0.0178089 -0.0244456 0.123545 0.0111034 -0.134348 0.0130218 0.0636382 0.0471418 0.00580122 -0.0715986 0.077353 0.0792436 0.184488 -0.100822 -0.0537799 -0.0582989 -0.139461 0.183712 0.120383 0.170912 -0.109151 0.0133023 0.0830936 0.108977 -0.0474747 -0.049529 0.130525 0.0860323 -0.0977776 0.0194147 0.173588 -0.123464 -0.0742391 0.0917473 -0.0230682 -0.116183 -0.0336024 0.217801 -0.150719 -0.234865 -0.136265 -0.156438 0.115044 0.231119 0.15822 -0.095476 0.216146 0.18525 0.0343848 0.0551547 -0.0211723 -0.0269111 -0.230912 0.182282 0.0511653 -0.262835 -0.102902 -0.12224 -0.0555761 -0.280852 0.166088 0.0812946 0.151618 0.0167008 -0.0630327 0.0557839 0.102426 -0.0273775 0.0183841 0.383568 -0.109941 0.0135849 0.0603493 0.219517 -0.0770816 -0.210228 -0.249116 -0.173192 -0.4 -0.019865 0.127027 -0.0810572 0.0778284 -0.117791 0.0205149 0.123746 -0.0386343 0.140049 -0.0130576 0.0398825 0.0127429 -0.0761866 -0.0716551 0.116931 0.290338 0.02456 -0.100964 0.173401 0.174435 0.180428 -0.0555058 0.0656425
