437 700
president -0.0238654 -0.067689 0.219163 -0.0750492 -0.178323 0.062715 0.0147389 0.113299 -0.119051 0.100815 -0.0390067 0.0606865 -0.0647964 -0.0334991 -0.0140069 -0.110226 -0.109658 0.210099 -0.0765713 -0.063597 0.0615221 0.100014 -0.150161 -0.2656 -0.0223918 0.0109128 0.0509961 -0.105851 -0.217028 0.33199 0.0429309 -0.130064 0.192018 0.0514203 -0.055391 0.129917 -0.0480336 0.227271 -0.590429 0.182392 0.0610545 0.0181439 0.198431 -0.14691 0.0973057 0.230877 -0.0639702 -0.2244 0.221464 0.0679787 0.0396173 -0.272601 0.139085 -0.0807659 -0.269139 -0.241497 0.254825 -0.0764081 -0.000221878 -0.0337656 -0.0842305 -0.128014 -0.106391 0.33948 0.152175 0.0337042 -0.256219 0.0556444 0.321179 -0.0499131 -0.297446 -0.0487888 -0.00633959 0.13365 -0.284062 0.126426 -0.192279 -0.135294 0.115134 0.310071 0.021892 0.144142 -0.0374399 0.0243726 -0.27486 0.0591922 -0.0183568 -0.0816543 -0.205527 0.0577936 0.148229 0.0102807 0.0452887 -0.112961 -0.0307534 0.0468942 -0.194698 0.00172742 -0.235394 -0.154845 -0.0742482 0.162077 0.0417945 -0.0318997 -0.0186633 -0.399053 0.183395 -0.261096 0.083459 0.0138048 -0.0100513 0.115597 -0.203816 -0.263463 0.132832 0.112906 -0.0576892 -0.167662 -0.00283784 0.027503 0.281884 -0.107971 -0.173019 -0.0457796 -0.13603 -0.229975 -0.111565 -0.276656 0.232429 0.107104 -0.0102347 0.050712 0.00834234 -0.0428188 -0.167702 0.0979931 -0.0983488 -0.012423 -0.0908766 -0.119803 -0.0693108 -0.053628 0.0204915 0.0817452 -0.241831 -0.128547 -0.0398795 -0.0841045 0.123262 0.299413 0.0761718 0.0455779 0.0993524 -0.165347 -0.129555 -0.152428 -0.180997 0.157845 -0.130167 -0.02483 0.0729301 -0.04026 -0.181672 0.023726 -0.162094 0.134824 -0.0404934 0.0987922 0.0938822 0.107525 0.0485026 0.0463901 -0.0780615 -0.140686 -0.0431962 -0.253023 -0.0426952 -0.0828637 -0.253636 0.117151 0.0533902 0.0576539 0.0333948 -0.120567 -0.230465 -0.0655382 0.478766 0.0928034 0.102589 -0.0624254 -0.0704088 0.0891354 0.00494097 -0.219607 0.181116 0.139893 0.0459594 0.103578 0.159432 0.17288 -0.0396913 0.0864231 0.19647 -0.224713 0.0443391 0.0169086 0.0731766 -0.0729589 0.0731034 -0.146844 0.0168293 -0.319465 -0.116208 -0.11203 -0.193893 -0.202116 -0.0329371 0.13513 0.0186391 0.0882468 0.00650516 0.026113 0.0996557 -0.283777 -0.303172 0.100082 -0.0408177 -0.080314 0.119042 0.0241282 -0.0788354 -0.107212 -0.141863 -0.0288357 -0.0944153 0.0151988 -0.0312849 -0.252076 0.138995 0.227078 -0.0205091 -0.138745 0.0594858 -0.24174 -0.145383 -0.0252276 0.042934 0.0211543 -0.160076 0.0374984 0.135927 -0.0571766 -0.108925 -0.0118642 -0.105449 0.0603234 0.153012 -0.0357561 0.0688938 0.1897 -0.0425247 -0.017667 -0.192181 0.00800092 0.134975 -0.0240626 0.0299426 -0.161069 -0.20517 -0.0988091 0.231548 -0.0208495 -0.046096 -0.0961749 -0.0458045 -0.233062 0.000884124 0.185746 0.284455 -0.030139 -0.00412421 -0.152617 0.042245 -0.137903 -0.0214586 0.0976323 0.0289275 0.263336 0.0815936 -0.237114 -0.127105 -0.0535436 -0.0176325 0.0129942 0.0054337 -0.114768 0.193731 -0.0275224 0.0665647 0.100128 -0.0616018 0.172848 0.0553587 -0.0244793 0.109976 -0.0278498 0.110802 0.178742 0.0843996 -0.0710239 0.034021 0.0638352 -0.366761 -0.0340412 -0.131036 0.231091 0.34665 0.118484 0.100344 0.13802 -0.119156 0.112381 -0.345374 0.0625364 -0.019977 -0.117007 -0.138419 0.143479 0.0710795 -0.14223 0.0410632 -0.0189219 0.140793 0.0995834 0.0969617 0.0773256 -0.181398 -0.0274192 -0.116291 0.0763421 0.0288127 0.0418013 -0.116878 -0.0320953 -0.0302898 0.00535666 -0.0666004 0.0174073 0.284479 0.227365 0.112958 -0.0981746 -0.0340374 -0.0416054 -0.0738752 0.133613 0.172346 0.295621 0.079329 0.308081 -0.0564083 0.179298 0.113622 -0.186653 0.0325565 0.113672 -0.0398014 0.145624 0.00278179 0.136184 -0.118784 0.0955946 -0.0473677 -0.106305 -0.321668 -0.177299 -0.0146425 -0.0259738 0.115058 -0.00474339 0.07766 0.0591154 -0.138908 0.233708 0.204651 -0.0599839 0.205841 -0.00196895 -0.0201808 -0.14154 -0.0280604 -0.0166423 -0.154319 -0.21565 0.0101201 0.0481248 0.258715 0.0424177 -0.0558159 -0.109728 -0.0229901 0.108706 0.13635 -0.206481 0.0235023 0.0216036 0.0567209 -0.164799 -0.194071 0.129933 -0.0214029 -0.0453868 0.113827 -0.0669268 0.0106131 0.320021 -0.060807 -0.137887 0.0980826 -0.150441 -0.183575 0.0390556 -0.264027 0.0246598 -0.29485 -0.181437 0.0121037 -0.0409808 -0.0142053 -0.0336083 0.0169309 -0.0328837 -0.0765636 -0.065283 -0.158289 -0.0729096 0.0769226 0.212807 0.140799 0.169153 -0.201065 0.0892149 -0.250159 -0.253746 0.0633194 -0.0493297 -0.189204 0.0698042 0.0477722 -0.297864 0.0638418 0.129827 0.194405 0.320922 0.0249339 -0.104199 -0.0327098 -0.201051 0.0819737 -0.0532394 0.190371 0.0511725 -0.0537549 -0.0368361 0.10564 -0.270636 0.221482 0.00643251 -0.301733 -0.113546 0.0536935 -0.281843 0.125778 -0.128679 -0.0425391 -0.0167019 0.183602 -0.183152 0.0514198 0.0939106 0.0257007 0.219161 -0.0817616 -0.0902262 0.0400912 -0.107236 0.18823 -0.043795 -0.207524 0.237979 -0.200534 -0.192245 -0.0590495 -0.263237 0.0571099 0.0107594 -0.0121599 0.0243318 0.0885041 -0.19745 -0.0514836 -0.0589331 0.144946 0.0142559 -0.0905183 0.0277829 -0.171984 -0.212526 -0.0489996 0.0276663 0.0236857 0.177265 0.146447 -0.0621632 -0.0495237 0.105911 -0.220305 -0.0179442 -0.000497039 -0.0661161 -0.0937848 -0.1993 0.200204 -0.0432024 -0.0940784 -0.165939 0.097082 -0.0410334 0.0423906 -0.284187 0.183248 -0.0701134 -0.0539774 -0.138011 -0.214772 -0.0865589 0.153169 0.110424 0.0717092 -0.0358495 -0.00177376 -0.172466 0.232987 -0.0675522 0.111224 -0.302504 -0.0196895 -0.134261 0.0433796 -0.142511 -0.231726 0.10936 -0.0165188 -0.0962099 -0.157399 -0.226704 -0.14562 0.244265 0.0708944 -0.233392 -0.175039 0.280697 0.0529838 0.224107 0.141561 0.0725019 0.268801 -0.0654327 0.00554726 -0.0544985 -0.117252 -0.142306 -0.266401 0.0510204 -0.0961621 -0.185411 0.010524 -0.00311049 -0.0665902 0.05402 0.0976513 -0.162955 -0.128772 -0.17708 0.0733122 -0.0550199 -0.291056 0.0758606 0.188692 -0.0597109 0.207111 -0.00192274 -0.276407 -0.288918 -0.0859676 0.0710838 0.0676086 -0.109386 0.0222404 0.0703352 -0.0804536 -0.311738 -0.332159 0.0567548 -0.221531 -0.354403 0.371097 -0.159849 0.0247703 -0.33762 0.194214 0.043771 -0.00096463 -0.109684 0.153651 0.25753 0.0516654 -0.0343592 -0.253079 0.135599 0.0510552 0.0616613 0.0386844 -0.0816346 -0.086006 0.161589 -0.109004 -0.123729 -0.146386 -0.186478 0.0238466 -0.0231587 0.16854 -0.144296 -0.0690355 -0.104403 -0.141715 -0.305295 -0.203519 -0.29008 0.0764658 0.142504 0.229007 0.142188 0.181425 -0.00996192 -0.0786851 -0.130805 0.0041234 0.0828255 -0.0307702 0.201199 -0.07341 0.0158806 0.0344354 0.0688462 -0.052335 0.243652 -0.213023 0.161965 0.00296047 0.284563 -0.118862 0.0600432 -0.0392141 -0.230299 0.16003 0.0884758 0.149155 -0.160079 0.236294 0.0486898 0.0562733 -0.0471887 -0.0343061 0.0698878 -0.039014 -0.0256167 -0.18568 -0.0354662 -0.204787 0.0999841 -0.109022 -0.184763 -0.305194 0.0669722 -0.0697536 0.101835 -0.128012 0.205515 0.133759 -0.13695 0.264697 0.106519 -0.0911716 0.549517 -0.0265254 -0.144395 -0.0150188 -0.275143
monk 0.013688 -0.259613 0.157594 0.0628649 0.237094 0.057324 -0.1062 -0.0321951 -0.0662541 -0.0842586 -0.00739326 0.0225225 -0.0699151 0.056307 -0.174502 -0.00448436 0.245542 0.187094 0.0721597 -0.166639 -0.0479719 0.15811 -0.024558 -0.0571561 -0.0641008 -0.149568 0.0179728 0.11092 0.212226 -0.014096 0.164295 -0.023996 0.0341228 -0.148586 0.123622 -0.42908 -0.206063 0.226079 0.127832 0.0724739 0.0639251 -0.0763148 -0.0316994 0.0789403 0.140704 -0.130874 -0.0650104 -0.204143 -0.118379 0.124149 -0.138696 0.0589297 -0.0166442 0.0340285 -0.165165 0.114632 0.0831476 0.0743035 -0.0748632 -0.0324736 -0.474878 -0.132804 0.0723743 0.215649 0.0882613 0.0534779 0.089951 0.0464802 0.120215 0.034787 -0.0109564 0.393265 0.0959102 -0.278843 0.209304 0.0961179 -0.143954 0.00990288 -0.282816 0.00368825 -0.22986 0.158388 -0.186123 0.168477 -0.00821057 -0.00617824 0.123534 0.305417 -0.10318 0.216663 0.096416 -0.394021 0.180218 -0.0116506 0.0244157 0.404203 0.20729 0.323281 -0.0599409 0.0531316 -0.164996 -0.145759 -0.386304 0.121381 -0.205419 -0.10753 -0.32059 0.0563651 0.171995 -0.151518 0.15633 -0.0751257 0.0820447 -0.014307 -0.0138077 -0.134928 -0.144985 0.162371 -0.0528969 0.175255 0.342507 -0.0671718 -0.170302 0.129169 -0.401442 0.241221 -0.0452772 -0.0183054 -0.134607 0.105193 -0.266965 0.17098 0.0268143 -0.3264 -0.05323 0.261791 0.246875 0.0726707 -0.406308 0.0114762 -0.175713 -0.0360374 0.116409 -0.0844467 0.0456903 0.0502531 -0.122183 0.0592551 -0.0619668 0.0544709 -0.0193577 0.0141137 -0.236027 -0.0909217 -0.108412 0.0280829 -0.12206 0.138195 0.121675 0.264802 0.111014 -0.214769 -0.266275 -0.130466 0.0672999 -0.0464358 -0.0198344 -0.190076 -0.130231 0.202517 -0.0198207 -0.0641202 -0.0742788 -0.236129 -0.0316678 -0.255326 -0.224499 -0.0345009 -0.257672 0.13864 -0.050372 0.146488 -0.0489857 0.0501057 -0.193882 -0.0688137 0.112045 -0.213429 0.0323908 0.132251 0.220338 0.239727 -0.0665605 0.0617205 0.268996 0.0815189 0.109941 0.158105 -0.107109 0.0943814 -0.157335 0.201892 0.112965 -0.162428 0.3577 0.0375526 -0.000663036 0.0891904 0.128908 0.122772 -0.128858 -0.210164 0.174089 -0.140245 0.0223232 -0.079549 0.0466732 -0.0734683 -0.299552 0.00180024 -0.323454 -0.0232011 0.512003 0.0562144 0.0841063 -0.201238 -0.0814298 -0.230404 -0.111398 -0.220005 0.107484 -0.0249825 -0.0891468 -0.0234875 -0.133263 -0.0888183 -0.0574391 -0.0298111 -0.188253 -0.17557 0.145049 -0.333293 0.029918 0.145986 0.260411 0.0785473 -0.376439 -0.181332 -0.110442 0.0997714 -0.0587854 0.133486 -0.0917109 0.0820993 -0.0197557 -0.194661 0.0344845 -0.221096 0.342385 0.0555398 -0.198894 -0.0695925 -0.23139 0.315326 0.172278 0.0950314 -0.234127 -0.00361816 0.127275 -0.0425777 0.103807 -0.167662 0.00467259 0.177074 0.27543 -0.363462 -0.116246 -0.27628 -0.137833 -0.306239 0.160378 0.245605 -0.0688556 -0.310709 -0.0366975 0.0826071 -0.221262 -0.0183096 -0.207021 0.0589811 0.129274 -0.122984 -0.370287 0.241058 -0.101907 -0.00626012 0.229411 0.152834 0.0275565 0.197451 -0.062295 0.453436 0.0821099 0.16604 0.0078956 -0.0279064 0.209862 -0.088719 0.0232762 0.13392 -0.129774 -0.0235666 0.0228457 -0.346707 0.209297 0.00318013 0.0979834 0.00034361 0.0863797 -0.103963 -0.0252244 -0.0762054 -0.216733 0.127329 0.002148 0.0232332 0.0896359 -0.0451793 -0.195083 -0.0784978 0.0815898 -0.00103467 0.233503 0.224972 0.0359666 0.419077 -0.00189614 -0.138507 0.239175 -0.208634 -0.121669 0.0541914 0.172356 0.0450618 -0.33459 0.200369 -0.238593 -0.0460484 0.060415 -0.11789 0.0496463 -0.243597 0.0632608 -0.0906471 -0.0230323 -0.127294 0.0601691 0.23522 0.0921922 0.0707933 -0.217709 -0.0105142 -0.136429 0.0793564 -0.0857525 0.170606 -0.00219075 0.0709572 0.0090898 -0.167979 -0.125284 -0.0809903 -0.144716 0.0214541 0.270376 0.0594787 -0.12013 0.0657935 0.0256233 -0.0348762 0.344335 0.203772 -0.0259765 0.121134 -0.0509167 0.156482 0.0697889 -0.149064 -0.0733764 0.0408335 -0.100082 -0.00990604 -0.0285244 0.00296008 -0.0401112 0.173193 -0.0634419 0.189772 0.20709 0.00954738 0.181915 -0.241057 -0.0950506 -0.0495523 -0.260985 -0.0228016 -0.16547 -0.09726 -0.0425335 -0.0891499 -0.0229143 -0.0166574 -0.0448679 0.136296 0.0937864 -0.057683 0.0778959 0.077449 0.388384 0.0359525 -0.0588555 -0.245283 -0.138829 -0.251988 0.104493 -0.0912455 -0.106717 -0.405681 -0.0937163 -0.197293 -0.0288646 -0.264547 -0.077843 -0.0976101 -0.184401 -0.391428 -0.198313 -0.0416085 0.167277 0.171722 0.144436 -0.275094 -0.00445549 -0.216207 -0.0749763 0.165399 0.222492 0.0680657 -0.0563377 0.0179227 0.222487 0.0433244 0.0652409 -0.176101 0.167639 -0.114734 0.0703793 -0.0867382 0.0403494 0.0460038 -0.0498426 0.102328 -0.15647 -0.097178 -0.138434 -0.209263 -0.141052 -0.146005 -0.0540039 0.105244 0.306321 0.000381621 0.192437 -0.234547 -0.164019 -0.160461 -0.0284767 0.183378 -0.150881 -0.145413 -0.0663725 -0.0757409 0.0326674 -0.110626 0.159275 0.00969396 -0.0803803 -0.145539 -0.135805 -0.0287702 -0.448151 -0.176835 0.0580049 0.123462 -0.00814472 -0.255856 -0.162237 0.118508 -0.216366 0.268088 0.120699 -0.0424653 0.228174 -0.0158315 -0.0916554 0.165768 -0.162867 -0.136982 -0.0647722 -0.203367 0.147262 -0.0228972 -0.240249 0.00673485 -0.0818474 0.189956 -0.0559067 0.0252493 -0.334702 0.26453 0.0726671 0.154435 -0.0303591 0.0662924 0.00807459 0.00270247 0.0487149 0.0500821 0.0091857 0.116099 -0.0788766 -0.0671362 0.20737 -0.178224 0.110634 0.0413727 -0.225111 0.0396107 0.097982 0.20485 0.33222 -0.111699 -0.158891 -0.00633043 -0.197871 -0.0125866 0.311615 -0.0215619 -0.111246 -0.108069 -0.0602543 0.203938 0.0269283 -0.145587 -0.117265 -0.251649 -0.0787125 -0.108595 -0.0484241 -0.161261 -0.162565 0.0458811 0.0761994 0.110543 -0.132774 0.176381 0.0976964 0.0824107 -0.390764 -0.133254 -0.0866881 0.222204 -0.0393013 -0.186956 0.0451017 -0.177727 -0.193878 0.0413093 -0.0289699 0.104601 0.217252 -0.111137 0.00461426 -0.137158 -0.0280129 -0.103842 -0.060894 -0.162773 -0.250789 -0.000222502 0.196302 0.149509 0.323911 -0.118044 -0.118771 -0.16836 0.12354 -0.143613 -0.142135 -0.0840973 -0.0102794 0.343447 -0.0433716 -0.0553502 -0.302036 0.273775 -0.143777 -0.0348815 0.113747 0.0121787 -0.0352634 -0.0255474 0.161071 0.0179425 -0.103162 0.282788 0.148887 -0.0631661 0.0322261 0.0779709 -0.0410932 -0.0117019 -0.090645 -0.0384052 -0.025971 -0.325814 0.0771612 -0.0645851 0.0439471 -0.17969 -0.184755 0.199418 -0.018974 0.117124 -0.0799925 -0.161649 -0.0502777 -0.532742 -0.0448279 0.186774 -0.000905587 -0.116751 -0.0243147 -0.123422 -0.169093 -0.0820055 -0.29565 0.033857 -0.0606168 -0.0193123 -0.0586724 0.0420837 -0.138184 -0.0121644 -0.235298 -0.202142 -0.289836 -0.060105 0.081857 0.0581686 0.170029 0.0917266 -0.122596 0.0702261 -0.249382 -0.218411 -0.152134 -0.080726 -0.200253 -0.0639756 0.106292 -0.196756 0.178027 0.0124 -0.0133984 -0.0161775 0.2572 -0.270737 -0.0264375 -0.195131 -0.015909 0.229899 -0.083837 0.0316457 -0.186375 -0.0528902 -0.17477 -0.0516879 -0.0184879 0.109275 0.189478 -0.0239625 -0.237581 0.0539592 0.182171 0.182976 0.215669 0.112959 -0.126748 0.113658
chance 0.232353 0.0623364 0.293143 0.0679473 0.0423024 0.268513 -0.0075496 0.161639 0.00442288 -0.0343569 -0.0174783 0.0143106 -0.0973575 -0.0535355 0.0766532 0.114068 0.0150186 0.255007 -0.135323 0.117654 -0.159733 -0.0861792 -0.063288 -0.235109 0.0113852 0.157046 0.173336 0.0246695 -0.0533902 0.112972 -0.0282831 -0.00857393 -0.187966 -0.241515 -0.00102276 -0.117715 -0.112609 0.282038 -0.0798663 0.314471 0.0405975 -0.0173219 -0.0534583 -0.0762568 -0.0342957 -0.058374 -0.166395 0.172995 -0.0759694 -0.271632 0.236383 0.102231 0.0874373 -0.189837 -0.137193 0.0536191 0.226645 -0.00368093 0.217504 0.0580148 0.0869268 -0.125259 0.263564 0.204006 -0.103864 0.234061 0.0211241 -0.0762762 0.161487 -0.21841 0.193736 -0.0880953 0.0131959 -0.0967732 0.201167 0.0182216 0.0832017 -0.0855469 -0.032124 0.0578063 -0.183566 0.122067 0.0812609 0.073475 -0.00796506 -0.0648905 -0.243687 -0.0372321 0.115482 0.0603704 0.0231354 0.0351365 -0.0882801 -0.0787911 -0.227731 0.0053683 0.0580411 0.178007 0.0520168 -0.098044 -0.0428219 0.0179489 -0.1502 -0.0520688 0.0427881 -0.0693846 -0.0326019 0.0467322 0.139817 0.0246549 0.217478 -0.284537 0.166478 0.00251972 0.0351053 0.0427559 0.188296 0.00139178 0.131842 0.0480023 -0.184991 0.0647919 0.212061 -0.0153532 0.0396671 0.0630025 -0.123118 -0.148531 0.0184182 -0.29265 -0.00652647 -0.0577333 -0.112406 0.0371684 -0.213852 0.0101452 0.0288761 -0.0997549 -0.0353078 -0.000598238 0.156239 -0.353792 0.126675 -0.0272922 -0.163785 0.120823 -0.0938024 0.00888994 -0.121161 -0.0718957 0.0141315 0.0310867 0.145721 0.0426579 0.225261 -0.03942 -0.133169 0.000972607 -0.091262 -0.0990849 -0.00858241 0.00476805 0.0730477 0.0130786 0.21445 0.148193 -0.0020412 0.162154 0.165123 -0.00585305 -0.0217523 -0.11592 0.144631 -0.20263 -0.0150667 0.10548 -0.123441 -0.0439484 -0.160568 0.0596517 0.092011 0.213772 0.0832399 -0.0879132 0.00260339 0.119875 0.0665436 0.048356 0.203078 -0.00950113 0.0289249 0.106837 -0.0638958 0.173508 0.0810063 -0.0973403 -0.0905898 0.191111 -0.160077 -0.144183 0.0949953 -0.0842949 -0.13121 -0.00584014 -0.113561 -0.0400693 -0.109663 0.0168398 -0.210692 -0.125312 0.0701613 0.0555757 0.228159 -0.400982 0.126629 -0.195142 -0.0858543 0.126597 0.144835 -0.00100419 -0.0255675 0.036681 -0.0770132 -0.0765195 -0.101 -0.272099 0.0577051 0.0565866 0.291889 -0.100058 0.0908995 0.0187177 0.276539 0.166581 -0.0495337 -0.00359664 -0.0707905 -0.188817 -0.162386 0.158855 0.00898691 -0.0177813 0.139102 0.262373 0.0275122 -0.102675 -0.155105 -0.143495 -0.206039 0.0491447 0.0275107 0.0896005 0.0700166 -0.0533244 0.0944854 0.103483 0.0259229 -0.080758 -0.118567 -0.0750252 -0.00735253 -0.0945937 -0.229772 0.1797 0.0919511 -0.154725 -0.292068 0.137644 0.143792 -0.103523 0.0157903 0.126686 -0.05119 -0.161682 0.00877363 -0.0395135 -0.00896729 0.0853476 0.0449097 -0.0821241 0.0592379 0.00467442 -0.0357798 -0.0804095 -0.0647579 -0.218042 -0.280892 -0.027548 -0.381384 -0.0767769 -0.0190008 0.0330317 -0.171186 0.203979 0.0938941 0.131497 0.111585 0.148401 0.119673 -0.076334 -0.0125605 -0.216577 -0.104793 -0.136406 -0.0362747 -0.134662 0.176152 -0.168073 0.156795 0.00596855 -0.0791305 -0.140933 -0.038492 -0.108948 0.0422534 -0.0890234 0.0997646 0.246177 -0.221495 -0.0618272 -0.0161146 0.032875 -0.224427 -0.0496614 -0.0412193 -0.0564169 0.0555093 0.175771 -0.0418976 0.0861201 -0.162717 0.132226 -0.0951674 0.0754788 -0.186052 0.0900941 -0.0104441 -0.258334 0.10145 0.0723439 -0.00928317 -0.0978951 0.0539535 0.308631 -0.0101424 0.0550863 -0.179444 -0.126212 0.289699 -0.278144 -0.019439 -0.199418 0.0415545 -0.190493 0.0551773 -0.0114599 -0.0270802 0.0363507 -0.072507 0.0599049 -0.0783668 -0.194867 0.0956174 0.107231 0.0265673 0.244131 0.0333202 0.0998067 -0.0187061 0.0666695 -0.0486684 0.048267 0.0529516 -0.224484 0.154215 0.0148022 0.166319 -0.116859 0.0231449 -0.0780032 0.060901 -0.154809 -0.0947854 0.0249307 -0.182547 0.0120886 -0.0206659 -0.0115525 -0.115505 -0.106579 -0.00493966 -0.0838425 0.0236224 0.0216424 -0.00173427 0.156664 0.103969 0.24933 0.294989 -0.019459 -0.0651344 0.029179 0.273947 -0.0393568 -0.272784 0.112836 -0.0500496 -0.144501 -0.201302 -0.12335 -0.101733 -0.0841834 -0.114855 0.08206 -0.0764733 0.0584038 0.168713 -0.0780772 0.0221714 -0.0174934 0.140062 -0.1608 -0.0952996 -0.122274 -0.0424539 0.093346 0.00754577 0.0905305 0.0376692 -0.0133951 0.205553 0.0136486 -0.125661 -0.248356 -0.0359 -0.168167 -0.0867533 0.0118704 -0.00513272 0.115433 -0.0676972 -0.0709954 0.014128 0.0980896 0.0863308 0.00526085 0.0185163 -0.0155312 -0.0101514 0.0851047 -0.13883 0.0187758 -0.196702 0.0813327 0.00436678 -0.0318993 0.207335 0.0257034 -0.113093 0.178445 0.105734 -0.16877 -0.185108 -0.248618 -0.0553251 0.120674 -0.159981 0.0239301 -0.0533157 -0.0497798 -0.00484368 -0.0951613 0.0287185 -0.0845412 -0.140377 -0.0565141 0.111831 0.161874 -0.00387249 -0.0493024 -0.118636 -0.00326902 0.103733 0.0128909 0.0530319 -0.0770188 -0.0541419 -0.152589 0.0153179 -0.181615 -0.0646486 -0.00412211 -0.0474787 0.119345 -0.0345286 0.0640335 -0.0229431 0.0867503 -0.177879 -0.0333795 0.106087 0.108498 0.0973514 0.0991923 0.0819615 -0.257469 0.0946368 -0.155415 0.0272466 0.0707432 -0.0110791 -0.00960492 -0.172353 0.118773 -0.0781137 -0.0477626 0.000362883 0.226618 -0.0720827 0.0665775 -0.199832 -0.0529458 0.0950743 0.000359033 0.186492 -0.0456607 -0.0240636 -0.0821891 -0.038601 -0.100769 0.0882536 0.00933246 -0.0663769 -0.141521 -0.0943669 -0.0772881 0.121766 0.0112 0.133166 0.167002 -0.180938 0.0124659 0.0830013 0.121885 0.0114312 -0.144377 -0.216494 -0.0531703 0.150428 -0.0794469 0.172222 0.033716 -0.0197559 0.0562951 -0.0223181 -0.0630914 -0.0173748 0.109809 0.138953 0.124287 0.168031 -0.0507339 0.0556845 -0.0760292 -0.0615748 -0.00319795 0.132177 0.0717678 -0.0572641 -0.108454 0.0592758 0.14276 -0.283176 0.10697 0.101835 0.19009 0.0162513 0.118428 -0.19738 -0.0433164 -0.017211 0.130107 0.203689 0.0663841 0.0348586 -0.153918 -0.103614 -0.088263 0.0147538 0.0939038 0.00664211 -0.0466818 0.100583 -0.105095 -0.167621 0.0725239 -0.328172 0.0334141 0.0273287 0.00940171 -0.148903 -0.0464576 -0.139738 0.141912 -0.144977 -0.0191687 0.00310263 0.214583 0.071118 0.0123215 0.0781194 0.0429616 0.00500699 -0.1123 0.167034 0.0991555 0.0245723 -0.110838 0.0463655 -0.030383 -0.127345 0.231403 0.0709248 -0.0657181 -0.000132674 0.066527 -0.123223 -0.0659804 0.173035 -0.0137162 -0.00428083 0.00683346 0.111931 0.016822 -0.0822319 -0.0880255 0.0867168 0.00556845 0.0596405 0.0371696 -0.0159288 -0.0177851 -0.117579 0.164023 0.288261 0.0303912 -0.0907026 -0.0201855 -0.12109 -0.0636964 -0.037387 0.146288 0.158058 -0.130235 -0.0836835 -0.128287 -0.252977 0.00807605 0.220562 0.260767 -0.0813112 0.217525 0.0521137 0.043527 0.226953 0.0302012 0.137218 0.0996381 -0.394898 -0.274975 0.259552 0.0554511 -0.0794276 -0.0852269 0.000236442 0.100109 0.205296 -0.223934 0.254972 -0.229208 -0.10818 -0.0173615 -0.034282 0.00245865 -0.198904 -0.0760865 -0.0214018 0.178344 -0.0368132 -0.0231038 0.0704444 -0.335833 0.0182971 0.0471559 -0.136147 0.212765 0.104238 0.231443 -0.231965 -0.156445
party 0.09152 0.0233986 0.0736652 -0.0392703 -0.146112 -0.0765657 -0.0701509 -0.176172 -0.242158 0.000942577 -0.0638401 -0.110077 0.118104 -0.0320093 0.228897 0.0905908 0.193772 0.0161555 0.077741 0.066432 0.0723654 -0.00227357 -0.0539118 -0.163785 0.00844273 -0.428855 -0.195127 0.172035 0.0597993 0.249175 -0.170769 -0.267797 0.0756951 0.150828 0.0301752 0.147752 -0.0877871 -0.0777198 -0.124961 0.220053 0.132669 -0.00428665 0.00062011 -0.196358 0.129633 0.318803 0.205332 -0.0261322 0.28777 -0.139425 -0.0160124 -0.201687 0.0638204 -0.12494 -0.0503721 -0.091295 0.0754454 0.0355022 -0.185117 0.238418 0.00364929 -0.115444 -0.101606 -0.0272454 0.0449961 0.405401 -0.169127 0.0689477 0.0851496 -0.145456 -0.247727 0.0429315 0.00439819 0.0432536 0.0603677 -0.108247 0.206882 -0.163876 -0.0702399 0.162327 -0.0267859 -0.0962048 -0.160152 -0.242751 -0.102704 -0.155618 -0.0733727 0.0732824 0.204229 -0.067411 -0.00391697 -0.027996 -0.133789 0.127038 -0.185977 0.170837 -0.0526895 0.133986 0.0665705 -0.0439536 0.0908736 0.0770972 0.0769716 -0.116657 -0.164188 -0.0193628 0.168057 -0.175869 0.014414 0.121342 0.0662603 0.00340345 -0.025868 -0.238354 0.15344 -0.12528 -0.150027 -0.0475388 -0.130279 -0.0752041 0.143017 -0.241668 0.00492152 -0.0876425 -0.270191 0.0118038 0.0510352 0.096758 0.0115009 0.190228 0.0821117 0.0978724 0.0364547 -0.0209214 -0.091126 0.0317396 0.0932024 -0.117431 -0.328572 -0.0423521 -0.185572 -0.125358 0.093817 0.0752961 -0.13181 -0.0215412 0.0448181 0.0316296 0.112933 -0.0470177 0.035383 0.185277 0.0040601 0.16962 -0.18241 0.038905 0.239956 0.22408 -0.250228 -0.0441587 -0.0311912 -0.186777 -0.167901 -0.0755635 0.0478162 0.10125 -0.167968 -0.0358474 0.149969 0.154267 0.150672 0.189963 -0.280961 -0.326073 -0.162643 -0.30106 -0.221495 0.00336796 0.027898 0.123846 -0.204731 0.112511 0.116129 -0.0565979 -0.0999179 -0.285715 0.275073 -0.120907 -0.0791975 -0.223785 0.0846619 -0.0111917 0.263138 0.210559 0.147052 0.261646 -0.0101209 0.366336 0.060871 -0.237424 0.184439 0.0483386 -0.290101 -0.0756435 0.0424969 0.0341219 0.00426011 0.129375 0.0370608 0.0887455 -0.118877 0.0162477 0.00666102 -0.0941201 0.161709 -0.386259 -0.113727 0.312462 0.492208 -0.0560964 -0.0669326 0.14676 0.038666 -0.237863 0.00863841 -0.109337 -0.0401425 0.0657092 0.366327 0.0163257 0.254646 -0.123686 0.201669 0.158787 -0.0901705 0.0490092 -0.0405107 -0.159158 -0.0973453 0.0227846 0.284825 -0.256877 -0.0511897 -0.0412451 0.210328 -0.146416 -0.204027 -0.0446406 -0.102761 0.0474333 0.00494627 -0.0698042 0.00522624 0.0184682 0.0274041 0.112639 0.0757186 -0.0466781 0.072222 -0.0753285 -0.264211 -0.114963 -0.20388 0.0473296 -0.275779 -0.167559 0.119158 -0.0762079 -0.17868 -0.00230101 0.11461 -0.269396 -0.175118 0.147382 0.12581 0.0346495 0.169296 0.14399 -0.0220754 -0.0632842 0.17569 -0.0264737 -0.12231 -0.0625201 -0.0643956 0.109539 0.163388 0.0264769 -0.324426 0.177127 -0.118055 -0.297566 0.0919161 0.190343 0.216356 0.0879567 -0.046449 0.0178124 0.0333553 0.285809 0.0231074 -0.0804054 0.0823311 0.0590096 -0.136655 0.108717 0.122433 -0.166331 0.242991 0.032327 0.0668984 0.0999589 -0.0366586 -0.0905362 -0.136971 -0.00674546 0.105314 0.159012 -0.0201734 -0.0457506 0.0450922 0.0258236 -0.168522 -0.226451 0.053612 0.00335766 -0.130018 0.116305 0.16516 0.0229411 0.11406 0.146809 -0.0275257 0.33421 0.0856767 -0.0175516 -0.130607 -0.12028 -0.0207785 -0.0266434 -0.0934563 -0.0546389 -0.0814777 -0.242174 0.0415957 -0.201509 0.127892 -0.14823 -0.11942 0.059821 -0.130121 -0.105681 -0.0658908 0.0978148 0.125778 -0.0827696 -0.0792672 0.145541 -0.0249554 0.045387 0.252164 0.219158 -0.00802735 0.201379 -0.0094606 0.00167805 -0.159648 0.150864 0.145109 0.0969223 -0.178189 0.208243 -0.0533482 -0.0170466 -0.18298 0.0465359 0.0915586 0.219811 -0.0330483 -0.0281612 0.279557 -0.0241511 -0.151183 0.0845827 0.169943 -0.00251245 0.00551338 0.100051 -0.162114 -0.0632493 -0.0705189 0.0779989 -0.0810664 -0.167226 -0.0376137 -0.198816 0.0235945 -0.00485665 0.193035 -0.188147 -0.0729812 -0.184974 0.209848 -0.253272 0.119846 0.187633 -0.0535702 -0.0132162 -0.121932 0.0553386 -0.0813624 -0.0452746 -0.0779749 0.217755 0.0404994 0.145472 -0.171504 -0.239463 0.266534 -0.076866 0.0268438 0.0773015 -0.0221804 0.115022 -0.144988 -0.0808373 -0.156226 -0.0269557 -0.0969072 0.0448343 0.0119259 0.0779867 -0.170181 0.156114 -0.112037 -0.000218007 -0.102231 -0.175636 -0.184474 0.0948456 -0.0081489 0.205876 -0.0447082 0.116518 0.121207 -0.142488 0.0669585 0.261856 0.0116501 -0.360346 -0.194978 0.105629 0.16684 0.233017 -0.0518844 -0.129121 0.239054 -0.192619 -0.210639 0.136756 -0.157881 -0.0811529 -0.316578 -0.319936 0.12714 0.108407 0.191776 -0.203138 -0.34116 -0.123738 0.263779 -0.139949 0.147084 0.0209997 -0.258682 -0.127382 -0.0834085 0.0301679 0.15029 0.219223 0.515147 0.0567944 0.0165831 0.166461 -0.0666005 -0.149378 0.118015 -0.189287 -0.129422 0.389818 -0.202662 0.0653198 0.0483481 -0.00613477 0.209863 -0.183551 0.130946 0.107698 0.309348 0.00509107 0.174164 -0.0314242 0.141502 0.218972 -0.199651 -0.215843 0.0538583 -0.314279 -0.0818213 0.0128549 0.0543215 -0.355488 0.214698 -0.0380136 -0.00452044 0.209771 -0.144964 0.043675 0.0517903 0.108762 0.159119 0.00212257 -0.156881 0.0962825 -0.165514 0.00719744 0.282616 0.117045 -0.08277 0.0603027 -0.220834 0.371994 0.213193 -0.181514 -0.0822077 -0.220267 -0.189099 -0.150582 0.252547 -0.203723 0.0965935 -0.0303066 -0.0712305 -0.105655 0.142152 -0.159458 -0.208822 0.0537416 0.0130096 0.335465 -0.156689 0.157737 -0.0490234 -0.0595043 -0.291207 -0.179853 -0.077791 0.294646 0.272523 -0.215375 -0.0961322 0.40703 -0.171019 -0.229169 -0.187703 0.0414818 0.0877521 -0.0621896 -0.0105146 -0.0377364 -0.0692539 0.215312 -0.354992 0.0625593 0.0320558 0.0074194 0.00628724 0.119893 -0.0731712 -0.0703141 0.0828188 -0.0733664 0.225901 -0.0679507 -0.218425 -0.312968 -0.038155 0.077527 -0.059201 -0.0499195 0.0863677 -0.221769 -0.244818 -0.0795201 -0.130522 -0.12341 -0.114648 -0.14878 0.320664 -0.0433903 -0.000186672 0.352187 -0.189701 0.231047 -0.327525 -0.0964739 -0.144958 0.0585218 -0.0130431 -0.32344 0.207398 -0.0971925 0.126291 0.00455365 0.0127104 -0.0945192 0.123483 0.115915 -0.060887 -0.0313201 -0.00605294 -0.0697121 -0.00304851 -0.0247091 -0.0385251 -0.0597748 0.13131 0.025326 -0.106939 0.146488 -0.0568565 -0.0309454 0.0931684 -0.193193 -0.0942554 -0.17788 -0.0764595 -0.239286 0.151472 -0.117797 -0.135801 -0.052265 0.0944925 0.023648 0.218546 0.256383 -0.224841 0.147338 -0.139211 0.104921 -0.152072 0.0827562 0.125621 -0.161441 -0.0786894 0.156105 -0.129486 -0.0471863 0.191811 0.0851606 0.163736 0.0045314 -0.206841 -0.251088 -0.0102192 -0.100387 0.0288761 -0.2289 0.257039 -0.067881 -0.0179847 0.13644 -0.0643688 -0.130612 -0.165053 0.130204 -0.126177 0.193394 -0.0790584 -0.0327869 -0.14287 0.024006 -0.27971 -0.0647474 -0.176696 -0.0188818 -0.0667155 0.250012 -0.157973 0.241088 -0.0805886 0.0845747 -0.0681247 0.224935 -0.090914 0.37118 -0.249887 0.215448 -0.274815 -0.165742
fuck -0.212328 0.122725 0.15541 -0.241135 0.17634 0.0262818 -0.499703 -0.003831 0.223935 0.187912 -0.108425 0.221498 0.0226434 -0.18619 -0.0476707 0.0903654 0.111804 0.217361 -0.0154211 -0.0712386 0.333275 0.249185 -0.00152396 -0.104209 0.0919021 0.0240006 0.216813 0.0413138 0.105077 0.100612 -0.170465 -0.0689727 -0.0182833 0.0444137 -0.152818 -0.276585 0.125859 -0.127063 0.185007 0.170635 0.0122765 -0.119979 -0.188299 0.107265 -0.158811 -0.3381 -0.0515579 -0.171017 0.148997 0.0753895 0.0920166 -0.0163808 0.174297 0.1189 0.0659028 0.00212223 0.151595 -0.0675058 -0.0292868 -0.286933 0.109101 0.0685567 -0.102843 0.187719 -0.150828 0.18164 -0.12355 -0.0538844 0.232958 -0.362503 -0.257188 0.114557 0.16386 -0.0961653 0.112302 -0.143655 -0.0598833 0.0987753 0.25581 0.270525 -0.152566 -0.0569557 -0.134628 -0.0768125 -0.0797842 0.0168554 -0.249246 -0.0499916 0.0961408 0.0511866 0.0467997 0.00938658 0.218505 0.000929986 0.198405 0.137032 -0.022872 -0.0394728 0.103891 -0.254551 -0.00552827 -0.0514235 -0.142561 -0.115081 -0.145239 0.025899 -0.0841205 0.0567863 0.107669 0.0606584 0.0589157 -0.211531 0.343188 -0.106737 -0.00137051 -0.208009 -0.100042 -0.2925 -0.11762 0.075917 -0.0185582 0.0325956 -0.12369 0.00400739 -0.23127 -0.301628 -0.0202385 -0.113003 0.0951971 -0.0370828 0.0435491 0.21912 -0.116514 0.134949 0.0982886 -0.0906732 0.0670745 0.225735 -0.143079 0.0577812 -0.259606 -0.196585 -0.121717 -0.114884 -0.178375 0.190548 0.127194 -0.0855376 0.142961 0.0831004 0.16676 -0.0763678 -0.0980685 0.0393363 0.007466 -0.302797 -0.118939 0.292521 -0.0802583 0.106105 0.303745 0.305718 -0.0905477 0.103402 -0.115485 -0.0624707 -0.00156013 0.0289518 0.0762509 0.0753588 -0.0652078 0.0968849 0.421608 -0.129099 -0.019698 0.07315 -0.0557277 0.196729 0.0115298 -0.141514 0.197635 0.388652 -0.214953 -0.231149 0.143157 0.112093 0.115664 -0.130077 -0.282368 0.139395 0.198889 0.147936 0.0233493 0.265656 0.0840516 -0.0414483 -0.0166072 0.0911096 -0.111402 -0.143924 -0.195364 -0.0442965 0.154694 0.0984461 -0.21041 0.168148 -0.0816522 0.144341 -0.255527 -0.220033 -0.153936 0.0559278 -0.0136451 -0.069493 -0.169417 0.0733821 -0.129343 -0.00545813 0.0901349 0.0824973 -0.412806 0.297583 0.165404 0.0181051 0.0645732 -0.208614 -0.122113 -0.0862798 0.242828 -0.217235 -0.0289386 -0.0882459 -0.107683 0.262409 0.223108 -0.238566 0.0768329 -0.00105714 -0.349911 0.0422305 -0.103569 -0.315345 -0.119535 0.258453 0.0227954 0.182269 0.0725517 0.177644 -0.192361 0.0764283 0.0024934 -0.373326 -0.00241466 0.0174422 0.0963538 -0.0510139 0.201449 -0.229731 0.0791771 -0.00457195 -0.349605 -0.129284 -0.189561 0.0934154 0.128385 -0.0125201 0.0216234 0.0641858 0.128546 -0.23036 -0.189059 0.0193913 0.256473 0.0449638 0.254482 0.0272544 0.301611 0.258552 0.0111369 0.0852581 -0.263341 -0.114234 0.0576949 0.184734 0.378989 0.0793845 0.169951 -0.173966 -0.188304 0.102616 0.0833801 0.0723083 0.115241 0.0758713 0.0201401 -0.0836714 -0.157915 -0.0865971 0.226007 -0.0387348 -0.0286051 0.00642949 -0.00182501 0.00163521 0.125189 0.12942 0.136434 -0.330463 0.228504 0.0157164 0.0069611 -0.318237 -0.130613 -0.222359 -0.0492677 -0.142161 0.116962 0.0281227 0.151811 -0.235128 0.074941 -0.0402814 -0.293085 0.0257115 -0.157844 -0.216058 0.190615 0.00790774 -0.033394 -0.247356 -0.0187366 0.167618 0.0605663 0.0115003 0.0731641 -0.12897 -0.0933223 -0.0533518 0.246141 -0.0488876 -0.234354 0.214138 0.00122521 0.372545 -0.147578 -0.0993033 0.044382 -0.350151 0.129053 -0.0584001 -0.048721 -0.216536 -0.10651 0.0146554 0.242603 -0.12132 -0.25558 0.0448153 0.00546898 -0.0661463 -0.0173016 0.161806 -0.0269785 -0.380887 -0.0604928 -0.0492901 0.0298379 0.147599 0.104893 -0.0397235 -0.100338 0.115542 -0.101254 0.0187119 0.13628 0.102358 -0.215299 0.106139 0.0206195 -0.284998 -0.152849 0.0587274 0.141733 0.215994 0.0665525 0.171466 0.165516 0.0664618 -0.221584 -0.26453 0.0671288 -0.0395517 -0.0321429 -0.161136 0.294754 -0.0299836 0.312081 -0.00604334 -0.27528 0.0755755 -0.16682 -0.253383 -0.150256 0.126996 0.144566 -0.0572917 0.3675 0.0534598 -0.388343 -0.0432621 -0.11642 -0.0555574 -0.240512 0.0737146 -0.232538 0.058821 0.0139502 -0.241678 0.108154 -0.0113978 -0.30253 0.0230923 -0.204127 -0.108558 -0.250537 0.113914 -0.173646 0.0714476 0.0408948 -0.106181 -0.524389 0.231038 0.397427 0.0995874 -0.257933 -0.0630063 0.00121036 0.197591 0.43989 0.0210079 0.0552693 0.179262 -0.147989 -0.00297209 -0.343193 -0.110755 -0.13382 0.249002 -0.10817 -0.113513 -0.240608 -0.152322 -0.000556682 0.175646 0.100524 0.00908285 -0.0599332 -0.0403623 0.0480439 -0.121367 0.0302162 -0.106543 0.0495797 0.134557 0.291689 0.143836 0.139985 -0.138779 -0.114152 -0.0758405 -0.0597711 -0.0310141 0.21594 0.139992 -0.25273 -0.122856 0.119723 0.0351056 0.195781 -0.235805 0.0449744 0.40236 0.0378187 -0.178862 -0.0593034 -0.257963 0.0972404 -0.0524272 0.0587913 0.157067 -0.0376377 0.103833 0.143781 0.267648 -0.108459 0.0117859 0.0677289 -0.000368637 -0.0420324 0.200411 0.0560842 0.114824 0.274575 -0.0943233 -0.134302 0.078821 -0.00940208 0.168699 -0.124001 -0.0778724 0.173101 -0.000120608 -0.107651 -0.162206 -0.0418027 0.166724 -0.245597 -0.130182 -0.244841 0.093743 0.0905629 -0.176908 0.010734 -0.0678862 0.0831929 -0.0356791 0.0530684 0.0424242 0.00990534 -0.0744741 -0.0450063 0.0178885 -0.0564923 -0.294346 -0.0813863 -0.186464 0.0674795 0.101884 -0.0668769 0.350011 -0.0411627 0.0933805 0.169631 0.129078 -0.214475 0.153882 -0.0400021 -0.174321 0.142978 -0.089829 -0.0857516 -0.0443455 0.188981 0.277818 -0.157772 -0.155061 -0.0835452 0.00866198 0.0733211 0.247935 0.307096 -0.0245574 0.179844 -0.0884932 0.0631918 0.0913499 0.0492319 -0.204103 -0.148442 -0.0509909 -0.115454 -0.255551 0.267221 0.117938 0.272711 0.31479 -0.0183166 0.143995 0.17999 0.0124563 0.136951 -0.0401382 0.26073 0.162553 -0.272258 -0.251006 -0.25364 -0.360219 -0.252415 0.223556 0.0211161 -0.0303258 -0.0493156 -0.141008 -0.292586 0.0450165 -0.0167542 -0.177588 -0.180947 -0.214115 0.0666232 0.0884793 -0.233717 -0.276911 0.104363 0.0780454 0.00518113 0.125654 -0.138767 -0.0256309 -0.067307 0.000658326 -0.254086 0.0408008 0.0904908 0.17985 0.111304 0.0340222 -0.346661 -0.109971 0.00850193 0.189247 -0.230485 -0.132022 -0.0288705 -0.0962268 0.0793949 0.259467 0.10638 -0.340342 -0.348774 -0.145941 -0.384495 -0.0474614 0.137151 0.0454641 0.0599611 -0.00611516 0.0932708 0.138473 0.128278 0.138727 -0.00161293 0.102028 0.0289171 0.172265 -0.107443 -0.0716566 0.0868023 -0.138703 -0.159462 -0.23089 0.0508598 -0.0938062 -0.0102118 -0.388713 -0.0865648 -0.194811 -0.142511 0.00447105 -0.0944357 -0.0114083 -0.225027 0.135197 0.289207 0.158885 0.126982 -0.129185 -0.267852 0.0450218 0.137561 -0.108456 0.191014 -0.0129353 -0.0631862 0.264925 -0.034692 0.0477696 0.0265151 0.0653516 -0.351266 -0.230373 -0.124534 -0.209262 -0.114018 -0.043394 -0.402017 0.00831092 -0.152832 -0.0416249 0.114761 0.0464868 0.0152108 -0.0752161 -0.0175219 0.326787 0.112835 -0.00819957 -0.334479 -0.0284349
psychology -0.144918 -0.079556 0.127181 -0.17909 -0.218475 -0.228292 0.212591 0.157597 0.0844707 0.0527245 0.0419241 -0.0578736 -0.171416 -0.0329063 -0.0906499 0.025923 -0.0115403 -0.0162414 -0.141965 -0.010072 0.162691 0.0555523 0.0105393 0.00944202 -0.249141 0.142092 -0.0389669 0.288076 -0.258602 0.479797 -0.0456004 -0.173141 -0.158793 -0.053059 0.0973461 0.152334 -0.0235833 -0.0558075 0.011106 0.253273 0.149136 -0.19506 -0.0626627 0.0499278 -0.110979 -0.254902 0.0561525 -0.0493477 0.0199965 0.100994 0.0128056 -0.031461 -0.420013 0.0722773 -0.0556979 0.309898 0.517344 0.04764 0.0420503 -0.0739872 -0.0738856 -0.188862 -0.050531 0.0584933 0.178057 0.418502 0.138211 0.138152 0.0213671 -0.0440645 0.0392157 0.0523976 0.0897827 0.139808 0.0684564 0.199714 0.135547 0.0293129 0.0345876 0.113852 0.00324546 -0.371985 -0.16983 0.163648 0.253693 0.0422439 -0.0645304 -0.228531 0.330403 0.153437 -0.285882 -0.0880961 0.216149 0.331586 -0.123326 0.00364213 0.0530556 -0.0300165 0.0201309 0.267338 0.0756974 0.189399 0.21339 -0.0260606 0.0902991 0.24411 -0.0815501 -0.185799 -0.071413 -0.218925 -0.0308811 0.134069 -0.290951 -0.0152391 0.100719 -0.255503 0.0743501 -0.0372976 0.198761 0.286659 0.213866 0.00182279 0.182625 -0.0316211 0.0581553 -0.110123 0.0954916 -0.0209319 0.168198 0.390213 -0.164268 0.177189 -0.283701 0.262882 -0.0837308 -0.0412892 -0.204459 -0.258716 -0.0996312 0.0127544 -0.250296 0.081039 0.0359399 -0.0272777 0.209135 0.0849203 -0.181643 0.163723 0.362905 0.0145533 -0.186513 -0.155644 -0.0176224 -0.127796 -0.0100536 -0.213093 -0.211774 -0.103621 0.149563 0.0955178 0.337756 0.0620757 0.0964727 0.154119 0.0852581 0.179675 -0.221038 -0.00514118 -0.146592 -0.146673 0.263754 0.0606375 -0.0822319 -0.161523 0.0707462 -0.386616 0.0410487 0.0465972 -0.162624 0.00277172 0.12285 0.263855 -0.0228645 -0.224978 0.146925 0.030041 0.494142 0.359169 -0.232245 -0.00430297 0.149516 -0.110113 0.00800236 0.118594 0.0570525 0.435866 -0.314053 -0.060437 0.0244313 0.163321 0.119294 0.0219617 0.244853 0.0935479 0.217596 0.201643 -0.134109 0.0210784 0.227142 0.0458922 -0.167554 -0.252173 0.0140513 -0.160187 0.213745 -0.226694 -0.0855916 0.0326586 -0.260214 0.154035 -0.305885 0.167187 -0.124964 -0.0376261 0.01983 -0.0553056 -0.128423 -0.183339 -0.179362 0.151032 0.132782 0.153241 0.327761 0.099305 0.225208 -0.0483529 0.0964551 0.133707 -0.202507 -0.00821375 0.0966217 -0.0843502 -0.107599 0.00945744 0.0559277 0.010946 0.10814 -0.481724 0.338639 0.127523 0.0237415 -0.0644505 -0.104975 0.211936 0.0384321 -0.242339 0.279487 0.107107 -0.116027 -0.295073 -0.0699935 0.356469 -0.0176451 -0.00414961 0.0415142 -0.0390914 0.200821 -0.0927681 0.150602 0.0248025 0.106766 -0.0773471 -0.153761 -0.0348744 0.451753 -0.0397099 -0.213297 0.380476 0.218968 -0.322129 0.00563557 0.210553 -0.0462475 -0.28703 -0.103645 -0.203213 -0.156838 -0.250885 -0.342517 -0.0514926 -0.127919 -0.208314 0.0483383 0.0574912 0.122322 0.220046 0.0135705 0.0338929 0.102362 0.163898 0.453162 -0.0498763 0.0783661 0.245767 0.0565641 -0.138045 -0.0471518 -0.05168 0.299841 -0.112391 -0.181442 0.0488683 -0.132301 0.00465229 -0.130805 -0.0856058 -0.0965963 0.0163663 0.148659 -0.233553 0.24195 -0.242775 -0.399952 -0.207157 -0.0644866 0.103828 -0.00413495 0.220868 -0.0721177 0.00853561 0.0478198 -0.162768 -0.148227 -0.125842 -0.0207912 0.32874 -0.0508363 -0.146435 0.339356 0.150056 0.305404 -0.0396151 -0.10433 0.188994 -0.23262 -0.205494 -0.250143 -0.140838 0.0646704 -0.113849 -0.359275 0.107787 0.0694153 0.223724 0.0537216 0.296225 -0.22154 0.0445686 -0.0617905 -0.12272 0.143591 0.111615 -0.248563 0.102033 -0.230621 0.0245808 -0.0306565 0.19733 -0.112565 -0.0978419 -0.00189313 0.0849215 0.175385 -0.0152617 -0.256483 -0.137845 -0.0306836 0.118991 -0.0190953 0.0879501 -0.0353829 -0.188751 0.246863 0.226949 0.120445 0.156916 0.0899591 0.131547 -0.0888921 0.00325444 0.197256 -0.2315 -0.213072 -0.205812 0.0180898 0.253375 -0.0204595 0.146501 0.179352 -0.0967746 0.2347 -0.14003 -0.0295346 -0.0674817 -0.0415557 0.112338 -0.424103 0.0772935 -0.179204 -0.108894 -0.236262 0.18318 -0.0442093 0.135541 0.416535 0.237024 0.146687 -0.188021 0.112318 0.248071 -0.000830556 0.0327389 0.00185072 -0.0145783 -0.270104 -0.0710467 0.0330592 -0.263755 -0.113124 0.100394 0.101 -0.260519 -0.12242 0.121328 -0.168039 0.00160633 0.311861 0.0426484 0.0918096 -0.0881501 -0.0851183 0.056448 -0.0856586 0.143255 -0.287477 0.0192749 0.241039 0.355732 -0.166847 0.119286 0.170328 -0.0754472 -0.0411786 0.18482 -0.107281 -0.14179 -0.0506777 -0.163503 0.0362182 -0.20523 0.266155 -0.0226819 0.1009 -0.101648 0.366512 0.255225 0.189783 0.0267601 0.00498392 0.110234 -0.113127 -0.215804 -0.235969 -0.0619458 -0.148716 0.153794 0.221567 0.0404215 -0.245396 0.229128 0.124429 0.118645 -0.122819 -0.216728 0.0828458 0.405212 0.235166 0.32821 0.0470588 -0.070949 -0.298918 0.106239 -0.238496 0.0814956 -0.158307 -0.0752837 0.0568951 -0.17182 0.162355 0.174111 0.238811 0.15846 -0.0224557 -0.216891 -0.159719 -0.0938704 -0.220021 0.0494329 0.089805 0.0692133 0.119095 -0.179949 0.21083 0.032915 -0.153389 0.107513 -0.355848 0.0172775 -0.0642141 0.0271918 0.018337 -0.0893819 0.15497 -0.125543 -0.124214 0.0527968 -0.04818 0.00124849 0.00338454 0.120657 -0.0176128 -0.0100925 0.0037499 -0.217731 -0.0296421 -0.0548313 0.256204 0.16089 0.21536 0.122073 -0.00226636 0.371411 0.273093 0.275019 0.254107 -0.174396 0.235289 0.189704 0.081372 0.0922453 -0.349608 -0.148081 -0.0497811 -0.163013 -0.145141 0.239617 -0.247254 0.3209 -0.0985828 -0.0258771 0.216947 0.181646 0.269155 -0.0428084 -0.101773 0.423179 -0.133577 0.0260417 -0.0543057 -0.0520529 0.275956 0.0950899 -0.283307 -0.0767475 0.0716067 -0.285163 0.184856 -0.0670349 -0.0804146 -0.00250636 0.0465786 0.296127 -0.16579 -0.344115 -0.0530496 -0.106711 -0.168994 -0.239837 0.0322033 0.0282027 0.13856 -0.0985179 0.0636324 -0.166128 0.184893 0.113276 -0.0357151 -0.017558 -0.266966 -0.069108 0.25154 0.130018 0.0695067 0.0549465 -0.0840142 -0.35406 0.0401449 0.244872 -0.12499 -0.0988468 0.17889 0.0843954 -0.00722295 -0.161506 0.129469 0.0113815 0.0886238 -0.0699984 0.0329387 -0.167898 -0.0702276 0.114104 0.0616312 0.0684128 -0.300049 0.204519 0.172082 0.267417 -0.0665732 0.0461961 -0.0131793 -0.119516 0.297993 0.127692 -0.00618245 0.335645 0.0157608 -0.142524 -0.430774 0.116823 0.102743 -0.0265206 0.113072 0.142252 -0.0582573 0.10106 0.233864 0.201368 0.0734336 0.490639 0.287974 0.255593 -0.161533 0.0608366 -0.251982 0.216391 0.212185 -0.0853815 -0.163837 -0.287902 -0.0346858 -0.0595871 0.285414 0.0134871 -0.094911 -0.0621633 -0.0337834 0.0778911 -0.00645579 -0.0694336 -0.0608928 -0.0839213 -0.0544888 -0.16693 -0.182805 0.225416 -0.270183 -0.186096 -0.108255 -0.215464 0.158595 -0.127799 -0.24137 -0.0756355 -0.254308 -0.030749 0.0480434 0.217575 -0.0908858 -0.135346 0.0579104 -0.0984965 -0.114607 0.0638056 -0.0954157 0.159458 0.121144 -0.033331 0.247376 0.0556623
government 0.0487523 -0.0879525 0.0491875 -0.12397 -0.24347 0.151155 -0.0104245 -0.0996507 0.0661325 -0.0133063 -0.051763 -0.09728 0.155369 -0.209622 0.02217 0.0501443 -0.0837946 0.0549501 -0.0711873 0.126449 0.0576681 0.128933 0.0441275 -0.197426 -0.0221424 0.0365004 -0.167467 0.0403075 -0.055281 0.0575732 0.114074 -0.0230109 0.132173 -0.0404096 -0.142838 -0.00799745 -0.234917 0.128584 -0.231788 0.23346 0.0460688 0.117446 -0.0863376 -0.0939404 -0.0149954 0.0947976 0.0622941 -0.061866 0.151255 0.116722 -0.100839 -0.190302 0.0205645 -0.0598272 -0.0231821 -0.197115 0.324894 0.0103819 -0.0969539 0.172209 0.0650299 0.129149 -0.0208662 0.0818121 0.101912 -0.0684776 -0.200272 0.160727 0.106269 -0.105473 -0.275962 -0.152209 -0.0500778 0.128344 0.00673424 0.0736005 -0.175714 -0.0472227 0.204842 0.304013 -0.0510055 0.0520138 -0.00321924 -0.179272 -0.111104 0.027601 -0.0790157 0.0985164 0.0503071 0.126069 0.0389934 0.00271683 0.142638 -0.0882377 0.0830541 0.0812276 -0.00914395 -0.0345439 0.0387897 0.0679072 0.0342271 0.119682 0.0867556 -0.238875 0.198602 -0.137871 0.144584 -0.155311 0.0780464 0.0350711 0.0261264 -0.0914014 0.0616838 -0.150701 0.0362664 -0.190525 -0.0427413 0.121026 0.0446335 0.058438 0.142071 -0.154135 -0.107395 -0.0191957 -0.141147 -0.000295147 -0.0201567 -0.171737 0.0863454 0.154247 -0.260838 0.129455 0.123976 0.0872506 -0.0248516 0.0316474 -0.0278603 -0.0409666 -0.0775578 -0.0247911 0.148344 0.129045 -0.22165 0.045643 -0.20712 -0.0343521 0.0495229 0.0592749 0.026605 0.139148 0.0685902 -0.0768732 0.023827 0.16775 -0.2952 -0.0438618 0.024553 0.0537713 0.0243004 0.061549 -0.301504 -0.0840025 -0.0613835 0.0915064 -0.125936 -0.0198731 0.00278016 0.0321618 0.175584 0.240312 -0.0503602 0.0404722 -0.290498 0.10416 0.154726 -0.00971172 0.00304695 0.195814 0.045127 0.241679 -0.0973975 -0.0709094 0.250798 0.0610048 -0.0309977 0.218425 0.167436 0.0154978 -0.0590406 -0.0139311 0.0511671 -0.016104 -0.0608535 0.0503126 0.0098991 0.207534 0.0941456 0.0200786 0.152379 -0.0403075 -0.0248493 0.00931925 -0.0119599 -0.20513 -0.0818697 -0.0841932 0.311271 -0.0404452 0.18206 -0.0981383 -0.0487065 0.0307167 -0.140088 -0.219633 -0.0370401 -0.297635 0.0444753 0.171779 0.0511016 0.0766714 -0.0588196 -0.022424 0.0179887 0.0352093 -0.259296 -0.0436798 0.0553824 0.00792624 0.0938568 0.0347838 0.220123 -0.163773 -0.0679052 0.0781643 0.0374141 -0.0364148 0.0237789 -0.00736846 0.119849 -0.0704762 -0.0125304 -0.175718 -0.1589 -0.1233 0.0934369 -0.113636 -0.181867 0.0463266 -0.139273 0.255633 0.11883 0.0507496 -0.00688384 -0.185535 0.214237 -0.104129 -0.00987841 0.0050408 0.258011 -0.0852764 -0.181796 -0.0137836 -0.0944962 0.0388929 -0.106829 0.125344 -0.00430731 -0.00608275 -0.069663 -0.245374 0.0636149 -0.0913404 -0.0986115 0.0043507 0.0145411 0.131109 0.146789 0.0852784 0.118564 0.00984858 0.0987813 -0.146225 -0.010758 0.0814485 0.0190508 0.0488575 -0.0208854 0.0290441 -0.255354 -0.159384 0.0653997 -0.299509 -0.116873 -0.179708 -0.0249859 -0.11133 0.253055 0.0621823 -0.0556617 0.265173 0.00548562 0.078777 0.0364029 -0.174537 0.0233514 0.00345894 0.124248 0.123721 0.070452 0.0267201 0.0168944 0.229083 -0.0354526 -0.180108 -0.227516 0.0815609 0.128648 0.104895 0.0672577 0.158288 0.083114 -0.159122 -0.132362 0.0483953 -0.36415 0.209766 -0.135661 -0.0117875 -0.134201 0.00979805 0.126417 0.0170613 0.172993 0.0883076 0.146435 -0.0670945 -0.0462221 -0.316701 -0.0553978 -0.01801 -0.0660735 0.00360193 -0.106961 -0.00966358 0.181281 -0.141595 0.00220834 -0.0508938 0.0219179 -0.139936 -0.0801454 -0.208501 -0.256409 -0.0139358 0.0423486 0.0178707 0.0102692 0.209116 0.00983027 0.0165655 0.140122 0.169491 0.102462 0.155255 -0.120415 0.0333228 0.0763086 0.274822 0.153541 0.0241611 -0.139285 0.199357 -0.223096 0.0076632 -0.0582082 -0.193119 -0.0588652 -0.13077 -0.0431392 -0.0423847 0.144322 0.282504 -0.149301 0.168474 -0.00572536 -0.0254696 0.0373622 0.140223 -0.047376 -0.0120613 0.0855001 0.0462313 0.00247761 0.00725947 0.0383792 -0.0974993 0.231494 0.32953 0.00828331 -0.1044 -0.00846118 0.000766176 0.032058 -0.241927 0.0306537 -0.236552 -0.250423 -0.0909434 -0.18772 -0.187053 0.0703387 -0.113137 -0.073013 0.0502968 0.0725194 0.122519 -0.183897 -0.0935031 0.172377 -0.104703 0.117829 -0.0186942 0.0992671 0.157639 -0.0467505 0.223541 -0.00397981 -0.0569815 0.0122628 0.149874 0.061312 0.0833898 0.0178104 0.381728 -0.183796 -0.130361 0.127456 0.0172567 0.0240749 0.0763149 0.112115 -0.0904404 -0.0975962 0.119043 0.179735 -0.2813 -0.0030925 0.0943572 0.157215 -0.142698 -0.0603497 0.0344535 0.160306 0.0701982 0.0680237 -0.203936 0.18346 -0.0400557 -0.231653 -0.0839924 -0.139506 0.116025 -0.280126 -0.127562 0.116693 -0.00421401 0.166904 -0.170378 -0.0375153 -0.135874 0.0163698 -0.253013 0.0462369 -0.0719194 0.0520981 0.0659264 0.0448429 -0.12263 -0.0352672 0.122403 0.0711557 0.144524 -0.18533 0.109543 -0.127637 -0.0641669 0.074551 -0.248799 -0.0919699 0.336656 -0.0555749 0.129113 -0.211987 -0.0255428 0.0549788 -0.0997605 0.0742884 -0.0960049 -0.0235066 0.0304991 0.051283 -0.323346 0.0570891 -0.0672099 0.121538 -0.0615269 -0.0880714 -0.1181 0.0297842 0.184114 -0.0347609 -0.178904 0.0675732 -0.0587445 -0.100979 0.106495 -0.127146 -0.159962 0.0520584 -0.0290643 0.176631 0.0281907 -0.013722 0.0226143 -0.226405 -0.150919 -0.0866762 0.139688 -0.094945 -0.102156 -0.0420164 0.112404 -0.00100376 -0.180451 -0.0269545 -0.11118 0.00406236 -0.148926 0.0270294 0.171842 -0.0012492 -0.0796446 0.165843 0.0588721 0.0546782 -0.0694035 0.135004 -0.10635 -0.105552 0.0140369 -0.15518 -0.0200651 -0.073525 -0.0326421 -0.123821 -0.160857 -0.187857 0.191034 -0.093496 -0.144831 -0.17067 0.0895729 0.0928949 0.0645343 -0.0561123 0.109479 0.088084 -0.209856 -0.0346135 -0.163591 -0.14118 0.0899117 -0.240052 0.0852562 0.010432 0.0684729 0.15627 0.276574 -0.12703 -0.00657664 0.363322 -0.119123 -0.109674 -0.107711 0.0336063 -0.0940437 0.128357 0.0718193 0.103401 -0.131206 -0.0538828 -0.0120475 -0.14884 -0.141833 -0.100526 -0.00768694 -0.0336697 -0.20732 0.238425 -0.135409 -0.0240054 0.0551006 -0.144678 0.181203 -0.177591 -0.372626 0.150023 -0.0763274 -0.0277396 -0.31835 -0.027001 -0.161928 0.0594145 0.0343549 0.103505 0.169073 0.481211 0.0327743 -0.0248156 -0.0167481 0.309668 0.143331 -0.126475 0.230468 -0.209116 -0.0658041 0.113553 0.0756891 -0.179604 -0.127317 0.138557 0.0228711 0.0418547 -0.0898539 0.0686866 -0.0181614 -0.17547 -0.0888021 0.142305 -0.138844 -0.112335 0.24584 -0.0668663 -0.0622548 0.22196 -0.0189076 0.141571 0.0774176 -0.0723338 -0.088393 -0.0873359 0.0291363 0.0383355 -0.189336 0.03009 0.063362 -0.0788128 0.0199468 0.168481 0.282989 0.273121 0.264804 0.0422125 -0.110406 0.0510608 -0.11516 -0.162251 -0.0233367 0.336841 -0.0661157 -0.00980165 0.0372213 -0.0366433 -0.0190493 -0.0435496 -0.139353 -0.131495 0.0460916 0.0773759 -0.121655 0.00817648 -0.0381513 -0.0597558 -0.00756156 0.0544381 0.0502238 0.0939919 0.163574 -0.285745 0.0186312 -0.105984 -0.1228 0.090723 0.213562 -0.0581006 0.261722 0.127245 -0.00368315 0.0551106 -0.105726
madhouse -0.180046 -0.229259 0.168414 -0.379885 0.204223 0.272446 -0.0876701 -0.0178894 -0.0433314 0.321664 -0.283328 -0.035024 -0.287898 -0.0577737 0.149647 -0.105548 0.180702 0.234103 0.164702 -0.146378 0.347783 0.208507 -0.269455 -0.113709 -0.167459 -0.0544238 0.0113922 0.00988795 0.269243 0.241322 0.0811198 0.304989 0.0177254 -0.0525926 0.174171 -0.149939 -0.0954096 0.576569 0.136449 0.229436 0.0430918 0.0272537 0.140697 0.0436169 -0.169118 0.106683 0.0782276 -0.32565 0.0994952 0.0473145 -0.150784 0.0857443 0.0162161 0.425054 0.0249428 0.108756 -0.0581264 -0.141966 -0.0822101 -0.0752778 -0.157906 0.187036 0.325834 0.104582 -0.0774193 0.0559242 -0.00772462 -0.137574 0.267753 0.0394685 0.121214 0.0907986 0.441554 0.0768094 -0.00750285 0.0663657 -0.151799 -0.0952504 -0.240312 -0.0223367 -0.0782626 0.365596 -0.0261461 0.0827517 -0.402042 0.198864 0.288031 0.154343 -0.178968 0.0289894 0.129657 -0.222506 -0.122774 -0.0147135 0.221423 0.308385 -0.0881722 0.229391 -0.178524 -0.218582 0.0511047 0.0858637 -0.131678 0.0859796 0.123629 0.100625 -9.88284e-05 -0.300847 -0.272027 0.0414202 0.151275 -0.19649 -0.00570449 0.0455354 0.014295 -0.117265 0.000849448 0.00939727 0.189633 0.017895 -0.285932 0.202984 0.00404338 -0.143421 -0.328579 -0.257547 -0.21291 0.0535683 0.0451085 -0.0144058 -0.187538 0.00309644 -0.0712566 0.0571569 0.0888488 -0.149331 0.104198 -0.0531994 0.0528722 0.0645815 0.342295 0.428909 0.115439 -0.151628 -0.0509323 0.291669 -0.14326 -0.069848 0.110179 0.101558 0.208646 -0.0517128 -0.0765439 -0.12849 0.0520945 -0.0543489 -0.0159008 0.272927 -0.0148581 0.110805 -0.184646 -0.157796 -0.257735 -0.0664498 0.0744589 0.0451925 -0.0224286 -0.293907 -0.263053 -0.0428059 0.183376 0.113419 0.169003 -0.108743 0.00808284 -0.161705 -0.127991 0.171964 -0.185671 0.0561223 -0.157768 0.329778 0.23113 0.146044 -0.248321 -0.0863153 0.320894 -0.0630626 0.1604 0.0399286 0.357404 0.0773828 -0.318458 -0.105573 -0.0910311 0.260777 0.423687 0.096132 -0.126069 0.334465 -0.0968614 -0.110744 0.179615 0.0112696 0.242036 0.0159684 0.122656 0.0310938 -0.0571111 -0.00493282 -0.442453 -0.29437 0.127179 -0.211499 0.237338 -0.0871537 -0.0304832 0.0701504 -0.0336271 -0.173679 -0.290909 0.00140984 0.405832 0.108934 -0.224655 -0.529311 -0.0670384 -0.0118059 0.225529 -0.106229 0.26252 0.251767 0.0294852 0.0349615 0.0182536 -0.020222 -0.202982 -0.279285 -0.00817431 0.0463239 0.216997 0.0950802 -0.00888915 0.196924 0.213071 0.103577 0.241177 0.0297531 0.0632119 0.2979 0.00568478 0.248507 0.279867 0.120521 0.23191 0.0436762 -0.0367171 -0.463012 0.147674 -0.110553 -0.0546268 0.199001 -0.307548 0.111709 0.00283461 -0.084972 -0.286448 -0.035071 -0.0460375 -0.0227237 -0.241724 0.180567 0.206736 -0.014612 -0.47332 -0.0184325 0.175443 0.0931731 -0.0599258 -0.135843 0.0627866 0.0908073 -0.25806 -0.0738193 -0.285982 -0.136736 -0.0298582 -0.0536891 -0.236553 0.050216 0.0275355 -0.255107 0.166165 -0.0225509 -0.0730596 0.290662 -0.101413 0.0705356 -0.200026 0.288708 0.0900837 -0.0614467 0.0267821 -0.0218569 0.145063 0.248971 -0.0513796 0.301891 0.343908 -0.325112 0.261293 -0.0256588 -0.410399 -0.411311 -0.209869 -0.271463 0.154253 -0.0644418 -0.0611761 0.00390105 0.222758 -0.0560479 -0.250473 0.0776981 0.0113016 0.221959 0.0264873 -0.215784 0.0271233 -0.215015 -0.243649 -0.193552 -0.0149201 -0.194409 0.115308 0.0586603 -0.1586 -0.273381 0.340948 -0.0875756 -0.0202889 0.324149 0.287971 -0.0970876 0.145438 0.128741 -0.406666 -0.150707 0.207056 0.163983 -0.113916 -0.0903946 0.0979665 -0.46289 0.0445699 0.106991 -0.240962 0.23194 0.00286945 -0.0590679 0.100582 -0.136134 -0.173065 -0.110074 -0.108122 0.0961223 0.0520343 -0.0703348 -0.128836 0.0737763 -0.0479718 0.341812 -0.0251029 0.0170876 0.15865 -0.0588704 0.168941 0.00611245 -0.151428 -0.152564 -0.0838741 -0.141082 0.0335768 0.102317 0.0146826 0.0928487 -0.03442 0.148959 -0.0557938 0.200228 0.219478 -0.166145 -0.115353 -0.038295 -0.144964 0.0710466 -0.0142051 0.141361 -0.0782225 0.0631687 0.369298 -0.0958899 0.144773 0.154064 0.066126 0.146727 0.0742528 -0.302096 -0.0261584 -0.0474989 -0.0507791 0.306179 -0.354807 0.180513 -0.0393318 -0.135642 -0.226657 -0.179264 0.139888 0.00844258 -0.0770098 0.212008 -0.075647 -0.355048 -0.219505 -0.17389 -0.213948 -0.240701 -0.160438 -0.133041 -0.0901556 -0.122707 0.0928565 -0.206964 -0.284434 -0.218743 -0.0996315 0.0506903 -0.298361 0.0565079 0.0532187 0.0180612 -0.0234468 0.0518335 -0.408502 0.00412277 0.0668427 0.105684 -0.100572 -0.165258 0.0775116 0.0169934 -0.0268415 -0.0146271 0.172326 0.0447826 0.21485 -0.0577436 0.122103 -0.212338 -0.0343168 -0.0881606 -0.0498019 -0.219878 0.231319 -0.125124 0.0821261 0.117177 0.361405 0.12064 -0.087998 -0.0836525 -0.0935787 -0.0179459 -0.349617 0.16054 0.101606 -0.133778 0.414203 -0.122569 -0.0975302 0.0903877 -0.016657 -0.0865363 -0.124755 -0.0744037 -0.0634011 -0.105973 -0.0779207 0.0461009 -0.12784 0.140799 0.114322 0.153439 -0.0822339 -0.180631 -0.258853 -0.0448412 0.223783 0.0454742 0.138872 0.184803 -0.0652535 0.103391 -0.450705 0.207208 -0.233251 0.0322023 -0.00850847 0.27982 0.256922 -0.440869 -0.142976 -0.199991 -0.035198 0.0592076 -0.231826 0.0214114 -0.0808387 0.129921 0.0144193 0.0635098 0.0182091 -0.256157 -0.104515 0.1104 0.0926194 -0.0223875 -0.208997 0.0880961 0.101842 0.166117 -0.0506407 -0.265885 -0.0490454 -0.00609913 0.22262 0.307567 -0.23917 0.0801867 0.00163206 -0.0797975 0.0992131 0.0805397 -0.331627 0.0118212 -0.126861 -0.0174393 -0.115031 0.106516 0.319942 -0.00591727 -0.134901 -0.171075 -0.186337 0.0313956 0.228388 -0.204445 0.139669 -0.0475131 -0.151524 -0.0346494 0.477615 0.0879981 0.25099 0.05267 0.135227 0.227489 0.0815718 0.206 0.00409681 0.349039 -0.013465 0.00263092 0.101508 0.212394 0.0975062 -0.0803408 0.0598076 -0.384399 0.247736 -0.20018 -0.328607 0.189849 0.0639704 0.129215 0.0266112 -0.147234 0.115052 0.219018 0.012401 -0.31019 0.151849 -0.107525 0.138378 0.152752 0.0248783 -0.131722 -0.000927523 -0.0199672 -0.0783475 0.443973 -0.156252 0.0389409 -0.360823 -0.1193 -0.118214 -0.0681336 0.150344 -0.200643 -0.130102 0.1469 -0.0703031 0.630002 0.0527036 -0.129059 0.190433 0.0523096 -0.376911 0.097087 -0.230515 -0.199004 -0.0275702 -0.0732274 0.180734 0.0833114 -0.114309 0.0381401 -0.110413 -0.071223 -0.253776 -0.222001 -0.314934 -0.141979 0.266769 0.0327796 -0.157437 -0.0848068 -0.076195 -0.238618 0.00497493 -0.0194341 -0.068061 -0.230766 0.0519499 0.0639169 -0.0204375 0.204257 -0.118491 -0.404137 0.0869528 -0.00315905 -0.0268492 -0.167903 0.00829982 -0.176347 0.0539308 -0.0989048 0.158299 -0.126387 0.0897731 -0.0402676 0.123307 0.370706 0.20505 -0.275459 -0.0346717 0.0450655 -0.160011 0.0880665 -0.035548 -0.267386 0.0838424 -0.090267 -0.0991639 -0.0930857 0.2103 -0.0311248 -0.0135983 -0.368705 -0.233715 0.0957256 0.242544 -0.0584633 -0.0350064 0.0867617 -0.0790122 -0.236817 0.00564344 -0.0420613 0.0414876 0.0847021 -0.237267 0.439511 -0.221989 0.152378 0.181826 -0.0778187 -0.0266 -0.16259
video -0.0125524 -0.131501 0.0335582 0.089874 0.014644 -0.0268467 -0.0479126 0.168769 -0.0361347 -0.0685821 -0.301338 0.0587341 -0.172071 -0.241796 0.176586 -0.0475003 0.128457 0.167994 0.000730073 -0.156691 0.153696 0.0957284 0.0731631 -0.129004 0.0526031 -0.0558523 0.0835737 0.0815167 0.105078 -0.357083 -0.313917 0.0482422 -0.251769 0.0645508 0.0285011 -0.202973 -0.0536769 0.159826 0.308908 -0.138502 -0.138486 0.0964567 -0.215731 0.0351486 0.094109 -0.0680828 0.280941 -0.0602851 0.227363 0.0813768 0.240282 -0.0472986 0.0622722 0.22386 0.279799 -0.117977 -0.0721291 -0.0860008 0.148776 -0.231819 0.0614348 -0.264938 -0.184818 0.0462946 -0.0133964 -0.0342129 -0.219394 -0.0306265 0.157766 0.0581358 -0.0531602 0.0628619 0.0164802 -0.121214 -0.0184065 0.00315127 0.0574838 -0.00565084 0.0710577 0.200732 -0.0500724 -0.031466 0.133214 -0.139937 -0.097041 -0.171644 0.0604458 -0.0313449 -0.086456 -0.0307137 0.0506475 -0.211479 -0.141137 0.167687 -0.209202 -0.0198434 -0.230141 0.246802 0.0201528 -0.21954 0.130785 0.0489891 0.1508 0.118816 -0.131973 -0.0281426 -0.0904095 -0.0807755 -0.0958155 -0.0769208 -0.113168 -0.200467 -0.0786187 -0.178445 -0.100242 -0.210878 -0.0482963 -0.343476 0.0537602 -0.152003 -0.00326929 0.0826166 -0.278602 0.00290224 -0.00427908 0.0487392 0.217166 -0.198647 -0.158969 -0.00325377 -0.16499 0.0292147 0.0479047 0.0107433 -0.25765 0.0531267 0.233586 0.431804 0.100899 -0.162305 -0.0440446 -0.0188672 0.151576 -0.159117 0.0951358 0.149648 0.232454 0.0350335 0.0515284 0.180838 0.26405 -0.27426 -0.00049795 -0.140251 0.109588 0.166079 -0.036982 -0.024963 0.0405277 0.0420491 -0.0348548 0.171772 0.0832039 -0.026435 0.125908 0.0136729 0.0429916 -0.152666 0.0212241 -0.16137 -0.0850301 0.0470307 0.0343004 0.000943404 0.19515 0.0238771 -0.0412676 0.237348 -0.146891 0.00896719 0.0555702 0.197685 -0.185611 -0.134172 -0.160781 0.119543 0.0749234 0.00271456 -0.0596848 -0.269605 -0.0557842 -0.138731 0.16973 0.17774 0.231124 0.312315 -0.0129444 0.227037 0.10005 0.158461 0.0104622 0.123947 0.146572 -0.120438 0.124796 0.0951551 0.0451339 0.136062 -0.116149 -0.109614 -0.217279 0.0387013 -0.0913927 0.0770617 0.261639 -0.0794707 0.133379 0.076537 0.100207 -0.169813 -0.0810594 0.11209 -0.0740145 0.0697931 -0.0130681 -0.20422 -0.364852 0.235638 -0.0117147 -0.19215 0.107632 0.0587454 0.115352 0.152397 0.105069 -0.314909 0.0113348 -0.142406 -0.137549 -0.0049825 0.184059 0.112382 -0.0742867 -0.00907814 0.140483 0.219307 0.20083 -0.0762092 -0.0913541 0.125278 -0.105568 -0.139326 0.112969 0.238104 0.163013 0.135786 0.0348833 -0.244577 -0.0378888 -0.103822 -0.240759 -0.0913956 -0.158653 -0.0588781 0.132794 -0.0759571 -0.297068 -0.132846 0.0740213 -0.109771 -0.139665 0.111343 0.159311 0.234673 0.225394 -0.0352337 0.417844 -0.00827206 -0.319605 -0.0157883 -0.0642281 -0.280619 -0.157832 -0.196056 0.0615046 -0.160162 0.0868962 0.113539 0.323231 -0.171943 0.070362 0.0745868 0.394767 0.0824859 -0.117138 -0.0880737 -0.0394548 0.0795882 -0.0298128 -0.0161305 -0.121439 0.12625 0.0716776 0.117228 -0.0892448 0.0393236 0.171869 0.0363586 0.273848 0.0347876 -0.0037793 -0.206439 -0.168831 -0.286002 0.0990031 -0.110618 0.0714868 0.0160782 -0.0793604 -0.160653 0.267358 0.0433356 -0.342463 0.0606008 -0.28454 -0.0179489 -0.158389 -0.0979209 0.111059 -0.118875 -0.32421 0.0290719 -0.0140456 -0.0833774 0.181511 0.0100548 -0.0788927 -0.0673814 0.135589 0.156265 -0.129565 0.142909 -0.0515807 -0.0398753 -0.130597 -0.0959487 -0.147318 -0.274787 0.252624 -0.0131405 -0.256075 0.124274 -0.0186242 0.327953 0.227967 0.211511 -0.14472 -0.0428656 -0.215613 -0.0306418 -0.258356 -0.00603279 0.037525 -0.0216812 -0.0303182 0.177803 0.116903 -0.0948744 2.41666e-05 -0.148636 -0.190934 0.0726428 -0.0927008 0.0033912 -0.000283152 0.19622 -0.184734 0.15683 -0.0788428 -0.331862 0.15643 -0.0280803 -0.120281 0.0256175 0.295279 -0.0759158 -0.0343785 0.0727429 0.11137 -0.123285 -0.0621316 -0.130798 -0.0823612 0.229959 -0.0375969 0.258469 0.122963 0.0910745 -0.00684896 -0.0715079 -0.0643945 -0.227082 0.105401 0.261382 -0.100796 0.193427 -0.0773611 0.0301715 -0.028177 -0.245763 -0.197057 0.166606 0.0400781 0.13759 -0.142022 0.15947 -0.163673 -0.33828 0.132739 0.13327 0.0666429 0.151389 -0.00705465 0.162215 -0.261398 -0.0780543 0.0694741 -0.011305 -0.0710835 -0.163121 0.023354 -0.0625785 -0.126626 0.0205231 -0.128499 -0.0263304 -0.016137 0.0264056 -0.00057922 -0.0956059 -0.175197 0.178502 -0.130616 0.0772167 -0.0533315 -0.165893 0.14086 -0.0840068 -0.037372 -0.143389 -0.130037 -0.0552376 0.11961 0.24297 0.0613404 0.0959092 -0.0896613 -0.0982146 0.078059 0.0298875 -0.130925 0.0133931 -0.00266038 0.0527949 0.186016 0.00633719 -0.0268307 0.098878 -0.35085 0.0828324 -0.0491216 -0.0975538 0.0594424 0.28669 -0.0592792 -0.0770455 -0.0121638 -0.0480171 0.0228872 0.0250162 -0.0697766 0.299948 0.30812 -0.0937448 0.0120021 -0.144378 0.0477051 0.0276251 -0.100641 -0.149693 0.13859 0.347552 0.0845784 0.194378 -0.329305 -0.0453288 0.0489389 -0.121319 0.220233 0.106282 0.128606 0.06523 0.077002 -0.157914 0.0095869 0.00434153 0.00755733 0.0938875 -0.150435 -0.168515 0.151447 0.00406097 0.0325033 -0.153169 -0.0459633 0.156949 -0.399632 0.168475 -0.044659 0.174258 -0.126484 -0.231859 0.0198986 -0.172719 0.0228667 -0.0121941 -0.00312843 0.177025 -0.229784 0.0291651 0.131151 -0.0392537 -0.139539 -0.171185 -0.00889751 -0.148383 0.135698 0.203981 0.171731 -0.0147377 -0.147669 0.0625282 0.119777 0.267656 -0.0423082 0.313458 0.117118 -0.079919 0.224434 -0.189684 0.206526 0.276181 -0.294306 0.0343187 -0.397014 0.0119021 -0.0223446 -0.106269 0.292622 -0.011145 0.169272 -0.346473 0.222153 0.104073 0.0825569 0.0984381 -0.0464896 0.00705375 0.133113 -0.0366865 -0.162572 0.114546 -0.119834 0.304859 0.106368 0.0679534 0.0118419 0.0375631 -0.286146 -0.0464052 0.0381451 0.0213816 -0.118856 0.114317 -0.164591 -0.0876113 0.0787473 -0.0625823 -0.0908698 0.182858 0.0674626 -0.0146268 0.0808825 -0.548268 -0.0101638 -0.19838 -0.150053 -0.0216034 -0.129406 -0.0630579 -0.0770143 -0.0822374 0.209717 0.0119242 0.00476897 -0.181249 -0.257463 0.249165 -0.0729082 -0.297167 0.0185933 -0.0327613 0.0388636 0.244919 0.277178 0.283921 0.250942 -0.102048 -0.198971 0.0529511 -0.0479682 0.225339 -0.00621847 0.0681313 0.0769575 -0.177541 0.130945 -0.118959 0.0822668 0.0272911 -0.187834 -0.00795568 0.0566485 0.110761 0.122479 -0.102164 0.00891781 -0.20362 0.160874 0.229198 -0.0546502 0.143403 0.136838 -0.0988891 0.17474 0.23673 0.0354532 -0.129061 -0.067563 -0.0371144 -0.0902178 -0.01461 0.115614 -0.0645604 0.175593 0.00314603 0.0327571 -0.212525 -0.0896632 0.0437191 -0.0865273 0.0260374 -0.166164 0.0823817 0.03666 -0.182355 0.117443 -0.228619 -0.319615 -0.29788 0.100028 0.00192449 0.27369 -0.104471 0.0624974 0.137934 -0.0604236 -0.296787 -0.396013 -0.133613 -0.356583 -0.0936367 -0.24249 -0.235439 0.150306 0.17235 0.138465 0.201847 0.0405036 0.00333273 0.143214 0.0738484 0.157943 -0.0359337 -0.0848719 0.149958 0.0229447 0.250122 0.16598 -0.0327887
defeating 0.160199 0.104289 0.218836 0.116315 0.0998573 -0.100048 -0.145673 -0.0205873 0.0438343 0.268051 0.167436 -0.315566 -0.133694 0.100359 0.0828223 0.11428 -0.206753 0.389794 -0.365688 -0.184997 -0.212374 -0.169995 0.116945 -0.289406 0.113691 -0.453063 0.030999 -0.143826 -0.174348 0.134707 0.260528 0.156259 -0.140442 -0.190478 -0.240765 0.0328851 0.108695 -0.326936 -0.222593 -0.0283771 -0.0342838 0.291639 0.0752173 -0.0266485 -0.0553048 0.0866848 0.0220352 -0.0787909 -0.596971 -0.02176 -0.0154889 -0.213301 0.542455 0.373219 -0.05842 -0.0924135 0.0329514 0.233405 -0.0945843 0.250097 -0.155614 0.16855 0.0624199 0.164037 0.139875 0.0174895 -0.0114996 -0.215692 0.00489462 0.467251 0.360586 -0.286392 0.0429621 -0.0749413 -0.0984752 0.42371 -0.191256 -0.0024352 -0.0425668 -0.00442772 -0.0220622 0.087375 0.0590095 -0.363098 -0.085709 0.300264 0.0239313 0.234138 0.175582 0.130566 0.130208 -0.00878353 -0.217727 -0.145699 -0.00242835 -0.027234 0.152215 0.0845505 0.00544736 -0.259983 -0.0855707 -0.158187 -0.0331519 0.0646238 -0.180952 -0.183513 0.0645935 -0.0440759 0.0565239 0.0758585 0.246747 -0.0030897 0.211706 -0.242111 0.334553 -0.0476789 0.150794 -0.0875147 0.188284 0.155148 0.148855 -0.0369957 0.463741 0.0271031 -0.124454 0.0902327 -0.198512 0.0195798 0.321915 -0.243498 -0.0748173 0.0756737 0.236483 0.158437 -0.322111 -0.011878 0.098694 0.210253 -0.229083 -0.157251 0.0833111 -0.149824 -0.186518 0.0382369 -0.070737 0.25175 -0.0412081 -0.263209 -0.108306 -0.0949756 -0.0998133 0.437187 -0.0467996 -0.158034 -0.265919 -0.066074 -0.0552225 0.0115948 0.00377784 -0.198026 -0.0785675 0.0213082 -0.260482 -0.00887354 0.101997 -0.0274548 -0.501051 0.115211 0.193527 -0.086689 0.0143263 0.285698 -0.184688 -0.0830058 -0.063268 -0.158046 -0.169929 -0.135922 0.154836 0.378134 -0.0876983 0.0479846 0.0311346 -0.212444 -0.387957 0.0591764 0.400734 0.277104 -0.0394343 -0.270289 0.0184767 -0.173761 0.289625 0.307212 -0.279292 0.181217 0.000441264 0.13124 0.169027 0.0217869 0.105953 0.0417757 -0.123622 -0.226194 0.17863 0.0703287 0.0568537 -0.201184 -0.369809 -0.107879 -0.256497 0.187093 -0.00824258 -0.203181 -0.253762 0.148823 -0.179971 -0.15167 0.0442146 -0.0765578 -0.136505 0.19899 -0.223478 -0.232355 0.101651 -0.00406642 -0.111535 -0.17361 0.134303 -0.377903 -0.0534794 -0.268914 0.469652 0.277725 0.29728 -0.299336 0.098956 -0.18547 -0.0204754 0.131476 0.0349656 -0.0918133 0.146745 0.138532 0.0801062 0.0399438 0.0735212 0.225884 -0.175506 0.0539484 -0.16419 -0.01147 0.200682 0.222688 -0.413461 0.354659 0.0766813 -0.0814823 -0.0689462 0.108836 -0.0288443 -0.243464 -0.0238798 -0.0163377 0.062589 -0.222544 -0.170744 0.15901 0.153848 -0.477092 0.274386 -0.265004 0.029747 -0.0116846 0.0367937 -0.128492 0.0472417 -0.0222154 0.0914923 -0.243378 0.0659105 -0.347941 0.0321436 0.0166602 -0.250224 -0.000240549 -0.142045 -0.280294 -0.102172 -0.0936919 0.190069 0.0574467 0.0852309 0.138097 0.0970543 -0.0162978 -0.0287192 0.00612071 -0.0207999 0.0433432 0.331281 0.147467 0.144257 -0.144885 0.0791322 -0.242213 0.0730685 0.136603 0.00656849 0.0332216 0.11971 -0.317744 -0.431483 -0.0323652 -0.24874 0.120993 0.0138845 0.252885 0.10046 -0.214637 0.0101768 -0.147668 -0.531585 0.0456131 0.093178 0.0253406 0.204144 0.0125657 -0.161628 -0.101785 -0.305601 0.104302 -0.2148 -0.0490412 0.0291634 -0.106499 0.413896 0.109645 0.31298 0.0557071 0.0535046 -0.380181 0.12603 0.100086 -0.208938 -0.0509103 -0.331444 -0.157034 -0.064183 -0.0706942 -0.184267 -0.289701 0.147015 -0.371864 -0.00963427 -0.0416736 -0.125351 0.0902747 -0.135586 0.250745 0.237499 -0.131498 0.163466 -0.0209193 -0.227652 0.00362126 -0.121355 0.110347 -0.119428 -0.441961 -0.0921502 0.164296 -0.23889 -0.0907376 0.162923 -0.0497808 -0.218309 -0.010157 0.233402 -0.158939 0.21976 -0.155296 -0.104055 0.0687322 0.0117696 -0.00804971 0.0481963 -0.192156 -0.362266 0.153308 -0.203278 -0.229302 -0.285453 0.198205 -0.117336 -0.310189 0.123173 0.0039017 0.0381592 0.0332477 0.143233 0.126969 0.325613 -0.0374339 -0.36067 -0.0134528 0.00479107 -0.15609 0.0289469 -0.155939 0.227022 0.0632939 -0.0573588 -0.165772 0.0612811 0.0212464 -0.12061 -0.152368 0.132884 -0.101715 0.0241494 -0.117034 -0.251375 0.00731687 0.203862 0.0462871 0.0426579 0.228695 0.191893 0.0189472 0.130203 -0.277028 -0.0793968 -0.288548 -0.0474167 0.318676 0.0691329 0.0432795 -0.120393 0.179235 -0.157577 0.161342 0.286902 -0.00607802 0.0272533 -0.234363 0.0108458 0.177254 -0.229587 0.0899752 0.223129 0.119497 0.000769878 -0.0184101 0.0394886 -0.193529 -0.0253501 0.175174 0.0857664 0.334266 -0.107778 -0.342654 0.224557 0.0387867 -0.0602554 0.290325 0.1269 -0.0216538 -0.287701 0.0241779 0.394282 -0.468138 -0.0294771 0.345851 -0.377185 -0.244212 0.0183011 -0.0676756 -0.0947254 -0.0226498 -0.163461 0.0607393 0.110356 -0.082142 0.0741058 -0.168575 -0.0578053 -0.102195 0.133516 0.0409149 -0.560602 -0.198581 0.103126 0.133225 -0.139426 0.250434 -0.141059 0.136528 0.0955883 -0.29391 0.0775925 0.346357 0.136589 0.300442 -0.132515 0.192378 0.258904 -0.267758 -0.151867 -0.138926 -0.103473 0.10585 0.0756161 0.0902552 -0.103928 0.0774396 0.122283 -0.0629036 0.345887 -0.155868 -0.19768 -0.140484 -0.0631055 -0.0476716 -0.422275 0.0646374 -0.0786774 0.16992 -0.180748 0.0387071 0.0468647 0.194957 0.0764391 -0.324869 0.177023 -0.355496 0.125056 -0.103235 -0.0898021 0.064774 0.125334 0.098544 0.317744 -0.052948 0.0177385 0.0429503 -0.0213197 -0.375501 0.249948 -0.0334243 -0.23122 0.126924 -0.201435 0.00235814 -0.303921 0.00204155 -0.302916 0.228443 -0.0683576 -0.390325 0.0740247 0.43213 0.106452 0.186446 0.124479 -0.179628 -0.0599798 0.0126787 -0.209723 -0.192936 0.0754121 -0.0558211 -0.486791 -0.059805 -0.0337743 -0.319685 0.117175 0.248854 -0.247828 -0.103425 -0.208614 0.528782 0.181704 -0.0739702 -0.00118849 -0.422037 0.0121155 -0.0514749 -0.112585 0.101558 0.0428995 -0.066993 -0.0321316 -0.0416693 -0.155067 -0.139898 -0.0440051 -0.189538 0.0757129 -0.0313073 0.112386 0.151469 -0.111774 0.258268 -0.0983322 0.0305844 -0.109882 0.1295 -0.208011 -0.0681293 0.184266 -0.163642 0.0512568 0.0285951 0.164837 -0.00311031 -0.0144006 0.0360972 -0.0552582 0.0717784 -0.0378737 -0.0370384 -0.08939 -0.140497 -0.110687 0.307897 -0.37312 -0.0451003 -0.117559 -0.233735 -0.115606 -0.130133 0.0684067 -0.20924 0.109769 0.0666022 0.225488 -0.416098 0.216979 -0.290844 -0.0797563 0.0280505 -0.0798344 0.0506392 0.257389 -0.0258498 -0.00793243 0.0884041 0.126616 0.140718 -0.234631 -0.0756889 0.218638 0.320264 0.124328 0.218223 -0.131808 -0.110879 -0.0893036 0.236062 0.122016 0.0578687 -0.153047 0.0233597 -0.0411415 -0.201347 -0.141983 0.144464 0.219386 0.211251 0.363496 -0.0991195 0.0059227 -0.0114445 -0.341448 0.148689 -0.352687 -0.230132 0.0602965 -0.283395 -0.194026 0.160381 -0.00382278 -0.122988 -0.0810483 -0.0806322 -0.0920653 0.0546601 -0.127889 -0.143291 0.0710566 -0.33301 -0.403596 0.291575 -0.24777 0.470522 0.149657 0.298543 -0.27833 -0.217316
death 0.0363966 -0.148253 0.062515 0.103591 0.142064 -0.0548991 -0.224798 0.175765 -0.147036 0.257106 -0.0134831 -0.302714 0.129951 0.00181786 0.117253 -0.280486 0.0256673 0.125738 0.0752546 -0.170358 -0.0195125 -0.0894941 -0.0557276 -0.112987 0.0721926 0.194601 -0.0706574 -0.0201378 -0.18862 -0.0608965 0.230257 -0.157436 0.114061 0.0689862 -0.0318294 -0.213245 0.153403 -0.0776936 -0.15783 0.0684527 0.0321117 0.0253976 -0.0643693 0.265579 0.141765 -0.00550552 0.0868922 -0.0644028 0.0782159 -0.194933 0.282822 -0.0552134 0.0143789 -0.106337 -0.113924 -0.132226 -0.0113117 -0.00410345 -0.192023 0.0197623 0.0593684 -0.0268889 0.125759 0.143451 -0.0662362 -0.0184216 0.0602933 -0.0957088 0.188161 -0.13374 -0.037281 -0.171707 0.251106 0.225782 0.141716 0.164456 0.132714 0.0452786 -0.00288343 -0.203392 0.00879235 0.0536706 -0.0256514 -0.21503 -0.0930915 0.0463372 -0.0836364 0.0808136 0.0429907 -0.0227843 0.126474 -0.189333 0.075069 0.193013 0.256626 -0.077048 0.238186 -0.240897 -0.0823513 0.0236644 0.160907 0.138938 -0.242503 0.0452893 -0.29308 -0.0071887 -0.133814 -0.0607093 -0.0458577 -0.140964 -0.151816 0.0982416 0.139649 -0.297384 0.108975 -0.172088 -0.0875613 0.0911515 0.213695 0.0973082 -0.0939438 -0.136164 -0.0750018 -0.198583 -0.331843 0.170668 -0.194877 -0.0226877 -0.0940999 -0.137616 0.0551632 0.135257 0.300032 0.0114032 0.0422871 0.0803216 -0.0783181 -0.0100888 -0.172694 0.111198 0.0944114 0.260366 -0.250244 0.200566 0.0316669 -0.144466 0.00319874 -0.179928 0.109434 -0.012002 0.12164 -0.0582201 -0.172493 0.143823 -0.23688 -0.100326 -0.134292 0.121785 0.0033335 -0.0263518 -0.0504378 -0.0020132 -0.271416 -0.367086 0.0905711 0.262168 -0.0955812 0.150476 -0.237614 0.033862 0.208798 0.231293 -0.0612081 -0.225195 -0.172052 -0.0657645 0.0294886 0.0923958 0.087688 0.0983938 0.151012 0.158168 0.145962 -0.124782 0.00805818 -0.0461133 0.143906 0.00525526 0.0940115 -0.0925304 -0.00879126 0.0809119 -0.0784577 -0.0856123 -0.0917824 -0.134263 0.138909 0.0963087 0.0519814 -0.0352894 0.122486 -0.0223322 -0.00981945 -0.174693 0.0613978 -0.032934 -0.0339798 0.0994873 -0.100865 -0.0830992 -0.236545 0.0603607 0.23117 0.0356553 0.184089 -0.137824 -0.0220163 -0.0154291 -0.158974 0.0775883 0.0177502 0.216373 -0.0648244 0.0163651 -0.0110362 0.184913 -0.164693 -0.000733558 0.107439 -0.0410867 0.0354393 -0.34884 -0.0621789 0.0707102 -0.051487 -0.29212 -0.0212353 -0.17122 -0.162082 0.0961202 0.0302314 -0.345977 0.0447237 0.00625955 0.0495865 -0.206813 0.140924 -0.163499 -0.204866 0.166011 -0.0385507 0.0017167 -0.0549146 0.0807367 0.146643 -0.0266714 -0.0956439 0.219726 0.0685837 -0.143817 -0.136229 0.265362 -0.106922 -0.00570488 -0.163951 -0.0994228 0.024402 -0.117345 0.173886 0.0307798 0.0408399 0.203148 -0.0191607 0.0182304 -0.0736447 0.0865555 0.287478 0.0243705 -0.146163 -0.107241 0.0595971 -0.105609 -0.105661 -0.150328 0.0599879 0.132556 0.030586 0.0953655 -0.131541 -0.308137 0.102541 -0.0347998 0.164835 0.0621129 -0.187941 -0.193194 -0.0732476 0.265457 0.00119378 -0.302705 -0.117358 0.111413 0.0434507 0.125887 0.233011 -0.183829 0.111251 -0.184697 0.0501621 0.132323 -0.0750855 0.211312 -0.266446 -0.495848 0.164289 0.173337 0.0603062 0.0367652 -0.0604703 -0.236598 0.0755993 -0.173433 -0.405233 0.0528509 0.0155798 -0.0313202 -0.055767 0.124832 0.125416 -0.0579077 -0.0349294 -0.0409891 -0.112558 0.294928 0.0846432 0.224202 0.0696615 -0.0871588 0.0102196 0.219584 -0.148546 0.0201842 0.197979 -0.00168796 -0.156686 -0.0327767 0.0796184 0.145005 0.209659 -0.0255132 0.0420809 0.172289 -0.0238769 -0.216091 0.193781 -0.133076 0.0809112 0.0733352 -0.090207 0.26305 0.0485015 -0.116116 0.0755214 0.00492889 0.146649 0.239648 0.132089 0.151662 0.0671495 -0.0574103 0.0119644 0.153011 -0.0810424 -0.214223 0.0121553 0.00114431 0.0597601 0.00840928 0.0368695 0.0905578 -0.0186042 -0.117149 -0.0260902 0.225435 0.022052 0.244598 -0.0117007 0.021309 -0.177175 -0.108507 0.0163593 0.161215 0.0700341 -0.0237282 0.0127722 -0.00632712 -0.208887 0.206814 0.176662 -0.0986354 0.0135471 -0.0471905 0.197865 -0.0378704 0.15771 0.106187 0.100452 -0.16833 -0.0363347 0.162276 0.0340302 -0.103043 -0.0047949 0.052097 0.301788 0.00227171 -0.138503 -0.0231695 0.0430238 -0.101138 -0.175839 -0.140445 -0.110465 0.0583563 -0.0926955 -0.0645443 -0.162947 -0.0842537 0.0393646 -0.0376059 0.134271 0.070062 0.0260867 -0.0145535 -0.00473666 -0.124984 0.00424982 0.0893689 0.0774649 0.0391439 0.148559 -0.145259 -0.0419335 -0.0455422 -0.213662 -0.156254 0.187153 0.0844976 0.245064 -0.0232413 0.156244 -0.172992 0.0716489 -0.0146917 0.00322608 -0.195688 0.185314 0.0580196 -0.11287 -0.0555812 -0.0233145 0.0422897 -0.0356686 -0.140775 0.318771 0.145978 -0.0513563 -0.163247 -0.258144 -0.0812035 0.174147 -0.306591 -0.0731093 -0.0878635 0.132873 -0.0546763 0.0554621 -0.0348452 -0.0865353 -0.0303107 -0.0890762 0.0680812 -0.128383 -0.217682 -0.0529991 0.214977 -0.0872139 -0.053424 -0.102293 -0.0918557 -0.169776 0.00824903 -0.032775 -0.0353953 -0.0244906 -0.240726 -0.0292811 0.0453725 -0.0751437 0.0448386 0.082327 0.120732 -0.00133785 -0.125899 -0.0600311 0.172164 0.20213 0.0343073 0.0862266 -0.211909 -0.0341638 0.157804 -0.0464637 0.166728 -0.202024 -0.1473 -0.349989 0.0128932 -0.0196804 0.14637 -0.158953 0.0275869 -0.0487757 -0.0358791 -0.142066 0.0740834 0.252583 -0.235183 0.168295 -0.259946 -0.131753 0.0201302 0.10407 -0.163703 -0.0931342 -0.00829352 0.0392712 0.0165489 0.216634 -0.16423 0.214846 0.137166 0.0195007 0.073555 -0.163664 0.135333 0.119761 -0.0808255 0.127618 -0.082253 -0.188113 0.268733 -0.115313 -0.0537295 -0.267313 0.27016 0.0203647 -0.11939 -0.118765 0.0997407 0.0516399 0.0225774 -0.0285419 -0.0612421 -0.0435791 0.0873421 -0.0992274 0.212056 -0.079679 -0.327572 0.0611185 -0.201558 -0.206798 0.11534 -0.218747 -0.0462179 -0.19508 0.220214 0.0822794 -0.0351849 0.171875 -0.0965207 0.0844789 -0.0411492 -0.0230104 -0.155011 0.149413 -0.11273 -0.0413785 0.085923 0.0514196 0.0222219 -0.133838 -0.143401 -0.0930239 0.0390949 -0.071407 -0.271636 -0.102406 -0.0975585 -0.132021 0.0367664 -0.116994 0.114294 -0.217356 -0.196904 -0.0233668 -0.23114 -0.118101 -0.33639 0.191893 -0.140114 -0.204962 -0.0203562 0.131449 0.0576367 0.080904 0.00717808 -0.0128671 0.104133 -0.10088 -0.0137507 -0.0992714 -0.295946 -0.0690379 0.0117276 -0.152639 -0.0624925 0.132713 -0.145974 -0.00871439 -0.104683 -0.0761992 -0.0707019 -0.0201296 0.0430703 -0.112153 -0.0828619 0.0456015 0.0407019 0.0827925 -0.032124 0.0398077 -0.0139629 0.0169688 -0.126188 -0.0463772 0.231313 -0.387757 0.0299466 0.0516985 0.129588 0.0295511 0.12573 -0.0982881 -0.22855 -0.163641 0.150491 -0.0615828 0.00443372 -0.00386953 0.0878502 0.0422413 -0.11059 -0.0049291 -0.0636749 0.0723207 -0.0411043 -0.0337313 -0.137136 -0.0882973 -0.0264971 0.054221 -0.10514 0.0762762 0.0601068 0.0031707 -0.0784491 0.00544945 -0.397253 0.0470892 0.0623597 0.0740302 -0.0613245 0.0579719 0.109156 -0.146257 0.254529 -0.00851183 0.0426952 0.0368124 0.113413 -0.450729 0.169175 0.0849076 0.261992 0.172941 -0.0141325 -0.0232759 -0.294398
image 0.0155352 -0.0952832 -0.188487 -0.312999 -0.0782401 -0.0271673 0.155188 0.132969 0.383792 -0.272532 -0.00949389 -0.0922236 -0.04253 0.120613 0.057155 0.314292 0.0693854 0.022751 0.0109724 -0.0809046 -0.0338228 -0.0464469 0.0589558 -0.259369 -0.0661533 0.102721 -0.0454415 0.185281 -0.018164 0.157741 -0.0636421 -0.145713 -0.194803 0.0122576 -0.0442914 -0.0790356 0.217257 -0.0286738 0.296803 -0.0162164 0.0508857 0.137789 -0.0855254 0.0904156 -0.243195 -0.120251 0.160962 -0.127892 0.11725 0.179436 -0.240688 -0.0736622 -0.0546378 0.0599165 0.162592 -0.0753634 0.00546822 -0.0611131 0.0771556 -0.293058 0.0387699 -0.243084 -0.109385 0.0916786 -0.0128074 0.052488 -0.095252 -0.0697507 0.459479 0.112474 -0.12122 -0.0833934 0.0498138 0.128927 -0.13784 -0.0432559 0.110736 -0.0265364 -0.0332129 0.180124 -0.252155 -0.101583 -0.0108373 0.104585 -0.157782 -0.187639 0.0126613 -0.0990417 0.116794 -0.228002 0.110293 -0.0462233 -0.00381367 0.0454168 0.12398 0.0345533 0.0447289 0.00382722 0.302589 -0.178281 0.223741 -0.0214875 -0.149189 0.198879 -0.170774 -0.209103 -0.085969 0.0244226 -0.0124745 0.125342 -0.0866681 -0.157085 0.121213 -0.134015 0.0359814 -0.225496 -0.195739 -0.0143715 -0.0965428 0.0408349 -0.0357146 0.178058 -0.0541268 0.176818 0.226415 0.208942 -0.0919823 -0.0411691 -0.068549 -0.100492 -0.174333 0.0992573 -0.139945 -0.120524 -0.104026 0.129881 -0.0443694 0.00126602 -0.0737023 -0.213581 -0.132583 0.120587 0.0991805 -0.070966 0.146425 0.320452 -0.0534207 0.136273 0.109965 -0.0188877 -0.047418 -0.0474792 0.0211411 -0.067803 -0.000576292 0.0546148 -0.266792 -0.135491 0.0675363 0.194136 -0.100775 0.0810293 0.168837 0.176235 0.00125626 0.0837742 -0.0560537 0.139036 -0.320987 -0.0100268 -0.0251778 -0.04812 0.0610982 -0.0238901 0.149714 -0.0701769 -0.0354781 0.178486 -0.18916 -0.171984 0.270238 0.0952605 -0.178698 -0.012249 -0.0389504 -0.0285196 0.0303331 0.0475633 0.00571338 -0.0118504 0.217349 -0.0119362 0.0819952 -0.117043 0.008317 -0.0208705 0.224733 0.0652376 0.258 0.0997535 0.0420819 -0.0363799 0.0602211 0.00996891 0.147807 0.0740029 -0.107544 -0.0810483 -0.237538 0.0432251 -0.172552 -0.0975471 -0.0696026 0.00690017 0.108353 -0.0816073 0.103129 0.0406056 0.0820063 -0.0934764 -0.126068 0.0546424 0.0715637 -0.0616787 0.160683 -0.0121701 -0.180007 0.37105 -0.148593 0.0924437 0.193197 -0.184533 0.157415 0.0196338 0.00188276 -0.160602 0.137971 0.127807 -0.163096 0.0966917 0.1696 0.0250066 0.0703738 0.135893 -0.111925 -0.298722 -0.079742 0.0863996 0.0696564 -0.0358607 -0.173362 0.0599092 0.152488 0.136146 0.0199936 0.285964 0.157587 -0.0483823 0.00294154 -0.139768 0.155666 -0.0807218 0.064771 0.0498183 -0.056468 -0.146794 0.133043 -0.00134582 0.144667 -0.247345 0.2208 -0.100163 0.0198172 -0.0115991 0.156882 0.0953215 -0.118211 -0.128609 0.0059762 0.0382377 -0.269825 0.0148758 -0.193817 0.0595861 -0.148365 -0.0825785 -0.0837226 -0.100502 0.075175 -0.184033 -0.149349 -0.107198 0.110962 -0.0304677 -0.181519 -0.0647412 -0.206981 0.0787207 -0.094345 -0.0743265 -0.153309 0.305069 0.0527602 0.234194 0.054712 -0.0914751 0.0488011 -0.0771122 0.106354 0.0275134 0.018541 -0.0547982 -0.140226 -0.0121084 0.216551 0.0192289 -0.0588406 -0.0837197 0.0625687 -0.07026 0.20231 0.0247213 0.051021 0.0406972 -0.0269429 -0.0818499 -0.0797958 -0.139651 -0.118087 -0.0287841 0.0154929 -0.140298 0.300059 0.140456 0.141802 0.0499806 0.267098 0.0863523 0.200984 0.158733 0.0514431 0.256324 0.0844061 -0.0445947 -0.580247 -0.0747811 -0.0909984 -0.418945 0.180228 0.0208742 -0.0285854 0.0173075 0.239574 0.251985 0.045007 0.0222428 -0.0815522 -0.0875895 0.222037 0.0582768 0.0849854 -0.0233376 -0.189956 -0.276702 -0.172148 0.116281 0.0774716 -0.0948728 0.00399048 -0.213247 -0.120605 -0.119794 0.00473793 0.134739 0.151169 0.27632 -0.182066 -0.088648 -0.00885065 -0.291379 0.190632 -0.0253808 0.0536646 -0.0592395 0.134297 0.0103231 -0.0355919 -0.110395 0.0960666 -0.127331 0.0853006 0.0753296 -0.131537 0.126538 -0.0803515 0.200657 0.0781589 0.131851 0.0559301 -0.167559 -0.149059 0.00099196 0.0252394 0.112774 0.000703359 0.101742 -0.0450347 -0.0215911 0.0178938 -0.31441 -0.193119 0.105781 0.0419894 0.301739 -0.0920389 0.129154 0.203463 0.0196987 0.238855 0.20685 0.121884 -0.0250344 0.124871 -0.0315503 0.085583 0.00950838 0.0778638 -0.216011 0.0956393 -0.0705862 -0.0633999 -0.0576611 -0.0729196 0.256489 -0.197028 -0.115929 0.0806107 -0.160216 0.122503 -0.328351 0.060413 0.063154 0.0639994 -0.0437955 0.180719 -0.0586444 0.10746 -0.0304696 0.139888 0.0741819 -0.0476453 0.0792195 -0.0442307 0.0730923 0.275111 0.112977 0.164624 0.0318531 -0.182489 -0.220091 0.0176573 -0.00760277 0.0751002 -0.0963762 0.339399 0.0330735 0.069689 0.0714053 -0.0539086 0.091517 0.115611 -0.0978015 0.0835102 0.0309829 -0.042279 0.0871658 -0.147631 -0.160928 0.0788992 -0.112452 0.123081 0.105976 0.0669354 0.0901584 -0.167356 0.0158633 -0.00322135 -0.177516 0.09107 0.0623065 -0.176874 0.0464856 0.041512 0.126848 -0.0311058 -0.216018 0.0455398 -0.010794 -0.00979597 0.0426684 0.109461 -0.0684314 -0.115269 -0.119013 0.0259432 0.0958487 -0.0463921 -0.196148 -0.0450975 -0.0777116 -0.140845 0.0731648 -0.189344 -0.0281133 -0.0656375 0.135949 -0.0968191 0.0870474 -0.191015 0.0144258 0.0486017 -0.386861 -0.0257299 0.149464 -0.110325 -0.0157677 -0.178859 -0.142947 0.0268188 -0.24905 0.222955 0.0279491 -0.198935 -0.110047 0.0771529 -0.017816 0.00973882 -0.0492492 0.345468 -0.0113598 0.0383749 -0.17871 0.186373 0.163801 0.209397 0.0956201 -0.0228094 -0.101205 -0.00324243 0.0689518 -0.0595725 0.0638033 -0.181655 0.170896 -0.224652 -0.17507 -0.240412 0.156958 0.128505 -0.0183813 -0.0478295 -0.0788988 0.0523489 0.0489791 -0.0943047 0.0352273 -0.00681647 -0.00997598 -0.0658507 -0.220908 -0.136356 -0.0758777 -0.13366 -0.0101043 0.0845878 -0.00776716 0.0461886 0.177354 -0.0537592 0.0374673 0.168237 -0.145587 -0.0168645 0.279214 -0.104226 -0.0158386 -0.225731 -0.020493 0.0331272 0.226642 0.290505 -0.297351 -0.106538 -0.26662 -0.121251 -0.131533 -0.0989795 0.0505773 -0.232232 -0.0800327 0.12293 -0.0583255 0.127446 -0.00125423 0.0618317 -0.0917237 -0.0712557 0.0747789 0.0247159 -0.162028 0.14505 0.0431702 -0.178835 0.272604 0.205549 0.166423 0.0280434 -0.12135 -0.0383771 0.0975138 0.0474614 -0.148994 0.169081 -0.109811 -0.0117896 -0.0391791 -0.0375489 0.180726 -0.0319911 0.11567 -0.0100766 0.0491662 0.248675 0.157866 0.125171 0.13813 -0.123425 -0.200867 0.284078 -0.280988 0.0503903 0.15381 -0.144459 0.183701 0.311444 0.102187 -0.0548445 0.256359 -0.0319554 -0.0537276 0.0967178 -0.0478661 -0.267594 -0.118939 -0.087674 -0.318033 -0.071546 0.127019 -0.0456699 0.0174243 0.0730529 0.208856 -0.157039 0.172665 -0.145356 0.00914834 0.151638 -0.0141143 -0.259967 -0.218776 -0.0643038 0.0554606 0.14435 0.0748859 0.0391678 0.114439 -0.110841 0.0169631 -0.384248 -0.230447 -0.111442 -0.158235 -0.0806666 -0.222176 -0.170252 -0.0508283 0.289039 0.166944 -0.000594133 0.110852 -0.0560009 -0.0653233 -0.0836267 0.0799503 -0.173975 0.034342 -0.0147922 0.087796 0.0316277 -0.103276
theater -0.0934889 -0.467624 -0.247241 -0.0804727 -0.153391 -0.0409177 -0.144487 0.159447 0.109424 0.0283721 0.153559 0.249976 0.113193 0.092591 -0.13368 0.152589 -0.0670816 -0.121249 -0.10448 -0.062569 0.167075 0.0425154 0.103057 0.11461 -0.0857748 0.17149 -0.0187045 0.0655492 -0.091774 0.158679 -0.233245 -0.187183 0.123447 -0.184325 -0.0331447 -0.0422298 0.0198743 0.31808 -0.194716 0.173782 0.0790282 0.0902928 0.351062 0.102308 0.18719 0.0982979 0.221266 0.155267 -0.0253163 -0.0179617 -0.129864 -0.134411 -0.101511 -0.15772 0.119388 0.111785 -0.122494 -0.145425 -0.153301 -0.0307913 -0.143886 0.20138 -0.269979 0.0286178 0.151202 -0.0407829 -0.103915 -0.00903891 0.266757 0.0684222 -0.0318775 -0.14536 0.0825548 0.157159 0.378391 -0.0977144 0.150871 -0.190719 0.065788 0.0589158 -0.0777319 0.025924 -0.299699 -0.209083 -0.0642924 0.00285773 -0.00729036 0.101408 -0.0131782 0.153355 0.222697 -0.265553 -0.0148867 -0.0407663 0.00130518 -0.195259 -0.410433 -0.0358846 -0.173879 -0.108752 0.0597829 0.0900843 -0.164322 0.247249 0.143444 0.100516 -0.0332934 -0.0569844 -0.0161448 0.031207 0.0263738 0.0899851 -0.273643 0.164655 0.178182 0.244235 -0.038843 -0.127986 0.186211 0.0985658 -0.336386 -0.0732623 0.174643 -0.150068 -0.218874 0.135341 -0.199865 0.226863 0.0178956 0.0634573 0.0496467 0.0561211 -0.121544 -0.0508214 -0.134821 -0.159374 -0.117827 -0.280235 0.0562991 0.0541348 0.277472 -0.0567959 0.150364 0.262044 -0.0258212 0.318508 -0.0612273 -0.0417902 0.0790124 0.250296 -0.123941 -0.0135525 0.0126741 -0.265989 -0.207155 -0.274403 -0.15185 0.00371116 0.0410421 0.0831096 -0.0473257 0.381409 -0.0518763 -0.0747738 0.260851 0.10378 0.0467749 -0.156496 -0.310371 -0.0624547 0.0839322 -0.163733 0.104819 -0.128718 0.258698 -0.110564 -0.141601 0.152527 -0.17964 0.0761238 -0.173266 0.171524 -0.0590251 0.0226493 -0.0522645 0.16716 0.221405 0.0319827 -0.13063 0.169645 -0.0915407 -0.0234434 0.0845267 -0.0811775 -0.02314 0.203733 -0.140932 0.413169 -0.0474125 0.135144 0.0731871 0.136257 -0.25127 -0.118679 0.0428267 0.0658559 -0.00751404 0.137283 -0.143461 -0.0214933 -0.0920211 -0.0506998 0.134781 -0.0850064 0.127634 0.141787 -0.108288 0.129888 -0.212623 0.116481 0.0315704 0.0314968 0.0685324 0.151617 0.163655 -0.235979 -0.083906 0.00736534 -0.0446182 0.185052 -0.0665473 0.232299 0.0596088 0.0708311 0.379031 -0.421802 0.00606076 -0.337635 -0.147385 0.133746 -0.0115518 -0.254275 -0.00855986 0.132626 0.0606162 -0.111058 -0.0664897 0.0102466 0.212359 0.0586406 0.0970798 -0.221865 0.0376681 0.179926 0.181838 -0.0266316 0.155721 -0.147428 0.0450484 -0.0506875 -0.177917 -0.0175449 0.0535622 0.107647 -0.00314809 0.28117 -0.264046 0.107166 0.192106 -0.154535 -0.0781504 0.0580947 0.0700544 0.0325902 0.313204 -0.00207818 -0.0553399 -0.124832 -0.239904 -0.136601 0.0297248 -0.298047 -0.197844 -0.255216 0.0783347 -0.138002 -0.0788816 0.27706 -0.107098 -0.0190074 -0.0803049 -0.138032 0.151383 0.145395 -0.175959 0.057847 0.0338825 0.150124 -0.180407 -0.0562038 -0.0470774 0.163656 0.131897 -0.0244314 -0.0182761 0.108431 -0.0936172 0.0967792 -0.130166 0.251941 -0.075338 -0.0186117 -0.397011 0.0718893 -0.13506 -0.0954872 0.0109056 0.075348 -0.171064 -0.107652 -0.0305111 0.271711 -0.187795 0.0970403 -0.267678 0.0769085 -0.215206 -0.0620903 0.101553 -0.140019 -0.13095 0.288572 0.0365984 -0.170322 0.177948 -0.103361 0.0965568 -0.126123 0.238001 0.0627115 0.212308 -0.0540689 -0.0599457 -0.215217 -0.0947503 0.363711 -0.205552 -0.0311896 0.0683673 -0.0686854 -0.191223 -0.0805909 0.308089 0.0703913 -0.278137 0.182753 -0.283618 -0.0648541 0.0397051 0.0805132 0.144211 0.281101 -0.0381669 -0.0921842 -0.0349352 0.324513 0.0369252 0.0172613 0.0167152 0.0716233 0.0308128 0.163593 0.152047 -0.230916 0.0539915 0.0295387 -0.140839 -0.122499 -0.103686 -0.22469 0.0712197 0.0430204 0.0151246 0.0485074 0.336847 0.0736061 0.0592771 0.220033 -0.146601 0.0253441 0.174247 -0.138319 -0.23499 -0.0205537 -0.129482 0.286454 0.253779 0.12574 0.102787 -0.166258 0.0349139 -0.248255 -0.019424 -0.0209821 -0.012594 0.0620681 0.239914 0.000376673 -0.356166 -0.133103 -0.19999 0.00546416 -0.26336 -0.0885215 0.238536 0.325492 0.0348989 -0.0279381 0.122384 -0.101457 -0.233763 0.234657 -0.0671624 -0.105182 0.171812 -0.0619383 -0.133738 0.138376 -0.231986 -0.33445 -0.202294 -0.221286 0.0911058 -0.0596092 -0.0615173 -0.0618937 0.145102 -0.0965903 -0.0062419 -0.0854233 -0.162399 0.181592 0.190439 0.165296 0.179546 -0.0859717 -0.034002 0.107243 0.171004 0.0546544 -0.168561 -0.0196657 -0.072642 -0.125015 -0.0490847 -0.0185231 -0.00296225 0.324685 0.0188402 0.0978099 0.154026 -0.0767145 -0.130737 0.0127339 0.238183 0.112029 0.229699 0.0899998 -0.0974258 0.280224 -0.0756162 -0.191161 -0.118636 -0.249934 -0.254498 -0.118323 0.132376 0.0779699 -0.207143 0.068674 -0.0875019 -0.100785 -0.00618464 0.0185321 -0.0533804 -0.385309 -0.0948589 -0.0157813 -0.409581 -0.151968 0.11725 0.279383 -0.368715 0.0172951 0.0331382 -0.196727 -0.0033198 0.0844919 0.00786033 0.289672 0.135439 0.1348 -0.160215 -0.0694597 -0.144953 -0.243607 -0.062829 -0.127478 -0.0415034 0.0867504 -0.0293057 -0.0959635 -0.0994194 -0.221596 0.015137 0.218337 -0.424641 0.179806 -0.18195 -0.147178 0.164465 0.0200745 0.0350593 -0.0519407 -0.211172 0.169321 0.0883255 0.00981006 0.0802612 0.0172833 0.299901 0.0449123 0.0215912 -0.165905 0.0756378 -0.0667119 0.151159 0.208448 -0.121919 -0.158104 -0.0642648 -0.0870882 0.0279809 0.0526979 0.0549719 -0.269617 -0.0514781 0.0650828 0.232138 -0.212088 -0.00970785 -0.288188 -0.0941994 0.0779955 -0.0605228 0.13613 0.0926204 0.0803451 0.0140696 0.0742397 0.0850094 -0.0575798 0.107564 0.174613 -0.350939 0.210085 0.00481323 -0.141567 -0.0142022 -0.0464628 0.00187469 0.137966 0.0030632 -0.0551351 -0.104982 -0.00567849 -0.0377016 0.0557204 0.0236628 -0.13942 0.0558667 0.0580917 -0.0873897 0.136906 -0.158009 -0.033409 0.0364763 0.300404 -0.0383949 -0.349263 0.18005 -0.425719 -0.0493971 -0.0981973 -0.379975 -0.112613 -0.246498 0.0922065 -0.0406771 -0.0359502 0.000479764 -0.073856 0.0951933 0.226986 -0.307349 -0.119467 0.106473 -0.150196 -0.110143 -0.100913 0.162893 -0.129089 -0.355824 -0.0109059 0.174641 0.13649 0.0242815 -0.0750478 -0.0574417 0.0936252 -0.188074 -0.0503243 -0.0165756 0.068239 0.0078109 -0.0619882 -0.198951 -0.318283 -0.0258842 -0.0199452 0.00266144 -0.0797322 0.0752208 -0.155465 0.245332 -0.0078322 -0.102154 -0.154048 0.0641569 -0.206452 -0.00561813 0.14575 -0.0725664 0.280388 -0.0150108 0.2343 -0.218181 -0.022468 -0.375132 0.0306744 -0.236744 -0.00650268 -0.0121085 0.264596 -0.262399 0.163242 0.34908 -0.169873 -0.072647 0.131274 0.0628057 -0.245963 0.0199869 0.0224547 0.139012 -0.061122 0.0848437 0.0895418 -0.0350627 0.202296 -0.113932 -0.0327147 0.0328293 -0.171634 0.136588 0.0356891 0.0614306 -0.298672 -0.179413 -0.24357 -0.0437197 0.0461256 -0.191773 -0.0258155 0.211883 -0.175175 -0.132634 -0.14656 0.0257943 -0.109251 0.0598464 0.105779 0.0290707 -0.0750438 0.214513 0.231324 0.0828704 -0.136825 0.111227 0.156244
number -0.156645 0.100866 0.0555665 -0.152252 -0.195123 0.0830798 0.0666108 0.149089 -0.191188 0.158959 -0.0834664 0.244421 0.0745623 -0.00352352 0.0669563 0.209135 -0.117417 0.0372326 -0.258891 0.0633438 0.0440888 -0.185192 -0.0679514 -0.12437 -0.172066 0.0919291 -0.166183 -0.090022 -0.13865 -0.199798 0.0285499 -0.201658 -0.345298 0.0224225 0.0559939 0.114474 -0.0923629 0.155151 -0.037567 -0.0283586 -0.242432 0.0133942 -0.0285163 -0.0502985 -0.124189 0.135224 -0.018444 0.115332 0.206907 -0.0393309 0.0275699 -0.0660202 0.029942 -0.0452344 -0.0534302 0.0518768 -0.000422724 -0.0548259 -0.100384 -0.0205814 0.0907016 0.0489467 -0.0185959 -0.0736332 -0.0991139 -0.221531 -0.157439 -0.114918 0.00120757 -0.142333 -0.044612 -0.150152 -0.0210471 -0.00227031 -0.106757 0.110873 -0.0606005 -0.240834 0.132992 0.279272 0.124533 0.0120006 -0.0528544 -0.126148 0.0587065 0.0531304 -0.0874027 0.0030687 -0.00215123 0.102932 -0.0597716 -0.0414012 0.0413223 -0.0849791 0.0698883 -0.0764274 0.0085784 0.00188633 0.130987 0.0067222 0.1462 0.0182873 -0.0419049 0.0551582 -0.118323 -0.0584822 0.181546 -0.127723 -0.190318 -0.00896971 -0.0202847 -0.22625 -0.091157 -0.0243482 0.211265 -0.135034 0.0825063 -0.134776 0.237674 0.119606 0.223553 0.0333044 -0.159404 0.0457852 -0.0858149 -0.0100125 0.0767355 -0.100923 0.104386 -0.202177 -0.0240086 0.0804847 -0.080226 0.069567 0.00724288 -0.0040747 0.117448 -0.0107972 0.060008 0.132336 -0.115115 -0.0763652 -0.168724 -0.0694896 -0.0735125 0.0836677 -0.0275988 0.0870097 -0.0453871 -0.132136 0.158877 -0.16917 0.146327 0.193325 0.0787244 -0.0701583 -0.104805 -0.072661 0.0389338 0.201697 -0.0385228 -0.14264 -0.0201459 -0.117185 -0.0460351 0.216094 -0.0613241 -0.245508 0.0244959 0.0243762 0.0785961 -0.0198204 -0.0429785 -0.146296 -0.09024 0.362168 -0.0338881 -0.0449882 -0.195788 0.00141282 0.0357669 0.187545 -0.180966 0.000116561 -0.0620214 0.216794 0.210484 -0.106837 -0.238654 0.0360979 0.119226 0.00486713 -0.0360138 0.0240209 0.131497 -0.0119451 -0.0963381 0.233763 0.283785 -0.0711102 0.0688755 -0.0433506 -0.132819 -0.0474207 0.157816 -0.162682 -0.131434 -0.129816 -0.14098 0.0758435 0.0151915 0.0327218 0.0395684 -0.0697879 0.0419322 -0.0927684 -0.0792723 -0.000479441 -0.0580792 0.109498 -0.0944443 -0.00228722 0.316921 -0.0287127 0.212321 -0.04822 -0.0571576 0.0374066 0.0612676 -0.0123222 0.0721394 0.0445083 0.088273 0.0210089 -0.0810139 -0.0759371 -0.0973208 -0.107565 -0.109734 0.0837413 0.215252 -0.152131 0.0870773 -0.0491598 0.0194022 -0.0395001 -0.0961119 -0.0428274 0.224795 0.00240997 -0.0630056 -0.0670686 -0.0634559 0.163322 0.160879 0.322042 -0.15717 -0.126309 0.166245 -0.0523774 -0.102187 -0.139191 0.0252715 -0.0446559 0.0800317 -0.0548385 -0.2199 0.0503627 -0.0303446 -0.260878 0.0124337 0.156688 0.0345447 0.023352 -0.151259 0.0571143 0.217744 0.25584 -0.207983 -0.0886646 0.00310302 -0.161865 -0.304295 -0.00164374 0.171031 -0.0549275 -0.12375 0.193724 -0.1153 -0.147074 0.0636314 0.0523466 0.0014824 0.213287 -0.0388065 -0.016476 -0.0364893 0.0951401 -0.0892234 0.102715 -0.0953939 0.0679666 -0.143798 0.131618 0.0175773 -0.259277 -0.0488452 -0.159083 0.135205 0.153005 0.0418089 0.279551 -0.0252574 -0.119996 -0.0436404 0.141295 -0.108166 -0.0191743 0.0795563 0.0887285 -0.13401 -0.0539878 -0.081189 0.00624859 -0.163972 0.0764495 -0.0754779 0.0261486 0.00388049 -0.144616 0.152857 0.0286572 -0.161603 -0.00439533 0.0116912 0.269899 0.0375035 -0.110584 0.101704 -0.0628806 -0.318118 -0.0184425 -0.189169 0.144495 0.0248456 -0.138242 -0.161248 0.0768271 0.139173 -0.111542 -0.107031 0.189932 0.164806 0.0167518 0.0953112 0.211891 -0.189562 -0.104965 -0.213443 -0.014914 -0.171882 -0.0666664 0.0664472 0.115588 -0.00614623 0.00977461 -0.0894997 -0.00471888 0.0297297 0.0592116 -0.0838483 0.0968937 0.0174061 -0.00501837 -0.115749 -0.0727446 0.228675 -0.0708095 -0.00640925 -0.19925 0.14618 0.213419 -0.00451083 0.189018 -0.0273594 0.137012 0.132729 0.0769087 -0.151803 0.0831502 0.140448 -0.0276304 -0.0717451 0.0115361 -0.139489 0.085201 -0.0655162 0.0298023 0.120906 -0.0446538 -0.0804613 -0.00463007 -0.0543263 0.155532 0.0504881 0.109183 -0.0290981 0.0094657 -0.0887662 -0.00496509 -0.0876977 -0.135541 0.0451449 0.210441 0.00847209 -0.275912 -0.00448379 -0.0293088 -0.0488197 -0.0769919 0.113393 -0.0807858 -0.0142723 0.213382 0.0491111 0.00214299 0.228953 -0.0702588 0.029094 -0.0308436 0.0953143 -0.147159 -0.0983422 0.0599065 0.0817312 -0.0598653 -0.0715417 -0.0780986 0.103844 0.147404 0.0182871 -0.111592 -0.113711 -0.0373231 -0.0827552 -0.0828196 0.0275072 -0.131267 -0.1669 -0.154559 0.133118 -0.00107228 0.0933768 0.0655196 0.16121 0.00352521 0.0656137 -0.00463131 -0.185211 -0.046401 0.0392544 -0.0291852 -0.0895839 -0.237999 -0.0119245 -0.0340803 -0.123622 0.0567301 0.0711336 -0.0378226 -0.00580149 0.00689542 0.000691878 0.201578 0.0895083 -0.21872 -0.0133725 -0.187381 -0.241908 0.0889849 0.232372 -0.151346 0.10667 0.0295516 0.270541 0.0303005 -0.079955 -0.0589525 0.0163291 0.201726 0.0310059 0.128888 0.139223 -0.0231536 -0.256049 -0.148354 0.0211727 -0.103921 0.0242573 -0.01297 0.163002 0.0150811 0.226531 0.0959817 -0.00813556 -0.284564 0.117148 -0.0580404 -0.0433262 0.0888602 0.0130916 -0.0310512 -0.177865 -0.0205768 0.099068 -0.0115498 0.014456 -0.142105 0.0270611 0.263213 0.0700651 -0.0517765 -0.127359 -0.0259363 -0.00946439 0.0334278 0.0530197 0.0424876 0.0243366 -0.0680941 -0.0760592 -0.0629643 -0.067326 0.0474312 -0.150905 0.0938959 0.0191261 -0.0855106 0.0956008 0.115163 0.0500412 -0.137619 -0.0077933 -0.0357618 0.168447 0.0367549 -0.228286 0.0256801 -0.0209645 -0.13076 -0.0444491 -0.00185613 0.0388082 0.00568982 0.0389554 0.0543799 -0.205858 0.122436 0.000508501 0.0281731 -0.103606 -0.0807796 0.0221657 -0.0148736 -0.176445 0.141568 -0.083221 0.0431289 -0.0239457 -0.0821439 -0.0348109 -0.0765587 -0.116063 0.176971 -0.171943 0.0812764 -0.146779 0.309915 0.0481695 -0.0253081 0.111672 0.0974023 0.106793 -0.0826694 -0.0877398 -0.0796179 -0.163585 -0.0933946 -0.00536181 -0.0797873 -0.0435777 -0.147719 -0.0936388 -0.0978754 -0.182317 0.220702 -0.204423 -0.0695473 -0.198205 0.0176972 -0.131268 0.196134 -0.0237068 0.139889 -0.0666657 0.0874042 -0.0134945 -0.0286084 0.108541 0.134258 0.0925518 0.0421384 0.0439169 0.056471 -0.0940165 0.0320074 0.0451628 -0.0371339 0.057083 0.180582 0.0455379 0.10263 -0.0218486 -0.0849987 0.144234 -0.109866 -0.0421585 -0.0453491 -0.0690743 -0.0651604 -0.169038 0.0398216 -0.104618 -0.0176971 0.0395367 0.0253695 -0.0457268 -0.0968587 -0.145224 0.0444451 -0.0629259 0.139287 -0.0829744 -0.0489395 0.321343 0.134676 -0.0344504 0.073012 -0.136319 -0.0028109 0.0110688 0.119624 0.00822156 -0.0739478 0.00184861 0.0135078 0.00414995 -0.203442 0.11702 -0.0393164 -0.154204 0.221697 0.0171829 0.0618667 0.00535032 0.0301375 -0.0535584 0.00928657 0.00200223 0.0463726 -0.0455797 -0.104895 0.245938 -0.175718 -0.203821 -0.0148109 -0.184509 -0.158591 0.0812959 0.038342 0.060265 0.104188 -0.0189177 -0.271665 0.061243 -0.0555716 0.203228 -0.0395755 -0.0795766 -0.19114 0.179023 0.0123891 0.00500115 0.287873 -0.0437358 0.067096 0.105126 0.0326749 -0.125293 0.088219
