437 300
president 0.00202536 -0.134218 -0.10763 0.00977045 0.53691 -0.29625 -0.215425 0.136242 0.0298292 -0.200139 0.105213 -0.107038 -0.365992 -0.188178 0.3499 0.12239 -0.312187 0.0849325 0.196089 0.188495 0.0896887 0.511799 0.145774 0.385013 0.0727585 -0.140452 0.101755 0.221193 -0.0487258 0.222879 0.0548865 0.107317 0.186444 0.185349 -0.339608 -0.132198 0.167701 0.0410531 0.149642 -0.507963 -0.167083 -0.406001 -0.29063 0.0700577 -0.232854 -0.0616982 0.0971022 0.416841 -0.18752 0.110295 0.140853 -0.0842047 -0.0593822 0.158308 -0.119611 0.177808 0.603239 -0.306918 -0.154091 0.142419 -0.0203834 -0.0238508 -0.340241 0.313534 -0.220186 -0.135754 -0.420924 0.0480026 0.57716 0.185285 0.0198394 0.0437384 -0.123143 0.0752126 0.2759 -0.324104 0.108739 -0.315261 0.102331 -0.0272482 0.0307762 -0.205867 -0.171032 0.0142637 -0.0798928 -0.356654 0.110888 -0.263434 0.112228 0.106617 -0.0895313 0.060547 0.289862 0.255815 -0.000687325 -0.385265 -0.194193 -0.066967 0.0588314 -0.0842521 0.556405 -0.328611 0.175268 0.177208 0.282016 -0.297127 0.159084 -0.0287473 -0.0820878 -0.150505 -0.170064 -0.260845 -0.200119 0.0160001 -0.177072 -0.231598 -0.0212935 0.0894926 0.18838 -0.468243 0.0597885 0.072779 -0.0586013 -0.46653 -0.341984 0.320747 0.0807808 -0.302959 0.135293 -0.0847321 -0.169362 0.0431694 -0.108828 -0.177052 -0.207496 0.2078 -0.193635 0.0326613 -0.0660856 0.232867 0.389359 -0.143947 -0.0408273 -0.161059 -0.087252 0.186462 -0.00115522 -0.0698382 -0.407643 -0.0536668 -0.180404 -0.009583 -0.0150226 -0.0242304 -0.176943 0.178597 0.269319 0.000440573 -0.244132 0.399744 0.272379 0.0501384 -0.2269 -0.426705 0.0437294 -0.326701 0.0180175 0.260029 -0.167906 0.442183 -0.386247 -0.0364181 0.133031 -0.0991382 0.441785 -0.0158288 -0.245783 0.471175 0.242363 -0.470604 -0.199319 0.0188567 0.263828 -0.0184513 -0.0640661 -0.404968 -0.0839539 0.198555 -0.250014 -0.266369 0.315507 0.0188328 -0.178817 0.0884156 0.0889893 -0.0233484 -0.224763 0.154822 -0.314199 -0.310448 -0.0413565 -0.302673 0.0300298 -0.011617 -0.0385514 0.231414 -0.107152 0.0301023 0.0548335 0.252079 -0.154115 0.0097322 0.0978393 -0.158478 -0.216303 0.127005 0.0916109 0.135254 0.283948 0.244537 0.219656 -0.0798006 0.207351 -0.0504902 -0.182124 -0.2554 -0.0494157 0.353712 -0.23891 0.137388 0.358246 -0.0698297 0.323056 0.249255 0.0688337 0.13396 0.0849305 -0.383184 -0.192901 -0.066875 0.00497691 0.192996 -0.238317 -0.0640287 0.0828771 -0.131295 0.084092 -0.366486 0.355355 0.370593 -0.00788273 0.0681525 -0.0964521 0.122281 0.0115867 0.120059 0.0208531 0.0432856 0.342714 0.120295 -0.142084 -0.045334 0.178561 0.0754952 0.345311 -0.0145778 0.0901587 -0.0510639 -0.184251 -0.39551 -0.197752 0.350578 0.110525 0.192255 -0.141475 -0.367824 0.0366284 0.266743 0.102434 -0.0888574 0.108537 0.203938 0.151239 0.0511648 0.0570371 0.120333 0.0346735 0.0247496 0.295465 -2.17931e-06 -0.0541014 0.00185784 -0.180246 -0.287109 0.214777 0.0006462 0.101187 -0.159799 0.0153299 0.0729024
monk 0.158286 -0.227509 -0.215655 -0.349721 0.255739 -0.0396637 -0.260013 -0.0670872 -0.164199 -0.109968 -0.0849262 0.417548 0.106766 0.199954 -0.215412 0.274112 -0.255247 0.000619334 0.0115249 -0.177838 -0.0627573 0.145862 -0.0970761 -0.0121152 0.124254 0.0658421 -0.192813 0.0539787 0.00961854 0.0824093 -0.315884 0.228376 -0.298063 0.0093405 -0.176341 0.0489829 0.194308 -0.0657136 0.0178258 -0.425183 -0.322202 -0.304444 -0.102752 -0.220158 0.167112 -0.517952 0.172526 0.036078 0.468283 -0.126159 -0.35568 0.215618 0.386489 0.262279 -0.341082 0.0802211 0.084215 -0.147636 -0.275509 -0.287988 -0.1763 -0.0987658 0.0854719 0.283988 -0.272237 -0.363365 -0.168731 0.00953257 0.0701813 0.364019 -0.141303 -0.00918173 0.272848 -0.0221287 0.0986408 -0.248804 0.0381371 -0.139306 0.313623 -0.0510154 0.169615 -0.111711 0.133542 -0.127614 -0.304195 0.014453 0.0426921 -0.0697327 0.0067364 0.172165 -0.00364969 -0.3227 -0.212016 -0.344982 0.0627223 -0.230855 0.0763477 0.217635 -0.15539 -0.314061 0.249357 0.271361 0.0470606 0.132698 -0.206511 -0.444944 0.240127 0.127057 0.187944 0.11755 -0.271982 -0.177251 0.325126 -0.213725 0.163992 -0.0761006 -0.234138 0.290682 0.490369 0.417267 -0.184363 0.435041 -0.139467 -0.10872 -0.514281 0.0374646 0.119396 -0.32606 0.174659 -0.09933 0.159209 -0.278455 -0.271359 0.258167 0.0598724 0.417823 -0.285897 -0.229126 -0.569802 0.110744 0.191317 -0.304915 -0.207477 0.0554946 -0.219078 0.0754748 0.0292479 -0.19564 0.0689694 -0.119904 0.113634 -0.293795 -0.518929 0.179247 0.0163142 -0.0874993 -0.395594 -0.224976 0.207066 0.410422 -0.201674 0.00611709 0.314617 0.109539 -0.193455 -0.14726 -0.336127 -0.0553259 -0.163499 -0.0689631 -0.117676 0.166871 -0.527847 0.594854 0.144208 -0.0900257 -0.158798 -0.0487379 -0.0194553 -0.189082 -0.0408371 -0.198872 -0.241625 -0.0689966 -0.225538 -0.232134 0.0902672 -0.19317 -0.127522 -0.0843164 -0.281968 0.0463113 -0.0726486 0.232827 0.586505 0.0370708 0.0917126 -0.0339364 -0.125541 0.282256 0.366092 -0.10393 0.00401776 0.374236 0.475912 -0.0085626 0.107858 0.0782117 -0.108052 0.0769113 -0.353222 0.0100129 0.0285147 0.514103 0.534059 0.0282843 -0.0363498 0.0903854 -0.239427 -0.170096 -0.00772369 -0.171202 -0.188679 -0.0105112 -0.117945 -0.172512 0.148628 -0.217628 0.0568161 -0.0248971 -0.170938 0.350976 -0.10833 -0.00355957 -0.250219 -0.269058 0.0295954 -0.248197 -0.35524 0.11148 -0.109692 0.384499 -0.0597692 0.138963 -0.117629 0.174682 0.0489446 0.285757 0.138782 -0.0913645 0.105213 -0.226545 -0.290497 -0.181103 -0.0172429 -0.0277554 0.0615111 -0.0754613 0.0945743 0.23494 0.344794 -0.105112 -0.229634 0.0106034 -0.101156 0.221934 0.404037 -0.0475193 0.0265439 -0.156603 -0.211874 -0.139414 0.249909 0.515271 -0.0836259 -0.208393 0.0533145 -0.0491089 -0.0204831 0.0798676 -0.29543 -0.192933 -0.087658 0.0738304 0.137135 0.379554 -0.12926 0.154449 -0.0121085 -0.19163 -0.104254 0.016882 -0.0214924 0.439914 0.107786 -0.408956 -0.231189 0.12982 -0.0559664 -0.31424
chance -0.131712 0.146278 0.0643371 0.0504392 -0.176931 0.170591 0.0414943 -0.0312624 0.235485 -0.0879091 -0.0039876 -0.074053 -0.363009 0.137215 0.231554 0.253274 0.11331 0.14232 0.161541 -0.179818 -0.467931 0.116305 0.2582 -0.00930923 0.182337 -0.10105 -0.0158525 0.101475 -0.149721 0.0858306 0.139742 0.25753 -0.0247098 0.0570525 -0.116416 0.0698071 -0.178116 0.216599 0.0672703 -0.0950356 -0.173038 0.179048 -0.0601526 0.0497067 -0.0463084 -0.0548039 -0.0576496 0.077676 0.193844 0.0694683 0.0245207 0.288801 -0.130628 -0.067258 0.238173 0.0368086 0.201565 0.0428329 -0.204154 -0.244911 -0.0947011 0.07879 0.309374 -0.186955 -0.235987 0.0422989 -0.102986 0.11261 0.229646 0.0596641 0.234849 0.0267627 -0.106059 -0.0652243 0.0333506 -0.202713 -0.160255 -0.142055 0.335871 0.257406 -0.192175 0.471424 0.0839159 0.308926 -0.0189749 -0.119999 0.0630994 -0.17235 0.194227 -0.00873069 -0.254385 -0.039489 0.142984 -0.300605 0.135315 0.0209487 0.0590082 -0.132637 0.0271719 -0.365855 -0.144473 0.113756 0.104294 0.00663031 -0.0146707 -0.235894 -0.265688 0.324459 -0.162204 0.0440229 -0.148983 -0.251722 -0.0165449 -0.0633789 -0.133736 -0.0155852 -0.0371832 0.0785434 0.150165 -0.16769 -0.285346 -0.0739525 -0.0736223 -0.110927 -0.297799 0.0926614 0.291858 0.124705 0.326882 -0.118386 0.0871609 -0.314226 -0.125068 -0.112155 0.00478064 0.271745 0.319487 -0.27018 -0.0347849 0.0741791 0.190607 -0.246401 0.0669414 0.126094 -0.137312 0.0561781 -0.13575 0.484607 0.0849411 -0.0763345 0.0638059 -0.128296 0.427252 -0.10438 0.239321 0.137607 -0.21118 -0.303606 -0.0757985 0.216773 -0.0454009 0.285136 0.0711026 -0.363923 -0.0526128 0.093031 0.095571 0.274529 0.0473543 0.124298 0.0807289 0.158963 0.215838 0.0747673 0.0345112 0.00305829 -0.00867297 0.239267 -0.0344577 0.006741 0.152196 -0.294278 0.137634 -0.16467 0.0240358 -0.171762 -0.0201156 -0.011934 0.142471 0.112654 0.453866 0.130867 0.27849 -0.00243959 -0.0669195 -0.282982 -0.0346355 -0.0298869 0.210604 0.186832 0.267319 -0.325788 0.0611425 -0.136833 0.114763 0.143935 -0.262915 -0.0791108 -0.0783508 -0.070858 0.138494 -0.173749 -0.0866035 -0.157881 -0.0181524 -0.0193512 0.283957 0.150744 0.00881789 -0.258661 -0.0246182 -0.077861 -0.00192256 0.232585 -0.0913006 -0.000220684 -0.327167 -0.255507 0.0155985 0.0134835 -0.150513 0.225883 0.0315898 0.166878 0.144832 0.116273 -0.359342 0.0623487 -0.0985119 -0.0642866 0.274417 -0.115738 0.0505664 0.139271 0.20694 -0.0366618 0.278444 0.182287 0.248153 -0.118729 0.13202 -0.317649 0.0962518 0.0795478 0.192523 -0.275879 0.115981 -0.389412 0.198509 -0.203379 0.509806 -0.121401 -0.0199071 0.0431831 -0.121336 0.0143594 -0.056841 0.127528 0.155987 -0.0485332 -0.186985 -0.239072 0.0990867 -0.0709951 0.166616 -0.0742016 0.0779802 0.232931 -0.169486 0.0779408 -0.291565 -0.00610553 0.0697493 0.000305971 0.175379 0.181225 -0.0891733 -0.0876965 -0.367575 -0.069443 0.0673253 -0.132964 -0.0237278 0.0261599 -0.0490747 -0.0436847 -0.11611 0.0618275 -0.00768181 0.0478579
party 0.150331 0.10051 -0.123498 0.0713462 -0.0682459 0.13948 -0.244574 0.293653 0.117485 0.0201945 -0.118716 -0.314937 -0.391899 -0.00883367 -0.0910654 -0.0148925 -0.250995 0.0833557 -0.141054 -0.124583 0.175768 0.176387 -0.188257 0.255814 -0.161054 -0.423828 0.277601 -0.104777 -0.156564 0.087666 -0.305114 0.685339 -0.284613 0.0572455 -0.356543 -0.172331 -0.279791 -0.0222619 -0.0662375 -0.252454 -0.108691 -0.12733 -0.236594 0.177541 -0.231461 -0.107685 0.0380877 -0.0565464 0.0495248 0.031826 -0.01987 -0.12708 0.0618274 -0.0844079 0.0282326 0.179257 0.24467 0.224628 -0.312073 0.11741 -0.175279 -0.0638587 -0.108471 0.115202 -0.0561172 0.206859 -0.155415 -0.214576 0.0840093 0.0126977 -0.0828732 -0.22796 -0.150731 0.445869 0.00310108 -0.329804 0.184919 -0.00617436 -0.0329863 0.0774308 0.207877 -0.110974 -0.415489 0.276088 -0.162682 -0.202539 0.0578345 0.280359 0.179936 0.288021 -0.194559 -0.134588 -0.109408 0.38304 -0.164807 0.134068 0.165018 0.111537 0.291898 0.136223 -0.0349793 -0.0654678 0.126629 0.222475 -0.235943 -0.0726426 0.0690819 -0.0503934 -0.116851 -0.115983 -0.27647 0.270692 0.183511 0.116243 -0.0601503 -0.0250577 -0.0610942 -0.0800675 -0.0328687 0.0150124 -0.153801 -0.0714216 -0.000380571 -0.45395 -0.409507 0.187465 0.0705932 -0.124192 0.0347562 -0.02219 -0.0451966 -0.0528205 -0.349072 0.0661838 0.187852 0.0370077 0.128562 -0.19017 -0.0697338 -0.0671823 -0.234444 -0.33781 0.185813 -0.0656656 -0.11447 0.576207 -0.210422 0.152124 -0.218977 0.0796248 0.221523 0.0670364 0.271621 0.209678 -0.0939808 0.220465 0.296911 -0.128222 -0.0219963 -0.131568 0.247089 -0.0558735 -0.249882 -0.413987 0.113407 0.0181218 0.060976 0.166802 -0.141576 0.53173 0.121331 0.134004 0.0439533 0.392653 -0.0288055 0.461518 0.000104736 0.252888 0.135593 -0.407527 -0.142393 0.320804 0.420345 -0.448184 -0.263281 -0.164595 0.0398402 -0.0600785 -0.233975 -0.2287 -0.00333481 0.062452 -0.0842162 0.221069 -0.0890181 0.0323198 -0.278773 -0.0901327 0.0880088 0.0393042 0.24132 0.412919 -0.0814415 0.115428 -0.300799 0.23803 -0.465493 0.222726 0.0594373 -0.058827 -0.818318 -0.282685 -0.249326 -0.00963164 0.0998872 -0.0898111 -0.0351008 0.377756 0.119676 -0.164397 0.359012 -0.017458 0.136805 -0.251266 -0.290424 -0.180349 -0.128483 -0.181007 -0.0769243 -0.0212304 -0.124484 0.371394 0.413779 -0.205174 -0.0439858 -0.141534 0.0259663 -0.618473 -0.130845 -0.032409 0.123782 0.35398 -0.257453 0.278585 0.0287332 0.207663 -0.213368 0.105738 0.498821 0.148841 -0.118839 -0.475559 0.446332 -0.2675 -0.130997 0.00617582 0.110379 -0.145315 0.190003 -0.0222249 0.27819 -0.100479 0.28008 0.222162 0.227134 0.127559 -0.0351086 0.253497 -0.0318478 -0.125835 -0.142649 0.158474 0.455983 -0.0874755 -0.34693 -0.154915 0.219928 -0.0947144 -0.0110282 -0.0687178 0.400116 0.191104 -0.331759 0.158452 -0.199817 -0.249319 -0.0247655 -0.157925 -0.110392 0.0314843 0.0203352 0.0534941 -0.140192 0.18771 0.00650783 0.182942 0.309688 0.0302625 -0.0253182 -0.0840167
fuck 0.255661 0.10436 -0.00603761 -0.530543 0.198573 -0.0380807 -0.0192784 -0.240182 -0.173298 -0.0954853 -0.105078 0.276766 -0.204644 0.0393411 0.0721781 -0.0802755 -0.0593614 -0.176516 0.304636 -0.106705 -0.0961489 0.363161 0.44059 0.108141 0.209908 0.175992 -0.16968 0.109491 0.184799 -0.337471 -0.0823616 0.39067 -0.100221 -0.16643 -0.0146887 0.0507092 0.0229358 0.164072 -0.0604782 -0.571009 -0.170237 0.434416 -0.274734 0.040778 0.46478 0.154068 0.0878311 -0.133492 -0.0403122 0.175979 0.0235185 -0.159832 -0.224433 -0.109228 -0.0910882 -0.00546663 0.0867343 0.237389 -0.0185662 0.0285093 0.105037 -0.0140056 0.00589066 0.0521514 -0.392034 -0.196607 0.0431068 -0.137934 0.268167 0.314019 -0.125135 -0.125116 0.176319 -0.109642 -0.413854 -0.321339 -0.080053 -0.229656 0.141041 0.0506063 0.0863642 -0.145081 -0.178972 -0.113369 -0.331195 -0.0233422 -0.183996 0.400142 0.232518 -0.589007 -0.0261573 -0.0594354 -0.0990766 0.0864731 -0.240507 -0.27448 -0.0308775 -0.102274 -0.0843647 0.186959 -0.434369 0.117936 -0.149811 0.189584 -0.208673 -0.469181 0.177198 0.29159 0.0887545 -0.0013416 0.111849 -0.132153 0.144495 0.0120343 -0.169861 -0.297188 -0.170438 0.216925 0.23617 0.302194 -0.0195605 -0.14255 -0.384736 0.294125 -0.0200912 -0.281777 0.0615693 -0.017579 0.0244105 -0.287315 -0.00150652 -0.075913 -0.490424 0.115889 -0.141235 0.0108887 -0.139659 -0.273344 0.0601616 0.232524 -0.365674 -0.205004 0.120045 -0.0157176 0.20822 0.0428624 0.103514 0.138469 0.446369 0.194989 -0.0934838 -0.0176231 0.0335123 -0.0721 -0.234674 0.186966 0.225057 -0.192112 0.592275 0.191247 -0.401878 0.0844135 -0.214137 -0.3257 -0.0995069 -0.00384613 0.299986 0.453462 -0.0427147 0.307037 -0.26203 0.0556728 0.604184 0.0527815 -0.185854 0.200231 -0.416888 -0.119631 0.015136 0.153145 0.141868 0.162974 -0.0283525 0.124798 0.0188663 -0.136239 0.101212 0.273639 -0.228412 -0.303834 0.333947 -0.263978 -0.0942729 -0.0790105 -0.102923 0.0764901 0.182336 -0.0891158 0.118359 -0.445579 0.389019 0.017528 0.195387 -0.182577 0.0631733 0.150686 -0.53264 0.0681902 0.0793182 0.136162 0.0936604 -0.303083 0.120265 0.139576 -0.0182442 -0.285448 0.0109442 -0.28302 0.00803545 -0.124465 -0.437763 -0.0450915 0.290778 0.384546 -0.154354 0.0381838 -0.211033 0.095746 0.14004 -0.0620631 -0.0519441 0.0449915 0.0348178 0.555745 0.0147561 0.381465 -0.300006 -0.0322391 -0.288378 -0.0446135 0.326205 0.256576 -0.137095 0.130578 0.0230768 0.0681378 -0.130149 0.567922 0.274669 0.104602 -0.195661 -0.151347 -0.230814 0.137598 0.290113 -0.220483 0.0220089 -0.424499 0.0868934 -0.463832 0.17327 -0.40578 -0.38839 0.222966 0.0857771 0.0389039 -0.0672197 0.176091 -0.271197 -0.145773 -0.223336 0.506939 0.173471 0.117162 -0.366301 -0.0642175 -0.0951626 -0.140949 0.0542311 -0.0701455 -0.29676 0.409775 -0.312134 0.281147 0.336647 0.132006 0.15457 0.442933 0.360005 0.0351545 0.435721 0.422527 0.0902348 0.0240797 -0.430997 -0.31657 -0.230985 -0.227796 -0.391619 0.205579
psychology 0.162885 -0.203876 0.0353308 0.0260066 -0.137205 0.197945 -0.0741894 0.0844519 0.0445724 -0.0828297 0.0682545 0.0485854 -0.0308064 0.0255988 -0.381729 0.383289 0.161167 -0.332024 -0.116776 -0.0363047 -0.625636 -0.166686 0.312029 0.170779 0.384792 -0.338149 -0.358576 -0.202725 0.00552788 -0.0411484 0.584077 0.00294245 -0.026976 0.0876733 0.391651 0.294551 0.309588 0.316753 -0.0758534 0.0558291 -0.626053 -0.0891983 -0.102082 0.22096 0.147005 -0.459057 0.102046 0.0683038 -0.473048 0.0921035 -0.0994934 -0.163099 0.163606 0.0795678 -0.14763 0.0529 0.173431 -0.222912 -0.228796 -0.0954177 -0.384711 -0.372132 0.320482 0.372401 -0.177911 -0.0641471 -0.427232 -0.0218248 0.465068 0.341353 -0.152472 0.410697 0.264513 0.257077 -0.108442 -0.436857 -0.173492 0.460751 -0.249083 0.11085 0.482438 -0.485098 0.242149 0.244344 -0.255152 -0.486045 -0.109829 -0.3417 -0.0491608 0.385322 -0.278076 0.092926 -0.248136 0.177301 -0.135816 -0.233754 -0.0917248 0.174176 -0.26177 -0.016296 -0.248944 -0.299087 0.031083 0.283967 -0.0486337 -0.443412 -0.367461 -0.0557738 -0.280904 -0.0236304 0.134169 -0.257613 0.0184271 -0.0411767 0.0760961 -0.372124 -0.0365126 -0.0271972 0.0202156 0.127192 -0.313134 -0.240186 -0.282803 0.16782 -0.392479 -0.154496 -0.416749 -0.216484 0.071258 -0.352776 0.100363 0.0814393 -0.271232 -0.0722506 0.171756 -0.203276 0.242243 -0.101953 0.199807 -0.220121 -0.281933 0.110406 -0.068735 -0.076712 0.102441 0.209368 0.129133 0.458861 -0.376798 0.118939 -0.177217 -0.318402 0.275762 0.019634 -0.255445 0.436118 -0.352592 0.248942 0.420281 -0.023778 -0.34901 -0.0225894 -0.285836 -0.454584 0.0946124 -0.0381989 -0.134807 -0.0122196 -0.0274108 0.27151 0.156386 -0.425907 0.433517 -0.145781 0.0673812 -0.331938 0.00501312 0.491024 0.0284377 -0.0729108 -0.498847 0.108924 -0.0892995 -0.282947 0.462027 0.259718 0.0208961 -0.364452 -0.173165 -0.143568 0.206281 0.0133982 0.0251755 0.133534 0.343131 0.297107 0.123998 -0.113166 -0.248594 0.433477 0.254132 0.29559 0.0907684 0.320342 0.344539 0.239635 0.0561133 0.151732 -0.460355 0.0141421 -0.178734 -0.0183065 -0.249596 -0.178688 0.3178 -0.0442439 -0.14817 0.0933765 -0.0109865 0.0869952 0.0324301 0.0324302 0.251627 0.024991 -0.0199234 0.261352 0.0226624 0.38066 -0.103342 0.0437075 -0.237672 0.0949119 0.201688 -0.456711 -0.106317 -0.450991 0.184062 -0.130247 -0.183336 -0.135363 0.25143 -0.0176087 -0.0836828 -0.000646999 0.114731 -0.0283113 -0.0409993 -0.155766 -0.18475 0.0592897 -0.0461091 -0.177461 0.500128 0.41816 0.252701 0.412928 -0.263207 -0.0667402 0.136065 -0.265144 -0.196394 -0.317741 -0.228553 -0.202854 0.314927 -0.210193 0.431907 0.169616 0.0460491 -0.497184 0.378246 0.249491 0.4555 -0.0588331 -0.239223 0.0570883 -0.302512 0.480715 0.118592 0.225797 0.0130668 -0.11323 -0.294051 -0.0537634 -0.581334 0.30193 -0.151279 0.156197 0.150659 -0.180283 -0.325832 -0.112474 -0.171166 -0.221328 0.128868 0.20783 0.0506857 -0.138411 -0.160377 -0.0255891
government 0.090612 0.164472 -0.151587 -0.084738 0.197121 0.0548025 -0.18462 -0.0456092 0.0120708 -0.206145 -0.0420002 0.0428048 0.000926087 -0.147661 0.164808 -0.0917644 -0.195881 0.178276 -0.0277838 0.100279 0.138291 0.131917 -0.211743 0.0522812 -0.224351 -0.44814 0.0621631 0.0796736 0.0113283 0.2131 -0.118171 0.110098 0.0379416 -0.0116817 0.0180596 -0.366062 -0.140646 0.0452844 0.00850374 -0.269965 0.241741 0.0198685 0.108362 0.166858 -0.000570686 -0.123365 0.476505 0.0412214 -0.0832278 0.0830946 0.135122 0.0289825 0.15588 0.0430714 0.0274201 -0.148299 0.222593 0.0939225 -0.359733 -0.00598408 -0.0848813 -0.0920883 -0.311886 -0.0411446 -0.450284 -0.162521 0.00925238 -0.0857773 0.422263 -0.23374 -0.0373343 -0.193301 -0.0172013 0.282096 -0.134378 -0.1884 -0.181635 -0.182653 -0.0388125 -0.00250324 -0.0520259 0.176731 0.130754 0.297281 0.0232841 -0.104659 -0.0566815 -0.040169 0.427654 0.0263143 0.107594 -0.231791 -0.235587 0.220157 -0.160053 -0.186789 -0.203351 -0.0519665 0.187094 -0.0239284 0.0140151 -0.0824875 -0.202286 0.234433 -0.101898 -0.0272332 0.167732 0.00244441 -0.199312 -0.379299 0.00279487 -0.0230179 -0.161662 0.314094 -0.0436609 -0.266912 0.20602 -0.0971338 0.0788977 -0.041769 0.183797 0.0818211 -0.0462342 -0.563382 -0.262957 -0.000892476 -0.0580351 -0.349438 0.294637 -0.0163768 -0.0577204 0.0374831 -0.0930112 -0.197508 0.181977 0.249396 -0.15779 -0.0136015 -0.122613 -0.0743189 0.05846 -0.237719 0.0781591 -0.231092 0.131233 0.243072 0.108491 0.127392 0.0523802 0.119179 0.0267137 -0.261233 0.392435 0.249688 0.114627 0.0357561 0.162076 0.0595999 -0.152701 -0.00970644 0.106971 0.0782665 -0.12033 -0.0566775 -0.0804595 -0.199571 -0.0985072 0.0735992 -0.113291 0.345797 -0.182284 -0.15072 0.202 -0.0822868 0.20487 -0.273373 -0.26348 0.170415 0.119384 -0.490111 -0.0501757 0.250146 0.154772 -0.141487 -0.278914 -0.0199731 -0.107211 0.250734 0.00437692 -0.246699 0.14692 0.156999 -0.321442 -0.159548 -0.1563 0.000168786 -0.0704239 0.053276 -0.0503947 -0.171177 0.214918 -0.00371876 0.0835043 0.0402361 -0.254253 0.0687813 0.235863 0.0915593 0.188632 0.363438 -0.405959 -0.0222981 -0.00378363 -0.0899955 0.0895267 0.260445 0.0244522 0.312696 0.388225 0.0200768 0.469874 0.24827 0.192923 -0.210468 -0.276423 -0.188836 -0.221921 0.151233 -0.279566 -0.437522 -0.0529085 0.131262 0.0537455 -0.152093 -0.0578081 -0.253733 0.290596 -0.245809 -0.133327 -0.035237 0.111768 0.15874 -0.58185 0.218923 0.068442 0.115274 0.142859 -0.178823 0.186875 0.0942519 0.0139409 -0.153787 0.0311229 -0.0953758 0.105701 -0.22997 0.0117993 -0.0127622 0.218742 -0.327292 0.022235 -0.0283061 -0.025397 -0.154016 0.209248 0.102842 -0.0450106 0.0133762 -0.0408787 -0.235143 0.209091 0.0351019 0.184645 0.124024 -0.219483 -0.39424 0.0667887 0.259546 -0.0294636 -0.292347 0.237205 -0.0349167 -0.382718 0.0249552 -0.0344799 0.178842 0.0361295 -0.048303 -0.262821 -0.0962706 0.12836 0.00137532 -0.223915 0.0305263 0.0566383 -0.0154185 -0.109231 0.0513172 -0.115064 -0.404464
madhouse 0.257339 -0.26384 0.285249 -0.262628 0.224272 -0.616377 -0.299082 -0.102517 0.166903 0.222252 -0.0667547 0.352429 -0.193658 0.24341 0.0630041 0.217278 0.00180233 -0.276332 0.10457 -0.0598307 -0.286875 -0.0134408 0.132681 0.0480056 -0.208798 -0.277381 -0.0416589 0.0442937 0.25588 -0.246067 -0.0142232 -0.0791132 0.151618 0.0703859 -0.000989518 -0.236814 0.388528 0.340705 0.0767578 -0.270156 -0.231892 -0.241467 -0.0651071 0.280436 -0.0395058 0.0418964 -0.154266 0.00352368 0.0704609 0.133441 0.0807187 -0.0126885 0.0597262 0.112652 -0.0688543 -0.084726 0.243756 -0.0602611 -0.0561381 -0.0800575 -0.142858 -0.270323 0.22437 0.252594 -0.528467 0.0197951 -0.096415 -0.0374923 0.208526 0.000162616 0.194749 -0.0509152 0.0674904 -0.473929 -0.0595259 -0.111432 0.0611947 0.230724 0.399212 0.111563 0.116038 0.0417212 0.265688 0.158556 -0.1686 0.146745 -0.347463 0.20427 -0.33147 -0.0337589 0.245879 -0.0793695 -0.242162 0.313042 -0.332976 -0.0451149 -0.0389762 0.280901 -0.187086 0.269898 -0.0973003 -0.0298188 -0.0200714 0.0360914 -0.183803 -0.0144993 0.193212 0.526978 -0.363682 0.247832 -0.338513 0.070454 -0.0808827 -0.0539441 0.100502 -0.126549 -0.287571 -0.114401 0.768241 -0.231536 0.058583 -0.357932 -0.216971 -0.106824 -0.257541 -0.117962 0.106905 -0.303736 0.198778 0.0246721 0.34745 -0.501973 -0.0511833 0.102998 -0.127993 0.42729 -0.130403 -0.267748 -0.00499605 0.139106 0.32279 -0.305356 -0.278406 -0.186995 -0.181318 -0.12461 -0.00556289 -0.20627 0.0823513 -0.575675 0.366024 0.109768 -0.0162991 0.020845 -0.113131 0.42214 0.233565 -0.28076 0.237689 0.470448 -0.00748735 0.0531826 -0.448696 0.455135 -0.18088 -0.0248454 -0.290846 -0.143451 -0.031247 0.154663 -0.235013 -0.268139 -0.259072 0.10052 -0.0405101 -0.0877122 0.141171 -0.0552219 -0.0782586 0.280394 0.199645 0.00552846 -0.0957414 -0.390481 -0.364085 0.128633 0.233813 -0.100088 -0.238775 0.200326 -0.164949 0.113055 0.0894366 -0.0350212 -0.0291844 -0.324667 0.128851 0.331966 0.268369 0.243388 0.237009 0.0952695 0.44622 0.0223101 -0.00125662 0.141829 -0.213429 -0.143695 -0.029941 -0.00817288 0.0362958 -0.0728942 0.209769 0.490607 -0.0200757 -0.276243 -0.0513335 -0.485047 0.361624 0.253016 0.105033 -0.315338 -0.134886 -0.102026 -0.0235193 -0.0245087 -0.252781 0.307209 0.148776 -0.671603 -0.23714 -0.0417022 0.0107016 0.123152 0.031672 0.0610905 -0.0584796 -0.0967626 -0.310999 -0.0615082 0.229574 0.455407 0.0110366 0.362702 0.220206 0.145344 -0.268979 0.0166444 -0.420499 -0.0720564 -0.150429 -0.470487 0.220633 -0.192733 0.34179 0.0155809 0.0665632 -0.427324 0.133262 -0.442811 0.625108 -0.464278 -0.552777 0.106365 0.163099 0.224804 0.245421 -0.250942 0.356361 0.123848 -0.157874 0.641404 -0.12065 0.215581 -0.033788 0.130731 -0.13313 -0.146993 -0.171687 0.0182978 0.00894955 -0.195736 -0.156052 0.395216 0.325957 0.119838 -0.0897251 -0.332278 0.158591 -0.0957198 -0.0896165 -0.22439 -0.0616625 -0.14685 -0.162481 -0.193567 -0.426872 -0.217666 -0.0115008 0.245992
video 0.328136 -0.0469848 0.0740942 -0.0848064 -0.0376988 -0.0308785 -0.268862 -0.216229 0.0985693 -0.0603148 -0.23807 0.119467 -0.365838 -0.06668 -0.363393 0.172826 -0.067555 -0.343269 0.0381253 -0.154591 0.108572 0.183332 0.614259 -0.0377544 0.189446 0.144362 -0.0521514 0.0618054 0.399675 -0.0206865 -0.00953248 0.246115 -0.164689 0.11373 0.124883 0.0956967 0.265092 0.220525 0.214565 -0.129366 -0.334136 0.208595 -0.237042 -0.180871 -0.0305128 0.286945 -0.359665 -0.0480626 -0.0143971 -0.237949 0.0836227 -0.0675214 -0.141452 0.41451 0.432342 0.0570447 0.354437 0.188635 0.0524139 -0.132621 -0.0205499 -0.54288 -0.102205 0.329747 -0.0207267 -0.040517 -0.141891 0.267241 0.144303 0.0507111 0.157975 -0.295475 -0.0338863 -0.384928 -0.0485561 0.188209 -0.1008 0.114584 0.310719 0.242957 0.458272 0.448394 -0.183509 -0.227493 -0.356987 0.125532 -0.210482 0.427427 0.189831 -0.342102 0.136291 -0.16146 0.0255664 0.0314011 -0.0607876 -0.344401 -0.0557765 -0.1123 -0.127125 0.168215 -0.227739 -0.0783259 0.00174261 -0.0292952 0.182853 0.0624879 0.264606 0.174048 0.0786279 0.0615689 -0.2265 -0.0980871 0.0755359 0.0653352 0.0356936 0.153656 -0.434042 0.297783 -0.0707628 0.332143 -0.0819601 -0.373151 0.0136759 0.109996 -0.445096 -0.246517 0.0839137 -0.168368 0.138668 0.00849075 0.0401118 -0.128188 -0.208973 -0.315538 -0.322181 0.177538 -0.148473 0.28472 0.176537 0.0250188 -0.562491 -0.588265 0.14278 -0.39295 0.0341871 -0.152093 0.0537191 0.234689 0.00874897 -0.561778 -0.109514 0.10084 0.292626 -0.10174 -0.023166 -0.0891558 -0.323512 -0.1822 0.248352 0.0656458 -0.138642 0.0556256 -0.165622 -0.2296 -0.173668 -0.00397737 0.0758065 0.238875 0.164754 0.356155 -0.522023 -0.0809342 0.236331 -0.0584536 -0.175041 0.0461674 -0.138425 0.125121 -0.128599 0.087877 -0.0267427 -0.200825 -0.167918 -0.0899698 -0.113621 -0.0373158 0.0122313 0.558499 0.119882 0.301146 0.0207642 -0.283109 -0.257968 0.179992 -0.0831041 0.226104 -0.0790426 0.0797481 0.12522 0.206672 0.172614 0.390165 0.261746 0.178419 -0.0161541 0.168136 -0.0495243 -0.00281178 -0.0752739 -0.115398 0.253409 -0.121922 -0.101379 0.420235 0.231637 -0.0387752 0.230598 -0.221012 -0.0849385 -0.162834 0.183858 -0.132633 0.271958 -0.133192 -0.326969 0.239856 -0.164188 0.0468673 -0.0292845 -0.759452 -0.0232927 0.0350283 0.331637 0.0689896 0.140992 0.322223 -0.0919858 -0.0690926 -0.280976 -0.327677 0.124698 0.211633 -0.0516241 0.0639566 -0.121154 -0.322761 -0.323886 0.0713986 0.0587789 0.0269717 0.0417367 0.0719082 0.175473 -0.459191 0.442181 -0.0495219 -0.162618 -0.160365 0.220958 0.00340388 0.267875 -0.178359 -0.322394 0.0243797 0.36718 0.228333 0.0661758 0.172184 0.160751 -0.260827 -0.409434 0.303044 0.173736 -0.0547491 0.0469718 -0.243066 0.0737012 0.175166 -0.0821509 0.0533076 -0.139748 0.00147773 0.0435266 0.21429 0.046797 -0.0424443 -0.0219187 -0.36461 0.16426 0.166923 0.206863 -0.123247 0.147745 -0.257083 -0.322447 0.266935 -0.0222451 0.0708781 0.0593109 0.0391819
defeating -0.452317 0.16654 0.529661 0.349522 -0.0331042 -0.0331853 0.247861 -0.092468 -0.0847055 -0.268028 -0.0265139 0.0289836 0.246369 -0.307681 0.174002 0.123308 -0.346228 -0.0426725 0.131071 -0.105031 -0.289763 0.146334 -0.1098 0.543332 0.589792 -0.437652 0.163807 -0.0561188 0.058853 -0.141158 0.0281841 0.50451 0.0372095 -0.229044 0.0741683 0.268068 0.0945467 0.269834 -0.24005 -0.455556 -0.0563693 0.0200265 -0.265945 -0.0829609 0.126349 0.0288615 -0.143552 -0.106282 -0.117298 0.30334 -0.150079 0.324621 0.284136 -0.139221 0.443068 -0.118133 0.120031 0.319829 -0.105208 0.09295 0.0761697 0.257495 0.0762764 -0.47084 0.158853 0.236389 0.103228 0.141444 0.378917 0.0599301 0.123283 0.216732 -0.0287068 0.395028 -0.017255 -0.111055 0.349068 0.162703 0.410323 0.669754 -0.0789894 0.0069662 0.0142992 0.18647 0.25341 -0.218566 0.37469 -0.493035 -0.181134 0.502774 -0.0768514 -0.120232 -0.0055702 -0.355629 -0.0919622 0.23243 0.177263 -0.138977 -0.372017 -0.101659 0.43286 0.167946 -0.112838 -0.186594 0.0419989 -0.236035 -0.151877 0.46465 -0.232592 0.306179 -0.642536 0.0307568 -0.267989 0.144149 0.158865 -0.381048 -0.335096 0.122495 0.357721 0.417414 -0.0760631 0.537974 0.00362695 -0.29795 -0.320458 -0.144868 -0.105542 0.174442 -0.010021 -0.35524 -0.0774664 -0.32548 -0.432204 0.0622348 -0.0280757 0.443287 -0.327909 -0.426921 -0.0604307 0.0689732 -0.140959 0.0473215 0.450254 -0.0690928 -0.254369 0.30046 -0.348229 0.101439 -0.174529 0.15673 -0.33186 -0.10929 -0.0754165 -0.0250257 0.610844 -0.1702 -0.115294 -0.0976298 0.339545 -0.0239804 -0.0489595 0.489178 -0.0539418 -0.134738 -0.0431103 -0.334649 0.380044 -0.430743 0.32925 0.192529 -0.410081 0.122491 -0.368841 -0.133619 0.254743 0.126439 -0.0144127 0.345129 -0.168207 -0.504607 -0.23014 0.114614 0.371157 -0.256698 -0.431618 -0.74063 0.0405509 0.154212 -0.169612 -0.0782558 0.134574 -0.0845835 -0.175318 0.108011 0.178602 0.42392 -0.0714213 -0.0622566 -0.233342 -0.0170924 0.0721054 0.0491385 0.0747351 0.355886 -0.192163 0.332206 0.0586879 -0.493407 0.329765 -0.0528185 0.196735 -0.527873 0.262583 -0.78432 0.200579 -0.0648431 0.149362 0.707522 0.134172 0.322293 0.553321 -0.173737 -0.181137 0.0608494 -0.347266 0.158162 -0.290158 -0.531632 -0.0743747 -0.338904 -0.209968 0.522976 0.268509 0.131866 0.0311544 0.486109 -0.0678962 -0.385729 -0.15445 0.171083 0.0886103 0.103105 0.124096 0.488802 -0.303885 -0.181639 -0.355139 0.0800663 0.0643802 0.271006 -0.0969698 -0.0769079 0.3674 -0.118984 -0.111879 0.483165 -0.184882 -0.447155 0.437418 0.124516 0.0806665 0.151387 0.185445 0.278736 0.317057 -0.421289 0.113496 -0.245534 -0.276137 0.0907739 -0.205225 0.263134 0.0746991 -0.477306 -0.22257 -0.169506 0.139831 -0.0485101 -0.219186 0.0949367 0.0522111 -0.300872 0.171808 0.0849411 0.182841 -0.129333 -0.459398 -0.0625354 -0.0526464 0.215213 -0.0364928 0.0609753 0.271879 -0.25524 -0.201603 -0.26522 0.0433266 -0.148697 0.164695 -0.389796
death -0.112431 -0.320435 -0.305415 0.0448382 -0.00640115 -0.0494671 -0.00397401 0.149191 -0.229362 -0.0560845 -0.0892618 -0.267787 0.131689 0.303562 -0.271687 0.20256 -0.369054 0.195197 0.0257834 0.108654 -0.290319 0.0190032 0.138964 0.295434 0.120945 -0.230705 -0.223159 -0.111334 0.0239012 0.130155 -0.0328923 0.00476785 0.267834 -0.269628 -0.136093 0.0408856 0.230079 0.336236 -0.118484 -0.143023 -0.273113 0.0702093 -0.473458 0.315845 0.121574 -0.0514248 -0.34074 0.103043 0.180914 0.0217551 0.0868015 -0.000613613 0.0140929 -0.106878 -0.168431 0.0821622 0.108561 0.0439802 -0.0737474 -0.142397 0.0466694 0.0678599 -0.215562 0.0947266 0.110369 0.180621 -0.166442 0.197804 0.204416 0.152835 -0.183399 0.211481 -0.125794 0.197504 0.166885 -0.107137 -0.00500528 0.00224115 0.276825 0.232228 -0.284034 -0.219538 0.263411 0.0427973 -0.194592 0.0961825 -0.185156 -0.409423 -0.113116 0.121013 -0.108636 -0.335865 -0.0309375 0.315692 -0.0214826 -0.200173 0.240431 0.169442 -0.0408496 -0.405337 -0.0346277 0.172588 0.201064 0.1213 -0.103788 -0.35704 -0.282708 0.50686 -0.0171773 0.0661292 0.0467658 0.0857757 0.162839 -0.0209416 -0.282608 -0.210624 -0.0410329 -0.0469952 0.0432016 -0.0788771 -0.205492 0.246386 -0.185851 -0.0359204 -0.356439 3.30199e-06 0.00874178 -0.0907685 0.138391 -0.0927182 0.248144 0.0897894 -0.115783 0.304182 0.0439796 0.127445 -0.0683219 -0.195871 -0.291239 0.0222973 -0.0199724 0.0507715 0.0343067 -0.17889 0.213624 -0.0162519 -0.194656 -0.130044 -0.154401 -0.192666 0.259119 -0.134597 0.460291 0.711209 -0.0438631 -0.147919 0.129788 0.143181 -0.102455 0.0195504 0.131266 0.172826 0.0201189 0.136544 -0.376465 0.217478 -0.228037 -0.0499089 -0.279829 -0.0849177 -0.0732249 0.413788 0.455835 -0.0234759 -0.128381 -0.134538 -0.160026 0.0605732 0.0645035 -0.230709 -0.190842 0.108115 -0.0704377 0.00369153 -0.161154 0.00877288 -0.231678 0.0721683 0.0853294 0.256287 -0.257457 -0.102682 -0.314338 -0.0842713 -0.000134325 0.251033 -0.0615995 0.151808 -0.248724 0.227414 0.0176517 -0.0119567 -0.000980517 -0.0998881 0.100051 0.0155444 -0.177132 0.166099 0.12438 -0.0327941 -0.106516 -0.00946439 0.0373589 0.0212171 -0.168169 -0.0804446 0.144745 0.0100485 0.101845 0.209455 -0.0637239 -0.234661 -0.0494385 0.0419311 0.105648 -0.0437264 0.150775 -0.218783 -0.275968 -0.224689 -0.100079 0.504234 0.300958 0.425482 0.0995031 0.0824723 0.224906 -0.551167 -0.643826 0.221195 0.271296 -0.123268 -0.353974 0.339173 -0.190621 -0.223206 -0.178549 0.49034 0.0773595 0.0679094 -0.0401492 -0.165618 -0.192773 0.044771 0.260457 -0.239759 -0.0618835 -0.10776 -0.0795556 -0.142006 0.127925 -0.0110435 -0.0279921 -0.248908 0.370399 -0.10858 0.304473 -0.159977 0.352044 -0.0544808 -0.118556 0.2176 0.235206 -0.0294416 0.0573305 -0.147371 0.255865 -0.198628 -0.103271 0.116308 -0.0483852 -0.272397 0.0870782 -0.074104 0.27027 0.24649 -0.207911 0.0645849 0.259234 0.159835 0.264648 0.0599608 0.0259841 -0.0296354 -0.0376692 0.0269049 0.00220331 -0.465669 -0.076283 -0.251385
image 0.157713 0.347734 -0.5826 0.345104 -0.0807677 -0.230862 0.0347135 -0.296403 0.177695 -0.0154913 -0.0862111 -0.0213156 -0.0952132 0.243887 -0.129388 0.0973316 0.357293 -0.463434 0.0443306 0.184659 -0.248697 -0.274098 0.120369 0.142077 0.246979 0.0604524 0.0907755 -0.0409979 0.16249 -0.0303055 -0.0261112 0.209868 -0.0468997 0.192732 -0.119883 -0.0430846 0.122424 -0.0567091 0.104912 -0.0440117 0.122224 0.0842601 -0.189458 -0.109292 0.32481 -0.145399 -0.101433 0.292503 0.109395 0.163461 -0.0676611 -0.148238 -0.210141 0.1919 0.254055 0.241528 0.234282 -0.214408 0.0532406 0.0203165 0.319238 -0.345595 -0.238535 0.086555 -0.0320495 -0.372317 -0.0693883 -0.151433 0.186016 0.146037 0.0553497 -0.284314 -0.0446616 0.039423 -0.0999864 0.171512 0.0526877 0.0704467 -0.0684884 -0.160362 0.149865 0.0330085 -0.00981142 0.0249627 -0.103523 -0.410169 -0.131968 -0.114172 -0.00415997 -0.054695 0.0260358 -0.153823 -0.187686 -0.170313 -0.177286 0.119889 -0.242143 -0.261917 -0.0578354 0.234853 0.0168258 -0.0568665 -0.121943 0.0276202 -0.139565 0.180275 0.222449 0.0453834 0.00899369 -0.01155 -0.0119523 0.160268 0.184051 -0.137299 -0.12704 -0.074024 -0.0952475 0.308585 -0.0812639 0.174939 0.0348501 -0.0454264 -0.0517204 0.413793 -0.531693 -0.165877 0.258821 -0.495616 -0.185198 0.105279 -0.0527344 0.0887491 -0.470243 -0.39451 -0.351728 0.0678031 -0.0595223 -0.140896 -0.0743963 0.0366094 -0.15086 -0.238693 0.252352 -0.0586799 0.0717187 -0.0722845 -0.096125 -0.0427583 0.120365 -0.0633058 -0.159135 0.175239 -0.174625 0.197376 -0.0230372 0.0802682 -0.236621 -0.310134 -0.118671 0.0888888 -0.176576 0.152008 0.117196 -0.310594 -0.0150528 -0.0439801 -0.0725221 0.06195 0.159552 0.0965044 -0.215502 -0.371835 -0.0742484 -0.126362 0.0134506 -0.0430041 -0.0499169 0.190235 -0.362192 -0.12937 0.0437624 0.207971 -0.277436 0.26815 -0.0739369 0.543702 0.0518522 -0.104922 0.134931 -0.0330663 0.224629 -0.0919192 -0.0838507 0.00933696 -0.15756 0.0740183 0.133387 0.157961 0.121896 -0.021427 -0.121118 0.228219 0.00637876 -0.0691021 0.0394843 0.0402278 -0.112301 0.141494 -0.193937 0.0676486 -0.127323 -0.0467127 0.347615 0.309174 0.124832 0.11118 -0.0335918 0.124074 0.284315 -0.229694 0.144311 -0.312905 0.242552 0.00351996 -0.057893 -0.0459597 -0.56441 0.420369 -0.193993 -0.360253 -0.208028 0.17404 0.295908 0.107619 -0.197301 0.167503 -0.203837 -0.452355 -0.290266 -0.0326942 0.066342 0.0800982 -0.149495 0.274367 -0.191711 -0.312098 -0.367644 0.457742 0.0323348 -0.198436 0.224916 0.099469 0.112425 0.173231 0.229298 -0.101809 -0.520721 -0.357558 0.319901 0.00257238 -0.202463 -0.278016 -0.0928096 -0.162427 0.116894 -0.0316472 -0.236801 -0.0810879 -0.00354265 -0.0590936 -0.142253 -0.305517 0.160104 0.104131 -0.113852 -0.249236 0.277303 0.110648 -0.39873 -0.0812765 -0.430381 -0.0393469 0.0565567 0.187185 -0.0920662 0.0106563 0.138013 -0.233171 0.106275 -0.0869505 0.10112 -0.0411842 0.0516362 -0.107697 -0.0831551 0.261442 -0.370908 0.00580723 -0.0460696 -0.164153
theater -0.027039 -0.334794 0.052411 -0.122809 0.25449 0.063103 0.305741 0.184253 0.409469 -0.0235959 -0.133076 0.00441282 -0.301004 -0.166422 0.225141 0.118332 0.305597 -0.223111 -0.0213969 0.229326 -0.219802 0.390467 0.198121 0.31859 0.0843302 -0.183892 0.352634 0.0864384 0.0036487 -0.0469995 0.0620847 0.196255 0.20444 -0.149637 -0.118941 -0.0566598 -0.133291 0.264543 0.356603 -0.306026 -0.241255 0.0219267 -0.366638 0.23776 0.0634636 -0.0185088 0.130068 0.0858578 0.343963 0.0111702 0.00376354 0.328075 0.0862518 -0.126043 -0.284301 0.0940762 0.0966033 -0.180156 -0.0456184 -0.117828 -0.316858 -0.287742 0.00211937 -0.0238782 -0.18079 -0.414942 -0.158032 -0.168817 0.121907 0.175424 0.240641 -0.281227 -0.080049 0.0729284 0.348181 -0.0124752 -0.173978 0.178626 -0.257066 0.0366904 0.0324979 -0.022987 -0.510368 0.0704819 -0.0877501 0.0543495 -0.115841 -0.234009 -0.0346452 0.206748 0.0174954 -0.300331 -0.223495 0.523106 -0.435338 0.0663984 0.172688 0.0180156 -0.364842 0.261328 0.162794 0.19226 0.00998189 -0.319193 0.274791 -0.296521 0.0362204 -0.0757179 0.0407006 0.134133 -0.378354 -0.0919383 0.0714877 -0.404851 -0.128304 -0.182852 -0.262629 0.0228614 0.0534479 -0.0158234 -0.154767 -0.11113 -0.151849 0.14926 -0.164467 -0.123454 0.0460748 0.080701 0.142653 0.225306 0.144464 0.0587873 0.000488556 -0.324226 -0.600817 0.597905 -0.100245 -0.161381 0.106944 -0.188524 -0.287482 -0.117614 0.319082 -0.235201 0.199861 0.333408 -0.0191893 0.166309 -0.254275 0.0758621 0.0886949 -0.0314179 0.348091 0.144839 0.335178 -0.0603659 0.00821277 0.186575 0.227192 -0.25613 0.285467 -0.213399 -0.190945 0.245685 -0.0594049 0.253317 -0.151476 0.0310656 -0.102011 0.203799 -0.261145 0.115532 -0.347408 -0.0951884 6.02515e-05 -0.145065 -0.185366 -0.0452241 0.292671 0.0915521 0.0457491 0.178684 0.280489 -0.309734 -0.061359 0.146468 0.0782201 -0.213716 -0.185032 0.313508 0.242671 -0.208938 0.147039 -0.048106 0.476896 -0.0611831 0.151227 -0.189434 -0.0834261 0.239293 0.00563916 -0.0794948 0.0894414 0.292185 0.103778 0.398832 0.057347 -0.00574646 -0.306228 0.194802 0.00751671 0.164887 -0.0380132 -0.0645891 0.0089547 0.163572 0.0533262 0.434487 -0.0844014 0.125755 -0.0498337 -0.00104749 0.153804 -0.0142904 0.111725 0.0819586 0.184017 0.284368 0.0163646 -0.258612 -0.0610263 0.0097464 -0.138911 -0.121717 0.0084061 0.0712315 -0.331425 0.231862 0.0837135 -0.122294 0.200822 0.394189 0.0890599 0.375044 0.135863 -0.207999 -0.186564 0.0053005 -0.227916 -0.32592 -0.0683564 -0.135222 0.387435 0.0515738 0.433542 0.138976 0.0940245 -0.0175725 -0.191584 0.0593514 0.399597 -0.176698 -0.381052 0.0809935 0.101663 0.0803387 -0.0591191 -0.162281 0.203387 -0.250627 0.198256 0.0958856 0.207588 -0.106225 0.0567068 0.030628 0.149173 0.568099 -0.0128406 0.472798 0.258182 0.0741927 -0.183387 0.530321 0.336605 0.497174 0.0269751 -0.239916 0.266412 -0.00721501 -0.0895211 -0.316428 -0.253708 0.0147044 -0.153945 0.204791 -0.14711 0.264277 -0.0650987 0.349459
number 0.308357 -0.237961 -0.127675 0.0811539 -0.354996 0.0412158 -0.254122 0.048855 0.112237 0.011666 0.178394 -0.1762 -0.375792 -0.262783 -0.157993 0.023154 0.112197 -0.119772 0.267675 0.0409129 -0.252137 0.105366 0.351996 -0.20631 -0.141948 0.025558 -0.268406 -0.0683708 0.0505491 -0.00176842 -0.0641812 -0.304001 0.0253638 0.129718 0.182866 0.154778 -0.0525503 -0.0105876 0.112404 -0.0453215 0.0536794 0.0530002 -0.181051 -0.131044 -0.221794 0.240415 -0.0927384 -0.187212 -0.0121021 -0.00384607 -0.0757225 -0.178719 0.250939 -0.240337 0.150263 0.0628105 -0.0535755 0.0382577 -0.120295 -0.108856 0.19454 0.0423825 -0.0646089 -0.166878 -0.141771 -0.263251 -0.338387 0.123889 0.0905356 0.309887 -0.11868 0.162585 0.145832 -0.00154737 0.171248 -0.128122 -0.0331296 -0.0896653 0.424745 0.311506 0.182953 -0.0520431 0.213418 0.279451 0.0903787 0.0648945 0.15447 -0.145366 0.316258 -0.303798 -0.0679105 0.127405 -0.157268 0.0190376 0.159386 -0.0364158 -0.0695502 0.0797006 0.219626 -0.278258 0.171832 0.298805 0.0989888 0.183779 0.0836449 -0.0431457 0.28171 0.197123 -0.0402219 0.0129229 -0.00555813 0.172445 -0.0245941 0.0612715 -0.16384 0.219388 -0.486786 0.242533 0.0547147 -0.12405 -0.177067 0.181992 0.181261 0.0126736 -0.235429 0.0481186 0.165955 -0.0620534 0.181376 -0.176252 -0.0107572 -0.116075 -0.0702067 -0.223716 -0.0350726 0.233615 0.0520136 -0.0667072 0.00206269 -0.123362 -0.096885 -0.302809 0.197243 0.0932713 0.307744 0.0494056 0.0628238 0.0569844 0.123912 -0.0958868 0.080679 0.181338 0.09253 0.138436 0.178109 0.169998 -0.526124 0.015034 0.0313761 -0.0601823 -0.0608335 0.267211 0.106552 -0.208261 -0.193412 0.0868685 0.114815 0.2173 -0.00121471 0.0544564 0.116062 -0.168816 0.165047 0.054454 -0.0180143 0.0172181 0.0197568 -0.106527 -0.0925889 -0.369941 -0.0802581 0.0636038 0.0378616 -0.210206 0.182287 1.21776e-07 0.0349784 -0.426912 -0.262266 -0.0978431 0.0581659 0.0637012 0.286906 0.184644 -0.0503387 0.0922318 -0.113006 0.0475152 0.0344465 -0.153583 9.25722e-05 0.41262 0.278709 0.20601 0.0243507 -0.0840925 0.112133 0.240299 -0.140649 0.105395 0.0993203 -0.0152988 -0.114564 -0.0140638 -0.16498 0.370632 0.0566388 0.323205 0.0682828 -0.193022 0.073429 0.263247 0.107296 0.0493233 -0.266891 -0.0696274 0.115494 -0.0299857 0.0487319 -0.274423 0.206104 -0.0329399 -0.0353278 0.0538144 -0.109514 0.0072676 -0.17672 0.165606 -0.190454 0.210031 0.130851 0.012985 -0.316476 -0.0387066 -0.0600615 0.0526932 -0.139937 0.365302 0.144481 0.130393 -0.21801 -0.315685 -0.1284 0.118809 0.12069 0.212569 0.16503 0.0510112 0.295821 0.0642316 0.218795 -0.114259 -0.23828 0.00317316 -0.0144954 0.0492634 -0.135163 0.0633639 -0.0863677 -0.198909 0.0537066 -0.241555 0.061984 -0.152698 -0.145043 -0.0485995 0.17635 0.0628939 -0.185863 -0.0449271 0.0433221 0.144042 0.034191 -0.0526841 0.327109 -0.244387 -0.00227039 -0.0976574 -0.134521 -0.0542284 -0.0120763 -0.338052 -0.386204 0.3569 -0.029213 0.180537 -0.157548 -0.120999 -0.0973677 -0.0395468
astronomer -0.00408996 -0.42649 -0.371698 0.391739 -0.147935 -0.0274428 0.43368 0.149597 0.370604 0.0755664 0.0752211 -0.218579 -0.446456 -0.0432552 -0.0543356 -0.0205268 -0.0431434 -0.4703 -0.337922 -0.105781 -0.0807201 -0.248726 0.0347023 0.225059 -0.0542626 0.0348377 -0.0797845 -0.285128 -0.0689515 -0.363947 0.11675 -0.276771 0.0951642 -0.327092 -0.119117 0.256155 0.23723 0.206212 0.41123 0.0208245 -0.125159 -0.11357 -0.568779 -0.102375 0.0779293 0.0988669 0.0585035 0.433164 0.277573 0.284804 0.392235 0.18179 0.169721 0.106781 0.0260381 -0.167015 0.20227 -0.0425657 0.250862 -0.14448 -0.230892 -0.0330437 -0.232195 -0.0792009 -0.194964 -0.214918 -0.20117 0.070364 0.272176 0.0724227 -0.251762 0.548163 0.114971 -0.0826494 -0.064171 0.117449 -0.0485007 0.220839 -0.0191349 0.0089615 0.0620652 0.00851863 0.40598 0.43857 -0.0573245 0.0221195 0.0557213 -0.00733931 0.153431 0.374879 0.164376 -0.280914 0.188648 -0.0854288 -0.135024 -0.291404 0.12948 -0.216035 -0.39223 0.427768 0.158439 0.327893 0.101578 0.366575 -0.181413 -0.545516 -0.0426322 0.249738 -0.378571 -0.0456177 -0.392342 -0.0314687 0.0928544 -0.175591 -0.0595944 -0.196363 -0.0248762 0.188007 0.288171 0.328674 -0.142152 0.299086 -0.297479 -0.323256 -0.846042 0.031825 0.209048 -0.498868 0.347244 0.344605 -0.225224 0.307106 -0.436602 -0.0545972 -0.109724 0.681141 -0.0974205 -0.640018 0.0172133 -0.0679343 0.124146 -0.343993 -0.0867147 0.125993 0.431322 0.788406 -0.121355 0.0739353 0.117686 -0.140204 -0.241739 0.381113 0.0887277 0.0167014 -0.276843 0.533287 -0.618265 0.286549 0.248886 -0.0929179 -0.374814 0.333948 -0.105748 0.044108 0.31046 -0.150642 -0.327805 -0.45156 0.0751373 -0.312512 -0.505586 0.204071 0.0587494 0.348255 -0.194945 -0.235386 -0.0544983 -0.0815327 -0.0430174 -0.11238 -0.59251 0.0763553 0.153546 0.0761743 -0.373572 -0.266527 0.169843 0.128304 0.0200836 -0.293474 -0.166204 0.362244 -0.11186 0.0565181 0.349169 0.627667 0.286067 0.169793 -0.195468 0.386751 0.403235 -0.100343 -0.126656 -0.0162774 0.277522 0.132233 0.439969 0.0654506 -0.0192441 0.339568 -0.19898 -0.321619 0.0455602 -0.0897573 -0.0879412 -0.247958 0.203737 0.458476 -0.103249 -0.190094 0.0545192 0.214175 0.76246 -0.511613 0.326358 -0.663882 0.206674 -0.33807 0.414316 -0.292571 -0.570772 -0.0665912 -0.270534 0.0925256 -0.509304 -0.0631003 0.0454518 -0.700953 -0.185162 0.0105838 -0.099111 0.283459 0.192798 0.072498 -0.561468 -0.0558295 0.19927 -0.387202 0.284889 -0.0728643 -0.282703 -0.0434677 -0.327364 0.285472 -0.0656295 0.140436 0.267384 -0.132326 -0.215119 0.104793 -0.124585 0.298346 -0.0125147 0.156649 -0.174196 0.140015 0.0515318 -0.354589 0.0609647 -1.0001 0.124251 0.177215 0.761021 0.0120261 0.283446 -0.604268 -0.430291 -0.229309 0.0327822 -0.148202 -0.197119 0.204199 -0.155732 -0.270133 -0.0675823 -0.00947493 -0.25707 -0.167174 0.452993 -0.148402 -0.0192706 -0.119647 -0.427341 -0.197517 0.139202 0.0244592 -0.0925478 -0.268553 0.0248138 0.00425653
project 0.0896174 0.066295 0.16312 -0.252425 0.123164 0.0882791 -0.139836 0.0846033 0.058896 -0.000845908 0.169672 0.102603 -0.219032 -0.0214643 -0.146582 -0.136676 0.148251 0.0229463 -0.0485926 -0.15961 0.034396 0.115404 0.110592 0.381628 0.19263 0.0684217 -0.0119108 0.330585 -0.0669237 0.178358 0.00889769 0.132601 0.122664 -0.101628 0.183456 -0.00426624 -0.133343 0.0351699 0.104223 0.0925864 -0.14273 0.259099 0.155343 0.0486253 -0.10321 -0.171169 0.0644296 0.148111 0.117946 -0.0712576 0.0482144 0.343461 0.201221 -0.0438664 -0.0444517 0.0606522 0.14487 -0.0481778 -0.199368 0.0722924 0.241085 -0.22666 -0.119653 0.242927 -0.0898587 -0.163876 -0.0126555 0.0672283 0.139751 0.100527 0.0601703 0.0906737 -0.174326 -0.085469 -0.32973 -0.22314 0.123222 -0.109979 -0.0905258 0.00750611 -0.247185 0.039617 0.08069 0.0302395 -0.154882 0.0447703 -0.145836 0.171688 0.189633 0.19189 0.0877062 -0.0592343 -0.311796 -0.0991705 0.0850536 0.050119 -0.255543 -0.121696 -0.203276 0.0102064 -0.298265 0.241187 0.232114 -0.197995 0.0959393 -0.144991 -0.0679222 0.118352 -0.304923 0.073623 0.0609871 -0.080696 -0.0231944 -0.0935886 -0.172825 -0.224287 -0.104981 -0.250829 0.134096 0.0594882 -0.105182 -0.215792 -0.0579992 0.121994 -0.122865 -0.150372 0.273673 -0.245716 0.105708 0.260548 -0.0356979 0.011362 0.0236637 -0.346158 0.0763072 0.187627 -0.115894 0.0855184 -0.00294442 0.0558326 -0.122668 -0.135732 -0.098607 0.421439 0.211574 0.23516 0.166071 -0.116595 0.186431 -0.142012 -0.159442 0.351358 0.170438 -0.269649 -0.0229507 0.0452057 0.196646 0.220625 -0.0886537 -0.136404 0.148026 -0.270672 -0.270844 0.166779 -0.00359761 0.193216 -0.11546 0.155705 -0.0422698 0.320141 -0.32676 -0.19627 0.046624 0.142223 -0.196311 0.142802 -0.109722 0.457175 0.193073 -0.33632 0.00580611 0.0447576 0.0372904 -0.180075 0.130868 0.0712241 0.055921 -0.210292 0.112035 0.0360852 0.162035 0.125181 0.224518 0.0276811 -0.109993 0.00459043 0.181175 -0.19101 0.0313632 -0.0963004 -0.128112 -0.0115814 -0.148791 -0.139252 -0.159057 0.19227 -0.016596 -0.150308 -0.204655 -0.17808 -0.19647 -0.121079 0.202563 0.223246 0.0248811 -0.108052 -0.0390695 0.344376 0.212296 0.0246064 -0.0747812 0.022767 0.0407558 -0.0841225 0.113818 -0.0472836 -0.220184 0.166102 -0.201836 -0.62229 -0.0288843 0.288476 -0.143794 -0.122413 -0.103955 -0.138243 -0.0915916 -0.211929 -0.0740821 0.0837307 -0.0667628 -0.0570529 -0.274919 0.225856 -0.0344698 -0.00700224 0.172345 -0.029934 -0.0681568 0.0386596 -0.248879 0.193269 -0.0778554 -0.0304471 0.0937212 0.0408837 0.086363 -0.260961 0.113358 -0.1322 0.0730755 0.133583 -0.372262 0.138713 0.0529822 0.0583622 0.0973123 -0.179305 0.00644409 -0.154036 -0.235628 -0.0763637 0.283761 0.282199 -0.116156 0.0144623 0.19383 0.129363 -0.16157 -0.211359 -0.0302433 0.12041 -0.430914 -0.0123431 0.132215 -0.050281 -0.160351 -0.164446 -0.112348 0.282557 0.078833 -0.144955 -0.221807 -0.239072 0.17823 0.282443 -0.11963 0.272515 0.0418343 0.344363
dawn -0.177422 0.0397298 -0.2717 0.138486 0.201401 -0.363679 -0.00984724 0.284973 0.350006 0.239601 -0.00600176 -0.138131 0.0183639 0.191282 0.111413 0.209545 -0.243145 -0.14765 0.484886 -0.122723 -0.0820015 0.0505677 0.0487654 0.436113 0.0346724 -0.0688578 0.0479788 0.0163136 -0.008715 -0.110222 -0.349752 0.0918771 0.00366783 0.101896 -0.164185 0.123883 -0.024842 0.232815 -0.137501 -0.0696834 -0.0847718 -0.0764189 -0.198723 0.0931741 0.109648 -0.199387 -0.0411526 0.149641 0.11063 0.149799 0.0549282 0.118726 0.00273799 -0.0338435 0.209222 0.177147 -0.010376 0.0792334 0.00518 0.0140373 0.0599731 -0.114909 0.142153 -0.138113 0.174017 -0.196422 -0.0298648 0.0816122 -0.0705554 0.241853 0.0925785 0.0146623 0.0697847 0.205625 0.411885 -0.133147 0.100136 0.123314 0.200655 0.169462 -0.099581 0.115808 -0.258042 0.184605 -0.0993554 0.192352 -0.254601 -0.0346381 0.192804 0.189404 -0.249856 -0.0473536 -0.0644945 -0.349647 -0.0611661 -0.252213 0.312259 0.161328 0.00537505 -0.192174 -0.201903 0.225161 -0.159278 -0.00810249 -0.135577 -0.249141 -0.205421 0.102199 0.100383 -0.0178262 -0.291154 -0.0185816 -0.304705 -0.291772 -0.275304 -0.126644 -0.245788 -0.0140436 -0.00494021 0.0905985 0.13981 -0.0159851 0.0129444 0.087828 -0.227959 -0.201914 -0.183203 0.101187 0.493866 0.105654 0.122137 0.0123669 0.0861685 -0.31915 0.0251757 0.102422 -0.280912 -0.125849 -0.306258 -0.137207 -0.159945 -0.153622 0.134534 -0.193999 -0.135426 0.0845909 0.0106264 -0.18839 -0.149803 0.0279631 -0.200991 0.0501927 0.0911252 -0.00288319 -0.162449 0.271282 -0.208275 0.0847114 0.129381 -0.143098 -0.351862 0.254745 -0.234835 -0.194836 -0.185188 0.293566 -0.108514 0.110555 -0.273176 0.182487 -0.427349 -0.201809 0.0456727 0.0831884 -0.0611024 -0.242238 -0.17461 0.226067 0.249539 -0.0922435 0.0813569 0.19543 0.0449967 -0.210335 -0.0196823 0.103226 0.131078 0.0685304 -0.504377 -0.0632496 -0.0516844 -0.0604721 0.130591 -0.185481 0.185114 0.34139 -0.226635 0.0749035 -0.0110313 0.246639 -0.010578 0.27834 0.179817 0.0188094 -0.0559179 0.212906 -0.0368285 0.280053 0.177862 0.066024 -0.0710734 -0.0213877 0.046747 0.186167 0.0902989 -0.136152 0.233958 -0.275227 0.0507708 0.0191235 -0.0300163 -0.070493 0.0602193 0.0119345 -0.187105 -0.37829 0.0690305 0.282242 0.164037 0.00969974 -0.216316 0.152833 0.501858 -0.118822 -0.075097 0.137771 -0.167984 -0.0232967 -0.309101 0.176707 -0.0263469 0.217303 -0.323498 0.0207147 0.218412 -0.0940836 0.0763842 0.359906 0.361147 -0.345184 -0.228525 -0.0639586 0.19809 -0.112949 0.221811 -0.109237 -0.0466923 -0.156077 0.0404886 -0.235657 0.130568 -0.0552572 -0.108391 0.176527 0.0684636 -0.0603589 0.324474 0.111079 -0.0809279 -0.0721236 -0.175776 -0.101138 -0.0182262 0.136126 -0.0771196 -0.198907 0.183697 -0.259689 0.319328 0.110644 -0.222394 0.290813 0.074795 -0.0967829 0.167935 -0.132195 -0.0923171 0.134382 0.151344 -0.0418073 0.151392 -0.234205 -0.180665 -0.314849 -0.0288237 0.0314436 0.159145 -0.0566634 -0.0227981 -0.225192
ear 0.377978 0.300155 -0.665393 0.238437 -0.273182 -0.0414187 -0.0363351 0.0103256 0.21474 -0.129763 -0.101322 -0.0808965 -0.242359 0.0970947 -0.0338017 0.242684 0.0479711 -0.319908 -0.0623707 0.116413 -0.177254 0.201012 0.155554 0.404291 0.217953 -0.0150022 -0.0380259 0.136783 0.0538367 -0.117857 -0.468008 0.0222859 -0.217203 0.015171 0.299879 -0.159987 -0.165072 0.21439 -0.0714917 -0.369958 -0.246026 0.12378 -0.169829 0.0103636 0.231392 -0.556375 0.17411 0.0146485 0.288059 -0.0331855 -0.0305907 -0.221806 0.116329 0.197278 -0.105248 -0.0182438 -0.0991581 -0.0112205 0.146934 -0.17772 -0.228309 0.0657679 0.121896 0.125812 -0.407066 -0.101863 -0.261058 -0.0827018 0.236823 0.038323 0.454319 0.0380118 -0.025949 0.0585977 -0.352659 -0.221186 -0.0613887 0.261295 0.00886046 0.143739 0.149103 -0.263415 -0.193782 -0.315459 -0.334805 -0.156024 -0.510767 -0.188079 0.14488 0.175528 -0.0478748 -0.17191 0.00277091 0.048258 0.0129689 0.0962558 0.0575992 0.199866 -0.100456 -0.247708 0.179988 0.0446355 -0.0906943 -0.195833 0.0444036 -0.269125 -0.278323 -0.022813 0.134086 -0.228599 -0.219056 0.237898 0.212081 -0.0792893 0.171525 -0.281127 -0.311954 0.206051 -0.102632 -0.268243 0.115242 0.0674275 0.0301494 0.596706 -0.721288 -0.392634 -0.125924 -0.533374 0.292342 0.164222 0.0792136 0.236062 -0.410166 -0.091337 -0.422327 -0.134009 0.358315 -0.396177 -0.0828722 0.313153 -0.335541 -0.497096 0.14222 0.0361414 0.10925 0.094206 -0.0830861 -0.113857 0.182664 -0.35333 0.0181013 -0.00658813 0.104501 0.169279 0.0041334 0.226253 0.12323 0.219434 0.139097 0.214414 0.0628354 0.322158 -0.438081 -0.145907 0.0428047 -0.163639 0.306172 0.0641143 0.142484 -0.191406 -0.0980449 -0.33231 0.440774 -0.000706257 -0.110872 -0.253006 -0.369227 -0.0669104 0.078886 -0.141353 0.0766922 -0.147193 -0.44105 0.170843 -0.0134588 -0.183871 0.285628 -0.0556186 -0.306229 0.0140012 0.0676921 0.2837 -0.0260617 0.110977 -0.183151 -0.0530372 0.210819 0.186967 0.562968 0.147161 0.259831 0.0748869 -0.0142608 -0.259515 -0.0519752 0.600223 0.169094 -0.113969 -0.12947 -0.222548 0.0161268 0.147046 0.0576931 0.156176 -0.209527 0.185335 -0.146519 -0.31331 0.262667 0.101376 -0.287367 -0.0588502 -0.0952147 0.55151 -0.0586725 0.0752125 -0.31335 -0.367156 0.184912 0.271116 -0.108006 0.260498 -0.143739 -0.151188 0.16017 -0.123119 -0.1534 0.135515 0.256722 0.0529996 -0.0596623 -0.208831 0.350259 0.363544 -0.17692 0.143336 -0.142308 0.35049 0.198514 0.0409524 0.0831761 0.0584501 -0.19356 0.0732383 0.152795 -0.227438 -0.104624 0.0568073 -0.0879837 -0.421817 -0.495149 -0.156153 -0.475552 -0.000406996 0.145594 0.213178 -0.0877237 -0.00330639 0.470163 -0.080047 -0.0655273 -0.0365824 -0.0509381 0.210573 0.13819 0.145456 0.194663 0.0664764 -0.132901 -0.144211 -0.1951 0.239563 0.422685 0.0821063 0.0870139 0.173792 0.0106579 0.169591 0.0991277 0.0455082 -0.26505 -0.0274225 -0.0504273 0.474272 0.11634 0.054183 -0.576788 0.165418 -0.0614978 0.130328
voyage 0.0404013 0.395509 -0.430804 -0.148563 0.321943 -0.173071 0.0022815 -0.346382 0.406074 -0.110194 -0.0121134 -0.119822 -0.170388 0.497312 0.0542057 -0.0398607 -0.612489 0.275906 -0.0752021 0.169549 -0.29738 0.128202 0.366557 -0.0687708 -0.131989 0.270552 -0.356964 -0.403976 -0.0709776 -0.311188 0.15025 0.230098 0.146844 0.121167 0.0186726 0.00776593 0.0303835 0.147427 0.37832 0.251475 -0.278357 -0.121051 -0.164991 -0.0927533 -0.198029 -0.229926 0.0268722 -0.0529284 0.18544 0.0546426 -0.299965 -0.18884 -0.0585303 -0.047887 -0.155779 -0.20255 0.415021 -0.409628 0.229219 -0.326447 -0.161973 -0.160586 -0.216789 0.129946 0.142425 -0.408142 0.23478 0.0952221 0.268738 0.146969 -0.286563 0.00896304 -0.00316869 -0.202749 -0.493611 -0.392636 0.200516 0.130851 0.00381844 0.20744 -0.369633 0.240303 0.177776 -0.108745 0.185375 -0.00455038 0.114793 0.0424992 -0.10402 0.12306 0.0175587 -0.105193 0.11985 -0.233335 -0.0589977 -0.157166 0.261224 0.066204 -0.0876733 0.282083 -0.223634 0.901645 0.0286183 -0.0139759 -0.105197 -0.180093 -0.28458 -0.00574165 -0.128519 -0.0668235 -0.462504 -0.179587 -0.330417 0.150208 -0.0374517 -0.152799 -0.331802 -0.126947 0.330659 0.135867 -0.421556 0.0552689 -0.358151 0.262372 -0.367214 0.273291 0.036191 -0.238383 0.290149 0.180398 0.114925 0.0520806 -0.0671624 0.0138956 -0.148348 0.320079 -0.06433 -0.00462399 -0.0273616 0.219414 0.0688385 0.192091 -0.172319 -0.304816 0.0501518 0.153891 0.0956966 0.0157373 0.042282 -0.334181 -0.0883038 0.61767 -0.0957542 -0.136075 -0.00188297 0.124928 -0.311057 0.183174 -0.256739 0.327855 -0.108966 0.210209 -0.192085 0.0711043 -0.0247697 -0.323639 0.0404638 0.147096 -0.227037 -0.404517 0.0560392 0.0240834 0.0551989 0.290938 -0.1827 0.412736 -0.469276 0.238536 0.22524 -0.0584594 -0.00948699 0.253657 0.187693 -0.158788 0.0964332 -0.211084 0.238882 0.0866488 -0.150755 -0.160997 -0.135206 0.0497535 0.203848 -0.357692 0.355073 -0.173779 -0.0167996 -0.312317 0.200834 -0.0692534 -0.272627 0.161956 -0.111764 0.0834224 -0.409746 0.216637 -0.304059 -0.0512982 0.295426 0.00494691 0.469454 0.365907 0.323784 0.252289 0.134686 -0.12655 0.111371 0.212521 0.0502505 0.0332898 0.161088 -0.257792 0.128497 -0.0690636 0.0606346 -0.402214 -0.16514 0.198228 -0.0306014 0.118285 -0.504195 0.191839 0.0915234 -0.319907 -0.521838 -0.0917374 -0.0100826 -0.604332 -0.289137 0.0381353 0.238501 0.252119 0.162924 0.253641 0.386312 0.00184709 -0.310854 0.577953 0.274391 0.349551 -0.284192 -0.164931 0.269489 0.0399308 0.237546 0.241727 0.530403 -0.200401 -0.0776779 -0.21652 0.271747 0.202393 -0.236253 -0.29878 0.513247 -0.533504 -0.0629844 -0.385132 0.259247 0.258428 0.0112066 -0.0737216 0.491078 0.322557 0.643706 0.479925 -0.000526294 -0.169431 0.205294 -0.0641444 0.371596 0.394043 -0.390666 -0.293084 0.15177 0.227559 -0.197856 -0.326611 -0.215531 0.154521 0.0710336 -0.282502 0.11356 -0.215197 0.0363294 -0.0541496 0.219183 -0.143842 -0.424268 0.0607451
valor -0.0698608 0.143352 -0.171347 -0.316963 0.102988 -0.0322897 -0.112467 -0.111087 0.108926 -0.10434 0.296758 0.203852 -0.178384 -0.0851673 -0.170381 -0.139999 0.222479 -0.48608 0.267839 -0.219994 -0.477784 -0.0607111 -0.0620167 0.266525 0.318401 0.00705706 0.278942 -0.666957 0.27501 0.0030325 -0.332171 0.0524966 0.112154 -0.168544 -0.239599 0.176299 0.150014 0.00216958 0.0290983 -0.234909 -0.197408 -0.333284 -0.476093 0.318628 0.0943904 -0.232967 -0.219516 -0.426892 -0.0548529 -0.249315 0.0453233 0.233233 0.0590182 0.124272 -0.123342 -0.103994 0.0334509 0.0860001 0.102429 -0.202123 -0.187651 0.101609 -0.228378 0.0525554 -0.379683 -0.366024 0.00759205 0.117265 0.381241 -0.0360498 0.0872084 -0.0357525 0.0597066 -0.0644237 0.0880574 0.169395 -0.101929 -0.144771 0.355771 0.227242 -0.00718586 -0.204467 0.106241 -0.337858 0.256492 0.364358 -0.0959172 -0.494787 -0.337054 0.165722 -0.225718 0.150325 -0.0629199 0.229089 -0.261121 -0.0721332 0.148726 -0.462097 -0.392161 0.457082 0.119017 -0.533258 -0.130706 0.0583149 -0.121226 -0.0630888 0.0461976 -0.124976 -0.518261 0.243531 -0.420173 -0.328727 -0.315149 -0.0373791 -0.479344 0.0341778 -0.0557392 -0.05559 -0.274503 -0.138857 0.0711696 -0.173459 -0.0446521 -0.0209709 -0.714636 -0.215078 0.206223 -0.104546 -0.297301 -0.22038 0.0944482 -0.0687164 -0.00324114 0.331475 0.0244725 -0.0210141 0.0424548 0.393318 0.0544567 0.287971 0.508689 -0.202091 0.388952 -0.0112455 0.0292358 0.17217 0.051823 -0.273834 -0.162394 -0.0188085 -0.249423 0.486007 0.190899 -0.067196 0.265029 0.119297 -0.0897392 -0.0314556 -0.279273 -0.0118324 -0.388656 0.195107 -0.0961741 0.0200071 -0.503926 0.428385 0.17081 0.107898 0.151311 -0.194505 -0.255928 -0.0465511 -0.0820649 -0.0045011 -0.120434 -0.028481 -0.611274 0.61708 0.00613081 -0.131046 0.571496 -0.0128763 0.450298 0.218167 0.367561 0.467924 0.168946 -0.116431 0.375498 -0.101038 -0.0159768 -0.416691 -0.226697 -0.311346 -0.110831 0.124457 -0.338631 0.241067 0.12507 -0.0428505 0.000856461 0.082433 0.0333903 0.274637 0.290963 0.0328666 0.00227206 -0.0357404 -0.0915947 0.0182073 -0.199353 0.0480473 0.00893051 -0.111207 -0.0954707 0.308178 0.168323 0.319709 -0.0152173 -0.650789 0.11615 0.206203 -0.0835012 0.107494 -0.531367 -0.186588 -0.197614 -0.17005 -0.475867 0.0957614 -0.27954 0.232288 0.469333 -0.050435 0.187762 0.297891 0.16371 -0.153927 -0.459336 -0.282039 0.37258 0.343367 0.052634 0.270297 0.181613 -0.21217 -0.455232 0.205185 0.241811 0.145039 -0.174629 -0.272141 -0.381216 0.626856 0.232975 0.272485 0.136267 0.187833 0.0640738 0.237046 0.216149 0.181191 -0.59672 0.0786663 0.38447 -0.0571994 0.0701021 0.0760242 -0.104797 0.263937 0.233773 0.777573 0.318379 -0.0704888 -0.0457613 -0.205873 0.315182 -0.0193413 0.248192 -0.519021 -0.0782885 0.390898 0.209634 0.0973438 0.187406 0.480696 -0.166923 -0.255936 -0.0652699 -0.269638 0.430451 0.471369 0.0511825 -0.311931 -0.131719 -0.132829 -0.378806 0.474372 -0.0145099 -0.179332
butter 0.445267 0.356242 -0.715009 0.232346 0.393801 -0.0811903 -0.120344 -0.305233 -0.0529598 0.388734 0.0259142 -0.524504 -0.110767 0.169784 0.188718 -0.365407 0.0276271 0.0519629 0.292135 0.305394 0.0937408 0.275623 -0.102657 0.105974 -0.0745633 -0.249903 -0.00576705 0.0858008 0.208534 0.189536 0.383222 0.434732 -0.251882 -0.390709 0.185153 0.183727 0.348171 0.166777 0.420549 -0.0823157 -0.0579156 0.178383 -0.0663755 -0.038701 0.268207 -0.249698 0.278877 -0.117724 0.121105 0.346543 -0.228026 -0.0199303 0.0694499 0.0975241 0.0818593 -0.31758 0.178749 -0.0835084 0.0175159 0.0292557 -0.472711 -0.0632882 -0.0837801 0.155296 -0.210153 -0.0917233 -0.0423739 0.210629 -0.268529 0.189146 0.168968 0.664333 0.236817 0.102716 -0.200061 -0.224151 -0.0275973 0.149424 0.204129 0.145285 0.177961 0.0698886 -0.408796 -0.644104 -0.123906 -0.130955 -0.11924 -0.159489 0.135369 -0.0762393 -0.384405 -0.559874 -0.23635 -0.222722 -0.585481 -0.0856221 -0.142683 -0.234287 -0.271062 -0.101791 -0.161255 0.142913 -0.121782 -0.153151 -0.0278807 0.146187 -0.227772 0.176256 0.217798 0.213008 -0.0410419 -0.31164 -0.020801 0.00572588 0.266946 0.0453153 -0.665524 -0.00582975 0.0239501 -0.223622 -0.20038 0.0548323 0.0699729 0.0837621 0.131131 -0.104599 0.278772 0.268308 -0.00548491 -0.493584 -0.217523 -0.0929175 -0.1527 -0.192581 -0.0130812 0.377456 0.0907874 0.225341 0.217418 0.128378 -0.0468095 -0.431249 -0.0136779 -0.00201717 0.254419 -0.0680227 -0.395738 -0.0392199 0.388257 -0.122724 -0.0713911 -0.0361618 -0.00528401 0.0108568 0.168122 0.301966 0.339314 0.175375 0.146324 -0.015173 -0.256554 0.0103086 0.1303 -0.242657 0.000862027 -0.245421 0.177751 -0.0488241 -0.124693 -0.235714 0.2501 -0.00683365 0.256919 -0.10364 -0.176516 0.332618 -0.15017 -0.106053 0.114577 -0.276835 0.241911 0.175788 -0.0486799 0.37135 -0.0632806 -0.191677 -0.132097 -0.0919797 -0.195251 -0.245278 0.0688891 -0.0631641 -0.25826 -0.0407978 0.153523 -0.226243 0.225975 -0.00394154 0.0788919 0.328734 0.225382 -0.000676422 0.505153 0.043457 0.00856962 -0.0660536 -0.260577 0.40751 -0.20844 0.342292 -0.204364 -0.209634 0.104068 0.0544071 -0.0123053 0.00995939 -0.00626156 -0.213041 0.160886 -0.197994 -0.151928 -0.129146 0.559607 0.163674 0.282589 -0.161565 -0.188335 0.00372751 0.0749625 0.105872 -0.155941 -0.085403 0.276598 0.188318 0.353272 -0.185807 0.147557 -0.251579 -0.401318 0.404477 -0.213889 0.208343 0.066687 0.0798545 0.264065 -0.0584131 0.0557852 0.277107 0.554274 0.24747 -0.0978098 -0.0434375 -0.0628449 0.214496 -0.0711541 0.137224 -0.160124 -0.518303 0.174372 -0.136909 -0.131435 0.149806 -0.415836 0.612542 0.103746 -0.183279 0.116894 0.288425 -0.247335 -0.255179 -0.288282 -0.200173 -0.299557 0.0398979 -0.0140086 0.0421239 0.247131 -0.0596543 -0.0104706 0.306448 0.371347 -0.0272029 0.12995 0.22331 0.0895471 0.203823 0.123412 -0.0159855 0.305325 -0.437967 0.12922 -0.182838 -0.165795 0.411618 -0.121611 -0.229061 -0.537325 -0.229825 -0.0727129 -0.295013
gin 0.357424 0.0986943 -0.0915841 0.230693 0.245831 -0.344366 -0.289766 0.224209 -0.0300452 0.449221 -0.127844 0.0237603 -0.124296 -0.172902 -0.211833 -0.142335 -0.0647734 0.0122708 0.127218 -0.250366 0.00580279 0.410131 -0.111612 0.474761 -0.285036 0.141289 -0.0483265 -0.203836 0.188477 0.312272 0.320317 0.46306 0.276812 -0.342541 0.0933775 -0.156251 0.256815 0.311999 0.487158 -0.0837086 -0.0899764 -0.158772 0.18202 -0.239268 0.15853 0.0722495 0.00852483 -0.0637209 0.0035667 -0.139127 -0.365463 0.13687 0.0542971 0.222809 0.110989 -0.420786 0.314285 0.0675814 0.0796947 -0.102203 -0.439503 -0.0833457 -0.106939 0.102872 -0.153526 0.139697 0.372352 -0.134996 -0.0305686 0.164142 -0.0145771 0.170854 0.198931 -0.165238 0.042634 -0.0800226 -0.06253 0.0660469 0.373426 0.0576619 -0.0498281 -0.0538214 -0.0467895 -0.523867 0.0654442 -0.35086 -0.0365136 0.0153222 0.0127487 0.00124339 -0.133932 -0.330747 0.0912211 -0.303994 -0.347695 -0.071375 0.494448 0.137361 -0.180496 0.181596 -0.370657 -0.0944737 -0.0474036 0.197215 -0.0187202 0.385823 -0.135086 -0.156566 -0.13452 0.478589 -0.12387 -0.299623 0.00967822 0.0558723 0.290868 -0.273252 -0.513355 -0.161491 0.23094 -0.265246 0.0199569 -0.0667022 -0.0420152 -0.0853357 0.385658 -0.287677 -0.174784 -0.0875525 0.054554 -0.220317 -0.152483 0.103951 -0.389808 -0.126719 0.00160618 0.209443 0.13588 0.0759109 0.108285 -0.236885 0.0287282 -0.449403 0.0274141 -0.117522 -0.0768585 0.0685228 -0.369064 -0.185878 0.472548 -0.158789 0.103632 -0.208478 0.490668 0.0492426 -0.128728 0.508955 -0.192513 0.111777 -0.0398451 0.270344 -0.0134612 -0.0314843 0.0201037 0.129229 0.0654968 -0.160116 -0.00221672 0.343455 -0.0702663 -0.202045 -0.111266 -0.144596 0.56301 0.163485 0.0201218 0.22802 0.0269266 -0.265623 0.148827 -0.0207855 0.0528029 -0.263566 0.0512084 -0.143294 -0.275867 -0.251749 -0.209741 0.143278 -0.119252 -0.0692815 0.396232 0.0198574 -0.0847557 -0.0627481 0.0686168 0.224591 0.293965 0.238094 -0.358571 0.0311717 -0.000160406 -0.0678535 -0.00275878 0.151995 -0.106758 0.143261 -0.374706 0.0809791 -0.236687 0.165973 0.0585144 -0.235113 0.133916 0.238145 -0.017861 0.343649 0.278393 -0.320243 0.0500971 0.00520926 0.178016 -0.0586498 -0.0181421 0.277933 -0.165276 0.259391 -0.0280722 -0.173239 -0.173944 -0.161767 -0.223718 -0.0349216 0.0109648 0.0721249 0.35581 0.270625 -0.205655 0.0144503 -0.319743 0.059399 0.270766 0.319784 0.127547 0.137639 -0.20319 -0.108527 -0.335811 0.34726 0.348299 0.208037 -0.236693 -0.386484 -0.239721 -0.0150522 0.0974307 0.419742 -0.326953 -0.0872267 0.224348 -0.0212659 0.572708 -0.237981 -0.582832 0.0695374 -0.0905288 0.599212 0.319159 0.28299 -0.0909807 -0.147236 -0.00635508 -0.0529633 -0.260483 0.0013101 0.0494241 0.309391 -0.294198 -0.33927 -0.013575 0.530859 -0.315368 0.169637 -0.14958 -0.0216252 0.307411 -0.424419 -0.251028 -0.266308 0.253924 -0.196112 0.0679255 -0.444525 -0.110306 0.417528 0.205727 -0.0295183 -0.525615 -0.0902184 -0.0512315 -0.227213
reservation -0.077766 0.191216 -0.270686 0.368712 -0.00355673 -0.233396 0.225901 0.0798095 -0.270357 -0.0744345 0.104951 0.475705 -0.429374 -0.368613 -0.0852543 -0.260284 0.172204 0.242346 -0.0692827 -0.248478 -0.410519 0.0241262 -0.091254 0.272993 -0.0926231 -0.20335 -0.250848 -0.139842 -0.579634 0.00236337 -0.235385 0.335802 -0.0965094 0.104534 0.0200213 0.0841871 -0.017219 -0.215895 0.101942 -0.313684 0.0456047 0.0613825 0.185134 0.379056 -0.0202406 -0.0439418 -0.157614 -0.0141292 -0.356322 0.0298842 -0.172375 0.377609 -0.323912 0.197561 -0.141114 -0.350449 -0.045152 -0.160738 -0.00119651 -0.313757 -0.574462 -0.191083 0.234089 0.187153 -0.401061 -0.0512203 -0.160282 0.146974 -0.0756928 0.0292259 0.205505 -0.0737467 -0.382505 0.257858 -0.212608 0.0305615 0.00477088 0.347599 -0.148673 0.147988 -0.0629825 0.30787 -0.160436 0.0716071 -0.492742 0.0377233 -0.276117 -0.0936254 -0.0785162 0.163548 -0.288283 0.0637655 0.0352004 0.214337 0.481623 -0.144455 0.0750905 0.316858 0.247703 -0.254714 -0.0350112 0.265617 -0.058436 0.15077 -0.0998459 -0.184582 0.08008 -0.177264 -0.0225827 -0.132225 0.325703 0.0761728 -0.0625212 -0.1065 -0.416907 0.0982438 0.00518627 -0.278163 -0.0608426 0.0387662 -0.0489119 -0.0807119 -0.270725 0.216455 0.0682142 0.429238 0.166642 -0.0690368 -0.149119 0.277785 -0.0239224 0.591485 0.0763757 -0.029087 -0.332949 -0.0164788 0.171649 -0.157836 0.222645 0.19434 0.139302 -0.58421 0.144967 0.167084 0.318667 0.0472617 -0.274981 0.771681 -0.314543 -0.334825 -0.107146 -0.101237 0.305131 -0.0445269 0.184683 -0.013065 0.207784 0.29434 0.11293 -0.338967 0.475934 -0.173892 0.0519642 0.0750667 -0.241444 0.1086 -0.171863 0.0232016 0.155492 0.577161 -0.214057 -0.333401 -0.0366166 -0.110945 -0.154628 -0.0807003 -0.224694 -0.234523 0.157791 -0.321087 0.600696 0.160549 -0.218524 0.0177205 -0.136593 -0.169665 0.0418892 0.232078 -0.0141906 0.00856107 0.228879 -0.350533 0.148062 0.272284 0.135732 -0.0503691 -0.179484 -0.0936816 0.0800089 -0.159356 0.177544 0.211955 -0.239842 -0.220071 -0.105548 -0.00670511 0.00682927 0.0109658 0.135757 -0.264925 -0.306126 0.130999 0.235083 0.295556 0.339037 0.401228 0.133117 0.273144 -0.0341242 0.0170285 -0.0743418 -0.0237664 0.0673398 -0.219621 -0.25891 -0.504106 0.310151 0.535298 -0.227034 -0.36298 -0.185888 -0.144455 -0.552857 0.28575 0.186486 -0.408965 0.418572 -0.260193 -0.322702 0.504685 0.17144 0.109 -0.0373416 0.203956 0.208756 -0.349019 -0.176702 0.15768 0.498113 0.190094 0.190706 -0.392306 -0.0567819 0.0727823 0.33463 0.441412 0.213997 0.0712884 0.231878 -0.068403 0.49386 -0.133956 -0.152313 0.0106812 0.137051 -0.210374 0.561358 -0.145356 0.190925 0.101716 -0.17977 0.129186 0.185495 -0.0499528 -0.0180623 -0.073123 -0.311661 0.163659 0.208219 -0.496168 0.374488 -0.0738087 -0.0801428 0.167427 0.361968 0.0203549 0.032778 0.19084 -0.502665 -0.0430904 0.203668 -0.0516975 0.146575 -0.290367 -0.134733 0.0850431 -0.146549 -0.260278 -0.325905 -0.284777
wealth -0.195441 0.0128352 -0.127022 0.383138 0.256058 0.293531 0.0839443 0.0407809 -0.0237877 -0.264596 0.0968624 -0.265336 -0.0533974 0.100364 0.280956 -0.0892201 -0.214462 0.309659 0.0571409 0.342238 -0.225987 0.097084 0.185799 -0.0234003 -0.0553329 0.177948 0.041513 -0.254892 -0.225364 0.0674652 -0.000804296 0.257498 -0.000903312 -0.243742 0.253134 0.343051 -0.201141 -0.120754 -0.00953251 0.134081 0.0873551 -0.0685328 0.14966 0.182262 0.059095 -0.362342 0.111174 -0.0110833 0.124905 0.0725966 -0.195278 0.363828 0.241835 0.291195 0.152323 -0.177667 0.221258 -0.0967279 -0.0949427 -0.185302 0.175507 0.173835 0.047216 -0.231551 -0.278496 -0.129093 -0.20199 0.236837 -0.0249808 -0.0171696 0.0702824 0.502342 -0.053829 0.116584 -0.0320592 0.106319 -0.0709061 0.00993131 -0.392137 0.200899 0.018627 -0.0275579 -0.0102015 0.0480327 -0.0208055 0.143373 -0.109051 0.128838 0.370413 0.27451 0.0775033 -0.140358 -0.286463 0.277877 -0.0358074 0.030873 -0.0904414 -0.342044 -0.0166077 0.0516959 -0.132735 -0.233107 -0.0318015 0.353735 0.0224383 -0.0650605 0.122598 -0.0525682 0.123022 0.0530174 0.133962 -0.434856 -0.063902 -0.125576 -0.12169 -0.0543824 -0.241778 0.277895 -0.290693 -0.0389696 0.281164 -0.0987581 -0.21355 -0.0306102 -0.206939 0.119949 0.219499 -0.328405 -0.0807149 -0.0403759 0.0993189 0.107451 0.0825128 0.0296271 0.00614883 0.106581 0.202817 0.375658 -0.0611623 -0.292446 0.159607 -0.297073 0.157112 -0.0522184 0.0374758 -0.0217074 -0.0432912 0.211244 -0.0675345 -0.0505406 0.039956 0.00149537 -0.151146 0.361343 -0.13546 0.124179 0.0421346 -0.19582 -0.376626 -0.0137182 -0.230465 0.0761276 -0.253782 -0.108423 0.155753 0.0120007 -0.177789 0.20687 0.12126 -0.355217 0.116612 0.0458562 0.297275 -0.075152 -0.195703 -0.325227 -0.0805187 0.370389 -0.0359854 -0.245412 0.158685 -0.167653 0.103713 0.238105 0.0498873 0.00156104 -0.18671 -0.108093 0.123074 0.255437 0.294687 0.046464 -0.368196 -0.102807 -0.169431 -0.0301002 -0.268167 0.213556 0.0840859 -0.173899 -0.106318 -0.122512 -0.178438 0.0984351 -0.191704 -0.0578267 -0.158758 0.130874 -0.0345977 0.165296 -0.0763976 -0.394482 0.302406 -0.0133489 -0.0174217 0.305619 0.0742859 0.486942 0.214898 -0.629784 -0.109653 0.13964 0.0779069 0.11407 -0.363407 -0.101101 -0.359276 0.00367707 0.302778 -0.244824 -0.181044 0.293319 0.00247143 -0.40478 -0.252939 -0.205897 -0.117699 -0.702991 -0.224895 -0.0433653 0.163934 0.423152 -0.204032 0.104981 -0.414912 -0.1892 -0.157563 0.391277 0.190639 0.50893 -0.034547 -0.28648 -0.019206 0.0341557 0.121829 -0.110325 -0.14319 -0.28863 0.383793 -0.174611 0.336448 -0.428885 -0.303586 -0.37304 0.0593296 0.0681297 0.295024 0.326289 0.218995 -0.0234256 -0.013445 -0.285063 0.240798 0.214187 -0.308762 0.0219269 -0.152856 -0.0150055 0.0698769 0.00735283 -0.0308875 0.261316 -0.198499 0.242753 -0.20516 0.256043 0.0181164 -0.267285 0.106184 -0.0933302 0.221882 0.0784591 0.12895 0.185372 -0.0578165 0.241176 -0.047152 -0.143899 -0.0233755 -0.045978
eat -0.0196328 0.104926 -0.422903 -0.281123 0.103235 -0.0368542 -0.215689 -0.0163782 0.150361 0.277983 -0.0532069 -0.286811 -0.226923 0.262524 0.132278 -0.0472581 -0.309217 0.229608 0.026682 -0.168329 -0.509132 0.354205 0.123281 0.445766 0.263518 0.110398 -0.157909 0.43206 -0.188745 -0.14018 -0.119664 0.768709 -0.373507 -0.272519 0.0567292 0.249746 -0.148492 -0.0343091 0.368177 -0.721676 0.0207159 0.272671 0.0310067 0.0247832 0.477823 0.00424234 0.301117 -0.437526 0.132791 0.454167 -0.138877 0.0550064 -0.120116 -0.0833584 0.135491 -0.203429 -0.111373 0.0967016 -0.136904 0.0767856 -0.152098 0.233013 -0.0581598 -0.135312 0.0132397 -0.0423027 -0.0450963 0.0972359 0.0123534 -0.176313 -0.366371 0.365365 -0.215379 -0.302275 -0.319912 -0.200073 0.100314 -0.0494333 0.36089 0.310903 -0.202634 0.321552 -0.0483651 -0.333497 -0.392252 -0.163591 -0.268051 -0.298301 0.360479 -0.179895 -0.252962 -0.109302 -0.429693 -0.0778204 0.0793167 0.133087 -0.268292 0.223039 0.268209 -0.104525 -0.117618 -0.1381 0.235791 -0.157736 -0.0661119 -0.167163 -0.0126495 0.555677 0.106059 0.00856064 -0.123549 -0.245509 -0.0114143 -0.339675 0.355415 0.206249 -0.428913 -0.0172087 0.392543 0.000123904 -0.121422 0.0219943 0.104854 0.0102322 -0.0993608 -0.0450456 0.191727 0.0211938 0.107992 -0.481936 -0.0691272 0.413455 -0.0318426 -0.211297 -0.166318 0.27657 -0.0600162 -0.0630283 0.16927 0.10388 0.128786 -0.382396 -0.006636 -0.058899 -0.164943 0.0169311 -0.118795 0.282758 -0.0626554 -0.184134 0.219075 -0.315472 0.0381665 -0.291931 0.141294 0.148079 0.288307 -0.12097 0.238875 -0.013146 -0.159227 0.295951 -0.0464893 -0.173327 -0.0577085 0.154098 -0.0759142 0.32485 -0.00120104 0.0735735 -0.00625311 -0.0971671 0.373989 0.0829838 -0.273719 0.146962 -0.115149 -0.0980037 0.436716 0.0851333 0.110109 -0.21959 -0.270333 0.0685374 0.131416 0.190726 -0.0303953 -0.236728 -0.345029 0.138737 -0.0130477 -0.106589 0.00863415 0.114553 0.458629 -0.044561 0.238185 -0.111289 0.0139098 0.0983109 -0.0346015 0.0475752 0.521649 0.0202403 -0.0394362 0.270743 -0.146486 0.216847 -0.0271584 0.477967 -0.451512 -0.131367 0.157527 0.0121701 -0.103733 0.213893 0.260061 -0.126052 0.146194 -0.262515 0.119137 -0.269939 0.370606 0.127078 -0.0652391 -0.182837 -0.151417 -0.29976 0.181236 0.0425735 0.0482989 -0.20062 0.125692 -0.0489661 0.140775 0.101611 -0.167728 -0.21626 -0.0619361 0.0484731 0.00886133 -0.0267112 0.0168139 -0.0471473 0.0236682 -0.122655 -0.00273769 0.288091 0.157858 -0.10761 -0.285706 -0.188574 0.0335096 0.034693 0.0584202 -0.0760805 0.104736 -0.317668 0.265761 -0.302305 -0.0813519 0.028504 -0.384576 0.260413 0.00243194 0.0589982 0.286702 0.100859 0.0238418 -0.168532 -0.142973 0.333399 -0.0577281 0.195447 -0.252933 0.192797 0.0558422 -0.281134 -0.0301024 0.123663 -0.241991 0.440785 0.176394 -0.0481622 0.207366 0.333029 0.303124 0.0354268 0.0688397 -0.234163 0.153856 0.154323 -0.00426198 0.126749 0.110611 -0.28606 -0.0761959 -0.162338 -0.421867 -0.248246
soap -0.0104931 0.431817 -0.395601 0.272443 0.0975641 -0.041365 0.088298 -0.066106 0.122114 0.315229 -0.107668 -0.0899595 -0.760481 0.420512 -0.173619 -0.115125 0.11638 -0.439159 0.183368 0.071058 -0.76276 -0.0365231 0.345023 0.20444 -0.0746214 -0.405918 0.0374702 -0.184742 0.0579024 0.281996 0.154538 0.382039 -0.115209 -0.529431 0.0627425 -0.175638 0.195158 -0.3207 -0.0532918 -0.113757 -0.333973 0.248798 0.234357 0.253734 0.756189 -0.234387 -0.131085 0.0156212 0.474089 -0.457878 -0.39555 -0.103981 -0.031108 0.303812 0.219367 0.107532 0.316124 -0.0391272 0.238269 -0.0581306 -0.0788635 -0.280451 -0.187249 -0.0918852 -0.0353961 -0.370696 -0.442197 0.0975071 -0.0215823 0.469255 0.0881824 0.0721519 -0.432495 0.133844 -0.0488123 -0.28047 -0.0887911 -0.339276 0.380776 0.372455 0.245821 -0.023005 -0.283241 -0.185426 0.0719863 0.127283 0.244271 0.361235 0.0760666 -0.101874 0.0126677 -0.28843 0.163448 0.336648 -0.336018 -0.161693 0.392613 -0.228568 0.0379264 -0.130359 -0.10981 0.28843 -0.140504 0.587697 0.403546 -0.116447 0.184708 0.384208 -0.0784 0.289902 -0.747697 -0.101137 -0.149929 -0.0308008 0.51109 0.390032 -0.180801 0.501724 0.0645897 -0.2193 -0.0249936 -0.129826 -0.105566 0.429432 -0.189071 0.114632 -0.30231 0.150073 -0.18022 -0.410787 -0.410976 -0.0860515 0.271145 -0.516537 -0.280195 -0.0307533 0.292597 -0.0932503 0.0314456 0.0927905 -0.193853 -0.568925 0.503008 -0.247363 -0.140225 0.190513 0.0322647 -0.117698 0.361925 -0.57476 -0.4157 -0.350746 0.160927 -0.191325 -0.334394 0.35068 -0.0761282 -0.0739821 0.0473654 0.205234 -0.0504245 0.433067 -0.0114383 0.266358 0.218051 0.284594 -0.514113 -0.050416 -0.0764271 0.41143 -0.458796 -0.412127 0.071297 0.173776 0.0494142 0.150627 0.0326515 -0.402223 0.409695 -0.211708 0.129105 0.424264 -0.27977 -0.0222527 -0.15164 -0.263368 -0.492523 0.222413 -0.0225739 0.53327 -0.111898 0.306563 0.324586 -0.148696 -0.418442 0.889726 0.778586 0.105795 -0.344581 0.0526765 -0.020395 0.383663 0.429271 0.11862 -0.358923 0.013171 0.0326186 0.00493037 -0.0929058 0.768159 -0.0662937 0.0510677 0.122388 0.219673 0.180453 -0.0960519 -0.155822 -0.611417 -0.0139894 0.114207 0.0322805 0.130608 0.409587 -0.281015 -0.00529339 0.19759 0.00415016 -0.201775 -0.216756 -0.474402 -0.245582 0.0712685 0.244201 0.177177 -0.149252 -0.301989 0.259247 -0.177141 0.141099 0.186618 0.34852 0.317007 -0.183572 -0.436762 0.249589 0.158737 -0.434546 0.373364 0.174397 -0.403099 -0.172464 0.0580986 0.237409 0.247813 -0.361559 -0.0103621 -0.294685 -0.33016 0.0944462 -0.210201 0.17125 0.40917 -0.21539 -0.221902 0.277875 -0.157287 0.0551277 -0.0404299 0.0153571 0.126685 0.118278 0.141942 -0.0367454 0.0381779 0.208992 -0.515684 -0.150069 0.395342 0.0822472 0.202539 0.121116 -0.560637 -0.212141 -0.070099 -0.0774041 0.0671032 -0.0815945 0.331981 -0.170056 -0.156798 0.132209 0.305243 -0.208238 0.134664 0.43552 -0.67867 -0.100238 0.367928 0.1463 0.0502375
Jerusalem -0.0194215 0.134165 0.100044 -0.418374 0.0171995 0.156665 -0.114276 -0.176883 -0.173782 0.174125 -0.15246 -0.309737 0.111355 -0.116363 -0.144911 0.214115 -0.0521168 0.222743 0.0906319 0.324691 -0.016619 -0.00494124 0.0180878 0.306778 0.279324 0.0881494 -0.0648984 -0.117394 -0.231498 0.10647 -0.0671016 0.0944079 -0.2305 -0.329756 0.0995363 0.0460706 -0.0842747 0.511579 -0.464028 0.0836492 -0.0509111 -0.283157 -0.15051 0.100627 -0.0963304 -0.368354 -0.113609 -0.163843 -0.185666 -0.318035 -0.104818 -0.0322032 0.309706 0.353807 -0.227274 -0.079177 -0.0747216 0.0876792 0.0229398 -0.0937874 -0.298134 -0.153923 0.152098 0.266902 -0.245164 -0.317219 -0.597534 0.220021 0.132446 0.253503 -0.308068 0.125971 -0.0821468 -0.200667 0.248776 0.330522 0.019293 -0.43359 -0.0374527 0.0728146 -0.162713 0.541332 -0.221083 -0.352444 -0.110247 -0.0757955 0.00859627 -0.137867 0.526045 0.177847 -0.178293 -0.344751 -0.490397 0.0361844 -0.103723 0.271183 -0.189464 -0.0719095 -0.250135 0.109934 -0.282339 0.358841 0.108206 -0.050273 0.485443 -0.405895 0.236196 -0.167341 -0.301999 -0.137516 -0.414557 0.149853 -0.0276372 -0.483627 -0.127275 0.0805725 -0.178077 0.0700282 0.0688471 -0.132368 -0.13607 0.21163 -0.339501 0.148206 -0.532388 0.408701 0.0835702 0.0495747 -0.207514 -0.179208 -0.096661 0.27343 -0.0992808 -0.0383691 -0.341224 0.0439739 -0.130925 -0.49822 -0.10362 0.0523817 -0.345267 -0.0180736 -0.227015 -0.580121 0.16116 0.166155 -0.00448871 -0.529087 -0.12478 0.0289939 0.183132 -0.0275053 -0.0998815 0.397078 -0.0524762 -0.313835 -0.245563 -0.236821 0.259938 0.155998 0.00924445 -0.208633 0.0155191 -0.184355 -0.0822697 0.23957 0.0174299 -0.00507049 -0.178012 0.218427 -0.190429 -0.372204 -0.272155 0.193859 -0.171919 -0.0384903 0.00559322 0.119957 0.0288235 -0.163594 -0.177098 0.0574244 -0.0327165 -0.313165 -0.14514 0.210509 0.0553365 0.000273436 0.332944 0.00841354 0.0875116 -0.210252 -0.0783455 -0.17885 0.55981 0.080508 0.0172085 -0.0319384 0.0776786 0.14277 0.241567 -0.0419349 -0.129888 -0.106533 -0.186971 0.180943 -0.0530848 0.0851707 0.244976 0.435469 0.142854 -0.00664383 -0.0163331 0.169149 -0.136643 0.283418 -0.212835 -0.270581 0.0924423 0.312959 -0.329221 0.161086 -0.0554992 -0.263749 -0.478286 0.0761787 0.0287593 0.262206 0.165752 0.101509 0.0781418 0.247969 -0.0576283 0.116878 -0.153165 -0.313136 0.233341 -0.648625 0.277269 -0.0316941 0.485891 -0.0506261 -0.0650982 0.11758 -0.13331 -0.123271 -0.00769687 -0.178382 0.171482 0.00312595 -0.147571 0.00577103 0.0285485 0.068941 0.422521 0.273277 -0.399032 -0.0517684 0.0893889 -0.190804 -0.248971 -0.115012 0.0431806 -0.192584 0.066636 -0.422408 -0.0489714 -0.176372 0.00840322 -0.200712 -0.0826266 0.122292 0.02451 0.0691993 -0.284807 0.0425176 -0.0776633 0.399046 -0.138887 -0.315723 -0.447589 0.319174 -0.223163 0.0252856 -0.170943 0.332969 -0.219259 -0.241885 0.154222 0.0134102 0.0576443 -0.0675681 -0.0586719 -0.209109 -0.0186991 -0.280237 -0.236516 -0.100284 -0.0326312 -0.298928
discovery -0.10887 -0.144813 -0.432017 0.158213 0.0127158 -0.0132851 0.000258125 0.0936963 -0.198483 -0.0470017 0.022718 -0.250703 -0.423736 0.377297 -0.167212 0.27757 -0.452088 -0.000923028 -0.0729084 0.228415 -0.0780859 -0.0828264 0.043046 0.00561355 -0.00395642 0.0638208 -0.10274 -0.280869 -0.0908138 -0.0526087 -0.0385037 0.00123478 0.331969 -0.0892951 0.11437 0.0510022 0.275115 0.114308 -0.0314091 0.0569586 -0.205938 0.0699265 -0.190859 -0.148878 -0.127001 -0.197027 0.145047 0.197176 0.173197 -0.0888881 -0.210255 0.166494 -0.00372029 -0.17592 0.160087 -0.278289 0.0501334 -0.158769 -0.0158962 -0.194063 -0.0521481 -0.182369 -0.0245322 0.11427 0.132359 -0.0035844 -0.148541 0.0304787 -0.00199455 -0.353175 0.0351011 -0.0846158 -0.0623704 0.207872 -0.0558656 -0.339585 0.0282123 0.0842196 0.194921 0.168443 0.014636 -0.264904 0.250848 0.27905 -0.119895 0.300626 0.364361 -0.3276 0.250949 0.175333 0.140892 0.112633 0.004726 -0.000485593 -0.207021 -0.207563 0.291578 -0.17995 -0.156796 0.130536 -0.324386 0.347811 -0.115445 0.135457 0.145608 -0.280043 -0.167567 0.504562 0.13288 -0.00376827 -0.0596555 -0.0213051 -0.125377 -0.0316354 -0.218432 0.20343 -0.220987 -0.0641821 0.0966507 -0.136369 -0.246067 -0.11099 0.07929 -0.0302632 -0.121585 -0.202744 0.0198807 -0.0863676 0.241385 -0.282448 0.00565712 0.227968 -0.298803 -0.115376 -0.0571481 -0.00701275 0.206361 -0.322554 -0.0110211 0.120869 0.00870276 -0.333333 -0.162936 0.171701 0.061836 -0.0115028 -0.0372778 -0.174034 -0.0547268 -0.0408142 -0.0220276 0.638915 0.0547128 -0.256884 -0.0967963 0.026437 0.0560541 0.318129 0.033362 0.0487248 -0.445485 0.0410032 -0.481316 -0.0531192 -0.337828 0.0343688 -0.0537768 0.151503 0.084138 -0.261441 -0.185329 -0.228161 0.116784 -0.0576215 -0.0432659 0.037505 0.103369 0.104274 0.244221 -0.487839 -0.381389 0.181852 -0.292297 -0.167217 0.3923 0.241329 0.042502 0.177871 -0.00328181 0.289034 -0.135817 0.00608603 0.196463 -0.40996 0.0786278 0.105369 0.32748 0.0786994 -0.11452 0.0122105 0.181317 0.13399 0.0928147 -0.263367 0.0734636 -0.0797098 0.0164831 0.0875801 -0.10131 0.228952 0.0404485 -0.248944 0.3118 -0.0755798 -0.0284331 -0.0912779 0.111669 0.146675 -0.0528966 0.159699 -0.0592778 0.114086 0.0155784 -0.49058 -0.293174 -0.355007 -0.145981 0.154573 0.0373403 -0.203823 -0.523472 0.0988452 -0.136612 -0.133123 -0.0309773 -0.0371286 -0.0706758 -0.393389 -0.414107 0.0979169 0.0571537 0.0950091 0.253775 0.0728608 0.0950903 -0.0518623 -0.009222 0.0381761 0.31656 0.182834 -0.0087275 0.190806 -0.0706234 0.110087 0.175063 -0.0115531 0.170484 -0.0913456 0.1746 0.070763 0.141155 -0.229558 -0.495004 -0.244431 0.214522 0.0311659 -0.0242962 -0.23175 0.0911357 -0.243962 -0.23443 -0.291336 0.144378 0.0628967 0.283508 -0.342516 -0.0196811 -0.348743 0.0050632 -0.174442 0.0475346 -0.0346057 -0.568731 -0.287727 -0.0497583 0.245724 -0.019961 -0.204883 -0.160194 -0.174354 -0.0135969 0.292373 0.000444685 -0.384475 -0.137118 -0.0153275 0.00342865 0.165109 -0.232521 0.0356056
hospital 0.117573 0.00754718 -0.137215 0.000308167 0.0892748 -0.146267 0.0454545 0.0929588 0.234826 0.0984947 0.553089 -0.370577 -0.240791 -0.0249356 -0.113184 -0.14834 0.112284 0.1388 -0.0441612 0.00785869 0.0784136 0.252167 -0.162043 0.283499 -0.192856 -0.340843 -0.247121 -0.383165 -0.0548714 -0.0638899 0.0696375 0.274503 0.137985 -0.378398 -0.211506 -0.2414 0.418275 0.100745 0.163568 -0.227419 -0.405835 0.156624 0.166397 -0.0327444 0.207893 -0.334763 -0.302251 0.0620238 0.00561059 -0.0694741 -0.45728 0.066358 -0.0230625 0.267353 -0.210912 -0.0238414 0.143616 0.0190409 -0.301614 -0.0169129 -0.21755 -0.191203 -0.104641 0.142076 -0.190264 -0.110965 -0.244886 -0.0880083 0.566222 0.173581 -0.17229 0.126896 0.241619 -0.0436191 0.255791 0.0748689 -0.0202607 -0.0678951 0.0789252 0.0432037 0.0292161 0.449398 -0.108234 -0.102072 -0.0966533 0.110818 -0.121159 -0.233865 -0.359667 -0.176716 0.145366 0.0929419 -0.0149831 0.328846 -0.0438946 -0.182395 -0.102715 0.116938 -0.732153 -0.386957 -0.0543463 0.0390929 0.044263 0.120907 -0.398998 -0.382121 0.130431 0.113333 -0.223927 -0.343765 -0.571858 0.487922 -0.290719 0.0835978 -0.066356 -0.306103 -0.0694049 -0.103776 0.248681 -0.38101 -0.304281 -0.274133 -0.573029 0.147607 -0.119978 0.0402548 -0.188312 -0.405732 0.055659 0.152621 0.358435 -0.0018067 -0.0868878 -0.134054 -0.225287 0.0747117 -0.329106 -0.139813 -0.0365149 -0.0886996 -0.033261 -0.407313 -0.16448 0.344102 -0.280406 0.322073 -0.201096 -0.193892 -0.219567 -0.282648 0.186732 -0.209514 0.147635 0.0941928 0.0591613 0.135858 0.145009 -0.286308 0.369876 0.00433356 0.18556 -0.0530955 -0.641355 0.263746 -0.111591 0.0533926 -0.269057 -0.227759 -0.0520658 0.00309498 -0.111263 -0.416834 0.113401 0.00270455 -0.0935871 -0.23565 -0.197445 0.232772 -0.0621647 -0.286189 0.0667046 0.320421 0.130046 -0.350253 -0.45482 0.0510135 -0.158036 -0.053525 -0.225314 0.16157 -0.0545052 -0.0280367 0.268888 -0.060978 0.187908 0.0121527 0.0370367 0.0453432 -0.0708604 0.0209466 0.128801 0.304445 -0.134415 -0.0233022 0.142998 0.0539009 0.166411 -0.0432984 -0.140837 0.230871 -0.296594 -0.0168604 0.0248003 0.152264 0.317572 0.555912 0.0575702 -9.4788e-05 0.212572 0.327351 0.288779 0.0768114 0.384429 0.491066 0.00123731 0.0496233 -0.0877593 -0.180553 0.288917 -0.279288 -0.152074 0.135653 -0.0552398 -0.118364 -0.0333965 -0.296238 -0.111306 -0.0798986 0.137723 0.135493 0.576162 -0.207986 -0.122874 0.355713 0.112317 -0.418376 -0.148943 0.239062 -0.348917 -0.0312149 0.290419 -0.00963508 -0.0742485 0.586445 0.198625 0.122648 -0.108222 -0.17755 0.0461831 0.169271 0.0628334 -0.148736 -0.247936 -0.205777 0.389113 -0.155679 0.210624 0.10399 0.164333 -0.150428 0.163497 0.0994473 0.194257 0.166196 -0.00816504 -0.0245949 -0.0185661 0.310416 0.120814 0.365596 0.26545 -0.134763 0.0315293 -0.0209356 -0.0503409 -0.4086 -0.124719 -0.130106 -0.264335 0.219271 -0.333671 0.0315888 0.082917 0.262311 0.317878 -0.349191 -0.166945 0.0352093 0.141414 -0.0709151
computer 0.26619 -0.12903 -0.438552 0.0871892 -0.329326 -0.0564766 0.0725256 -0.139529 0.267611 -0.18415 -0.0539456 0.0422437 -0.346179 0.0478197 -0.114461 0.376476 0.30246 -0.261319 -0.116852 -0.163059 -0.0537019 0.38256 0.393791 0.0645142 0.334633 0.0574384 -0.0390018 0.0375752 -0.0873496 0.0842242 -0.138313 -0.169414 -0.166622 0.252702 0.414953 0.046998 0.065092 0.367038 -0.180248 0.0588582 -0.309101 0.0894265 -0.179036 -0.11179 -0.0757741 0.238762 0.0184116 0.0999479 0.202496 -0.131206 -0.0145971 -0.12082 0.031674 0.287585 0.311308 -0.178347 0.187818 0.157591 0.0721927 -0.11485 -0.203041 -0.259187 -0.370633 -0.0297343 -0.1306 0.0143176 -0.24942 -0.0190406 0.123676 0.136753 0.174099 -0.234602 0.155501 -0.179797 0.00112013 0.0709527 0.00678716 0.0938349 -0.0561262 -0.141141 0.266889 -0.0128159 0.0240955 0.00238036 -0.0338079 -0.22006 0.378013 -0.211668 -0.00384484 0.0492727 -0.00519479 -0.243277 -0.188688 0.116605 0.00569303 0.106132 -0.27525 -0.117494 0.0323753 -0.380072 -0.193265 -0.26468 0.0151152 0.00579398 -0.0581323 -0.400066 0.186739 -0.140881 -0.499281 -0.0215827 -0.151597 -0.47425 -0.217067 0.0861987 -0.37074 -0.0500414 -0.207202 -0.119206 -0.0849077 0.368615 -0.152214 -0.401661 0.0533405 -0.160309 -0.290641 -0.163399 -0.0835595 0.0758796 -0.0113501 0.0173692 0.112659 -0.0989689 0.012034 -0.256659 -0.038831 -0.178217 -0.118072 0.335695 0.205273 -0.231999 -0.601641 -0.286162 0.0353896 0.055954 0.100569 0.176104 -0.0323358 0.482216 0.138922 -0.581158 0.0392199 -0.0756787 0.343262 -0.0903461 -0.0347199 0.402367 -0.166028 0.207812 0.128658 -0.152435 -0.069416 -0.179034 -0.0298502 -0.152052 0.0507923 -0.0386368 -0.0432888 0.186974 0.1512 -0.0747835 -0.20155 -0.397733 0.244323 -0.0585412 0.187525 -0.00999389 -0.0159989 0.175135 0.059584 -0.28776 -0.437349 -0.0547826 -0.0547431 -0.0365234 0.36211 0.0811093 0.053054 0.0618109 -0.0385653 0.252623 0.111325 -0.118369 -0.134308 0.269505 0.211732 0.18485 -0.0454723 0.102203 0.0229166 0.387654 0.126337 0.090436 -0.0177289 0.141672 0.307521 0.30082 0.0623301 -0.392184 -0.33299 0.0825531 0.190562 0.107739 0.0763457 -0.0848122 0.265606 -0.0130163 -0.149251 0.0061682 -0.0245541 -0.214622 -0.0688102 -0.0500879 0.297967 -0.256116 -0.118503 0.120773 -0.195281 0.271144 0.0880885 -0.79489 -0.00395459 -0.0243838 0.29826 0.165547 0.11874 -0.167274 -0.0335895 -0.359985 -0.0550488 0.192755 -0.049971 0.114875 -0.10436 0.0685403 0.0310754 -0.0515836 -0.170927 -0.349612 0.0710597 0.0427988 0.315271 -0.0653044 0.106462 -0.100848 0.126759 -0.0102904 -0.323918 -0.253968 0.343525 -0.051688 -0.0227674 -0.050038 -0.107796 0.166925 -0.183542 -0.299617 0.21322 0.12845 0.250936 -0.399424 0.162286 0.2296 0.210467 -0.0635751 0.28757 -0.26846 0.00106113 0.0653108 -0.319936 -0.0224782 -0.079154 0.43992 -0.275041 -0.0222748 -0.259642 0.318007 -0.197047 -0.0802136 0.355738 -0.139212 -0.271917 -0.347434 -0.00935019 -0.0267056 -0.118703 -0.0243895 -0.320329 0.153427 -0.39002 -0.0271484
queen -0.350573 -0.343732 -0.202125 0.178302 0.152719 -0.238833 -0.305516 -0.0368249 -0.308874 0.329665 0.060914 -0.231345 0.059486 0.0367608 0.169328 -0.0800874 -0.468056 0.243507 -0.0246736 0.194924 0.0609108 0.255865 0.223661 0.0617952 -0.0608775 -0.287118 -0.183389 -0.228775 0.0455886 0.308238 -0.122236 0.24203 0.0701906 -0.0531294 -0.415858 0.14762 0.0821772 0.0175728 -0.138645 -0.14561 -0.0975436 0.43038 -0.218453 0.0295784 -0.0394088 -0.314304 -0.160756 0.101236 0.378704 0.22711 0.290321 -0.323783 -0.273546 -0.353057 -0.0829789 -0.22684 0.0948196 0.0554944 -0.177275 -0.293915 0.0760651 -0.10069 0.0165113 0.0463217 0.0441584 -0.224421 -0.245678 0.0636418 0.19488 0.225361 -0.170591 0.0597535 0.28318 -0.139419 0.29491 -0.12915 0.0342402 -0.229384 0.20283 0.490905 0.335629 0.187096 -0.0618889 -0.318456 -0.0308392 0.190452 0.134704 -0.271678 0.0504917 0.0607207 -0.495708 0.0231507 -0.615579 0.0263997 -0.263205 -0.0272714 -0.019042 0.200577 -0.11511 -0.0713923 0.247032 0.0541891 0.0467118 0.190835 0.547354 0.0371035 -0.2053 -0.0205274 -0.164747 -0.0512524 -0.301549 -0.338088 -0.496209 0.00612807 0.201723 0.377477 -0.158299 0.0593307 0.18479 0.0825002 -0.0404334 -0.0479618 0.0709264 0.130803 -0.0185071 0.109349 0.163908 -0.100037 0.262254 0.324727 0.0905042 -0.184122 0.0261034 0.0826128 -0.159661 -0.187485 -0.165132 -0.374535 0.107987 -0.0561318 -0.423843 0.00769796 -0.116048 0.298695 -0.0698474 0.116183 -0.15679 -0.082201 0.455514 -0.363293 -0.154541 -0.204704 0.0965485 0.153239 -0.072481 0.127406 -0.0995376 -0.0790319 -0.0915499 0.0761162 -0.393688 0.0790862 -0.348535 -0.198573 -0.151614 -0.0132535 0.0419926 -0.000732648 0.0170386 -0.2042 0.157777 0.274716 0.197843 -0.0312055 0.129653 -0.182789 -0.117757 0.30187 0.0641938 -0.247225 -0.0854693 0.0777868 -0.260537 -0.0232848 -0.260976 0.328725 -0.114751 0.0711124 -0.0180558 -0.118458 -0.0577156 -0.063206 -0.236001 -0.0224039 0.493636 -0.425937 0.0497518 0.282385 0.0604395 0.101226 0.164196 0.0791371 0.0489849 -0.159363 -0.0515391 -0.0438815 -0.276216 -0.189811 0.156805 0.323458 0.0717759 0.233098 0.23298 0.294578 -0.117008 0.204647 0.0677769 -0.0380854 0.397595 0.146061 0.345815 0.00270661 -0.132685 -0.184286 0.229359 0.0669529 -0.271902 -0.126861 -0.387835 -0.111976 -0.0827417 0.202526 -0.0211824 -0.0182914 -0.374982 -0.0252156 -0.00896795 -0.347433 0.000516387 0.308485 0.182763 0.167129 -0.0584699 0.692289 0.0894966 -0.015459 0.332418 0.205977 0.553059 -0.207073 -0.0468321 -0.296126 0.0156946 0.0945902 0.167579 0.262367 -0.170819 0.014968 -0.174813 0.107567 -0.15626 -0.176853 -0.137139 0.492461 0.197319 -0.116052 0.228305 -0.0645888 -0.0053615 -0.114828 -0.0392989 0.222856 0.448924 -0.0162223 -0.334964 -0.274524 -0.176632 0.0739588 0.205304 -0.259791 -0.174132 0.0365927 0.0139145 0.162177 0.0745413 0.329559 -0.476588 0.00400792 0.00989958 -0.0477371 0.0328872 -0.150705 -0.00741647 0.318483 0.259851 -0.147943 -0.203584 0.274402 -0.0570419 -0.0555579
wizard 0.0139769 -0.226037 -0.1261 0.383068 0.193051 -0.545505 0.0288724 0.293165 0.403389 0.194799 -0.394079 0.0481211 -0.310418 0.109914 0.176627 0.117234 -0.253133 -0.119628 -0.02885 0.21007 -0.211553 0.152665 0.472434 -0.0271745 0.176681 -0.216075 0.104002 -0.00465881 0.159613 0.0370666 0.121835 0.14864 0.0242709 -0.285092 -0.0881569 -0.0427071 -0.0216688 0.0873224 -0.231123 -0.313511 -0.35572 0.0660915 -0.301469 0.303208 -0.330252 -0.341074 0.0444426 -0.0721941 -0.0623861 0.142104 -0.157162 0.00168644 0.0448455 0.265754 0.0769669 0.0621143 -0.0187845 -0.146732 0.163859 0.0151074 -0.269998 -0.111852 0.126842 -0.00702381 -0.258756 -0.161318 0.234524 0.194182 -0.0421499 0.133088 -0.0773302 -0.187407 -0.135429 -0.100436 0.132107 0.0107028 0.0125014 -0.0873868 0.376913 0.0811964 0.115707 0.173907 -0.217513 -0.0957656 -0.239192 0.0962839 -0.172025 0.208072 -0.0842349 -0.129775 -0.00398154 -0.148909 -0.527029 -0.0158389 -0.0362072 0.145461 0.0204559 0.147165 -0.0989877 0.034586 -0.0305273 0.0215983 -0.0281604 0.130824 0.392908 -0.295965 0.156022 0.0722201 -0.0402514 0.13425 -0.031759 -0.215871 0.0569016 -0.22508 -0.0245776 0.0395599 0.117727 0.235413 0.162724 0.0508311 0.198462 -0.274466 -0.129028 -0.0117131 -0.118787 -0.14815 0.274306 0.16804 0.232204 -0.0296859 -0.00308861 -0.180897 0.198254 0.0948193 -0.270171 -0.0257343 0.206512 -0.346425 0.261861 -0.206513 -0.387408 -0.287192 0.000585925 0.166853 0.0911543 0.326167 -0.0173433 0.172765 0.322377 -0.278515 -0.129903 -0.096768 -0.138134 -0.0121444 -0.315794 0.367368 -0.267197 -0.3666 -0.0687458 -0.0457536 -0.121375 0.286405 -0.0462883 -0.55318 -0.231913 0.0378115 -0.510304 0.11492 -0.244302 0.0567682 -0.406371 0.095483 -0.102667 0.0706154 0.0934706 -0.187997 -0.112914 0.119843 0.312301 0.235707 -0.108738 -0.0806672 -0.0631356 -0.0844257 -0.29322 -0.0576448 -0.13578 -0.241366 -0.184585 -0.0152757 0.573111 0.177211 -0.249224 0.147145 0.0734119 0.423195 0.210154 -0.172482 0.093967 0.0629144 -0.257559 0.0793209 -0.0127045 0.0726323 0.15143 0.142128 0.193038 -0.388663 0.270483 -0.190961 -0.0731555 -0.174079 0.0836186 -0.0366934 0.277804 -0.262124 -0.296487 0.214057 0.220634 -0.107382 -0.0854123 -0.12298 -0.250938 -0.113607 -0.129953 -0.245733 -0.155202 0.0251985 0.0129027 -0.350153 -0.361459 0.200486 0.209864 -0.0944196 0.0253135 0.0760634 -0.00581268 -0.039191 0.157715 0.125886 -0.00634926 0.328708 0.212473 0.590656 -0.0561876 0.241028 -0.188896 0.566331 0.259495 0.0609657 0.0600887 0.0281401 -0.362163 -0.059706 0.332586 -0.0495121 0.0451082 -0.162259 0.378142 0.22488 0.407377 -0.104903 -0.321278 0.0142774 0.0766653 -0.286525 0.165457 0.016677 -0.031006 0.309068 -0.296033 0.0616656 0.0173112 0.126749 -0.0903088 0.186236 -0.0505578 -0.235285 -0.223967 0.105325 -0.13276 0.125762 -0.253091 0.081989 0.201773 0.557818 -0.204398 0.263816 0.0629006 0.0421251 0.172274 -0.230627 -0.370542 -0.113408 -0.210509 0.0550414 -0.399636 0.0788113 -0.270574 -0.0659688
oil 0.25121 0.637855 -0.135458 -0.0739681 0.290851 -0.0119268 0.0681058 -0.205407 -0.206307 0.165307 -0.291088 -0.435395 0.00107669 -0.00378029 -0.114308 -0.195397 -0.0474731 -0.35513 0.375378 0.360308 -0.131951 0.372697 -0.0963664 0.0326404 -0.178241 -0.497619 -0.0536429 0.0251801 0.13113 0.065581 -0.0194514 0.0798426 -0.16541 -0.253369 0.213075 0.169878 0.17185 0.590124 0.33366 0.0691936 0.256492 -0.0138832 -0.150283 -0.0846257 0.153651 -0.298767 0.0872182 0.149985 0.12694 0.0693163 -0.114786 0.325148 0.371662 -0.063116 0.4123 -0.334571 -0.125372 -0.25933 0.151589 0.0677677 -0.180923 0.0607892 0.14739 0.114698 0.0280624 -0.139722 0.0162378 0.247251 -0.02833 -0.202648 -0.213202 0.264797 -0.1052 0.54553 -0.306323 0.00870137 -0.316628 -0.267766 0.00243439 -0.148002 0.0193237 -0.0929057 0.0811451 -0.0377595 -0.0334751 -0.315535 -0.303428 0.0127795 0.203156 0.164128 -0.398573 -0.283796 0.0233127 0.0327695 -0.170332 0.567196 -0.0112944 -0.260367 -0.310934 -0.247153 0.10933 0.395588 -0.256023 0.15622 -0.00220152 0.0624205 -0.0868431 0.312661 0.138398 0.372501 -0.303578 -0.369542 0.0819764 -0.0820506 -0.173638 -0.0767866 -0.397114 -0.0225587 -0.146971 -0.297457 -0.045838 -0.210713 -0.0494851 -0.185386 -0.112287 -0.0859382 -0.0767963 0.230259 -0.151272 0.143933 0.0679796 -0.0718022 0.12457 0.0390777 0.224775 0.182913 -0.0954067 -0.0638863 -0.155748 -0.0283051 0.197149 -0.333928 -0.167003 0.0401689 0.176038 0.0446577 -0.243359 -0.12372 0.141078 -0.185626 -0.0646961 0.182705 0.0599316 -0.0609908 -0.0015182 0.457909 0.365038 0.16677 -0.0981404 0.0949907 0.00256266 -0.0342241 -0.167974 -0.374069 0.105304 0.0588323 -0.177271 0.249122 0.481871 -0.360839 -0.276628 -0.0573504 0.403513 0.100259 0.0503382 0.270879 -0.300928 0.124691 0.159258 -0.387372 0.0277801 0.285872 0.0508512 0.216608 0.257622 -0.172003 -0.159401 0.16002 0.103075 -0.181079 0.102776 -0.00460656 0.0208804 -0.0701692 0.0170454 -0.117945 0.403983 -0.445508 -0.402942 0.423212 0.247203 0.29455 0.192393 -0.344257 -0.0775429 -0.103956 -0.0342114 0.393874 -0.206953 0.0922025 -0.113128 -0.300239 0.198513 -0.0418054 0.0545729 0.2813 0.125156 0.154253 0.0762409 -0.0991732 -0.0392172 0.210285 0.427631 -0.0461607 0.106517 -0.0218006 0.210506 0.510173 -0.149692 -0.368814 -0.0647626 0.0187163 0.336821 -0.0227971 -0.20377 -0.0980665 0.13288 -0.388173 -0.26845 -0.0406373 -0.30684 0.316715 -0.31149 -0.502039 -0.144049 -0.398426 -0.144594 0.544387 0.388093 0.731099 0.166351 0.363877 -0.28857 0.208893 0.230558 0.102202 -0.301797 -0.175356 0.103404 -0.337884 0.210228 -0.111415 -0.0180398 0.0537853 -0.0451161 -0.0545282 0.042039 0.0489315 -0.0980671 -0.11089 0.0741067 -0.0805528 -0.668874 0.0303126 0.634199 -0.190454 -0.0654437 0.489657 0.0424883 0.165217 0.686299 -0.0811008 -0.461457 0.215479 -0.205749 -0.0329665 0.561654 0.177041 -0.128464 -0.219973 0.123883 -0.0777017 -0.0949967 0.21235 -0.105629 0.418055 -0.496239 0.0880311 0.346502 -0.157759
