437 700
president -0.158071 -0.166639 0.0921716 -0.0261456 0.0582529 0.151534 -0.17315 -0.0115903 -0.0285254 -0.254299 0.259395 -0.127711 0.0167129 0.151584 -0.00381741 -0.145186 0.0516221 -0.066496 -0.190836 0.0961095 -0.0988011 0.120976 0.042733 -0.258774 -0.398888 0.0380923 0.152444 -0.105241 -0.0689452 -0.152131 0.0145114 0.368346 -0.217615 -0.231293 -0.0276921 0.0290685 -0.0225136 -0.0184624 -0.167946 -0.109044 -0.207566 -0.031094 -0.0298625 -0.0147967 -0.0590226 0.0349279 -0.116032 -0.129807 -0.170117 -0.27369 0.115208 0.0123592 -0.22308 -0.140175 0.203616 -0.20703 0.0312482 0.047312 -0.138829 -0.342793 0.116931 0.0177885 0.175182 0.0396723 0.186446 -0.0441808 0.252988 0.0523901 -0.0915962 0.133223 -0.0380438 -0.389071 -0.0666291 0.151245 0.0490065 -0.152197 -0.135752 -0.0121411 -0.104105 0.0276905 -0.0465372 -0.121065 0.037298 -0.156073 0.356683 -0.271276 -0.244234 0.261992 0.158965 -0.275796 0.144591 0.161315 0.0364899 0.149191 0.0108656 -0.134793 -0.05146 0.0270959 0.0373385 -0.0461197 0.160801 -0.109581 0.0810255 0.0736566 -0.169121 0.163433 -0.0496943 -0.236712 -0.226094 -0.0636117 -0.128245 0.0525402 -0.000439211 -0.0784609 -0.127311 -0.0208463 -0.133929 0.0013269 -0.174854 -0.0889415 0.113149 -0.0152362 -0.00658895 -0.139874 -0.106622 -0.0871991 0.0226334 -0.110083 -0.0177849 0.163643 -0.237081 -0.0519081 -0.119887 -0.0140396 0.0304183 0.310952 -0.270465 -0.01767 -0.0675013 0.181656 -0.0413218 -0.273219 0.145635 -0.155844 -0.284748 -0.200108 -0.030267 0.187711 0.422401 -0.0325408 0.0231168 0.05276 0.0684185 0.0023966 0.00539669 -0.28391 0.135523 0.308637 0.0899086 -0.00344832 0.0736813 0.180281 0.0734596 0.00631558 -0.135041 0.0911076 -0.145444 0.0200786 -0.18312 -0.145081 0.194335 -0.102827 0.00242762 -0.0918045 -0.0139484 -0.23424 0.0482362 -0.0700824 -0.121897 -0.00705965 -0.12528 0.350078 -0.0329699 -0.199988 0.223759 0.0928144 0.0919168 0.267586 -0.0917097 -0.0838328 0.115312 0.188584 0.264095 0.0587906 0.144642 0.26048 0.196778 0.0385526 0.107593 0.289885 0.0690557 -0.136108 0.18671 -0.366618 -0.0461526 -0.130357 0.14455 0.180823 -0.233037 -0.0844421 -0.102519 0.0401587 -0.245016 0.0368418 -0.173106 0.0867911 -0.100534 -0.06998 -0.0696653 0.0550277 -0.193476 0.133334 0.0979096 -0.0203436 -0.0160121 0.0195966 -0.153011 0.0587785 0.0673503 -0.0656841 0.321562 -0.0256562 -0.0181127 -0.0666895 0.333944 0.114662 0.00734026 -0.276675 -0.117746 0.0372606 0.255817 0.0932434 -0.199173 0.175683 -0.171717 0.0195363 0.155729 -0.0558872 0.0886648 0.189159 0.189294 -0.0227924 0.0293482 0.014061 0.0317599 -0.0744801 -0.216071 0.0935108 0.155712 0.0594005 -0.189163 0.103366 0.0844196 -0.0105036 0.269914 0.0150324 -0.181829 -0.293883 0.037527 0.0422515 -0.0906765 -0.0131404 0.159859 0.193354 -0.166117 0.144676 -0.316018 0.179458 -0.104005 0.0247862 0.0466803 0.00992139 -0.225709 -0.0748474 0.0361507 0.0247163 -0.20721 0.143394 -0.0282192 -0.174692 0.0856814 0.03007 0.0831567 0.157721 0.222435 0.164288 0.0585864 0.223986 0.249158 0.0578951 -0.246386 0.019635 0.0643054 -0.191088 0.00731838 0.0898466 -0.128673 0.088746 0.0202916 0.150945 -0.0335881 -0.182882 0.0497957 -0.116598 0.166786 -0.0421782 -0.0079465 0.0464868 -0.139859 -0.257789 0.00993767 0.0114002 -0.18367 0.0618081 -0.119978 0.142479 -0.120287 0.0293528 0.20393 -0.0885541 -0.0235482 -0.0196833 -0.102562 0.0614211 0.219457 0.203773 -0.234602 0.0306929 -0.0148242 0.0415813 -0.0620306 -0.0686925 -0.374958 -0.00445292 0.150558 0.197442 -0.0270973 0.0777403 -0.0723357 -0.2442 -0.323969 0.185239 0.0489953 -0.195115 0.0528211 -0.0174052 -0.244718 0.028186 0.00912908 0.367713 0.081258 0.102521 0.271429 0.0400537 -0.148917 0.0419199 -0.0170763 -0.395182 0.187194 0.102981 0.120493 -0.313924 -0.0782247 -0.0405246 -0.275925 -0.230707 0.290953 0.227701 -0.122531 -0.0326695 0.0616234 -0.142422 0.0722913 -0.0020212 0.155625 0.0420338 -0.15905 -0.0127945 -0.149528 0.0122121 0.0881125 -0.163228 -0.373865 -0.174314 0.011176 -0.104979 0.0560648 0.140196 -0.123403 -0.0808112 0.215251 -0.171812 -0.0457096 0.139812 -0.279321 0.219819 -0.0421312 -0.141912 0.0215166 0.17377 -0.128412 -0.163279 0.110931 0.383865 0.0869553 0.0372905 0.0437336 -0.188394 -0.199184 0.195728 -0.15034 0.298399 -0.250438 0.202774 -0.230303 0.0511792 0.177393 -0.07563 -0.218048 0.10975 0.0898796 -0.408415 0.00560412 -0.00485583 -0.214886 -0.0967682 0.243871 0.0653517 0.355499 0.139385 0.107864 0.0636799 -0.246968 -0.140917 0.172155 0.225461 -0.128967 0.158242 -0.108625 0.0825012 0.101942 0.142617 0.10892 0.105192 0.268316 -0.0379983 -0.186209 -0.0618486 0.094048 0.0592967 -0.0610261 -0.081457 -0.0196463 0.264932 0.419481 0.075681 0.0852764 -0.0252834 -0.154091 0.171102 0.00520175 -0.248235 0.277442 0.0273484 0.0120148 -0.120079 0.244532 -0.130063 -0.244503 0.034222 -0.00590379 -0.0157119 -0.0405198 0.551092 -0.0281321 -0.311783 0.313974 -0.147026 0.00397144 0.276186 -0.115682 0.176764 -0.16407 -0.0414711 0.00693035 -0.343942 0.0691163 -0.197708 0.0251088 -0.098069 0.245074 -0.0223469 0.0899095 -0.204822 0.354651 -0.0567824 -0.334498 0.148435 -0.135012 -0.0125608 0.262919 -0.0662332 0.107937 -0.0597444 -0.0490953 0.0493498 -0.105583 0.0188236 0.221785 -0.0265428 -0.216475 0.0441255 0.1668 -0.0543868 0.0898719 -0.0523787 0.185635 -0.0710008 -0.0771911 0.12092 0.131017 -0.081882 0.328127 0.11569 0.0303984 -0.129197 0.073222 -0.0451071 -0.0121135 0.0905888 0.310771 0.199587 -0.0120657 -0.0594511 -0.147639 0.0907645 -0.0806246 0.125846 0.037563 -0.222931 0.0569056 0.115089 -0.0469873 0.0304808 -0.0310495 -0.350719 0.00584142 0.148673 0.196354 0.204841 -0.122337 -0.0177718 -0.023575 0.00386888 0.0763655 -0.138747 -0.0181316 -0.170641 0.227254 0.15423 0.0240301 -0.0510413 -0.322306 -0.129428 -0.00404884 0.0905753 -0.0692326 0.00606936 -0.00637503 0.0422236 -0.0763155 0.108629 -0.0938859 -0.23077 -0.00262641 0.103499 0.319896 0.195663 -0.113728 -0.163297 -0.349473 -0.0569327 -0.0789669 0.224852 0.00345914 -0.0599242 -0.0655644 0.247727 -0.242001 -0.109175 -0.118146 -0.0484969 -0.0261362 0.0221844 0.559473 -0.317191 0.273804 -0.0167519 -0.0773826 -0.0369538 0.219159 -0.0931907 -0.0558397 -0.194968 -0.154108 0.0259791 0.292946 -0.227466 -0.103214 -0.00638071 0.26054 -0.115607 0.252058 -0.233803 0.160424 0.140284 0.106544 0.0219159 -0.00354593 0.163836 -0.276691 0.0474604 -0.0760286 0.141671 0.00599292 -0.244433 -0.10424 -0.0749317 0.088441 -0.26152 -0.148788 0.113768 0.236447 -0.0916574 -0.155747 0.109386 0.0567986 0.0161924 -0.101678 -0.0655951 0.00420504 -0.100083 -0.180653 0.0584268 -0.0763877 -0.149799 -0.230168 -0.0283639 0.234794 -0.0117997 -0.0976484 0.0736049 0.166163 -0.239954 0.0978381 0.122039 0.0971719 -0.220827 0.11439 -0.127927 -0.322888 -0.0027498 -0.305907 -0.221825 0.166669 0.258741 -0.0181169 0.156093 -0.0471719 -0.157596 -0.240759 0.125824 0.0612294 -0.0801897 0.0456969 0.0528943 0.0642018 0.0773783 -0.180598 -0.0604947 0.0057433 -0.169859 -0.027618 0.0602749 -0.0301771 0.288679 0.214246 -0.0850918 -0.134824 -0.0124091
monk 0.199832 0.0618185 -0.00321459 0.194194 -0.0598886 -0.0740834 0.0705443 0.320818 0.000306927 -0.248576 -0.101384 0.214444 0.0206069 -0.139839 0.488309 -0.152463 -0.0733242 -0.114323 0.12527 -0.120947 0.000662937 0.00963326 -0.0559055 0.325843 -0.00883052 -0.288447 0.262757 0.0265155 -0.133381 0.0816541 0.0730988 0.0978681 0.0346133 -0.0965566 -0.0101612 -0.256138 0.0137096 -0.043279 0.160818 -0.0433056 -0.0893041 0.0836282 -0.370168 0.103848 0.187665 0.129887 0.155192 -0.0533315 -0.062299 -0.0730899 0.190238 0.0767641 0.11544 -0.215361 -0.0791017 0.0351876 0.0801291 -0.0394521 -0.117325 0.0287668 -0.162103 -0.323852 -0.12086 0.0596632 -0.159069 -0.255274 0.0900805 0.126333 0.34939 0.191084 0.0829938 0.179022 0.242284 -0.115771 -0.0750738 -0.187199 0.0640893 -0.155025 0.237793 0.0374828 -0.351946 0.172422 0.0565507 0.072463 0.230902 -0.0639952 0.136986 -0.105551 0.305443 0.0119224 0.142703 0.00896683 0.132832 -0.203126 0.236839 0.239023 -0.107044 0.174072 0.188687 -0.205807 -0.0739187 0.0651451 -0.0884224 0.326291 0.18797 -0.211567 0.0301205 0.0530749 -0.0453893 -0.326206 0.13211 0.00749646 0.129666 -0.00133014 0.198572 0.321595 -0.181093 -0.0239598 0.0145269 -0.0318703 -0.124291 -0.03363 0.255081 -0.072241 -0.178099 -0.0228907 -0.254609 0.340689 0.0268759 -0.213454 -0.187991 -0.0370559 0.0561548 0.28233 -0.0749457 0.212559 -0.230439 0.108906 -0.0899774 -0.259158 -0.18231 0.131641 -0.0318547 -0.0802772 -0.0459429 0.00412616 -0.163672 0.181256 -0.0397455 0.0521431 0.0613606 -0.111616 -0.246317 0.0391907 -0.079189 0.0562754 -0.191026 -0.138366 0.06583 0.146299 -0.113474 -0.132452 0.120906 -0.0568908 -0.0951195 -0.147961 -0.0550933 -0.08775 0.0161555 -0.429284 0.319159 -0.0202433 -0.229358 0.0614501 0.183147 0.109796 -0.0470882 0.0249468 -0.118403 0.0742397 0.180245 0.0477899 -0.0452642 0.0805516 0.0545613 0.140158 -0.207493 -0.330805 -0.0547046 -0.197588 -0.0179143 0.139677 -0.217386 -0.00700459 0.482461 0.177199 -0.134333 -0.218855 0.0589997 0.148589 -0.0422213 -0.0356675 -0.091623 0.0165169 0.109739 -0.233381 -0.184403 0.144 0.23697 0.0915164 0.142715 0.0890377 0.227293 0.335049 0.195824 0.124579 -0.0164381 0.119323 -0.033495 0.113508 -0.0831544 0.0189004 -0.0852855 -0.0116309 -0.104138 -0.0427237 0.0791547 0.00888658 0.234849 -0.026558 0.351607 0.360566 0.0515044 0.275243 -0.197602 0.0763661 -0.299088 0.0637545 0.0799563 0.100591 0.0104379 -0.124329 0.097136 0.117293 -0.0316102 -0.181179 0.0525246 -0.172188 0.00561753 0.121206 0.242978 0.0011823 -0.0205516 0.176769 -0.000306753 0.0993127 -0.290147 -0.146703 0.122089 0.187607 -0.221549 0.134013 -0.25943 -0.162806 0.0756404 -0.0441708 0.153014 -0.0886635 -0.30931 0.185218 -0.0129956 -0.0362155 -0.18595 0.115846 0.224427 -0.213667 -0.0271622 0.0350977 0.0317171 -0.0391361 -0.0233354 -0.182822 -0.0793178 0.061567 0.128892 -0.0386786 -0.114106 0.210423 0.12117 -0.195851 0.259891 -0.214126 0.00375872 -0.0483027 0.000604145 0.311636 0.185111 -0.0668244 0.0532427 -0.0320668 -0.137843 0.117486 0.103811 -0.204416 -0.486979 0.159295 0.132803 0.23831 -0.0156749 -0.262799 0.0536325 -0.374109 0.0181383 0.0152676 0.098773 -0.216162 0.0633866 0.167425 0.20169 -0.0119506 -0.10484 -0.00915424 -0.357293 -0.0645959 -0.168712 -0.0209487 0.156412 -0.0496508 -0.0483689 0.15886 0.022442 0.285674 -0.195545 -0.0684813 -0.449527 0.011633 0.306099 -0.120998 0.498486 -0.140852 0.0511072 -0.0418573 0.395865 0.0699999 -0.0378871 0.240318 0.0950856 -0.0075085 0.398654 0.0929151 0.141125 0.0466311 -0.130104 0.0790164 0.127043 -0.277437 -0.161518 -0.0193029 -0.0398126 -0.24767 -0.154232 0.351043 0.151754 -0.0408045 -0.112986 0.128732 -0.0065553 0.000988304 0.195156 -0.302116 -0.162346 -0.153141 -0.000994492 -0.144332 -0.0280894 0.064433 0.0830478 0.0588316 0.0381145 -0.0798095 0.114495 -0.0127024 0.118981 0.0584727 -0.0603387 0.150896 0.176729 0.0157846 -0.236696 0.109489 0.100232 -0.0486681 -0.230924 -0.0123532 0.107082 0.0817664 0.0443861 0.142569 -0.0403167 0.263221 -0.0314349 -0.309377 0.140717 0.0328576 0.236762 0.236357 -0.125015 0.0165031 0.023116 -0.0279086 -0.219927 0.264243 0.0147551 0.198175 -0.00208349 -0.0986429 -0.185393 -0.0237153 -0.147482 0.133477 -0.142466 0.270451 -0.14122 0.0679688 -0.0657139 -0.115403 -0.0293131 -0.206648 -0.137937 0.0322597 0.0129447 -0.52235 -0.278854 0.167524 -0.0771281 0.194251 -0.0629221 0.0966034 0.0807478 -0.095264 0.10667 0.0707286 -0.206793 -0.0279169 -0.281776 0.186506 -0.0356662 -0.119759 -0.384782 0.157137 0.140965 -0.00146644 -0.0873734 0.247938 0.1104 -0.131636 0.172292 0.0175954 -0.332222 -0.429518 -0.0393522 -0.162999 0.104195 0.0510997 0.139726 0.112105 -0.018446 -0.227388 0.100619 -0.481098 -0.0354847 -0.315584 0.298952 -0.0399915 0.127505 0.323534 -0.163233 0.10831 -0.136257 -0.209508 -0.0812066 -0.179539 -0.320817 0.00641257 0.0584944 0.186671 0.173575 0.131621 0.0446436 0.163531 -0.107124 0.190205 -0.172637 0.159061 -0.237253 0.229599 -0.34054 -0.0632104 0.107571 -0.0137144 -0.112166 -0.16988 -0.250171 0.274015 0.16828 -0.133717 -0.319458 0.16946 -0.0211939 0.104135 -0.249812 -0.128854 0.258858 -0.416128 0.0333664 0.287414 -0.0712723 -0.104563 -0.27462 0.387471 -0.229912 0.187451 -0.0744582 0.154917 -0.183422 -0.0332344 -0.0924988 -0.0576236 0.0394251 0.173371 0.074188 -0.168314 0.0615207 0.0896162 0.106784 -0.0418267 -0.0849586 -0.00926912 -0.0754246 -0.0571842 0.436578 0.0758277 -0.0493041 0.246094 -0.308295 -0.143617 -0.0983295 0.0193198 -0.0947422 -0.203798 -0.149081 0.1178 -0.027616 0.0109213 -0.387128 -0.410951 0.00699389 0.0340372 -0.019497 -0.276752 0.379339 0.0874374 -0.0595647 -0.0511057 -0.149377 0.279504 -0.245105 -0.133889 0.00460107 -0.138646 -0.119431 -0.0161701 -0.130812 -0.0498506 0.264106 0.0477543 -0.266004 0.134463 -0.201221 0.016636 -0.158726 -0.279481 0.156997 0.134787 0.0865298 -0.275224 -0.00354162 -0.22734 -0.0687006 0.106758 0.24426 -0.0506599 0.250028 -0.117223 -0.161039 0.0528488 0.0594349 -0.10075 0.123233 -0.00902343 -0.0310063 -0.0350099 0.151146 0.335498 -0.0362531 -0.144283 0.180351 -0.0179721 -0.0686631 0.0407133 -0.0646117 -0.241181 0.0560718 0.220554 0.0458036 -0.064163 0.17721 -0.177631 0.18252 -0.156186 0.163532 0.0495823 -0.0846913 0.0646148 -0.267465 0.224856 0.0804649 0.024143 -0.142005 -0.449053 -0.0512019 0.409627 0.293061 0.196092 -0.00494349 -0.165635 0.0246468 -0.199532 -0.251533 -0.148957 0.0832195 0.150122 0.0941407 0.127667 -0.250359 -0.0943576 0.0119279 0.0912118 0.0871671 0.0648618 -0.139916 0.053975 -0.0160948 -0.200886 -0.0307698 0.0125142 -0.0271114 0.23992 0.113631 0.00222714 -0.170205 0.286419 0.174268 0.236309 -0.158926 -0.00171158 0.0640965 -0.225973 -0.0584306 0.0590666 -0.0986443 0.189349 0.0213639 -0.110818 0.123516 0.168318 -0.085318 0.0251293 0.0406886 -0.594249 -0.0906955 -0.130817 -0.164655 -0.0259641 0.17048 -0.0183646 -0.193918 0.077446 -0.19774 -0.0648488 -0.0350052 -0.114169 -0.273167 -0.401294 0.0982707 0.00590873 0.110856 0.0453949 0.022469 0.152129
chance -0.0686965 0.216442 -0.0263517 -0.0152165 0.0314033 0.198899 -0.10291 -0.0978628 0.133186 0.153931 -0.0447409 -0.0163264 -0.247425 -0.00670696 0.111725 0.0376673 0.14023 -0.0748739 -0.109003 0.186576 -0.19292 0.0926166 -0.125593 -0.0141778 0.114031 0.0294791 -0.0782867 -0.150353 -0.108023 -0.0428159 -0.111355 0.221126 0.0652676 0.0371158 0.0724066 -0.0643475 -0.134388 0.132228 -0.27915 -0.0390203 -0.379257 -0.0932376 -0.0668509 0.155422 0.00218637 -0.0810762 0.150102 0.240388 -0.057381 0.080648 0.0448948 -0.0806841 -0.07053 -0.0545028 0.00462405 -0.087337 -0.0689708 0.160734 0.0365573 -0.0812244 -0.0516051 0.021356 0.0890765 0.223645 0.14323 0.059007 0.210965 -0.180166 0.135282 0.0198729 0.0776999 0.129244 0.0503726 0.0883123 -0.0288329 -0.407177 -0.156471 0.196128 0.0632843 0.105783 0.164142 -0.141438 0.124286 -0.0168875 -0.227202 -0.121913 0.16896 -0.00875834 0.0734359 -0.0599638 0.189494 0.0315145 0.0788738 -0.127975 -0.0305323 0.192935 0.0125727 0.3653 0.104079 0.0153227 0.212639 0.270119 -0.0159337 0.137601 -0.20979 -0.216288 -0.236824 -0.0818658 -0.179598 0.0399731 -0.18462 -0.272909 0.0480206 -0.0105429 -0.0538776 0.0487182 0.0735702 -0.229355 -0.0962079 -0.121717 -0.0974645 0.0322657 0.174063 0.159302 -0.177302 -0.102926 -0.111247 0.193531 0.109451 0.157541 0.153562 -0.148912 -0.0881582 0.0396752 -0.113585 0.0441409 -0.0984549 0.314748 0.254042 -0.0412441 -0.193948 0.0596043 -0.237945 -0.112429 0.138469 0.0620277 -0.278136 0.0718708 -0.073344 0.319739 0.176427 -0.0869373 0.19315 -0.110611 0.0455965 0.0881992 0.0854849 0.120495 0.276422 -0.11812 -0.0877527 -0.128409 -0.134523 -0.0825213 0.0189649 -0.017714 -0.273102 -0.257084 0.150067 0.1103 0.110031 -0.00214321 -0.0202905 0.0697155 0.14564 0.0514031 -0.0812326 -0.132423 -0.027487 0.0187127 -0.0144362 0.0233765 -0.0766826 0.130138 -0.167764 0.102319 -0.0685801 -0.0300332 -0.201356 0.124716 -0.00248735 0.126442 -0.173591 0.165681 0.0976993 -0.232408 0.0486991 -0.219224 -0.102068 -0.144047 0.158624 0.127162 -0.184777 0.129773 -0.120253 0.0398146 -0.179745 -0.0393266 0.173743 -0.0294279 -0.0860591 0.0962027 -0.0269086 -0.0412159 0.0403388 0.301666 -0.16073 -0.155883 -0.281868 -0.2747 -0.0186293 0.0449695 0.0353724 -0.373341 -0.0428485 -0.258444 -0.192431 -0.0756919 0.275121 0.0377767 0.0918087 0.0391694 -0.00325525 -0.0348273 -0.0646686 -0.0385046 0.128732 0.0635795 -0.0721035 -0.0898456 0.10228 0.0844776 0.00536421 0.0971116 0.182074 0.173052 0.129282 0.0184166 0.104003 0.203905 -0.105802 -0.0468025 -0.0457976 0.147137 -0.0515734 0.20502 0.0585235 0.171132 0.0820752 0.0199375 0.0113071 -0.0906498 -0.131459 -0.0680421 -0.0751079 -0.0811609 0.0959149 0.222319 0.237778 0.174215 0.0141832 -0.187685 0.290156 0.00327576 0.0767762 -0.230382 -0.136549 0.192157 -0.00296186 -0.235906 -0.0426019 0.141729 -0.320325 -0.0188316 -0.0363071 -0.266231 -0.104794 0.14894 -0.312837 0.0844104 0.0975008 -0.101189 -0.0703477 0.0494391 0.0593624 0.307404 0.00845776 0.0547837 0.0646879 0.217806 -0.209672 0.0977953 -0.238042 0.199453 -0.00960149 0.0354373 -0.000691821 0.0226561 0.134231 -0.000193711 -0.164333 0.0815401 -0.103633 -0.158027 -0.0308252 0.0991608 -0.000221033 0.0581055 0.0343283 -0.0756123 -0.0701933 0.223358 0.0266231 -0.0314049 0.0401333 0.107377 -0.179387 0.184911 0.0859484 -0.21861 0.146713 0.21857 0.0676035 -0.0290325 -0.156327 0.287468 0.105588 -0.0111935 0.0690209 0.096432 0.0334586 0.0966755 0.0827518 0.185656 0.228719 -0.0958851 -0.26785 -0.114009 0.181419 0.0764232 -0.0603142 -0.099999 0.0358714 -0.0736558 0.0262216 -0.0542655 -0.111901 -0.149249 -0.165273 0.294852 0.021986 0.0264147 -0.00910623 0.272707 -0.157588 0.253555 -0.00533371 0.226491 0.0743519 -0.0859881 -0.059101 0.0937399 -0.208534 -0.121982 0.00283952 0.0356947 0.120478 0.0646562 0.225515 -0.154519 0.12879 -0.213011 0.0127847 0.0786652 -0.154186 0.193838 0.151802 0.109486 -0.346391 -0.0638793 0.384702 -0.117264 -0.0367127 -0.0661739 0.295696 0.0333052 -0.0368741 -0.113438 0.182973 0.0057083 -0.0887237 -0.176634 0.1353 -0.14485 -0.0217483 -0.0726169 -0.000890246 0.0822171 -0.176002 0.136713 -0.0826919 -0.139428 -0.0400503 0.0644401 0.0584469 -0.105336 0.498104 0.0912355 -0.0493043 0.0956463 0.131617 0.126471 -0.0727024 -0.0929072 0.0626496 -0.00604666 -0.0683106 0.0175626 0.118713 0.0930557 0.0964003 0.00969293 -0.313793 0.159297 -0.256261 0.23564 -0.0795222 0.106292 -0.0877611 0.270674 0.0425522 0.00523089 -0.128959 0.194459 0.174169 -0.22338 -0.0370653 -0.0100528 -0.225951 -0.0591142 -0.00416207 0.185967 0.0259843 0.0237101 0.0354814 0.152781 -0.29487 -0.127003 -0.135291 -0.211809 -0.00763117 -0.180249 0.115261 0.00579305 0.141141 0.17819 -0.0404091 -0.174054 0.00128794 -0.0877392 -0.0534889 -0.240551 0.289407 -0.242172 -0.313638 0.0630284 -0.085232 0.0390387 0.0879823 -0.188739 0.00624842 0.0262813 -0.0412778 -0.169827 -0.101858 0.0266125 0.0736592 -0.233309 0.0470377 0.197663 -0.0677022 0.15294 0.0869691 -0.0147829 -0.0632275 -0.202017 -0.142042 0.273133 0.124234 -0.0778301 -0.0366592 0.0834667 0.217457 0.166018 0.0834548 0.0299343 0.00589099 -0.0342208 -0.156346 0.245952 -0.0442746 -0.0656814 -0.142074 -0.223894 -0.144278 -0.112536 0.0673493 -0.00724449 0.0790558 0.132981 -0.0234445 -0.0910307 0.0211391 -0.0130493 0.211682 -0.0893541 0.109886 0.111938 0.12122 -0.175685 0.257301 0.0415206 0.0896524 -0.148892 0.010683 -0.190275 -0.153528 -0.0226997 -0.0602748 0.0573423 0.0823083 -0.105479 -0.035794 -0.0336899 -0.143099 -0.114851 -0.0426577 -0.0589456 -0.235851 -0.238145 0.0148043 0.0317639 0.193611 -0.0475692 -0.293697 0.101001 0.0466883 -0.0164658 0.0296145 0.207677 -0.296463 0.0327671 0.287239 0.0287343 -0.0652606 0.195832 -0.155886 -0.115042 -0.0841641 0.027999 0.0367333 -0.0531972 -0.247404 0.178465 -0.132916 -0.00474108 0.0547603 0.159909 0.00957227 -0.0196121 0.0166101 -0.123488 -0.0270904 -0.0331688 0.0999821 0.0625083 -0.0180309 -0.111398 -0.292849 0.131278 0.0771377 -0.0172911 0.133924 0.0357782 0.0643627 0.326672 0.051105 -0.0634569 -0.187845 -0.0897198 -0.0259095 0.086006 0.123404 0.252265 -0.157762 -0.052073 -0.0257396 0.0812201 0.0226565 0.0535655 0.234176 -0.2436 -0.0135008 0.109351 -0.245094 0.303303 -0.0148918 -0.307472 -0.242325 0.0904763 -0.0448778 -0.0174175 -0.0798699 -0.0918588 -0.0689182 -0.288632 0.0111742 -0.150781 -0.214599 0.0259854 -0.0296029 -0.0699693 0.0705552 -0.186614 0.146662 0.013427 -0.11244 -0.135325 -0.237234 -0.00645017 -0.0925441 0.177638 0.144239 0.209615 0.0721825 0.169301 0.0585487 0.0235471 0.0765084 -0.18784 -0.0540682 0.16558 0.0649266 -0.0574255 -0.0439303 -0.237567 0.0380309 -0.0133145 -0.176404 0.0420317 -0.17501 -0.064626 -0.11331 0.0564156 0.0897237 0.0368418 -0.0802667 -0.079028 -0.0833038 -0.0360279 0.198312 -0.110549 0.0436546 -0.0723447 0.15215 -0.131314 -0.264825 -0.113818 -0.0303901 -0.146423 -0.0638312 -0.0644839 0.0709146 -0.0337882 -0.00338071 -0.0863154 -0.099092 0.00955728 0.0508285 0.0604253 -0.157772 0.000407863 -0.282155 0.05693 -0.0834906 -0.0849435 -0.0560167 0.234536 0.101784 0.053468
party -0.061435 0.223977 -0.230822 0.140786 -0.0772277 0.355519 0.172603 -0.42988 0.135149 0.00738068 0.127791 0.115626 -0.114402 0.0909313 -0.00817271 -0.00884604 -0.0619338 -0.200927 0.157196 -0.159166 0.258091 0.00179821 -0.0525077 0.0185665 0.124355 -0.124815 0.171292 0.0318653 -0.425109 -0.140548 -0.216437 0.250491 -0.0385571 -0.141375 -0.221625 -0.0671813 -0.178038 0.275796 -0.0323956 -0.162077 0.00658198 0.0348101 -0.115854 0.223303 0.190053 0.0796796 -0.0487523 -0.22129 0.377995 0.0238122 -0.00481803 -0.0206266 -0.0990915 0.0582822 0.200735 -0.0397126 0.193946 -0.134235 0.158684 -0.0756818 0.0606565 0.186319 -0.0162251 -0.0632461 0.203996 0.302122 0.0828024 -0.372645 -0.149352 0.115423 0.00244196 -0.13017 0.00130545 0.174184 0.0672664 -0.0220111 -0.105962 -0.0495514 0.248069 0.270836 0.087165 0.152155 0.0995797 0.117529 0.087045 -0.235372 0.122279 -0.038005 0.079353 0.013615 0.356816 0.069754 -0.262167 0.320318 -0.159556 0.165297 -0.107987 0.157666 0.206897 -0.211716 -0.105059 -0.0547173 0.0944385 -0.141588 -0.0401285 0.0269801 0.0941234 -0.233595 -0.0848855 0.167188 0.184363 -0.0337499 0.0377442 0.00325822 -0.153874 -0.0567445 -0.0147156 0.0697313 0.0223077 -0.0640336 -0.0129887 -0.0867511 -0.0821574 0.102841 -0.41042 0.0125391 -0.0462898 -0.0410128 0.0281827 0.344476 -0.0322074 -0.0536474 -0.0332738 0.309718 -0.230776 -0.329223 -0.0856275 -0.19184 -0.186158 -0.0976688 0.0856199 -0.02995 0.238089 -0.12645 -0.0711367 -0.324435 -0.169944 -0.0900738 -0.0952099 0.0982197 -0.275403 -0.0282657 0.106795 0.233432 -0.178284 0.120577 -0.0930599 0.123097 0.149385 -0.285952 -0.166491 -0.105645 0.00723501 -0.180313 -0.0926775 0.113518 -0.267295 0.0504272 0.0946673 0.113692 0.0517824 0.207526 -0.128766 0.00523757 -0.321441 0.137173 -0.144344 -0.04489 0.0504873 0.448681 0.0781543 0.0350302 0.095129 -0.0951633 -0.136929 -0.332507 -0.0622632 -0.0559616 -0.0160839 -0.0146044 0.0735424 0.154899 0.232154 0.344039 0.129504 0.0820353 -0.0276642 0.00292007 0.14523 0.102195 -0.0415092 -0.26859 -0.00806948 0.114897 -0.149415 -0.0278214 -0.051509 0.0973544 0.1349 -0.289404 -0.119936 -0.182676 -0.338995 -0.12765 0.135313 -0.0188508 0.225189 -0.353457 0.0548049 0.0104344 0.174681 0.0829206 0.150995 0.00592593 -0.198432 0.189896 0.0311035 0.0326942 0.163593 -0.133608 -0.0648629 0.0819139 0.121368 0.107894 -0.192218 -0.0500709 -0.0609254 -0.313459 -0.151605 -0.00775052 0.209981 0.173262 0.0669703 0.136093 0.258039 -0.0699071 -0.0697102 0.0763624 -0.0516826 0.097086 0.277428 0.00886854 0.058035 -0.102813 0.0917253 -0.019013 0.0166551 -0.103793 0.0201186 -0.158259 0.221697 -0.0714358 0.084906 -0.0834145 0.484802 0.0310473 -0.0954309 -0.08687 -0.0255636 0.0576365 0.0245416 0.02813 0.0602286 0.180443 0.197361 -0.310299 -0.0500293 0.0411108 0.0465594 -0.251758 0.109696 0.0761326 -0.106514 -0.0104474 -0.070843 -0.146787 -0.114918 0.134503 -0.0547603 0.108124 0.0255233 -0.37418 0.233546 0.0651161 -0.0533734 0.0672213 -0.0320587 0.249475 0.00555962 -0.0722434 -0.495124 0.107776 0.193098 -0.150914 0.0447726 0.238105 -0.219032 0.293512 0.108422 -0.177091 -0.184577 0.146019 -0.202797 -0.19677 -0.272951 -0.13419 -0.0794325 0.00567874 0.0861442 0.061694 0.0336772 -0.178902 -0.121367 -0.362875 -0.225164 -0.0903367 -0.155619 0.0523811 0.0394637 -0.0790381 -0.139536 0.0486873 -0.0934762 0.134079 0.163227 0.167767 -0.0209335 0.0217518 -0.133527 -0.0627109 -0.302866 0.135635 0.0156211 0.0816449 -0.130357 -0.104239 -0.046429 0.037577 0.0848618 -0.161196 0.0666128 0.240637 -0.0256212 0.0909363 0.0582325 -0.0575313 0.263879 -0.142375 0.160326 0.0950945 0.179888 0.0311533 0.0786005 0.0157816 0.211343 0.378787 -0.236737 0.179268 0.0198506 0.290364 -0.168323 -0.113509 -0.0135695 -0.175939 -0.267484 -0.0262807 0.0671407 0.0733955 -0.0427038 -0.106936 0.0717637 0.113519 -0.1704 -0.11257 0.118739 -0.133148 -0.0102291 0.13084 -0.169033 -0.229321 -0.00366619 0.00256744 -0.396852 -0.296877 0.167201 0.192132 0.0129295 -0.00264954 0.162365 0.139098 -0.141563 0.00300648 -0.00990801 0.459527 0.0798867 0.225321 -0.428128 -0.136777 -0.0487958 -0.0402489 -0.0353545 -0.129666 0.0861328 0.0168273 0.122755 0.0238111 0.232784 -0.311381 -0.00720756 0.0678289 0.0299316 -0.128171 -0.201495 0.237744 -0.44465 -0.0269723 0.281806 -0.0748916 0.10392 0.155051 -0.0858767 -0.345085 -0.342194 -0.0803688 -0.294888 0.0552105 -0.078516 0.264399 -0.000229069 0.0795044 -0.212063 -0.0392223 -0.139302 0.0650317 -0.162889 -0.0426229 0.0591053 0.0863953 0.00522424 0.49659 -0.172665 0.0174286 -0.171822 0.00761139 0.0826262 -0.184308 -0.0653534 -0.0687026 0.0409024 -0.0552328 -0.00746036 0.0953686 0.139521 0.1249 0.437985 -0.0917621 0.216037 -0.105495 0.00689619 0.205639 -0.00426441 -0.124726 0.0729533 -0.108667 -0.304809 -0.177401 -0.038136 -0.173504 -0.173888 0.264594 -0.0441852 -0.151585 -0.168662 0.0623632 -0.136884 0.00884967 0.129896 -0.0255687 -0.169886 0.150256 -0.223836 0.383197 -0.166867 -0.0371691 -0.0523813 -0.165614 0.237099 0.0500529 -0.0477575 -0.288294 0.00326434 0.0789885 -0.00343284 -0.0879279 -0.0314055 -0.36975 -0.270616 -0.0613118 -0.16516 0.127942 0.175011 -0.0825788 -0.101958 -0.287769 0.0118396 -0.0217215 0.0198097 0.116218 0.246901 0.286843 -0.11614 0.209237 0.320452 -0.0599782 -0.123784 0.187185 -0.0270613 0.266603 -0.262532 -0.234656 0.00830027 0.0315293 0.214931 0.0265241 -0.207631 -0.146155 -0.293 -0.070078 -0.0768745 0.267886 0.277616 0.042467 0.00590613 0.111582 -0.126317 -0.0542588 -0.0867284 0.0219605 0.116936 0.0346423 -0.0545031 -0.0927322 0.03324 -0.0527738 0.073998 0.0163836 0.110202 0.0801151 0.171317 0.00616308 0.032668 -0.057426 -0.0530442 0.149389 -0.0535112 0.00874856 0.0157023 -0.101702 0.194935 0.0311713 -0.0512151 0.217231 -0.127391 0.133826 -0.0968377 0.0686434 0.0214536 0.131065 -0.250454 0.064539 -0.159158 0.233679 -0.0144904 -0.155234 0.14664 -0.0616927 0.0767794 0.100306 0.154158 0.0777138 0.0454484 -0.0356525 0.0150027 -0.218331 -0.223999 0.00904307 0.0468111 -0.049081 0.121561 -0.0551369 -0.0314705 -0.224049 -0.0287313 0.129982 0.258556 -0.110645 0.212883 -0.0638547 -0.012298 -0.163654 0.030063 -0.165998 -0.0672308 0.0189293 0.0486751 0.044237 -0.0622651 -0.0344895 -0.0456566 0.024274 0.231205 0.156527 0.18505 -0.0397722 0.2278 0.217814 0.312244 0.0554623 -0.110799 -0.0912957 -0.0893814 0.218468 0.0100404 0.203963 0.014527 0.167951 -0.0583358 -0.250807 0.0322884 0.159072 -0.165585 -0.261243 0.189623 -0.297202 -0.210503 0.316605 0.187452 0.0376387 -0.0690447 0.0723002 0.00482762 0.17253 -0.143193 0.153919 -0.00205628 -0.133044 -0.410102 0.235552 0.0947696 0.0270348 -0.144594 0.124537 0.0452535 0.0747285 -0.103927 -0.00684124 0.260363 -0.144787 0.302201 -0.313553 -0.176772 0.151351 -0.0565485 -0.263204 -0.150584 0.178776 0.0250904 -0.0147198 -0.120977 -0.0832622 -0.242722 0.0246826 -0.341269 -0.146707 0.0890197 0.0291555 -0.0824416 0.0812875 -0.235528 -0.130758 -0.131401 0.0950666 -0.0232817 0.0730695 -0.199928 0.219747 -0.172572 -0.0252242 0.00993674 -0.227616
fuck -0.111816 -0.0701023 -0.201222 -0.405614 -0.0423653 -0.152224 0.122579 -0.255661 0.35203 -0.0479477 -0.155126 0.0963814 -0.135712 -0.265044 0.253981 0.00678289 -0.0962661 0.113413 0.20746 0.0385017 0.0870041 0.048362 -0.0833989 0.0157509 -0.242806 -0.132691 0.499104 0.038027 0.101162 -0.099104 -0.0987076 0.0992487 -0.233825 -0.0980173 -0.176079 -0.0763655 -0.0174866 -0.389813 0.132726 0.0782917 -0.116471 -0.228242 -0.202872 0.0308623 0.0517458 -0.37719 0.107998 0.27067 0.242652 -0.0894323 0.0403054 -0.17391 0.214909 0.305164 0.11533 0.00101772 0.0547617 0.0641061 0.0472541 0.0226581 -0.221226 0.157411 0.237583 0.111901 -0.155209 -0.428874 -0.0453588 -0.187282 0.366489 -0.107555 0.0753326 0.286479 -0.0621363 0.087257 -0.0511963 -0.312805 0.0123399 -0.297016 -0.0251141 0.539773 0.0109242 -0.150629 -0.251443 -0.426244 -0.0666789 -0.198071 0.0386057 0.0129545 0.303705 -0.110643 0.139687 -0.168206 -0.0802255 -0.00552474 0.334912 0.110874 0.00771198 -0.21748 0.235784 0.109541 -0.142539 0.118932 0.0360771 0.287237 0.146246 -0.0104376 -0.207044 -0.00786653 -0.271406 -0.1151 -0.143839 0.0612171 -0.0439765 0.00160238 -0.0227649 0.28081 -0.0459907 -0.139763 0.130771 -0.286088 0.000659106 -0.399811 0.300748 0.0138208 -0.101519 0.14184 -0.00560481 0.0957846 0.460971 -0.123922 0.105701 0.000895611 -0.111276 -0.270115 -0.119392 -0.092993 -0.0154363 0.196357 0.101523 -0.307583 0.119501 -0.112616 -0.227732 -0.0329391 0.198707 0.329979 0.131366 -0.236507 0.0237995 0.0152278 0.0795635 -0.0296908 -0.0277612 -0.0400273 0.0158362 -0.0464366 0.0609553 0.231259 0.0485678 -0.0390599 -0.238857 -0.00493597 -0.26798 -0.0894585 0.150041 0.150294 -0.271068 0.0342057 -0.16625 0.279526 -0.0352875 -0.0285984 -0.0599143 0.104034 -0.163607 -0.33855 -0.0733928 0.0959231 -0.0169794 -0.221704 -0.208388 -0.181304 -0.136806 -0.126429 0.242963 -0.1199 -0.108622 -0.176179 -0.205826 -0.171031 0.226924 0.154952 -0.0403677 0.36231 0.36011 0.360259 -0.0264198 -0.0834158 0.0934326 0.0520582 0.0255644 0.0059186 0.0459113 -0.173889 -0.258352 0.1282 0.045386 0.147781 -0.0580243 -0.0415848 0.0289767 -0.168658 -0.33681 -0.0243109 0.143999 0.120733 0.0256326 -0.0695339 0.0992582 -0.0824396 0.00844048 0.0546337 0.0510432 -0.0129228 -0.303461 0.000943565 -0.350078 0.0611578 -0.128787 -0.509627 0.149338 -0.328912 0.065059 -0.0167513 -0.144977 0.0222294 -0.13663 -0.16285 -0.201727 0.0114047 0.339889 -0.000384957 -0.264276 0.137284 -0.00660684 0.270316 0.196564 0.0184633 -0.0494037 -0.00116 0.0252496 -0.128104 0.239622 0.176625 0.27738 0.13345 -0.290606 -0.130756 0.137048 0.236412 0.0164553 -0.323587 0.0404894 -0.0814642 0.13086 0.0918604 0.0238082 0.0666929 0.0965559 -0.323315 -0.198978 -0.155668 0.0467948 0.284926 -0.298796 0.0880683 -0.0910885 0.132933 0.0206446 0.0273697 -0.0850469 0.0568308 -0.201467 0.0279399 0.02597 0.111188 -0.356827 0.113134 0.0735699 -0.299587 0.135829 -0.187152 -0.0229752 0.233494 -0.0497542 0.348964 0.0291921 0.32773 -0.0643215 -0.429501 -0.24857 -0.173946 -0.0215363 -0.0174041 -0.194549 0.00190106 0.217715 -0.0603896 0.0755587 -0.0339451 -0.0471929 -0.059299 -0.156089 -0.245946 0.316003 0.247063 -0.254725 0.107777 0.418572 -0.113357 0.0272187 -0.0277836 0.0329284 0.200697 -0.272234 0.0463664 0.0190303 0.0573955 0.104109 0.216743 0.167914 0.140314 0.107197 0.102443 -0.319646 -0.0947988 -0.120826 0.156363 0.208025 -0.112944 0.00539979 -0.0831119 -0.214153 -0.0618061 0.261955 -0.0327252 -0.174895 -0.0611103 0.224066 -0.105199 -0.182104 0.112748 0.164728 0.145412 0.113149 0.0743783 -0.214751 0.019913 0.308444 0.0141392 0.0866149 0.226292 -0.324238 0.0326311 0.0533573 0.0678537 -0.0327202 0.124535 0.105789 -0.178083 -0.246206 -0.0471494 -0.0224144 -0.163581 0.0605454 0.154133 -0.109839 -0.0271871 0.241353 0.296265 0.280328 0.0584902 0.0333107 -0.00810145 -0.386605 -0.0624858 -0.0185963 0.254899 0.222549 -0.0472247 0.0306683 0.169259 -0.386353 -0.161216 0.000662316 -0.0205726 -0.109149 0.177174 -0.0935842 0.154299 0.379266 0.0442151 -0.281985 0.0983464 0.206057 -0.085001 -0.0172674 -0.0406944 0.0663705 -0.276453 -0.123882 0.00163388 0.164779 -0.00300803 0.0386243 -0.279558 0.129262 -0.153888 0.100454 0.0159531 0.142971 0.0741331 -0.364437 0.0753122 -0.214153 0.0389863 -0.17952 0.12474 0.264102 0.12551 -0.0971888 0.0993792 -0.140192 -0.0333631 -0.0512979 0.298948 0.226021 -0.0580667 0.113167 0.200381 -0.0796725 0.141892 0.00848298 0.0547107 -0.323579 0.0234283 -0.252488 0.28178 -0.169382 0.0937 -0.325621 -0.320562 0.0879205 0.179374 -0.0457303 -0.337275 0.0730143 -0.0500418 0.0694799 -0.265276 -0.0379854 -0.0772456 -0.21348 -0.167211 0.0629214 0.0254431 0.199126 -0.0421934 0.198477 0.0646228 -0.132919 0.0493213 0.307193 0.447253 -0.1532 0.027114 -0.195648 0.124987 -0.105927 -0.163416 0.0918578 -0.205719 0.117482 -0.0163488 0.100351 0.0767359 0.007712 -0.230328 0.28232 0.00988285 -0.213117 0.303682 0.11812 0.128426 0.0720113 -0.0401748 -0.0643128 -0.0303416 0.0448847 0.0877943 0.197884 -0.155056 0.114356 0.0369845 -0.292327 -0.142832 -0.192988 -0.0743161 -0.572552 -0.0555496 0.00181027 -0.381788 0.49045 -0.210918 -0.159759 -0.187352 -0.0331327 0.240927 0.0826274 -0.0139093 -0.0945536 -0.268007 -0.0750185 -0.00659393 0.126499 -0.42115 -0.03853 0.393558 -0.0500032 -0.056761 -0.141676 0.0214167 0.137232 -0.203936 0.137445 -0.0935568 0.100175 -0.144143 -0.0880855 -0.215309 -0.207346 0.554062 -0.337939 0.0482318 0.0877318 0.184894 -0.301053 -0.204501 -0.00954293 0.0132679 0.121246 0.0509842 0.105187 0.018362 -0.192441 0.00491011 -0.0901833 -0.361273 0.400891 0.278921 0.0278135 0.14429 -0.03696 -0.0830697 -0.233583 0.0587719 -0.309687 -0.0890223 -0.0620865 -0.0998473 0.0230093 0.29222 0.0138025 -0.0153338 0.223266 0.0734008 0.169264 0.123507 -0.0372777 -0.0721325 -0.0305552 -0.427168 0.120938 -0.0747445 -0.00884315 -0.136311 0.147964 -0.0768067 0.215175 0.126057 -0.0858471 -0.0997517 -0.0603791 -0.271689 0.0852533 0.0890462 0.135801 -0.419309 0.110452 -0.0251932 0.28007 -0.189881 -0.0804855 0.400883 -0.0187901 -0.0315202 0.182598 -0.222712 -0.18485 0.124459 -0.00567068 0.0133847 -0.165358 -0.078625 0.0934581 0.00292242 -0.114241 -0.052188 -0.438164 0.0109778 -0.0573565 -0.217166 -0.00522296 0.273922 0.0254936 -0.0596928 -0.178027 0.0786476 0.00276236 0.253559 0.100548 0.194394 -0.17763 0.0650425 0.0164936 -0.0878984 0.0813019 -0.18498 -0.15348 -0.10067 -0.0323626 -0.0675433 -0.12962 0.216114 -0.0210109 0.102109 -0.222041 0.10399 0.416572 -0.0549311 -0.133646 0.00639152 -0.139273 0.193159 0.232064 -0.100935 0.141867 -0.131342 0.067526 -0.0167665 -0.0365658 -0.199272 -0.0106951 0.127984 0.208325 0.24933 0.173532 -0.203244 0.0319899 -0.163339 0.0598679 -0.0941458 -0.193489 0.162558 -0.18284 -0.10091 0.214528 0.10787 -0.0197844 0.0592335 -0.0239002 0.0505319 0.0767087 0.208756 -0.151704 -0.0734533 0.325612 0.0310963 0.0313198 0.0461608 0.137223 -0.132799 -0.0199771 0.0982673 0.0310491 0.175964 -0.0942078 0.0578714 -0.134849 0.0766915
psychology -0.285736 -0.163623 -0.141553 -0.178702 -0.412193 0.289073 0.231511 -0.277427 0.217947 -0.0326573 -0.00189817 -0.182797 -0.181986 0.0295533 0.24705 0.232318 -0.0165691 -0.0835715 0.121378 -0.266235 -0.344561 0.0628646 -0.387291 0.0213015 -0.124611 -0.0665747 -0.197511 -0.308901 0.0646371 0.0531304 0.0529068 0.646434 0.0383847 -0.0928985 0.0927371 0.0121402 0.138623 0.147359 -0.0364131 -0.191044 0.098213 -0.112999 -0.275479 0.114974 0.0679147 -0.131156 0.0890143 -0.255893 -0.148306 -0.00175205 0.0669271 0.069774 0.372411 0.107177 0.162137 0.145492 0.336422 -0.0408048 0.0113863 0.0791295 -0.00703303 0.194771 -0.133055 0.0498758 0.320015 0.138134 0.138168 0.19728 -0.0206942 0.0357671 -0.197705 0.195854 0.144061 0.0522325 0.064238 0.082729 -0.0592233 -0.183058 0.0615284 -0.10911 0.0647862 -0.136331 -0.366709 -0.0349955 -0.140856 0.104083 0.164345 -0.163932 0.155794 0.0720546 -0.0890332 0.0754766 -0.177335 -0.114356 -0.0390476 0.13474 -0.0992088 0.202535 -0.336936 -0.122564 0.0268198 -0.518807 -0.223856 0.0617369 -0.284634 -0.340954 0.032092 -0.396606 -0.167988 -0.178836 -0.0630103 -0.051644 -0.070508 0.140245 0.117396 -0.152325 -0.0575533 0.137331 0.471402 -0.195206 0.0222447 -0.0722802 -0.0312426 0.0555882 -0.129566 0.147071 -0.180979 0.037712 0.241153 0.135103 -0.0532643 0.0332526 -0.459164 0.195897 0.28145 0.00970282 0.0754549 0.173532 -0.186048 0.106858 -0.171688 0.000303862 0.143693 -0.128354 -0.037466 -0.0116512 0.0629648 -0.00603654 0.160213 -0.01711 0.0500798 -0.325646 -0.0378987 0.127325 0.279391 0.254828 -0.327767 0.380975 -0.0781692 0.148306 0.279138 -0.294738 0.141724 0.407817 -0.212391 0.00968084 0.0305875 -0.108714 -0.0524021 0.0160121 -0.220686 0.020033 0.177943 -0.109832 -0.0740285 -0.483472 -0.121375 -0.226873 -0.277465 0.199985 0.216702 0.231821 0.00674831 -0.0597645 0.181728 -0.0836222 0.171027 -0.123298 0.0420953 0.0799627 -0.0774266 0.000898509 -0.0317738 -0.301887 0.09596 0.214056 -0.245205 0.0702598 -0.219675 0.580047 0.366808 -0.0367175 -0.234362 -0.169264 -0.0141895 0.050459 -0.305346 0.0495751 0.312681 0.0811282 -0.166482 -0.255204 -0.00489208 -0.213328 0.23705 -0.418407 0.0497306 0.00130662 -0.0490441 0.0862381 0.150816 0.119647 0.163263 0.0640334 -0.133796 0.127531 0.123497 -0.24474 0.0296486 -0.0994667 -0.133372 -0.247387 0.185775 -0.0085083 0.0359824 -0.0238985 0.0110325 0.040199 0.0231307 0.144669 -0.107751 -0.193646 -0.21935 0.0759891 0.0440611 0.0630691 0.176865 -0.0148146 -0.264384 0.382938 0.0925033 -0.0848119 0.161404 0.248996 0.0368686 0.227228 -0.0701231 0.0491795 -0.0290004 -0.151815 -0.0405245 -0.185248 -0.120635 -0.183934 0.258919 -0.122965 -0.0225182 -0.253394 0.14248 -0.169914 -0.0235717 0.285329 0.0387359 0.218495 -0.0112279 0.361685 -0.0400482 -0.0727276 -0.0657775 -0.0352663 0.089085 -0.0770674 0.0080047 0.0682537 -0.237249 -0.275035 -0.189483 -0.0155491 -0.280077 -0.226504 -0.240716 0.166783 0.149996 0.296574 0.0281839 0.337498 0.018761 0.101913 -0.111306 -0.261691 -0.227576 0.0153206 -0.0288806 -0.316629 0.212669 0.212406 -0.029456 -0.115224 0.479195 0.362489 0.212337 -0.146743 -0.258361 -0.267183 -0.232914 0.186739 -0.198965 0.0333268 0.00656967 -0.00906636 0.224724 0.131732 -0.18298 -0.0535109 0.165658 0.0248819 0.331593 0.191617 -0.127411 -0.00373492 -0.12224 -0.00665956 -0.026647 0.195868 -0.0792543 -0.0496058 0.130641 -0.284371 0.0607185 -0.210447 -0.0614493 -0.0160158 -0.260436 0.0751572 -0.0725052 -0.12587 -0.127434 -0.152377 -0.0292058 -0.238644 0.122593 0.153967 -0.229086 0.108097 -0.126441 0.142934 -0.344328 0.028658 0.108091 0.1284 -0.0880464 0.267784 -0.109927 -0.168685 -0.0483699 0.234063 -0.105177 -0.0481183 0.270635 -0.0930958 -0.0170403 0.252385 -0.0311111 0.0780731 -0.00664883 0.199091 -0.120591 0.234494 0.447045 -0.202631 0.143912 -0.100729 -0.223953 0.038455 0.455395 0.0881292 0.290389 0.0700712 0.0168724 -0.000297843 0.184576 0.0561206 0.186256 0.0803745 0.108274 0.292149 -0.0863078 -0.255123 -0.00736895 0.13098 0.0269431 0.0387708 -0.0381487 -0.225612 0.0137699 -0.0500723 -0.0564372 0.402853 0.154617 -0.180784 0.245897 -0.218758 -0.0171264 0.11888 0.203533 0.06283 -0.351874 -0.0646374 0.231318 0.0654846 0.205263 -0.222002 -0.128965 0.0848395 0.0210636 0.0199493 0.184704 0.00813175 -0.11897 -0.436828 0.149589 -0.155024 -0.282095 -0.198478 -0.243133 0.109568 0.232994 0.101469 0.346159 0.255626 -0.0194755 0.212062 -0.153382 0.329745 -0.364001 0.158143 -0.0147426 -0.439537 -0.213093 0.166298 0.386607 0.0857384 0.0619332 -0.0376676 -0.191314 0.0389675 0.193286 0.04997 0.127222 -0.25197 0.032971 0.0708039 0.105164 -0.0476839 0.187631 0.206026 -0.109991 0.0837332 -0.127134 -0.0297634 -0.166769 -0.302214 -0.241293 -0.288382 -0.168029 -0.30939 0.0623033 -0.188726 -0.121799 -0.151728 0.0330503 0.10252 0.0659676 0.000375745 -0.0452987 -0.0314167 -0.0216698 0.188234 -0.146237 -0.239233 0.0426259 0.678708 -0.470967 -0.00156983 0.0984762 -0.284539 -0.288348 -0.182595 0.24075 0.175864 0.0189903 0.405345 -0.056212 -0.172327 -0.0525235 0.396592 0.0911994 -0.244772 0.167336 -0.119356 -0.0355006 -0.251007 0.0725088 0.113547 -0.0297312 0.192364 0.076615 -0.297787 -0.226242 -0.054614 -0.0955692 0.059219 -0.02694 -0.20456 -0.0704195 0.070147 0.284366 -0.000763574 -0.126817 -0.132624 0.03295 -0.0252766 0.130576 0.188858 -0.185199 0.18142 -0.031987 0.0884132 -0.0482505 -0.179242 0.0138183 -0.0926948 -0.0409731 0.0279184 0.261026 -0.0583236 -0.0956356 0.0710658 0.019442 -0.301158 -0.160153 -0.155707 0.0568237 -0.00266863 0.0109881 -0.0455189 -0.0533204 0.180511 -0.0202181 0.193192 0.0387473 0.0238524 -0.0964753 0.0289592 0.0392359 -0.0251533 0.117116 -0.101546 0.101767 -0.215517 0.00233452 -0.0361067 -0.290624 0.0220995 0.328309 -0.0454924 0.113397 0.367679 -0.0142133 0.0107231 0.0282053 -0.251569 0.0411568 0.151664 -0.0208107 0.00997788 0.0457891 -0.162818 -0.0523481 -0.163122 0.0987591 0.14142 0.297505 -0.147195 -0.187994 0.0592197 -0.192439 0.0997362 0.136667 -0.116921 0.0763684 0.227453 -0.0986088 0.0519828 0.113802 0.0300685 0.16914 0.185429 -0.0586763 -0.0599654 0.0173405 0.0236417 -0.0565895 -0.0263637 -0.170644 0.109975 0.00427194 -0.345036 -0.231873 0.0498128 0.0668044 0.0112702 0.0913624 -0.282015 0.259517 0.0360553 0.0870657 0.335696 0.0237975 0.191832 0.0142341 -0.179418 -0.0816068 0.283319 0.304349 0.195208 -0.19033 -0.236051 0.0384881 0.147634 0.0609131 0.0129736 0.133531 -0.0614935 0.133322 -0.170076 0.137401 0.289149 -0.133037 -0.158545 -0.250065 0.0778896 -0.18206 -0.107099 -0.216613 -0.170622 -0.1645 0.0531765 0.169906 -0.0365185 0.18338 -0.153438 0.245293 0.108678 -0.15571 0.00935401 0.275358 0.226883 0.148617 0.0617225 -0.00814649 0.021631 0.0146363 -0.0755994 -0.296114 -0.0377369 -0.230342 0.145763 -0.0494264 -0.106532 -0.147671 -0.0963228 0.175899 0.0278578 -0.125023 0.0738306 0.174087 0.0655156 -0.229661 -0.0222794 -0.0760459 -0.226184 0.19665 0.0518536 0.0103276 0.22424 -0.0144615 -0.150045 0.325219 -0.0871381
government 0.103188 -0.0728387 -0.0130473 -0.0314089 -0.137427 0.269309 -0.0653452 -0.160742 -0.078917 0.043959 0.204302 0.164341 0.308854 -0.110436 -0.189716 0.118382 0.163572 -0.0220914 0.0457377 -0.0657482 0.00976006 0.172382 0.158852 0.130143 -0.261299 0.0614557 0.0322268 -0.130182 -0.302263 0.123817 -0.0861861 0.200816 -0.218694 -0.344145 -0.265334 -0.189271 0.0642042 0.0113729 0.0958324 -0.0844902 -0.0574855 -0.0780631 0.0613766 0.000387029 -0.132855 -0.167746 -0.312748 -0.261739 0.0799581 0.0607676 0.0319507 0.0375835 0.110453 0.0204595 0.309034 -0.0553771 -0.0999738 0.105946 -0.0781172 0.103235 -0.0197526 -0.246053 -0.00522567 -0.148 -0.0824772 -0.0642156 0.0290045 -0.0186566 0.122921 -0.050025 -0.0139209 -0.230078 -0.0982028 0.159936 -0.0328752 -0.0341866 -0.318431 -0.104339 -0.022801 0.191697 -0.0631426 0.00861964 0.0771899 0.235579 0.132648 -0.0771318 -0.12756 -0.120708 0.0552667 -0.0366982 0.151634 0.180355 -0.0363425 0.104845 -0.135325 -0.0821374 0.107855 0.0439196 0.349257 -0.150284 -0.00280043 0.0355171 0.000606014 0.0367541 -0.040669 0.163061 -0.0078081 -0.128354 -0.368304 -0.0489966 0.00191655 -0.0864856 0.161913 0.032427 0.145189 0.0294672 -0.0893231 0.0143682 -0.200312 0.0812039 -0.0980058 0.157721 -0.118686 -0.305881 -0.0486451 0.0211058 -0.0553866 -0.025452 0.245354 0.130306 -0.0120238 0.0297014 0.0925739 0.233657 -0.331411 0.0501587 -0.13681 -0.00191492 -0.0917456 0.179479 -0.0256808 -0.127996 0.103721 -0.0206386 -0.0342092 -0.273015 0.122272 0.152764 0.0802192 0.184345 -0.00237814 0.0497807 -0.0818236 0.0969489 0.048312 -0.0951755 -0.0131023 -0.067525 0.0432609 -0.0387136 -0.0462129 -0.0446879 0.0644182 0.151489 -0.206094 0.106868 -0.0909659 -0.107141 0.0913149 0.255149 -0.0165089 -0.103836 -0.256481 -0.129692 -0.0187139 -0.220845 -0.109916 0.149214 0.317289 0.16775 -0.206568 0.168788 0.0702697 -0.262325 -0.067886 0.0326102 0.319232 0.156838 0.0145938 -0.0980585 0.0214025 0.0407789 0.0724022 0.0173362 0.0674556 0.243582 -0.0710077 -0.154196 0.00892475 0.258616 0.178784 -0.231282 0.117551 -0.0755201 -0.0759478 0.0263328 -0.102214 0.298747 -0.0546615 -0.131284 -0.358999 -0.0235627 0.0545338 -0.0140495 0.226433 -0.0732974 0.00948824 -0.225893 -0.0952107 -0.00451145 0.216292 0.117033 -0.00329895 0.0187531 -0.0737403 0.00119135 0.0452412 0.104684 -0.020073 -0.0950245 -0.0384679 0.10232 0.0915299 0.0249502 0.161814 0.0770871 -0.257925 -0.201076 -0.100987 0.0289333 0.137088 0.166918 -0.00799161 0.0794825 0.0236842 0.00639711 0.258552 -0.136054 -0.0651691 0.414425 0.153449 -0.155439 -0.139514 0.118988 0.0957453 0.0978257 0.0598699 0.0911286 -0.100004 -0.111078 -0.291061 -0.125503 0.221586 0.146238 0.370683 -0.192492 -0.279407 -0.25439 0.214554 -0.018136 -0.0415446 0.0243049 0.0353348 0.111452 0.0375244 -0.02121 0.10639 0.149318 0.00119097 -0.0261378 -0.123148 0.238667 -0.0730974 -0.101464 0.205602 0.0552869 -0.152268 0.180765 0.23393 -0.0279326 0.131746 -0.221532 0.116364 0.0605362 0.227124 0.146929 0.0884243 -0.137994 0.0176129 -0.0712623 -0.0937069 0.0679621 0.137157 -0.0420916 0.078471 0.0134003 -0.0505036 0.075242 -0.218542 -0.108523 -0.0815935 0.0806905 -0.0994738 0.0363618 -0.0772297 -0.0141271 0.103062 0.159185 -0.0150931 -0.0551472 -0.0341906 -0.038998 -0.21618 -0.0266019 -0.137479 0.122991 -0.00963974 0.0648776 -0.0669778 0.110511 0.125477 0.121611 0.0636657 -0.0587748 0.280901 -0.188996 -0.308488 -0.186395 -0.110939 0.0244956 -0.254815 0.0924326 -0.0801159 -0.0922698 -0.0847131 0.00756593 -0.227588 0.022103 -0.0725884 -0.188324 -0.214503 -0.160078 0.167608 -0.0967522 -0.159118 -0.0742655 0.0652397 -0.129432 -0.0633395 0.399709 0.063183 -0.189817 0.165824 -0.091075 -0.0474336 0.13513 -0.0901992 0.0295078 0.121053 0.193597 -0.285129 0.0806473 -0.0726012 0.0742341 -0.307834 -0.122364 0.0543012 0.0210154 -0.0265558 -0.184543 0.0563156 -0.0982208 -0.075227 -0.122903 0.0679159 -0.0966317 0.0212536 -0.0439822 -0.188042 -0.0905422 -0.0321841 -0.245424 -0.27822 -0.147001 -0.0334722 0.00613521 0.00859504 0.088192 0.137164 0.0390718 -0.0203607 -0.353118 -0.0431804 0.0224708 -0.107226 0.246521 -0.163934 0.00123437 -0.122396 0.156125 0.0430028 -0.211958 0.328006 0.00147046 0.104528 -0.184395 0.166809 -0.131031 0.160861 -0.0549218 -0.15841 0.21665 -0.28751 0.114224 -0.115422 -0.0537248 -0.0876546 -0.0454922 -0.0526976 0.144771 -0.0377853 -0.365628 -0.128633 0.125 -0.223933 -0.176962 0.275795 0.230689 -0.0441383 0.160164 -0.190205 -0.00260935 -0.0654167 -0.0163915 -0.267161 0.0648821 0.207801 0.131164 0.0279027 0.221148 0.133466 0.054551 -0.0884172 -0.0220202 0.318128 0.0764527 -0.135335 -0.18963 -0.0564281 -0.0104134 0.17711 0.180986 -0.0761676 -0.121603 0.0397104 -0.0776206 0.0575964 0.0397195 -0.0190918 0.0879188 -0.0184774 -0.340325 -0.0668561 -0.0656197 -0.04433 -0.17484 0.0117611 -0.0228884 -0.0833999 0.0558579 -0.0235714 -0.19555 -0.0542562 0.0392758 0.0847832 0.0531817 0.242962 0.153843 0.0302648 0.140034 -0.175195 0.00370258 0.0464037 -0.0133428 0.0478279 -0.215152 0.0374 -0.196151 -0.110994 -0.0322566 -0.0178801 0.0921408 0.135009 0.16973 0.296087 -0.107605 -0.288925 0.139926 -0.00672004 0.0606092 0.111428 -0.0591527 0.181305 -0.134616 -0.107534 -0.318092 -0.121581 0.0340236 -0.0262443 0.0737368 0.0611237 -0.0264757 0.0345572 -0.204097 -0.254876 0.012083 0.0335275 0.00340211 -0.290002 -0.222531 0.0972822 -0.123909 0.143536 0.224004 -0.174923 -0.24304 0.0501343 -0.139294 0.0351308 0.214242 -0.0057521 -0.096569 -0.116844 0.164475 -0.0770616 -0.222923 0.127793 -0.0873257 -0.210397 -0.111784 -0.0770404 0.0194437 0.0994611 0.0477329 0.10132 -0.054199 0.104342 0.0442678 -0.0353383 0.0878063 0.0560839 0.0194084 -0.061673 -0.155478 0.0294465 -0.0733108 -0.139747 -0.0914761 -0.00713369 -0.0200239 0.10542 -0.0368544 -0.150047 -0.0469791 -0.10244 0.0156194 -0.02013 0.0526383 -0.0133363 0.0830756 0.0572863 0.0909447 -0.0984055 -0.129264 0.163025 0.00754024 0.144149 0.0571009 0.0366565 0.022316 -0.0976899 -0.188484 -0.00306472 -0.115602 -0.329982 -0.049728 0.0732232 -0.00715933 -0.00879038 -0.113357 0.0390646 -0.0457905 -0.032415 -0.00953042 0.00702528 0.0324238 0.0442212 0.0056616 -0.202571 -0.0557782 0.101024 -0.282332 0.0112264 0.0423238 -0.134152 -0.234331 -0.153763 -0.064212 0.097713 0.037195 0.146661 0.108926 0.173345 -0.166587 0.267064 0.0292833 0.17779 0.147866 0.226052 0.0448802 -0.0255057 0.143897 0.058199 0.106034 0.0773334 -0.164551 -0.0624342 -0.0139192 -0.0497602 0.147576 0.157716 -0.306794 0.0880924 -0.0228674 -0.0968805 0.194424 0.227478 0.111487 0.105567 -0.135279 0.0470873 -0.09569 0.067814 -0.00454688 -0.0235461 0.0809151 -0.0721581 0.0525984 0.00512769 -0.00896065 -0.0404169 0.0985376 0.00320414 -0.172172 -0.150305 -0.018329 0.128296 -0.0240717 0.173796 -0.0980041 -0.0924341 -0.0997031 0.0328237 -0.00466335 -0.149912 0.1162 0.016574 -0.180375 0.0538051 -0.00308434 -0.193034 0.168617 0.0629938 -0.125219 -0.0883208 0.058258 -0.00660091 0.0568672 -0.0421964 -0.0799735 -0.218103 -0.274527 -0.0287475 0.139276 -0.111763 0.318286 -0.100002 -0.0845922 0.13047 -0.110462
madhouse 0.0494691 -0.21152 -0.0103833 -0.131246 0.13719 -0.0147839 -0.288816 -0.215986 0.188379 0.186634 -0.267018 0.111656 -0.0327241 -0.189383 0.422915 0.06512 0.0985729 -0.305083 0.300559 -0.218306 0.399125 0.165427 -0.109042 0.0105437 -0.115792 -0.427868 -0.322277 -0.209697 -0.111772 0.176643 -0.315981 0.387773 -0.0994548 -0.0244575 0.0747907 0.000117624 -0.0308834 -0.018748 -0.045474 0.217619 -0.0146322 0.0433249 0.0734799 0.142954 0.031188 -0.038596 -0.0102594 -0.146141 0.0887073 0.0962812 0.0096188 0.207085 0.264575 0.0793104 -0.0614388 -0.101621 0.143475 0.130551 -0.420929 -0.0178873 0.187588 0.322882 -0.0287045 0.172794 0.0415854 0.24113 -0.106084 0.0175599 -0.152741 0.0581038 0.245947 -0.0167257 0.140237 0.318099 0.370354 0.141927 0.133848 -0.522744 0.299574 0.249282 -0.221865 -0.0154958 -0.342184 -0.264312 -0.529888 0.0761866 0.170014 0.0181009 0.0481843 -0.112833 0.315663 0.0469995 0.199946 0.00662211 0.182948 -0.094135 0.28879 0.35717 -0.128385 0.0536321 0.0803129 0.193699 0.0641077 0.149836 0.139598 -0.0233896 0.142896 -0.0341381 -0.452564 0.184165 -0.0856652 -0.324901 0.611638 0.159066 0.0354134 0.0687906 -0.261502 -0.210012 -0.4072 -0.156253 -0.176745 -0.261076 0.12781 -0.173631 -0.225597 0.0928217 0.131759 0.0182683 0.199201 0.107284 0.0263987 -0.19484 0.24705 0.196042 -0.0512659 0.0961783 0.0774873 -0.00221496 -0.0151879 -0.145372 0.0858452 -0.00183092 0.0815195 -0.175601 -0.106288 -0.144322 -0.120387 0.0905182 0.197513 -0.177091 0.329577 -0.175885 0.197543 0.104303 -0.0566465 0.262946 -0.0169787 -0.277872 0.0622076 0.120641 0.0963653 0.290853 -0.163372 0.0149534 -0.279568 -0.191614 -0.0463455 0.0928889 -0.0665971 0.109836 0.121339 0.207107 -0.2799 0.00413075 -0.0141691 -0.245936 0.131891 -0.0661877 -0.118823 -0.145177 -0.0851006 0.210083 -0.010969 -0.446734 0.0258013 -0.172617 0.0979253 0.00138744 0.0830422 -0.104258 0.329355 0.299232 -0.210919 -0.0260509 0.0171347 -0.36264 -0.271571 0.30777 -0.140058 0.235226 -0.0745137 -0.136112 -0.137939 0.209453 0.0611385 -0.0536889 0.0705613 0.141912 0.0424132 -0.0985451 -0.361369 0.25424 -0.00375457 0.101406 -0.440629 -0.125415 -0.158848 -0.166316 -0.153826 0.00181083 -0.212785 0.064182 0.131017 -0.297157 0.0564334 -0.245659 -0.142305 0.041823 -0.189549 -0.107821 -0.0632854 0.34076 0.120253 0.343053 0.115135 0.0207587 -0.0621303 0.0121368 0.0829244 -0.137833 0.257157 -0.417274 0.0141275 0.0245815 -0.139049 0.0225949 -0.100376 0.0808391 0.214309 -0.0950097 0.161968 -0.165664 0.106757 -0.1672 0.0575102 -0.0105129 -0.132323 0.376546 0.114807 -0.11406 -0.150373 -0.212188 -0.11579 -0.27946 0.115061 0.169059 0.0875235 -0.322384 -0.0755923 0.098268 -0.0606477 0.173914 -0.0716509 0.20014 -0.0599452 0.138164 0.144058 0.0253482 -0.115042 -0.0166997 0.0461626 -0.132594 -0.0854749 0.0283953 0.189897 0.0785896 0.35318 0.0166893 0.312434 -0.117248 0.0641325 -0.127081 0.103829 0.0366114 -0.284469 0.0659507 -0.00927778 0.294143 0.0140528 0.034734 -0.168694 -0.263729 0.0629662 0.0879121 0.104351 0.116794 0.0326069 -0.106875 -0.0714779 0.399702 -0.0623083 -0.137333 -0.0459724 -0.151505 0.137263 -0.0621485 0.078029 -0.0354188 -0.411766 -0.0150071 0.00674702 0.204587 -0.105932 0.121637 -0.0141084 0.0255013 0.0038862 -0.166744 -0.107745 0.0332014 0.0502847 0.307195 -0.17938 0.254506 -0.0947199 -0.0756749 -0.0181135 -0.0899499 0.059083 -0.185826 0.142438 -0.0282071 0.204773 0.15218 -0.0632054 0.242856 -0.233464 -0.0890605 0.0907855 -0.20528 0.0845942 -0.118981 -0.156253 0.0825145 0.139925 -0.100975 -0.0212377 0.0421763 0.283678 -0.101316 -0.0312274 0.157264 0.242189 0.0174989 -0.235868 -0.0246115 0.167248 0.361212 0.246895 -0.108304 0.260545 -0.0217201 -0.124071 -0.3641 -0.0954941 0.195033 -0.302684 0.0308142 0.118089 -0.276182 -0.12971 -0.329745 -0.0275091 -0.260926 -0.0965124 -0.0430631 0.139184 0.12973 -0.294163 -0.31874 0.207874 -0.270583 0.112603 -0.220257 0.163777 0.210342 -0.10544 0.245741 0.200412 0.205842 0.0377999 -0.25285 -0.317005 -0.210763 0.352583 0.0144725 0.207973 -0.0668932 -0.037896 -0.0170575 -0.404829 0.407328 -0.136424 -0.00842358 -0.0785986 -0.320958 -0.242832 -0.0979592 -0.0448759 -0.269399 -0.135443 0.11177 -0.228861 -0.218951 -0.332212 -0.303203 -0.174469 -0.163645 -0.160922 0.0650216 0.266502 -0.273142 -0.0104066 -0.0330567 -0.113167 0.000698712 -0.0645131 0.0689307 0.089863 0.336611 -0.17007 -0.0134418 0.027734 0.0988366 0.373401 0.0745319 -0.100304 0.00990721 0.0256247 -0.134959 -0.075416 -0.0909171 0.166187 0.206368 0.0105457 -0.0517166 0.149233 0.105238 -0.152887 -0.222894 0.0690371 -0.0786408 0.0577114 0.159999 0.276216 -0.15679 -0.0303371 0.120431 -0.0325717 0.0693399 -0.174624 0.0672935 0.294733 0.211695 -0.329478 0.208504 -0.267007 -0.059817 -0.124518 0.000403636 0.131406 -0.0210581 -0.140382 -0.371466 0.0814697 -0.131228 -0.255028 0.0400666 0.0461755 0.240472 -0.542461 -0.0963376 0.113204 0.141277 -0.096873 0.132892 -0.231771 -0.0624234 0.363849 0.0830796 0.0243754 -0.0721626 -0.266263 0.111907 -0.243459 0.121705 0.211382 0.04849 -0.235232 0.0972373 -0.149596 -0.198184 0.344975 0.00366434 0.209478 0.115542 -0.270365 -0.0310846 0.0995404 0.340241 -0.0477283 0.28784 0.198352 -0.0194867 0.0431021 -0.257013 0.0705968 0.260595 -0.0740037 0.112131 0.2679 0.0495484 0.0483653 -0.0746026 0.356652 -0.0530197 -0.0453602 0.299457 0.0671453 -0.0371526 0.210852 0.133259 0.30183 0.00171417 -0.0510509 -0.0500828 -0.453185 0.338468 -0.111268 0.00805969 0.0129931 0.273469 -0.0982318 -0.308265 0.200512 -0.013481 -0.0906658 -0.211839 0.276033 0.116844 0.0125594 -0.152342 0.09222 -0.0941907 -0.281769 0.118144 0.0959462 0.0070095 0.100399 0.0424271 -0.329984 -0.12409 0.0247497 -0.120919 0.197667 -0.0663897 -0.209131 0.0393069 -0.133128 0.0714921 0.191712 -0.384795 -0.118178 0.168406 0.169749 -0.094416 -0.119293 -0.261594 0.224313 -0.0573147 0.0838053 -0.128361 0.0388638 -0.028762 0.0596377 -0.094968 0.262635 -0.0105664 0.171718 0.0950116 0.043739 0.139291 0.332704 -0.000349025 0.0266233 0.335717 0.342336 -0.0139777 0.0882803 -0.106699 0.229885 -0.27108 0.0287544 0.360443 0.14608 0.0515116 0.0238356 0.0148555 0.0755023 0.0900544 0.126014 -0.139984 0.153859 0.180931 -0.43059 0.116981 -0.0330108 0.129395 -0.314676 -0.0947701 -0.126471 0.148778 0.112097 0.00702801 0.104163 -0.423571 0.0930824 -0.155884 -0.304542 -0.0328899 0.348682 -0.149428 0.0843689 0.0203537 0.0515003 -0.120014 -0.170383 -0.214747 -0.0549006 0.0128457 -0.160056 0.0157042 0.030354 0.374653 -0.305318 0.319627 -0.143566 -0.218324 0.011224 -0.0473157 -0.0271598 0.161091 0.107296 0.0158433 -0.0601902 -0.103978 -0.116951 0.138263 -0.0680696 0.121641 0.103065 0.0744207 0.327854 -0.0759055 -0.40164 0.0644087 -0.0151814 0.228821 -0.188969 0.0692026 -0.0284186 -0.146641 -0.0144762 0.0987011 -0.156641 -0.221082 0.112468 0.285961 -0.224239 0.297817 -0.278399 -0.184363 0.261642 0.251911 -0.249771 0.382941 0.0964347 -0.0916767 0.246216 -0.144072
video -0.229333 0.173991 -0.183806 -0.133463 -0.058553 -0.269655 0.052813 0.0474825 0.0966727 0.151049 -0.359799 0.116292 -0.132463 -0.197272 -0.0237782 0.00956194 -0.214701 -0.396601 0.215343 0.0898121 0.356302 0.222316 -0.0401545 0.0174776 0.032241 0.0688914 0.0107545 -0.135945 -0.0506415 0.214035 -0.0727571 0.0492006 0.0572058 -0.0436976 0.052459 0.087489 -0.0194353 0.125467 0.0642074 -0.00545437 0.0364632 -0.0285211 -0.190312 0.091006 0.237179 -0.0884443 0.214158 0.0328372 -0.0209932 0.248421 0.199995 -0.00372879 0.179622 0.225913 0.0303283 -0.0131188 0.153695 0.0153595 -0.0468051 -0.111733 -0.00950127 0.321387 0.0919922 0.209163 0.0872138 -0.0976142 -0.0447801 -0.0286903 0.205046 -0.103647 -0.133258 -0.0766596 0.108809 -0.2386 -0.135887 0.0509899 0.0125313 -0.238815 0.134536 0.310445 -0.106277 -0.105718 -0.122043 -0.307852 0.0925189 -0.0519962 -0.0318306 0.00930815 0.061154 0.0859019 -0.0262526 -0.22725 0.0314528 0.0513478 -0.0928974 0.122491 0.186528 0.103074 -0.0964018 0.02227 0.329354 -0.0737481 0.0107497 0.0617836 0.0962902 0.205926 0.156692 -0.127894 -0.368926 -0.0512867 -0.279347 0.109659 0.12927 -0.196989 0.109707 0.0230587 -0.106726 0.033139 0.0154216 -0.0668355 -0.311671 0.00843922 0.272399 -0.00907673 -0.0685156 -0.0714906 -0.14347 -0.13166 0.0563595 -0.147145 0.09394 -0.0260248 0.0500194 0.102383 -0.263796 -0.0716672 0.173262 0.229586 0.0789343 -0.0424889 0.155536 -0.0881502 0.137132 -0.0874357 0.352143 0.116858 0.0836547 -0.0624168 0.0680894 -0.130422 0.142945 0.0783453 0.303403 -0.188082 -0.0807684 0.048311 0.0828786 -0.0290854 0.246403 -0.353842 0.201398 0.0486638 -0.151488 -0.0425875 -0.111983 -0.0382682 0.00189284 0.34645 0.0251915 0.333987 -0.0215219 -0.162207 0.136917 -0.0941358 -0.0300678 -0.291016 -0.0882097 0.0632648 -0.0504601 0.00912227 -0.0914075 0.305715 0.00131177 -0.336177 -0.103108 0.0944193 0.00345467 -0.107327 0.0998749 -0.208543 -0.136941 0.0901749 0.0773892 0.205837 -0.0597289 -0.0267399 0.088505 -0.105707 0.085128 -0.0678165 0.210289 -0.0387673 -0.0109172 -0.295623 -0.265083 0.0429006 -0.192047 -0.0733008 0.125422 0.00233487 0.0838102 -0.237179 0.0759513 -0.0848975 0.0284031 -0.124609 -0.148178 -0.00748423 -0.208825 0.0870891 -0.176652 -0.0893805 0.2466 0.0571747 -0.289899 0.150849 -0.0794122 0.14415 0.0612509 -0.194686 0.183336 -0.284919 0.208397 0.226611 -0.106362 0.211106 -0.0937603 -0.171193 -0.165318 -0.00839933 0.384333 0.0579654 -0.185185 0.139386 0.0946779 0.143566 -0.0417843 0.341712 0.192617 0.00125776 0.0210322 -0.229531 0.0520315 0.00263828 -0.0284987 0.00442944 -0.0257893 -0.116893 0.125214 0.0218909 -0.311131 -0.109755 0.0989924 -0.0287962 0.0441895 -0.0728092 -0.0174511 0.0893996 0.0248028 -0.131426 -0.0707457 -0.117774 0.0824856 -0.0438678 -0.12032 0.0347358 -0.0825997 0.435987 0.179197 -0.110408 0.229371 0.0257859 -0.0962309 0.218535 0.0729824 -0.164644 -0.0784453 0.0894557 -0.135256 -0.0279005 0.164442 -0.169487 -0.339671 0.127075 -0.0799508 -0.000292139 -0.0209828 0.205373 -0.0525601 -0.00103275 0.0100794 0.0478168 -0.179486 0.0736274 0.148046 0.0381503 0.179427 0.0312723 0.124991 -0.191484 -0.04998 -0.0129799 -0.320536 -0.217265 0.20977 0.0997989 -0.187094 -0.101753 -0.226518 0.016047 -0.159206 0.091806 -0.130084 -0.0506886 -0.440483 0.0359052 -0.0409866 0.166887 -0.00325828 -0.196362 0.138938 0.333842 -0.185007 -0.232391 -0.102682 -0.310314 -0.0742033 -0.339078 -0.0209851 -0.0968337 -0.143552 0.0922639 -0.250876 0.044775 0.180128 0.262666 -0.021221 -0.110384 0.0596743 -0.0358638 0.0303662 0.129502 -0.0648814 -0.091505 -0.00288697 0.157714 -0.147571 -0.139608 -0.0242382 -0.0596468 0.215745 0.233573 0.156354 0.0470291 -0.155507 -0.19579 -0.304087 0.140988 0.291766 0.162467 -0.0180937 -0.0898809 0.0864028 -0.141543 -0.0482201 0.413544 0.00373387 -0.036931 0.361075 0.210797 -0.140706 0.222745 0.201169 0.00627195 -0.220996 -0.0584615 0.388409 0.129777 0.204764 -0.204167 0.155506 -0.00827093 -0.0675789 -0.055958 -0.0463135 -0.191041 -0.117411 0.00997285 -0.132459 -0.351206 0.248751 -0.198502 -0.244871 0.0874159 0.114899 0.0222789 0.328872 0.0467689 0.12073 -0.155669 -0.344929 -0.172534 -0.0938998 0.0453948 -0.331592 0.306893 -0.0705821 -0.186608 -0.101605 -0.154406 0.219146 -0.091094 -0.14476 0.0105306 -0.303193 -0.102429 -0.11803 0.154256 0.24381 -0.345238 0.0572366 -0.0581886 -0.0103374 -0.297147 -0.270509 -0.330816 0.0138794 0.11288 -0.0903918 0.0721327 0.0882091 0.0375045 -0.0330464 0.262233 -0.182887 -0.0786123 -0.0141734 -0.0218887 0.106093 0.0914747 0.0147618 -0.0656368 0.102129 0.192595 0.0369413 -0.13446 0.0736758 -0.0731092 -0.35762 -0.366235 -0.0779464 -0.0304229 -0.219213 -0.120192 0.414948 -0.0622573 0.103409 -0.203558 -0.360996 0.00607252 0.1115 -0.011848 0.0818288 0.326171 -0.521678 0.0815007 0.0327379 -0.0230981 -0.176816 -0.13051 -0.142626 0.140765 -0.00487285 0.0391959 -0.172245 -0.00440959 -0.0915829 0.112749 0.148952 0.16741 -0.158314 0.221025 0.0324173 -0.00841878 0.0690337 -0.151227 0.0608466 0.123575 0.09304 0.185365 -0.0674579 -0.0854096 0.12005 0.0763498 0.0543346 0.0592571 -0.0139619 0.117435 -0.133304 -0.0384887 -0.246112 0.0592444 0.251895 0.0937007 0.0917553 0.119909 -0.110863 0.06623 -0.0726369 -0.126657 -0.153035 -0.0700058 0.0198136 -0.162282 0.0576116 -0.196773 -0.0746108 -0.100631 -0.00726484 0.0452836 -0.0515377 0.143137 0.195632 -0.191273 -0.0785026 0.0667811 -0.142804 -0.16853 0.057702 0.108811 0.0448967 0.167535 0.201717 -0.0659958 -0.113034 0.0261941 -0.11529 -0.0745994 0.0227305 -0.0275639 -0.122931 -0.260333 0.245988 -0.267365 0.0634432 0.000576993 -0.104192 -0.24695 -0.00850907 -0.276216 0.0523875 0.001179 -0.186923 -0.193668 -0.145705 0.205289 0.345633 0.170041 -0.28175 -0.122588 -0.11208 0.427309 -0.310559 -0.112035 0.184771 0.247153 -0.11655 0.162174 -0.180199 0.039315 0.201999 -0.373789 0.225388 -0.00395909 0.118253 0.279151 0.0895185 0.173914 0.025438 -0.00722921 -0.173939 -0.0993842 -0.0260204 -0.19516 0.0916043 0.0675645 0.00105603 -0.0951814 0.158591 0.140965 -0.138656 0.0631965 0.0540641 0.0338377 -0.015239 -0.257087 0.070802 0.0673179 -0.172602 -0.0597273 0.0716978 -0.0634376 0.0703785 0.0581262 -0.0653517 -0.00254789 -0.0134196 -0.0981105 -0.211125 0.0371174 -0.141797 0.149361 -0.112633 0.0484005 0.104923 0.0618863 -0.253595 -0.119906 -0.27238 0.202505 -0.266435 0.0125869 0.306732 -0.0781546 -0.0227511 -0.184602 0.17633 -0.050683 0.0674314 -0.185329 0.0631411 -0.0316937 0.0115657 0.132305 -0.255632 0.0468904 0.0695861 -0.214538 0.251143 -0.143335 0.193862 -0.152735 -0.183197 0.189175 0.199567 -0.0423356 -0.134727 -0.291882 -0.040691 0.0617164 -0.144429 0.127808 0.0565439 0.200835 0.0479178 0.215408 0.165228 0.00953387 0.0607535 -0.0333012 0.0691114 -0.132152 0.279221 -0.229543 -0.188272 0.0355544 0.201008 0.129688 -0.0272605 0.0630381 -0.0421647 -0.0534384 -0.0435018 0.332104 0.018087 -0.121789 -0.0554537 0.260927 0.226682 -0.00820802 -0.126368 0.0203602 0.0750608 -0.0614359 -0.389999 0.0489202 -0.0300175 0.0658662 -0.0570981 -0.0949321
defeating -0.0126161 0.0493272 -0.0525892 0.225067 -0.265082 0.290167 -0.121583 0.179054 0.362969 0.209318 -0.210851 0.211658 -0.00372023 0.262703 -0.117895 0.0757901 0.241428 -0.205528 -0.280738 -0.266424 -0.153665 -0.175257 0.41422 0.1561 -0.0766168 -0.0322672 0.147733 -0.0966633 -0.300192 0.0781367 0.058972 0.0206599 -0.191677 0.302514 0.12912 0.0312306 0.0889149 0.233253 -0.0338586 -0.261376 -0.39844 -0.398877 -0.0765669 0.223563 0.19127 -0.268367 0.107229 -0.198831 -0.209472 0.0370274 -0.194879 0.224497 0.0214555 -0.0202391 0.293234 0.185836 0.227072 0.230239 0.0895765 0.140185 -0.0448033 -0.0865119 -0.423501 0.174599 0.18358 0.0827059 0.104743 -0.308969 0.185427 -0.188329 0.0935359 -0.278568 0.103401 -0.0156825 0.0920534 -0.338184 -0.205834 -0.46186 -0.0158136 0.0814833 -0.129798 -0.253599 0.0487803 -0.0221176 0.305062 -0.181597 0.110751 -0.0451757 0.0617229 -0.0757661 0.0152346 -0.0569511 -0.219308 0.09657 0.0800096 -0.107243 -0.190614 -0.0470234 -0.130805 0.421769 0.44445 -0.0345569 0.0586132 0.0635394 -0.119731 0.0133518 -0.246981 -0.430706 -0.0259627 -0.0518221 0.0440448 0.127096 -0.105913 -0.149415 -0.00226509 0.0531808 0.0382063 0.113624 0.258841 -0.323075 0.0625338 0.0349881 -0.198316 0.607785 -0.315656 -0.115584 0.185066 -0.191192 0.0121305 0.220285 0.0053945 -0.107855 -0.0721456 -0.102987 -0.341425 0.427208 0.0588247 0.0212197 -0.029731 0.178029 0.104632 -0.175022 -0.292183 -0.175068 -0.205398 -0.0859425 -0.0393176 0.106502 0.100846 0.0789199 -0.19893 -0.182356 0.179045 0.423081 0.257455 0.0524631 0.0748815 -0.113411 0.38016 0.0298504 -0.195882 0.0149083 -0.158773 0.0300659 0.371982 -0.00704582 0.0683906 -0.120785 -0.118626 -0.050387 0.0068422 0.10221 -0.25957 -0.101466 -0.0456096 0.217974 -0.0121356 -0.147715 0.0114484 -0.116275 -0.202606 0.237612 -0.332197 -0.143378 0.0417983 -0.0167816 -0.29058 -0.15476 -0.122094 -0.235613 0.440111 -0.0718236 -0.0331624 -0.346411 -0.210371 0.240751 -0.124211 -0.351769 -0.372287 -0.0564023 0.118844 -0.0422386 0.0688355 0.225121 -0.157302 -0.310553 -0.0708757 -0.0347175 0.224653 -0.468703 -0.0525354 0.25022 -0.365606 0.0843861 0.0341427 -0.135639 0.141578 0.176427 0.161172 -0.0303171 -0.0762127 -0.108894 0.180537 -0.0365673 -0.00871667 -0.40682 -0.430204 0.0245881 0.359167 -0.113416 0.422878 0.0151869 0.151592 0.0523361 0.250501 -0.315724 -0.283869 0.333041 -0.190114 -0.167429 -0.0430114 0.187925 0.147473 0.0980238 0.120827 -0.0348455 0.0117727 -0.11915 0.0892336 0.0418365 0.100575 -0.0382411 -0.179585 0.0449362 0.167855 0.155524 0.341046 0.0953096 0.34426 0.0155548 0.195739 0.365949 -0.437831 -0.241052 0.226743 0.185575 0.104175 0.325052 0.240804 -0.1169 0.0538485 0.166129 0.101921 0.188603 -0.198686 -0.0238701 0.279855 0.102069 0.0470073 -0.0802517 0.0977031 -0.0988808 -0.56417 -0.210507 -0.0388927 -0.273125 -0.293382 -0.18279 -0.209279 -0.0282877 -0.222684 0.195497 0.098533 0.167196 -0.269662 0.12314 0.217426 0.0400825 0.0909993 0.0423839 -0.240948 -0.0160829 -0.31399 -0.0694858 -0.100882 0.22009 0.138844 0.15263 0.0407956 -0.339213 -0.240383 -0.0411826 -0.400436 -0.449498 -0.0847373 0.11698 -0.125437 0.144914 -0.135178 -0.084667 0.00425652 0.0535635 -0.187113 -0.250915 -0.176944 -0.0645836 0.108489 0.0219782 0.391544 0.118873 0.149326 0.115904 0.148614 0.419818 -0.275417 -0.139998 -0.0345746 -0.132708 -0.0680378 0.204685 -0.211094 0.35595 -0.449033 -0.0709494 0.0341359 0.0542021 0.124795 -0.0620142 0.0827062 -0.315633 -0.00232797 0.1752 -0.252907 -0.353661 -0.00353213 0.109238 -0.0573802 -0.000720024 -0.178276 0.339755 -0.116492 0.0109572 -0.0246028 0.13866 -0.139558 0.109738 -0.14402 0.0961835 0.0772684 -0.104855 0.102635 0.156545 0.0745498 -0.0116544 -0.156739 -0.0707995 0.47382 -0.35231 0.021927 0.019093 -0.135354 0.235485 -0.00534282 0.129394 0.103201 0.293833 -0.0633444 -0.0791463 -0.0140941 -0.252221 0.0191287 -0.113421 -0.335524 0.172622 -0.492277 -0.0250081 0.12823 0.125867 0.120499 0.0559134 -0.0418013 -0.133698 0.177765 0.0641235 -0.0783622 -0.0395897 0.0667692 0.0465608 -0.169764 -0.055077 -0.250757 0.0157181 -0.114542 0.0664029 0.151372 0.0363135 0.368299 0.0585694 0.099049 0.0879923 0.205936 -0.105045 -0.0265177 -0.410128 -0.0885506 -0.248809 0.112004 -0.201393 0.0554762 0.399962 -0.25618 -0.402604 -0.24592 -0.013059 0.0349368 -0.0523081 0.00545621 0.117052 0.274622 -0.192265 -0.183601 0.0183092 0.0542336 0.22483 -0.000578085 -0.262154 -0.226371 0.0957975 -0.0545142 0.0779093 0.0302216 -0.11251 -0.150561 -0.00118387 0.0285486 0.0671231 0.141494 -0.267091 0.17032 0.133781 -0.165437 -0.118513 0.0988316 0.0707024 0.533578 0.140302 -0.113899 -0.0262686 0.214755 0.199187 0.122343 -0.328454 -0.0660478 -0.153172 -0.308609 -0.0280488 0.00646602 -0.0708328 -0.0117399 0.201642 -0.0952515 0.11998 0.103973 0.0505593 0.147453 -0.472857 -0.398811 -0.0765387 0.154974 -0.0395572 0.212948 0.300894 -0.173027 0.0872517 0.0608479 -0.181459 0.152572 0.148748 0.0722041 0.0631937 0.20985 -0.140952 0.0413877 -0.113958 -0.0916395 -0.0729321 -0.553887 0.230698 -0.15795 -0.245215 -0.0341451 0.0160277 0.493674 -0.332187 0.147558 -0.0956916 -0.249937 0.00718827 -0.320315 0.274341 -0.0502691 -0.253072 0.542957 0.115384 -0.0451836 0.105135 -0.234642 0.121264 0.159821 0.234463 0.259015 -0.169002 0.606465 0.270382 -0.079734 -0.256593 0.203036 0.126999 -0.249266 0.0680712 0.301387 0.0188288 -0.0515142 -0.0726974 -0.217916 -0.332283 -0.18116 -0.16998 -0.00183601 -0.167416 -0.144439 -0.0168859 -0.175616 -0.00472673 -0.479752 0.340953 -0.150417 -0.112807 0.270414 0.0970171 -0.222072 -0.261967 -0.0580605 0.0578796 -0.131785 -0.15981 -0.366276 -0.156419 -0.0554532 -0.220969 0.0279129 0.184173 -0.164062 0.341632 -0.0961502 -0.117705 -0.164598 0.236608 -0.133121 0.129565 0.0650854 0.0813683 0.10911 0.0230407 0.0483619 0.13568 -0.0119809 -0.162323 -0.256798 0.179908 0.0494574 0.00472945 0.317745 0.2462 0.0129388 0.0893138 0.125349 -0.0659365 -0.023746 -0.0721966 0.10954 -0.106208 0.143435 0.0175273 -0.172753 -0.170062 0.20355 0.0928165 0.0812803 -0.307327 0.395491 -0.234263 0.0562848 0.184688 -0.0427994 0.0505317 0.080542 -0.0433859 -0.0522335 -0.499043 0.152915 -0.0284237 -0.104288 0.140957 -0.176329 0.102188 -0.0429241 0.107923 -0.201489 0.230015 0.123969 0.164354 -0.101845 0.275348 0.186367 -0.111848 -0.227563 -0.311134 -0.267102 0.0942353 -0.181685 0.229728 -0.155527 0.0857966 -0.170916 -0.0049646 0.390563 -0.00611412 -0.0322216 -0.295824 0.274082 0.120702 0.0344353 -0.13991 0.225312 0.192967 -0.264262 -0.245166 -0.19901 -0.203358 -0.104763 0.146188 0.0465468 -0.56926 -0.30944 -0.145641 -0.0794238 0.176533 -0.000621358 -0.44938 0.000394751 -0.0793127 0.0224552 -0.249655 -0.0888656 0.0660092 -0.0809651 -0.0206965 -0.0546849 -0.0516652 -0.0736454 -0.115009 -0.563327 0.0483156 0.0191865 -0.133218 -0.164867 -0.181254 -0.10864 0.0568308 -0.198465 0.0727491 0.0303282 0.0435165 0.117567 0.379075 0.0625526 0.107534 -0.315654 0.102491
death 0.168031 -0.0329161 0.0469634 -0.0694063 -0.213844 0.087414 -0.0918825 0.17255 0.133917 0.0403609 0.0546077 0.206065 -0.34291 0.0285353 0.14328 -0.19851 -0.1535 -0.0957374 -0.0460751 0.0135778 0.00496535 -0.0509396 0.0190995 -0.167696 0.0568298 0.0411881 0.00306956 0.144359 -0.112932 0.113319 0.119015 0.284101 0.0703468 -0.107795 -0.136311 -0.110637 -0.103727 -0.117371 -0.133967 0.0570839 0.117654 0.258138 0.175622 -0.0674492 0.138172 -0.127117 -0.00100447 0.0836582 -0.0242839 -0.124963 -0.0143481 0.172989 -0.00326715 -0.0134721 0.266114 0.00857385 -0.11604 -0.0405687 -0.173551 0.0524761 -0.109263 -0.0452546 0.192763 -0.156641 -0.0577545 -0.0798116 0.0898246 -0.0806735 0.157066 0.150362 -0.0601042 -0.123201 0.0849077 -0.0486969 -0.00633494 -0.150227 -0.17451 -0.204791 0.260091 0.171304 0.0923405 -0.158446 -0.0346304 -0.121568 -0.0344249 -0.428902 -0.179486 -0.0891029 0.113975 -0.103337 -0.127943 0.00706764 0.157017 0.14544 -0.0587371 -0.130325 -0.397427 0.133105 0.10139 -0.0651502 0.192734 0.0539708 -0.27708 0.359367 0.165697 -0.113752 -0.370812 -0.240056 0.0140751 0.0882785 0.10494 0.148433 0.0651889 0.0231126 -0.203064 -0.106983 -0.15321 0.054321 0.0913051 -0.169854 -0.0596157 -0.011253 0.133183 -0.183959 0.0375427 -0.0824593 -0.183683 -0.144543 0.140483 0.35022 -0.313647 -0.0395688 0.160809 0.19376 -0.205636 0.0796379 0.15388 0.0235948 0.0110835 0.0045127 0.125181 0.159133 -0.1183 -0.229937 -0.0312411 0.12382 0.00839763 0.0495421 -0.0974978 0.356116 0.265093 0.0396214 -0.0878668 -0.145757 0.122951 0.0145516 0.0607319 0.063729 0.123726 -0.0595732 0.0337199 -0.0518955 -0.0065438 -0.254287 -0.0480628 -0.09068 0.0158976 -0.115767 0.158494 -0.0535402 -0.034197 0.0366905 0.0960428 0.114739 -0.0202119 -0.220721 -0.197676 0.0471836 -0.0873931 0.330787 0.00211973 0.217708 0.00467128 -0.271863 0.204981 -0.0135571 -0.260019 -0.0466911 0.111001 -0.0943453 0.181748 0.25278 0.121435 -0.352747 0.279702 0.0910416 0.0671392 -0.144951 -0.105423 0.0154955 0.0823535 -0.288331 -0.0573761 -0.310519 0.00819514 -0.0635019 -0.111145 0.071358 0.020733 0.0876854 0.0578762 -0.00770032 -0.115554 0.0666357 -0.0053097 -0.122653 -0.108508 0.182424 0.00843767 0.138224 0.105775 0.182633 -0.141254 -0.102007 -0.0102218 -0.286762 0.136339 0.176166 -0.0130108 0.00259704 -0.0059458 -0.0554258 0.0345075 0.58007 0.0971738 -0.211897 -0.0421807 -0.165693 0.00941473 -0.0629124 -0.0886101 -0.100716 0.000513191 -0.0537747 0.137682 -0.177943 -0.260717 -0.0459842 0.0797579 -0.0325416 -0.0641218 -0.138722 0.227228 -0.21989 0.248784 0.278646 0.0118548 0.00811662 -0.0452404 -0.00572365 -0.136196 0.424241 -0.0824323 -0.249773 0.127856 -0.105197 -0.0639137 -0.105112 0.248823 -0.0250959 0.157228 0.036584 -0.0988552 0.196863 -0.231751 -0.03031 0.125229 -0.0292907 -0.19131 -0.0368964 0.0332886 -0.122081 -0.0665727 -0.0563345 0.0164549 0.0102235 0.114589 0.178841 -0.0167011 -0.0267746 -0.022346 -0.0115719 -0.281757 -0.02646 -0.126886 0.429821 0.296897 0.131913 0.0928891 -0.287916 -0.0654622 0.032544 0.308947 -0.043731 -0.0154368 0.0262351 -0.350083 0.138191 -0.14826 0.23312 0.0339635 -0.119641 0.1303 -0.107493 -0.0834597 0.230281 0.14868 0.10796 0.00412554 -0.0256578 -0.108355 -0.142674 -0.0540897 -0.132625 -0.116462 0.0766967 0.172176 0.241105 -0.195275 0.0160446 0.143251 -0.105828 -0.00871363 0.263686 -0.117486 -0.00923396 0.0242902 0.101561 -0.0832186 -0.0175414 -0.13929 -0.287604 0.0394972 0.166493 0.172184 0.285601 -0.31525 -0.150398 -0.258451 -0.358612 0.072341 -0.12182 0.0454561 -0.0917259 -0.179901 -0.107465 -0.0629855 -0.312561 0.130665 0.332577 -0.0125483 0.176548 -0.0307122 -0.0780221 0.129482 0.157109 0.162183 -0.120865 0.124171 0.107646 -0.294835 -0.0294661 0.114401 -0.270148 0.0913833 0.026777 0.00100433 -0.0920473 0.104294 0.0650299 0.204947 -0.142413 -0.0539959 0.270624 -0.10642 -0.0334164 0.0642762 -0.105343 0.0192242 -0.175959 0.067079 -0.189672 -0.162124 -0.14209 -0.180143 0.518872 0.202385 -0.0238398 -0.091878 0.0380037 0.0198019 -0.28051 0.104072 0.127564 -0.0210994 0.382088 -0.081052 -0.0757307 -0.0853159 0.0590989 -0.0122654 0.114643 -0.171475 -0.0594525 -0.0111503 0.0149592 -0.152842 -0.211568 -0.107119 0.184619 -0.013521 0.041666 -0.143253 -0.215533 -0.124663 -0.0228209 -0.192932 0.081447 0.0469292 0.200743 0.0156383 -0.337539 -0.0307149 0.0465277 -0.131246 -0.142987 -0.0658031 0.00793202 0.10701 0.253664 0.193554 0.0954163 0.0959078 0.247367 0.0746232 -0.175741 -0.0965646 0.142489 -0.167464 0.051601 -0.168651 -0.135255 0.231235 0.212657 -0.139278 -0.172934 0.096776 -0.0944951 0.041546 0.0526125 0.157595 0.198931 -0.0962576 0.00163112 0.257727 0.17452 0.0440688 -0.313084 0.071308 0.0909186 -0.0697181 -0.00773492 -0.0098015 -0.245796 -0.32315 0.035315 -0.0994919 -0.201844 -0.117079 -0.0352255 -0.300151 0.137502 0.0589282 0.0757009 -0.0953411 -0.261718 0.24935 -0.120046 -0.225113 -0.0846561 0.115734 0.0933066 0.0141073 -0.0122469 0.0558011 0.00106622 -0.135259 -0.0223965 0.150096 0.151057 0.121918 -0.0118995 -0.00345296 -0.0486652 0.0962302 -0.210775 -0.0208566 0.150512 -0.157195 0.232169 0.171746 0.160491 0.268996 -0.0915003 -0.0979111 0.0131533 -0.10067 0.192297 -0.162406 0.200824 -0.0608331 0.150936 -0.037778 -0.117098 0.198175 -0.165625 0.0766423 0.164398 -0.150567 -0.0844052 -0.12392 0.106685 0.206218 -0.0499268 0.288411 0.0725898 0.0341499 -0.0753493 -0.117974 0.311833 0.243853 0.0334054 -0.084976 0.124682 0.192901 0.0247107 0.0935219 -0.176047 0.0226021 -0.07144 -0.145262 0.0749316 -0.0504578 0.208861 -0.200885 -0.0731339 -0.225289 0.0842965 -0.0914345 0.259523 0.0945799 -0.255663 -0.0206402 0.0627057 0.00557943 0.0692227 0.1107 -0.0973932 -0.0843162 -0.204263 -0.0147794 0.353521 -0.0909452 -0.182256 0.0764664 0.0211678 0.000847024 -0.0780974 -0.129263 0.163907 -0.0290962 -0.0211527 0.138614 0.368203 0.0751417 0.147517 -0.0486251 0.161667 0.125932 0.164275 0.0761004 0.0457905 -0.123708 0.119363 0.316183 0.259105 0.17349 0.0873796 -0.104546 -0.0692668 0.0360511 0.0285947 0.321097 0.175805 0.0186798 -0.0983779 -0.00678728 -0.126971 -0.106691 -0.149629 -0.0957881 0.00933038 0.0266755 -0.100441 0.0676773 0.202247 0.142687 0.000402698 -0.0146362 0.0171932 0.115945 -0.109905 -0.0568219 -0.162328 0.166246 -0.0412058 0.00265952 0.122867 -0.167824 0.154477 -0.142881 0.0944704 0.330531 0.173916 -0.0705258 -0.077891 -0.352936 -0.0799095 -0.253362 -0.0256174 -0.129472 -0.0796707 0.0945624 0.157646 -0.284296 -0.0717901 0.0440617 -0.12205 -0.172194 -0.173711 -0.0735053 -0.0965706 0.132852 -0.19226 0.0884221 0.0819404 0.153183 0.306543 -0.0964579 -0.0277128 -0.254154 0.0128388 0.0161689 0.163145 0.160275 0.181993 0.0267191 0.0228335 0.028077 0.011749 -0.202661 0.28684 0.189906 0.0135784 -0.0109811 0.099739 0.0308461 0.203788 -0.168339 -0.299659 0.161842 -0.0596312 -0.151628 0.0134665 -0.0821652 -0.233699 0.00839334 -0.108937 -0.0271454 -0.096685 -0.168567 -0.204388 -0.0712725 -0.0456085 0.172749 0.194534 0.0435124 -0.0500816 -0.0389807 -0.174336
image 0.16306 0.146895 -0.178472 0.0223085 0.101429 0.0545812 -0.147101 0.154356 0.181071 -0.0396572 -0.0650098 -0.170033 0.0501218 -0.103453 -0.00169159 -0.184358 0.17657 -0.220448 -0.0684485 -0.0750445 -0.03654 -0.144148 -0.0460926 0.00868195 0.0769738 -0.0248948 0.225194 0.0605043 0.00365196 0.153362 -0.046866 0.197654 -0.0740782 0.0106993 0.0032134 0.0461244 -0.026795 0.0558118 0.0866205 -0.20812 -0.26997 0.291445 -0.014345 0.134372 0.295047 -0.246594 -0.174732 0.232553 0.12453 0.200036 -0.0791076 0.0311268 -0.26941 0.240512 -0.0650249 -0.149799 0.364551 -0.134308 -0.0513778 -0.0482248 -0.00153594 0.0903466 -0.050337 0.0613144 0.181685 -0.225599 0.105258 0.0413152 0.0671135 0.170396 -0.299469 0.0592146 -0.0415724 0.0505666 -0.166557 -0.00327768 -0.0938775 -0.0172249 -0.0572467 0.101506 -0.220423 0.270992 0.0781531 -0.0294378 -0.0350441 0.0128282 -0.200244 -0.0717585 0.147399 -0.0453066 0.118853 -0.110015 -0.0263937 0.108799 -0.292985 0.150611 0.112104 -0.0621035 0.274135 -0.0835134 -0.119495 0.100488 0.112009 0.0146698 -0.135108 -0.0696228 0.379616 0.160321 -0.0674878 -0.100821 0.00958202 -0.165348 -0.0767366 0.0243906 -0.163603 0.284607 -0.201532 0.0839991 -0.0182964 -0.0616255 -0.286907 0.153895 0.0133141 -0.0306695 -0.372768 -0.106147 -0.0065717 0.0345032 -0.140953 -0.184069 -0.0630092 -0.0785346 -0.0702437 0.0834013 0.12182 0.0219104 0.0216122 -0.184049 -0.403278 -0.182015 -0.0879979 0.113672 0.0886095 -0.0880048 0.149949 0.118276 -0.156338 -0.167188 0.131639 0.0515151 0.190019 -0.0318644 0.0116033 0.106038 -0.243783 -0.119604 -0.0696563 -0.210603 0.0880366 -0.0735403 0.15536 -0.0670586 0.171304 0.192075 -0.358203 0.043846 0.0288297 -0.0381133 0.0618505 0.268377 0.0966622 0.0199639 0.0808853 -0.151997 0.0953393 0.0164686 -0.0512497 0.170289 0.112261 -0.00969838 0.0547843 0.14647 0.130865 -0.129422 -0.00404719 0.0813383 0.0304498 -0.125827 0.147613 -0.113096 -0.0335862 0.105042 0.111808 -0.0932068 0.0935584 0.0138493 0.0940359 -0.101741 0.130879 0.351454 -0.0573536 0.0702077 -0.198191 -0.181259 -0.101609 0.235855 -0.0994994 -0.0688656 -0.0151405 -0.107078 0.269049 -0.0792496 -0.163309 -0.2105 0.0838879 -0.216885 -0.0161356 0.0133176 -0.111435 0.150209 0.1183 0.307723 -0.0645675 -0.0949238 -0.329423 -0.0901136 -0.153482 0.0787271 -0.084384 -0.270808 0.160975 -0.122484 0.156037 -0.105737 -0.0848643 -0.113072 0.0655434 -0.127945 0.0665801 0.116252 0.218803 0.0712995 -0.135515 0.101449 -0.117112 0.00810954 -0.0122103 0.170433 0.17108 -0.09528 -0.161901 0.0382758 -0.0919391 0.0266312 0.0741132 0.0527013 0.120558 0.0710752 0.00546093 0.0512154 -0.0840999 -0.127824 -0.0750114 -0.189539 0.0674712 -0.376673 -0.0732016 -0.115011 0.167428 -0.189367 0.0110988 -0.206537 0.206888 -0.10773 0.168363 -0.0513895 0.0327984 -0.0527867 -0.0310054 0.14879 0.0876366 0.101628 -0.198782 0.0903565 -0.0100839 -0.247061 0.219206 0.129112 -0.0113418 0.0535416 0.0512948 -0.230739 0.149295 0.00189542 -0.277773 -0.0274208 0.0701956 0.0865582 0.215241 -0.220264 -0.117219 -0.00819216 -0.26788 -0.0124653 0.0919248 0.124658 -0.0473435 -0.135443 -0.21165 0.0648632 -0.0190351 0.0147708 0.125773 -0.265118 -0.210747 0.117086 -0.0755888 -0.175012 0.000944959 -0.24673 0.0803109 -0.153757 -0.246663 0.317304 0.00237504 0.0904709 0.246524 0.209212 -0.0417788 -0.00762523 -0.00373 0.0138343 0.209747 -0.0932801 -0.132165 0.0379658 0.0404242 -0.142387 -0.200899 0.0913048 0.19956 -0.251145 -0.206556 -0.00582675 0.0720302 0.0872391 -0.133074 -0.0609843 -0.0674962 0.0774857 -0.323853 0.111574 -0.00955531 0.0752389 -0.0913128 -0.0553276 0.0853177 0.118533 0.160798 -0.106011 0.216972 0.188371 0.10341 -0.00622676 -0.176696 -0.151452 -0.218717 -0.196715 0.275719 0.0646222 -0.0207131 -0.0593326 0.0199658 -0.131058 -0.163466 0.354826 0.102794 -0.0281566 0.36984 0.0631825 -0.0377248 0.0238776 0.0479025 0.172283 -0.0460039 0.0815106 0.164006 -0.212367 0.186477 0.131318 -0.0977539 0.0266464 0.126815 -0.0742868 0.13443 0.0139998 0.0154323 0.169862 0.0800845 -0.0904758 0.0535285 -0.147441 -0.0924896 -0.039309 0.0731299 0.143284 0.105976 0.0707148 0.0920636 0.183167 -0.257872 -0.229995 -0.208331 -0.105197 -0.186251 0.184522 0.0960456 0.153944 0.0589716 -0.0934211 0.232931 -0.132002 -0.230885 0.00248552 -0.0768448 -0.00338448 0.174433 0.0532294 -0.108218 -0.334776 0.0373632 -0.299704 -0.142617 -0.229512 -0.224665 -0.154999 0.123724 0.244594 -0.05189 0.013571 0.103937 0.223882 0.0163459 0.0715408 0.0303978 0.0710567 -0.239194 0.0906598 0.072774 0.14197 -0.112956 0.0366095 0.0139087 0.154665 0.0209428 0.0542471 0.249082 -0.171614 -0.229394 -0.251297 -0.0783707 -0.0302073 -0.0509838 -0.183075 0.0695332 0.14658 -0.250138 -0.172045 -0.278542 0.0376438 0.20147 -0.130829 -0.131604 0.0690562 -0.183635 -0.162816 -0.0520236 -0.040013 0.12126 0.079767 -0.193777 0.303706 -0.185211 -0.232745 -0.103081 0.198745 0.213871 0.195234 -0.245271 0.095038 0.16597 0.0805644 -0.114751 0.211769 -0.17976 -0.0829635 0.00166198 -0.227932 -0.00557356 0.269402 -0.0664255 0.185411 -0.0369245 0.0745459 0.359345 -0.0863264 -0.296346 0.0600887 -0.239379 0.0131508 0.0252576 0.114667 0.212881 0.0981436 -0.0442631 -0.0061493 0.0553636 0.0183167 -0.155226 -0.125533 -0.211883 -0.10074 -0.11207 0.0106917 -0.0632212 -0.275299 -0.0456309 -0.328218 0.292278 -0.038088 9.15731e-05 0.0966915 -0.276681 0.0643913 -0.0260884 0.0903863 0.159538 0.0451964 0.00249925 0.0339369 0.20716 0.0595215 0.0830291 -0.0573416 -0.273174 0.129053 -0.0891047 -0.140254 0.0987218 0.190866 -0.124048 0.0624171 0.00608197 0.110238 -0.14169 0.025147 -0.0796212 -0.367024 0.0663788 0.197126 0.0813083 -0.162095 -0.0772124 -0.0795919 -0.248268 0.049012 0.188648 0.0206185 -0.164188 -0.364256 0.132012 0.28388 -0.3213 0.127852 0.241618 0.0570512 -0.163852 0.279814 -0.0878999 0.122281 0.289809 -0.397606 0.166035 0.0920593 -0.215128 0.0593172 0.111841 -0.0901856 0.148112 -0.00791703 0.0746018 0.00650283 0.0654207 -0.289385 -0.0626985 0.0138148 -0.0725588 -0.131758 -0.0244514 0.151019 -0.0908332 0.149866 -0.298751 0.0971324 0.0161108 0.0690223 -0.0108118 0.074698 -0.091989 -0.152174 0.2003 -0.283495 -0.0241074 0.0143728 -0.192726 -0.263203 0.0813699 -0.0446616 -0.218309 0.0143987 -0.0916495 0.225306 0.0682242 -0.126171 -0.0743396 0.0448544 -0.132172 0.13387 0.00570312 -0.017022 0.0185266 0.126101 -0.067775 -0.233941 0.2441 0.0448942 -0.0574149 -0.215347 0.00838443 -0.241501 0.0264432 -0.051581 -0.0914083 0.225488 -0.0701526 0.149131 -0.10716 0.0284091 0.227678 0.0894651 0.00553342 -0.0143058 -0.215752 -0.0219297 0.293819 0.108063 -0.429372 0.0411552 -0.213318 -0.101485 -0.11645 0.0406478 0.127767 0.0757987 0.14294 0.0497152 0.0119193 0.0719897 0.0993075 -0.112087 -0.164494 -0.145572 0.216074 0.0498609 -0.0027217 0.0125418 0.0223735 0.3528 -0.0393108 -0.16852 -0.10898 -0.249851 -0.0701749 -0.0454892 0.134276 -0.109865 0.15622 -0.0592247 -0.00337683 0.146702 0.182579 -0.0205837 0.123897 0.142838 -0.127854 0.0784318 0.0274403 0.271712 -0.00537946 -0.0273058
theater -0.188258 -0.207047 0.220754 -0.193135 -0.303517 0.396217 0.023474 -0.214789 -0.0171502 0.056742 0.0763413 -0.154481 -0.281306 -0.31272 0.233162 0.0415634 -0.234714 0.169339 -0.118606 -0.090599 0.0406632 0.279604 0.0880157 0.237474 0.0257778 0.127096 0.0969004 -0.0546153 0.189407 -0.0716193 0.0672931 0.13664 0.010393 -0.186553 -0.336244 0.27719 0.0176266 0.194527 0.232398 0.006592 -0.185288 -0.0104368 -0.135289 0.309446 0.000680638 0.11926 0.0109831 0.0433549 -0.234519 0.0567315 0.216717 -0.0343996 0.0330055 0.18591 -0.0977962 -0.258602 0.24095 0.0202199 -0.0895822 -0.209125 0.0817624 0.0333713 0.309537 -0.181275 0.19956 0.260524 0.172792 -0.209889 -0.109514 -0.0188722 0.0686831 0.0483594 0.00717629 -0.0483455 -0.0159749 -0.0779158 -0.143624 -0.164952 0.0285908 0.0967125 -0.0813327 0.0314507 -0.381019 -0.205153 -0.0228379 0.0828354 7.45517e-05 0.0604389 0.185892 0.0437142 0.127408 -0.0358472 -0.11888 -0.091882 0.300727 0.166525 0.205531 0.34434 -0.00608312 -0.00776791 0.253187 0.099479 -0.12391 0.1362 -0.0975552 -0.0472886 -0.0942992 -0.151972 0.11619 -0.084613 -0.2476 0.126467 0.322495 0.211732 0.131211 0.212934 -0.0132214 0.0327739 -0.229308 -0.034519 -0.171157 0.0344072 -0.13272 0.205707 -0.146041 0.0462224 0.182588 0.0771435 -0.0831439 -0.103058 0.0284257 -0.0514006 -0.171954 -0.00506893 0.0784074 0.0401179 0.0834892 -0.209681 -0.0165515 -0.00911891 -0.0612417 -0.0602656 0.216341 -0.277302 0.00200985 -0.124737 -0.172316 -0.0739748 0.0531786 0.0276791 -0.0210999 -0.0998245 0.0503234 -0.188522 0.0505468 0.0588969 -0.217677 0.1767 0.145457 -0.0255656 0.145018 0.0136938 0.0151994 -0.0258968 0.151396 0.150542 -0.395747 0.158583 -0.0751758 0.132462 0.114755 -0.140305 0.0145685 -0.0168863 -0.0559382 0.0109561 -0.0982436 0.23844 0.158182 0.195602 -0.0470824 0.353889 -0.0474645 -0.215661 -0.0871246 -0.0595681 0.0955459 0.15103 0.148143 -0.14648 0.157268 0.0972993 0.175542 -0.169089 0.125069 -0.25809 -0.0328688 0.287856 0.071191 0.0910197 0.0117079 0.188402 0.0941276 0.0408554 -0.212312 -0.0904778 0.0897526 -0.1552 0.201298 0.135445 -0.253105 -0.0465024 -0.040415 -0.191715 -0.130826 0.0659551 0.128127 -0.0109049 -0.143271 0.0636303 -0.0625377 0.174894 0.0382052 -0.0238252 -0.271754 0.0173322 -0.0228532 0.0345022 0.0211601 0.15674 0.161152 0.215365 0.203523 0.380868 0.181621 -0.397 -0.188198 -0.0965805 -0.0895396 0.185512 0.296693 -0.172948 0.14591 0.133938 0.0604143 -0.0571132 -0.0481703 -0.223974 0.0257675 -0.0821731 -0.114212 0.227362 0.29112 -0.120273 0.137196 0.0774425 -0.218638 0.0150679 -0.0448614 -0.00628125 0.0291749 0.00878091 -0.0157952 0.0161799 -0.0336731 -0.196475 -0.0729345 -0.0771438 0.314934 0.0621295 0.0258203 -0.0504325 0.1272 0.308104 0.0931376 0.0120568 0.13522 0.124291 7.53604e-05 -0.0342925 0.211943 0.0444235 -0.200254 -0.350812 0.0105568 -0.0343278 0.0228704 -0.0580865 -0.162611 0.160438 0.257394 0.0330704 0.109302 -0.110455 -0.210942 -0.272208 0.276349 0.000772304 0.0845322 -0.118326 -0.299216 -0.142746 0.275064 -0.0705024 -0.04253 -0.228173 -0.0735618 0.11657 0.220092 0.00083434 0.050634 -0.157691 -0.199666 -0.400051 -0.00677459 -0.525155 -0.0456622 -0.1513 0.00271269 -0.195871 -0.0682161 0.303769 -0.146344 -0.0323397 0.248027 0.126296 -0.301648 0.224473 -0.176386 0.0497236 -0.0208269 0.206152 -0.2504 0.0860302 -0.017476 0.0355134 0.269129 -0.0621537 0.0716917 -0.00437787 -0.179286 0.0845403 -0.138885 0.093922 0.178328 0.0563289 -0.092837 -0.23043 -0.0939146 -0.0603696 -0.148525 -0.218724 0.0165491 -0.312458 -0.119439 0.212457 -0.175956 -0.0496795 -0.0401202 -0.191806 0.0585321 -0.00795553 0.00639262 0.137358 0.00706682 0.30541 0.0110706 0.111286 -0.070557 0.0108488 -0.110909 0.132918 -0.230716 -0.179543 0.0226515 0.341173 -0.0819694 -0.0305677 0.196489 -0.38219 -0.0819445 0.067608 0.083982 -0.00050508 0.333345 -0.294747 0.128122 -0.0646966 0.0927731 -0.066043 0.269375 0.0483219 -0.246921 -0.382915 -0.184462 0.1456 -0.107806 0.152268 0.0438597 -0.143135 0.243304 -0.141015 0.00993524 -0.0865184 0.14562 -0.0834004 0.312678 0.156067 0.086538 0.290382 0.168629 0.184569 0.298554 -0.0591886 0.00472283 -0.275029 -0.00892959 -0.0800387 0.207007 -0.227439 -0.0709674 0.156858 0.0952239 -0.105271 -0.232812 -0.0135376 0.0284729 -0.0903972 -0.122703 -0.233227 0.0174152 -0.248409 0.228321 -0.129938 -0.189095 0.0542001 -0.113072 0.0288306 0.19295 -0.102167 0.0462851 0.196483 0.162816 -0.0684655 -0.10474 0.0218509 -0.0448165 -0.152848 -0.123876 0.241147 0.301331 -0.126717 0.0394431 0.101654 0.275647 -0.0281038 0.00617571 -0.315452 -0.310946 -0.186018 -0.0166562 -0.108542 -0.190434 -0.0504496 0.254651 0.410313 0.0865319 0.0445232 -0.114889 -0.0608828 -0.133527 -0.124912 0.0270006 0.0586771 -0.0575345 -0.0341445 -0.345149 -0.040111 -0.0421394 -0.164463 -0.060307 -0.0117555 0.151249 -0.0323662 -0.466688 -0.17042 -0.0959346 0.176528 -0.24594 0.236813 -0.182908 0.314175 -0.0619298 0.0217991 -0.0800573 -0.179183 -0.124599 -0.482602 0.227044 0.101539 0.277359 0.00884205 -0.204237 -0.0638676 0.205336 0.0596095 -0.0276139 0.0042534 0.149261 -0.0105135 -0.124305 -0.000961925 0.155703 0.267669 0.222363 -0.0132388 0.108982 -0.262458 0.0194289 0.236732 -0.0470925 -0.23909 0.132718 0.0428728 -0.0774077 0.172713 0.337817 0.0435637 0.31166 -0.0564639 -0.0374866 -0.0210859 0.0107152 0.069916 0.226313 -0.035503 0.11644 -0.212605 -0.0295893 0.345219 -0.102993 0.281415 0.0593618 0.204383 0.0240014 -0.15365 -0.0529221 0.0873879 -0.307397 0.000910715 -0.0909402 -0.0596777 0.0655746 -0.081968 -0.158512 0.0694671 0.158815 -0.104067 -0.304229 -0.0239948 0.0024065 -0.0287232 -0.0477036 -0.115545 -0.21912 -0.0866613 0.201692 0.0410451 -0.0303991 -0.00898393 -0.194154 0.280858 -0.0472019 0.0832209 -0.0803037 -0.0175625 -0.0953022 -0.0346367 0.143492 0.168517 0.153411 -0.0795132 -0.206236 -0.0568639 0.0768558 0.11167 0.322846 -0.0716457 0.351302 0.0681242 0.018977 0.0765783 0.0155865 0.0453423 0.131157 -0.340932 -0.0477292 -0.192198 0.255484 0.0860765 -0.0910183 0.0628727 -0.0515858 -0.0805285 0.213468 -0.179739 0.275883 -0.216978 -0.235373 0.107398 0.255218 0.0314951 0.0726359 0.00566301 -0.289621 0.0660052 0.0450207 -0.314512 -0.0222382 -0.149121 0.0367467 -0.181035 -0.166344 -0.195805 -0.258797 -0.00152622 0.180417 -0.109484 0.0770014 0.188234 -0.0235884 -0.0235844 -0.118978 0.089048 -0.128248 0.0993794 -0.160511 -0.129429 0.160402 0.0553589 0.0492849 -0.240959 -0.151388 0.355606 -0.154009 0.0805025 -0.378818 0.305836 0.0505577 -0.122635 0.104244 0.0336845 -0.012382 0.145799 -0.0524055 -0.209243 0.0437091 0.0916514 -0.226127 0.00412017 0.0960035 0.0221259 0.160553 -0.14256 -0.144702 0.204573 -0.0809303 -0.0390323 0.246362 0.377298 -0.0678945 -0.0886124 0.23922 -0.234461 0.090416 -0.25126 0.131018 -0.197157 0.010918 -0.219894 0.134341 -0.0600094 -0.38342 0.00709274 -0.073049 -0.120882 -0.180434 0.149424 -0.0252032 0.0401527 0.282336 -0.107394 0.137149 -0.217143 -0.383691 -0.154804 -0.109154 -0.0273309 0.095278 0.0189557
number 0.120442 -0.126614 -0.2735 -0.00486741 -0.0644551 -0.0245558 0.116773 -0.124488 0.0182484 0.211814 0.0533248 0.0141361 0.00444294 -0.061737 0.0307543 0.0876922 -0.0456606 -0.121185 0.0759543 -0.0652003 0.160619 0.21913 0.109411 -0.0141009 0.0156281 0.306008 -0.131502 -0.0933222 -0.128313 -0.0417381 0.228862 0.236185 0.0368298 0.137501 -0.0349887 -0.295771 -0.0145813 -0.0458325 -0.270266 -0.270464 -0.0534706 0.0821652 -0.0277156 -0.0403115 0.175883 0.0594478 -0.131116 0.165237 -0.0366293 0.0132063 -0.124597 0.138919 -0.0807968 0.0803181 0.244067 -0.216135 0.151122 0.0535759 -0.18056 -0.0250622 0.0450935 -0.169024 0.0721016 0.0240341 0.159894 0.255931 -0.0177688 -0.155345 0.170554 0.018075 -0.070952 -0.00770523 -0.163934 0.0981532 -0.231302 -0.142214 -0.154142 -0.124758 -0.17688 0.0886995 -0.0338471 -0.0175846 -0.132389 0.00699049 0.176503 -0.22178 -0.0877565 -0.0946858 -0.00797102 0.0993747 -0.0207303 -0.222531 -0.0232103 -0.0589961 -0.0319408 -0.0347133 0.0613795 0.00902552 -0.0664142 -0.192786 -0.155534 0.179673 0.100479 0.142979 0.155344 -0.0922538 0.0733081 0.0291647 -0.0788322 0.0979376 -0.148159 0.0587919 0.0190365 0.0260352 0.0638762 -0.139497 -0.0572044 -0.103675 -0.0504456 -0.142256 -0.127054 0.00985925 -0.0534865 0.13927 0.104088 0.0286931 0.118738 0.143265 -0.0981465 0.14221 0.0457117 -0.0565065 -0.113326 0.0490235 -0.221517 0.0370266 0.0159493 -0.284203 0.178798 0.0253553 -0.148837 -0.0115329 0.095753 0.00892889 0.251866 0.0641615 -0.0797589 0.347568 -0.135559 -0.041011 0.0903665 0.0771949 0.152704 -0.0210688 0.0828998 -0.247958 -0.144075 -0.0802244 -0.0126506 -0.223916 0.0301551 -0.210118 0.165967 0.158867 -0.0564552 0.196404 0.0526968 0.163559 -0.0419999 -0.0359083 -0.0106672 0.00320527 0.136073 -0.0366168 0.150005 -0.0389393 -0.0205383 0.0747151 0.127004 -0.0301703 0.0325655 0.185357 0.209583 -0.0443865 0.0909355 -0.0348478 -0.0106903 -0.21908 -0.0908012 -0.167816 -0.0269174 0.0302768 0.0843798 0.0994121 0.135039 0.0858115 0.155236 0.135624 0.136216 0.0163525 0.017008 0.122383 0.0365316 0.0761268 0.143053 0.235484 -0.128775 0.168678 0.0300236 0.108149 0.0355379 0.146949 0.0677889 0.138595 0.155307 -0.079873 0.057914 0.189371 -0.0676117 -0.0710142 0.117631 0.0924822 0.1672 0.0402448 -0.157058 -0.00644665 0.053869 -0.0314469 -0.0542351 0.172821 0.132577 0.0146559 0.073288 -0.102053 -0.0678231 0.167562 0.0655825 0.0238077 -0.0543134 -0.161901 -0.0173108 0.110401 -0.169962 0.160527 -0.000720648 0.0700758 -0.0834467 -0.0231148 0.284407 0.215204 0.180203 0.0949405 -0.0511415 -0.0873742 0.201362 0.269561 -0.0191766 -0.0230038 -0.102907 4.63279e-05 -0.122324 -0.284595 0.0752734 0.0442645 -0.02895 0.0393699 -0.241546 0.0836938 -0.0970778 0.0238896 -0.110829 0.0133993 0.167426 0.118139 -0.00324196 0.0690169 0.0920279 0.248509 -0.222167 -0.0550385 0.0100178 0.0675426 -0.444971 0.0010571 0.0338539 0.0738742 -0.149786 -0.00346471 -0.0947838 -0.0816326 -0.00195859 -0.0319761 -0.266668 0.0335209 0.0305746 -0.016795 0.021699 -0.038954 -0.137653 0.0612381 -0.152527 0.274137 0.0788713 0.0682523 -0.173139 0.0470242 -0.301295 0.0442893 0.0540731 0.0191045 0.191025 0.191945 -0.0644435 -0.217647 -0.0290062 0.0347074 0.0152767 -0.018268 -0.36247 0.104028 0.000442891 0.0235863 0.124194 -0.108312 -0.150328 0.0546316 -0.124669 0.158734 0.0200153 0.0837172 -0.214239 0.121915 -0.101983 0.00544715 -0.181728 0.316579 -0.151121 -0.0697918 0.0962601 -0.0985423 0.0706761 -0.0603469 0.287035 -0.0584207 0.253608 0.0137776 -0.266864 0.0125704 0.00860559 -0.336174 -0.177155 -0.125788 0.0732529 0.04106 0.0516088 -0.120329 0.034198 -0.0410077 -0.00792283 0.114959 0.114758 -0.137488 0.272284 -0.0380248 0.0906375 0.0488616 0.111717 -0.172863 -0.131416 0.0520036 -0.125289 0.128994 0.191317 -0.097206 0.0751005 -0.0304223 -0.182142 0.146331 0.0361207 0.0661419 -0.0582235 0.0423869 0.0939156 -0.00087548 0.0203548 0.0603681 0.192506 -0.00712893 0.0403735 -0.353023 0.20568 -0.11181 -0.0350116 -0.294641 0.112103 0.0882491 0.0776983 0.305749 0.144377 -0.0933407 -0.147517 -0.295084 0.00765235 0.118515 -0.13948 -0.0406824 -0.0819877 -0.0168519 -0.18222 -0.065964 0.104473 -0.184775 0.096638 0.227994 -0.0642592 -0.0627241 0.0901764 -0.207394 -0.0257986 0.0649625 0.0474233 -0.0254125 -0.205531 -0.149304 -0.282083 0.0361993 0.23167 0.0975942 0.166722 -0.109877 0.121646 -0.0254673 0.0289438 -0.0761395 -0.197863 -0.129394 0.207301 0.0565554 0.0863268 0.114159 -0.0810285 -0.0692579 0.0134836 0.1074 -0.165872 0.0579479 0.0198543 -0.121918 0.0373079 -0.0523157 0.0154364 0.00688661 0.0744035 -0.110033 -0.0305631 0.318375 -0.000771991 -0.0513289 -0.414651 0.110896 -0.0802377 -0.390748 0.0622211 -0.160808 0.0117257 -0.0044836 0.0691113 0.147273 0.112298 0.0537018 -0.175472 0.02968 -0.043917 0.0351001 -0.190668 0.0197275 -0.0981699 -0.212163 -0.0870163 -0.0316263 -0.00640816 0.135332 -0.199725 -0.0348112 0.118739 0.200814 0.291677 0.0397283 0.131426 0.0371898 0.14509 0.259459 -0.032595 -0.129112 -0.026733 -0.00896747 -0.359571 0.138199 0.19089 0.0700871 0.0381435 0.011451 0.0521997 0.170206 -0.00879695 -0.168023 -0.00763316 -0.126305 -0.0827567 0.0479213 -0.123379 -0.0554393 -0.10547 -0.0867571 -0.0384554 0.0614306 -0.0854905 0.0135006 -0.168322 0.178258 -0.175396 -0.0884245 -0.239943 -0.21498 -0.0156981 -0.0283056 -0.0766367 -0.0483393 -0.082707 -0.155348 -0.141059 -0.0637012 0.0661741 0.0793479 -0.0500122 0.148363 0.0824476 0.0201806 -0.00323264 0.174118 -0.218283 -0.0662637 0.0527663 0.0563409 0.149376 0.084394 -0.0556842 -0.155706 0.0509204 0.283889 0.0887766 -0.189233 -0.0526942 -0.0845831 -0.0590974 0.278365 -0.0637999 -0.161683 -0.117863 0.20685 0.0692248 0.0630306 0.0221075 0.142858 -0.292587 0.073413 0.132274 0.237751 0.162721 0.00193308 -0.23409 0.117938 -0.0546923 0.114228 -0.0677986 0.174091 -0.169562 0.16326 0.0663832 -0.0499245 0.0592712 0.11926 0.0177173 -0.0312446 -0.138058 0.104101 0.0924747 -0.156823 -0.0982931 -0.00101698 -0.0349258 -0.149456 -0.0136722 0.0762397 0.00699032 0.0700527 0.061611 0.112674 0.0564066 -0.105523 0.175393 -0.198366 -0.00408242 0.0779141 0.178964 -0.0343143 0.151722 -0.117268 0.112449 0.0999336 0.192282 -0.143131 -0.047039 -0.0732302 -0.0609909 -0.0897968 0.171229 0.0622608 -0.0969761 0.0540694 0.130866 0.0384214 0.155757 -0.0568914 -0.0189347 0.0559972 -0.0659537 0.0420414 -0.0396096 0.079643 -0.143492 0.152667 -0.00696151 0.0669875 0.00237326 -0.163401 -0.144431 -0.173249 -0.0982362 0.168162 -0.123144 0.171812 0.207199 0.0255938 -0.151549 -0.11429 0.0885157 0.0548722 0.0917555 -0.0735363 -0.252823 -0.108537 -0.164896 0.0370101 -0.0118728 -0.191326 0.0350486 0.0297746 -0.00217904 -0.0436591 -0.0230843 -0.0655687 0.189715 0.217117 -0.0471746 0.0159383 0.00751671 -0.0816909 0.0287739 -0.0751216 0.319473 0.0512562 0.107953 -0.0367245 -0.146931 0.0843334 -0.125357 -0.0569167 0.0118639 -0.189376 0.117204 0.00838696 0.00854119 -0.215857 0.00240721 -0.0387229 0.106507 0.00462091 -0.0279265 -0.0311752 0.0211079 -0.130781 -0.350948 -0.135106 0.00232418 -0.0842517 -0.104937 0.0014608 -0.28851 0.00916024
