437 700
president 0.100588 0.308012 -0.191742 0.147581 -0.171659 -0.0177867 -0.181654 -0.294252 0.135574 -0.145666 -0.044024 -0.104718 0.0548882 0.201779 -0.113868 0.18968 0.233852 -0.0524912 -0.105471 0.122132 0.378099 -0.116343 -0.224388 -0.125292 0.123381 0.0937846 -0.171647 -0.0259035 -0.0603494 0.277267 0.1254 0.0963393 0.0344058 -0.222214 0.107979 0.293452 -0.140363 0.126072 0.0997464 0.0617188 -0.106369 -0.0235986 0.123137 -0.100233 0.18972 -0.142783 0.278201 -0.0223127 0.140455 0.0982 -0.131328 -0.261869 0.203568 -0.0626005 -0.0274052 0.095141 0.15611 -0.0789859 -0.0278413 0.0137146 -0.141281 0.00714367 -0.236575 0.185358 -0.00148341 0.012812 0.203086 -0.074312 0.250238 -0.0108562 -0.0122016 -0.115263 0.163044 0.0247686 -0.033103 0.0226471 0.206309 -0.0342147 -0.116151 -0.115838 -0.213103 -0.174799 0.190956 -0.0529592 -0.141568 -0.00107288 -0.0791212 -0.0461484 -0.235908 -0.0467709 0.0754691 -0.0283558 0.0566865 -0.215494 -0.0584664 0.0590756 0.156317 -0.168006 0.0759309 0.0138468 0.351962 0.226229 0.0397035 -0.0372223 -0.279331 0.0761553 -0.0198572 0.0108172 0.000793772 -0.202827 -0.210765 0.247092 0.0176467 0.255218 0.128468 -0.236182 0.0573169 -0.0096736 0.0493377 -0.0401489 0.0796211 0.212123 -0.0163875 -0.0505653 0.11748 -0.00170724 -0.0924492 -0.23213 0.192713 -0.0324267 0.0718763 0.235138 0.136854 0.0314352 -0.0728397 -0.12166 -0.203093 -0.158266 -0.130726 -0.0934679 0.0685528 0.124584 -0.0695158 0.108349 -0.0845175 -0.131689 -0.116383 0.063891 0.14489 0.0281465 -0.279556 0.263005 0.186942 -0.0296613 0.278993 -0.176004 0.133194 0.135158 0.360152 0.0959625 -0.0235069 0.0998527 -0.136481 -0.00203441 -0.187206 0.10506 0.0916703 0.226533 0.34745 0.00217534 -0.269013 -0.0192789 0.11108 -0.0590768 0.0448619 -0.25478 0.0986345 0.143964 -0.14118 -0.0939528 0.0807407 -0.154685 -0.0601119 0.123393 0.0445393 0.152399 -0.0289802 0.12555 0.129517 -0.232874 0.114407 -0.161086 -0.00331816 0.0522551 0.09082 0.135702 0.241796 -0.0296482 0.221606 -0.109086 0.243531 -0.165902 0.00102795 -0.0763521 0.246234 0.114463 0.013943 0.184977 -0.225441 0.14956 -0.0697361 -0.0448225 0.159033 0.108109 0.142681 0.0881575 -0.124311 0.0980004 -0.0898812 0.142398 0.0852213 0.269235 0.119259 -0.00915325 0.111997 -0.0271262 -0.0859116 0.000782626 0.263757 0.0917441 0.196227 -0.0263503 0.0712795 -0.0113626 -0.176306 -0.00612744 -0.0567891 -0.103645 0.00469363 0.168496 0.0883773 -0.167679 0.120907 -0.0705945 0.00654776 -0.0739985 -0.137025 -0.186391 0.114896 -0.136983 0.0271196 -0.0139696 -0.132426 0.0273621 -0.0798735 0.0464582 0.00283244 -0.232936 -0.0903561 0.227096 0.14632 -0.0440513 -0.169717 -0.276768 0.292543 -0.151271 -0.166258 0.266926 -0.287906 -0.081508 0.125463 -0.0235103 0.0157055 -0.345734 0.246028 -0.336406 0.178879 0.148255 -0.148562 -0.00828613 0.100337 -0.191048 -0.146146 0.0056927 -0.113534 0.218772 -0.186591 -0.166607 -0.200084 0.101348 -0.0487484 -0.11233 0.153945 0.249449 -0.0826044 -0.0886679 -0.0452313 0.00988547 -0.103445 0.165042 0.158659 0.316356 0.303907 0.107535 -0.0330356 0.0380856 0.118486 0.16792 -0.158944 0.256746 0.0633424 -0.164728 0.150229 -0.0240798 0.0842059 -0.120127 -0.0179165 0.0707004 0.151026 -0.0383766 0.0225142 -0.0522423 -0.361634 -0.0215627 -0.326573 0.171059 -0.0515176 0.205235 0.170075 -0.0527955 -0.0117501 -0.0165157 0.0808211 0.227596 -0.0552612 0.206935 0.275835 0.112727 0.00133156 0.297456 0.0217562 0.0243383 0.0318246 0.0470691 -0.0511963 0.0402429 0.20191 0.000257402 0.102118 0.0743062 -0.233675 0.0428965 -0.0451757 0.0808344 -0.0401416 -0.00994678 -0.211068 0.10185 0.0555762 0.115543 -0.0145581 -0.248155 -0.0325013 -0.286998 -0.00293535 0.309089 0.0235328 -0.09672 0.0975342 0.151791 0.284629 0.232216 0.0336629 -0.0842485 0.00332188 0.3705 -0.0897771 -0.226817 0.295167 -0.0526639 0.231501 0.175412 0.0286033 0.224378 0.109326 0.215684 -0.152305 -0.0966407 -0.230646 -0.0834876 0.0388566 -0.0233096 -0.0787989 -0.378772 0.0410263 0.173944 0.0309748 0.0303251 0.399387 -0.0733125 -0.0497964 -0.106865 0.150172 -0.0864979 -0.162789 -0.215964 -0.262358 -0.0342766 -0.184406 0.0434711 -0.0574201 -0.0226063 -0.169236 -0.00729601 -0.132046 -0.169109 -0.15967 -0.00836685 -0.0427798 0.0817979 -0.114142 0.106358 -0.0546809 -0.16047 -0.0396819 0.152824 0.153801 -0.0718244 -0.0769058 -0.140992 -0.0534444 -0.13362 0.119911 0.165933 0.127798 -0.0226162 -0.0249555 -0.210062 -0.1056 -0.124666 -0.015379 -0.12401 0.101693 -0.169941 -0.0499889 -0.182403 -0.0356624 0.0620253 -0.0735118 0.026835 -0.0133493 -0.249923 0.124219 0.00337198 0.233035 -0.061879 -0.0182108 -0.0368408 -0.101496 0.0335285 -0.121295 -0.363951 -0.116467 0.0144616 0.0850306 -0.0440067 0.192629 0.0872043 0.215691 -0.0118337 0.134487 -0.287105 0.196571 0.0144751 0.0247024 -0.178637 0.113661 0.00870305 -0.231227 -0.0565069 -0.0380793 0.0541044 0.0115657 0.131711 -0.192621 -0.164879 0.124688 -0.238512 0.165136 0.0661093 -0.0224929 -0.00307576 -0.155311 0.158138 0.11908 -0.0472038 -0.10006 -0.296494 0.156206 -0.101971 0.261451 -0.0184538 -0.1476 -0.0215041 -0.0880243 -0.0848718 -0.0528784 -0.023883 -0.0829031 0.238454 -0.132348 0.00116748 -0.152498 -0.44841 0.197909 0.129919 -0.37172 -0.0914177 -0.227763 0.19171 0.119933 -0.0804871 0.0256829 0.000915097 -0.262004 0.194179 0.10678 -0.0595712 -0.183571 0.00837605 -0.266579 -0.229132 -0.204891 0.108583 0.0815356 -0.155759 -0.0639097 -0.10724 0.0046313 -0.100137 0.106097 0.119093 0.03495 0.0634682 -0.217 -0.134846 -0.292149 0.0140135 -0.209061 -0.050557 0.183001 0.158579 0.132791 0.168409 -0.0332293 0.0689126 0.174579 0.0877515 0.194267 -0.241071 -0.100648 -0.183997 0.177727 -0.00875447 0.222837 -0.0803689 -0.0110898 0.0539907 0.00150478 0.0597227 -0.0462713 -0.268597 -0.321331 0.304583 -0.158091 0.149918 0.0478106 0.218642 -0.311845 0.092013 0.256074 0.0442105 -0.0382407 0.120503 -0.0625043 0.228304 -0.128449 -0.289652 0.152127 0.174852 -0.144226 0.144048 -0.114139 -0.0320831 0.00942913 -0.175368 -0.0547887 0.0231678 -0.000646124 0.124192 -0.283617 -0.167997 -0.140943 0.0492584 -0.278352 0.0686633 0.171369 -0.159866 0.0362868 -0.156839 0.236691 0.0221001 -0.022096 0.0793186 0.00307465 -0.178512 0.0176679 -0.0247036 -0.0740717 0.156886 0.154925 -0.0542135 -0.290479 -0.045227 -0.149691 0.151365 0.099858 0.180247 -0.0225576 -0.0170768 -0.0246322 -0.0656071 0.316775 0.00469474 0.102224 -0.136998 -0.0683843 -0.0315796 0.137033 -0.036012 0.0604709 0.0345778 -0.0203305 0.212852 -0.129468 0.159689 -0.104268 -0.180777 -0.213962 0.0960707 -0.141619 0.0697561 0.00444126 -0.026198 0.414019 -0.0648841 0.115804 0.167139 -0.069901 -0.275708 0.0109249 0.0661257 -0.272085 -0.123378 -0.0676862 0.0203486 -0.0481646 0.0386529 0.00216274 -0.0215693 -0.0346365 -0.0458942 -0.0145164 0.0147984 0.253588 0.0610147 -0.176662 -0.0948365 0.0570352 0.0535921 -0.20325 0.0393386 0.0704601 0.0275467 0.113569 0.0550053 0.00687036 -0.0988457 0.0729071 0.097407 0.0491332 -0.0931913 0.00721593 0.17148 -0.228081 0.352975 0.0113321 -0.0450566 0.155355 -0.0944567
monk 0.178992 0.0036268 -0.26252 -0.036349 -0.0584386 -0.0469316 0.0881705 0.389651 0.0879051 0.0700571 0.139161 -0.312593 -0.0461798 0.156052 0.251188 -0.0533107 0.270358 -0.111046 0.0393269 0.154369 -0.144371 0.0792535 -0.227023 0.0867515 0.234082 0.0011258 0.08482 -0.0891342 -0.261248 0.248035 0.0988213 0.106501 -0.0112897 -0.0242511 -0.150016 0.025719 -0.142858 0.104756 -0.295735 0.263784 0.0214973 -0.0362065 -0.014509 -0.180457 0.235403 0.0442678 -0.109964 0.129721 -0.150249 -0.0639712 -0.255864 0.120837 0.0769963 -0.0803996 0.0875951 -0.0546631 -0.0681437 0.310209 0.101032 0.00671926 -0.158474 -0.0808211 -0.126268 0.0709315 -0.247521 -0.0695733 0.00696584 -0.126641 0.0691266 0.0181628 0.154615 -0.0945521 -0.167307 -0.0788236 0.254318 0.228771 0.2073 0.105696 0.0605432 0.178479 -0.147431 0.173313 0.257354 0.054116 0.0942807 0.0400726 0.0436664 -0.0969306 0.0470197 -0.0884844 -0.038458 -0.101425 -0.165003 -0.0516245 0.114175 0.230952 -0.273092 -0.0222198 0.0392895 -0.201061 -0.180177 -0.0486722 -0.00194209 0.212983 -0.0866171 -0.169007 0.346646 -0.298182 0.0722055 0.0960716 0.227836 -0.0725525 0.34282 0.153882 -0.197787 0.199391 -0.184604 0.00832386 0.208698 -0.168907 -0.1206 0.057277 -0.142943 -0.242229 -0.0804772 -0.148409 -0.315601 -0.121013 0.0525114 -0.0659765 -0.0312615 -0.0843189 0.0875313 0.0242602 0.0432382 0.327949 -0.289229 -0.0395016 0.129481 -0.426288 -0.0729221 0.0835349 -0.0600336 -0.288649 -0.0390114 0.147071 0.00281305 -0.194307 -0.0334578 -0.334606 0.30486 0.272041 -0.283548 0.223387 0.368097 -0.0328145 0.184884 0.0278041 0.0457172 -0.0237661 0.0258714 0.0238391 -0.219683 0.0188305 -0.366947 0.049773 -0.209919 0.170633 0.15177 0.117058 0.021604 0.00012635 -0.133655 0.0805179 0.141106 -0.186946 0.0784992 0.012941 -0.184519 -0.166073 0.369093 0.110603 0.213256 -0.157459 0.0257335 -0.118175 0.142155 -0.035509 -0.0438754 -0.0909143 -0.0595199 -0.0342562 0.0516709 -0.0592209 0.0648375 0.179502 -0.101904 0.0625848 0.112121 0.114236 0.0836904 -0.126912 -0.0550951 -0.22027 0.0791935 0.153372 0.164926 -0.0657974 -0.165792 -0.0588388 0.163177 0.100301 0.15877 0.16704 -0.0165807 -0.192077 0.221611 0.133568 -0.217537 0.0167064 0.196276 0.0835632 0.040984 -0.208056 0.0568622 -0.114409 0.06688 -0.0172513 0.146695 0.0533614 0.0997548 0.230893 -0.0165761 0.177752 -0.2848 -0.329389 0.212322 -0.185763 0.273039 -0.134359 0.111894 -0.108601 -0.0646148 0.0310646 -0.100906 0.0559177 0.263494 0.0466272 0.0474288 -0.0526516 0.0511504 -0.0366742 -0.0164616 -0.204383 0.0637415 0.148564 0.0257225 0.138283 0.435118 0.164661 0.107259 -0.648571 -0.0661926 -0.155395 -0.149822 0.306544 0.132669 -0.114559 0.0948096 -0.247471 -0.148267 0.100497 0.0154571 0.398861 0.00642675 0.266185 -0.0257263 0.0648713 0.0260965 0.0108221 0.06615 0.187237 -0.0902927 -0.297443 -0.290869 0.0566363 -0.209257 0.0989292 -0.140297 -0.221054 7.98339e-05 -0.0496366 -0.243947 0.264729 0.0370104 0.0310676 -0.0179412 0.330039 0.188985 0.0275536 -0.0628193 0.473462 -0.0184224 -0.05087 -0.0751293 0.06055 0.104118 -0.112132 0.340405 0.131237 -0.366323 -0.142227 -0.0381442 -0.136885 0.0997136 -0.131585 -0.103425 -0.0391097 0.203458 -0.0339064 0.0425411 0.146015 0.00156765 0.00327894 -0.132918 -0.11396 0.0258724 -0.0816803 -0.0254904 -0.116929 0.011031 0.0533189 0.179382 0.203791 -0.126557 -0.0778971 0.198762 -0.172931 0.0214114 0.0767001 0.101427 -0.238165 0.0961648 0.159298 0.0325732 -0.0189509 -0.0134658 -0.163446 0.0842113 0.231071 0.0512206 -0.0971891 0.0121074 -0.0139688 0.0468397 -0.137113 -0.128474 -0.0631676 0.0920582 0.0495884 0.175121 -0.246997 0.0399684 0.105208 -0.133089 0.32834 0.386968 0.274973 0.0432371 0.395293 0.024608 0.229958 0.422169 0.00989999 0.335278 -0.0902023 0.0477 0.116069 0.180855 -0.119022 -0.158563 -0.0468653 0.0487859 -0.292971 0.160013 -0.172274 0.175623 0.120719 0.250554 0.152468 0.182781 -0.190024 -0.180783 0.149454 -0.031181 -0.124557 -0.235997 -0.0219628 0.169821 0.0303057 0.052475 -0.0715386 0.101088 -0.0330164 -0.134898 -0.0589211 -0.00114226 0.00297601 -0.0693075 0.3189 0.139292 -0.0243984 0.266172 -0.0759535 -0.00447255 0.120656 0.193131 0.211434 0.198715 0.102189 0.162198 0.145051 -0.0843367 0.108148 0.0337732 0.0114698 -0.0778174 -0.0502564 -0.0591405 -0.232417 -0.186326 0.0984302 0.0457785 0.166613 -0.173272 -0.106364 0.0767099 0.0972449 -0.0914484 -0.0942812 -0.277688 0.173681 0.302746 -0.331894 0.136896 -0.013437 0.11574 -0.133463 0.104236 0.263792 0.0916257 0.130243 0.0366759 0.0442273 0.140256 0.133775 0.262702 0.270659 -0.116488 0.195175 0.0157596 -0.0653815 -0.0563315 -0.0829451 0.135365 -0.0152574 -0.00576921 -0.0605028 -0.225728 0.208823 -0.111758 -0.214172 0.459198 0.245831 0.139144 -0.203189 -0.161387 -0.00751957 0.183613 0.0343866 0.0217431 0.0116403 -0.132374 0.0573881 -0.0942874 -0.00423405 0.199636 -0.285992 0.162733 0.0438316 -0.176962 -0.0687069 0.0160389 -0.0551001 2.03392e-05 -0.0464161 -0.166255 -0.163545 0.339228 0.0953579 -0.0703897 -0.0805937 -0.00238574 0.0668035 -0.0783013 -0.0440222 -0.0787478 0.0262718 0.0987587 0.0510911 -0.343232 -0.0272665 -0.229747 0.175158 -0.195862 0.15367 -0.339497 -0.16129 -0.0695822 0.030789 -0.245832 -0.146676 -0.0327266 -0.115575 0.144007 0.0139301 0.110021 0.219809 -0.233513 -0.0579759 0.00638441 0.249285 0.194617 0.0182855 -0.114885 -0.421708 0.00129293 0.0365904 0.20566 -0.00669997 0.388997 0.202809 0.0667894 -0.281121 0.140622 0.00802903 0.22602 -0.0495267 -0.164562 0.136283 -0.113788 -0.00829594 0.341985 0.124656 -0.262466 -0.142471 -0.177835 -0.0104831 -0.118542 -0.200444 0.174503 0.18074 -0.0444269 0.00145749 -0.172715 0.107138 0.0365879 -0.0296036 -0.307153 -0.0611552 -0.321251 -0.168922 -0.0861589 -0.0272898 0.140298 -0.0833912 0.0831406 -0.10372 -0.0802279 -0.0865279 0.0102281 -0.127256 -0.16217 0.196073 0.0915209 -0.267475 0.0980531 0.11976 0.289112 0.063786 -0.0831309 0.0266122 0.167545 -0.138217 -0.0989151 -0.258961 -0.0937441 0.0485903 -0.291852 0.0211606 0.0726535 0.169795 -0.350075 0.068722 0.29814 -0.0831148 -0.0465708 -0.0541602 -0.169156 -0.111791 0.221421 0.035589 0.0105031 -0.0889223 0.0376027 0.239427 -0.126238 0.210373 0.213927 -0.124168 0.123401 -0.141238 -0.0736353 -0.121977 0.0769787 -0.15837 -0.246853 0.0411322 0.0388673 -0.216882 -0.230594 0.0215878 0.129032 -0.14186 0.0457989 -0.0763549 -0.127694 -0.235042 0.196594 0.0617108 -0.111677 0.0713087 -0.0494551 0.0120719 0.0717586 0.0359546 0.134824 -0.172665 0.143708 -0.108829 0.0192443 0.13282 -0.208956 -0.203319 -0.0779007 0.267097 -0.12928 -0.168503 -0.0294679 -0.201929 0.128392 -0.132775 0.122338 0.148777 0.0347943 0.146628 -0.0699278 -0.128855 0.00846041 0.0499242 -0.0913706 0.0570869 0.0454574 -0.108536 0.0559138 -0.0285892 -0.0813782 -0.17701 0.0422799 -0.194962 -0.2268 0.0650835 -0.215892 -0.154925 0.136457 0.224661 -0.264811 -0.00894108 -0.0998485 -0.055083 0.139591 -0.0440483 -0.0992088 -0.0123847 0.0140907 0.0647135 -0.0883671 0.235866 0.00824322 -0.200093
chance -0.0908612 0.157253 -0.0631131 0.0244087 0.151714 -0.11537 -0.0603752 0.125426 0.157968 -0.140374 0.0958309 0.194431 0.1028 0.225742 -0.13655 -0.0120268 0.227521 0.130769 -0.0959088 0.0175074 0.0775141 0.0314961 0.0980993 0.0218257 -0.186269 -0.00691641 -0.0472406 0.0610655 -0.0617684 0.00504287 -0.00947028 0.103298 0.032969 -0.0897425 -0.0240746 -0.0369162 0.0457645 0.163732 -0.162118 0.0754516 0.0533899 0.00441286 0.0868658 0.199227 0.052981 -0.0686805 -0.0975792 -0.167034 0.0807136 0.0141823 -0.0288959 0.00534082 0.0849323 -0.0938837 0.162859 -0.00296173 0.0378641 0.0751889 -0.0768564 0.0400549 0.242835 0.151053 0.00735254 0.159886 0.0225078 0.0174934 -0.0188214 -0.0176331 -0.107193 -0.0937887 0.0803436 -0.018824 0.0366811 -0.0929685 -0.120056 -0.00581052 0.132796 0.0944706 0.012759 0.220899 -0.0334073 -0.390515 -0.149392 -0.0567372 -0.0073133 0.162685 0.0178856 0.00352256 0.0924705 -0.115069 -0.0995082 0.0444111 -0.0429112 -0.0153382 0.229362 0.203971 0.0181834 0.249244 -0.186036 0.0148306 -0.0705162 0.203647 0.0492496 0.0879576 -0.250935 0.108723 -0.146506 -0.00808583 -0.0360486 0.0930669 0.081555 -0.115829 0.0296086 -0.163718 0.0266413 -0.00108188 -0.0907793 0.191261 -0.0265653 0.101545 -0.0430683 0.0812879 0.180056 0.281941 0.0292774 -0.192001 -0.0195247 -0.0697643 0.155239 -0.0531168 0.0428116 -0.0508835 0.0846429 -0.14212 -0.30022 0.0652536 0.0223876 -0.1423 -0.0601188 0.00911553 0.109847 0.0528655 0.121843 -0.0176035 0.053297 0.0397297 -0.282155 -0.0572707 0.0738925 0.16938 -0.0807884 0.0803775 -0.172316 0.063634 -0.0231996 -0.0013253 -0.189683 0.0969039 -0.166787 -0.0360501 0.101526 0.148893 0.086898 -0.0382031 -0.137289 -0.150905 -0.187982 -0.0490534 0.0996383 0.0103298 -0.210076 0.036861 -0.120864 0.0444088 -0.117792 -0.0889511 -0.025035 0.0216877 0.0390656 -0.0590093 -0.0885985 0.155298 0.126793 -0.247564 -0.0566121 0.16383 0.0611298 -0.0771245 -0.0852158 0.143207 0.0525072 -0.0288226 -0.11527 0.130009 0.0407625 0.0690305 0.16394 0.0730329 0.0826496 0.290789 0.3479 0.00503587 -0.243757 0.151728 -0.0994626 -0.139435 0.223723 0.0596344 0.0415273 0.104336 -0.0406555 0.0181775 0.0742359 -0.253745 -0.0672505 -0.0703383 0.297792 -0.0114652 -0.278046 0.0224629 -0.179804 -0.0530426 -0.209273 -0.0932723 -0.0133066 -0.215993 -0.0509393 -0.102728 0.00545506 0.0709671 -0.216412 0.0413193 0.10552 0.232691 -0.0211095 -0.258671 -0.0443163 -0.126261 -0.03174 0.122929 -0.0638602 -0.219816 -0.161217 0.128444 0.154345 -0.117474 0.306411 -0.240682 -0.0846564 -0.0141107 0.0286618 0.0816125 0.0519474 -0.0995423 -0.163104 -0.00042519 0.172047 -0.114609 -0.040173 0.115531 -0.0913592 -0.187904 -0.0301836 -0.0146244 0.030205 0.0287914 0.0660475 -0.215576 0.158986 -0.113309 0.0141408 0.273429 0.210182 0.0155587 -0.0216785 -0.0107537 -0.104288 0.201957 0.00187031 0.0790376 -0.0925378 0.133041 -0.0227435 -0.365013 0.062783 -0.0809377 -0.300164 -0.00781583 0.197802 -0.0674967 -0.0690541 -0.0519515 0.00475607 0.0882107 0.0234075 0.0178158 0.0369584 0.0449972 0.0220491 -0.0961401 -0.0396239 0.101478 0.0468199 -0.00163617 -0.132852 -0.0466593 0.112814 0.106628 0.0366605 -0.0538487 0.18619 0.00942722 -0.022047 0.0315671 0.0581346 -0.0487263 -0.0846793 0.219203 0.013688 -0.0276464 -0.0608078 -0.113638 -0.153518 0.061473 -0.0205406 0.153441 0.0944702 0.147656 0.0143991 0.0451251 0.0100324 0.0101545 0.103206 -0.00709751 -0.0363684 -0.218471 0.118743 -0.45881 0.0983583 -0.0996737 0.158036 -0.291666 0.0054154 0.0853109 0.0977729 0.0126721 0.0287141 -0.265848 0.105052 -0.133771 0.127351 0.0324798 -0.0548816 0.254881 0.11605 -0.10657 0.231196 -0.11847 -0.0719311 0.16598 -0.0335789 0.0719748 -0.0962279 0.00922132 0.0769206 0.144613 -0.00364705 0.149474 0.161172 -0.0678241 -0.0654301 0.314741 -0.0423621 -0.0874888 -0.26867 0.0802301 -0.0654061 0.0548208 0.258937 -0.177185 -0.0500614 0.0244447 -0.227332 -0.04576 -0.0465474 0.056609 -0.0299217 -0.115601 -0.0808887 0.052971 0.173497 0.174847 -0.0789956 -0.18501 -0.0407411 0.0321476 0.230585 -0.0583076 -0.0193861 0.12887 -0.193652 -0.179241 0.0816862 -0.198159 0.0149348 -0.00560581 0.0812033 -0.166441 -0.186466 -0.0871123 -0.0731654 -0.0913762 0.0690044 -0.0726778 -0.0896537 0.277602 0.0107785 0.0227356 0.046329 -0.0976074 0.036548 -0.097795 -0.0459145 -0.282581 -0.0226566 -0.0136773 0.0339589 0.00125867 -0.0984159 0.128168 -0.113249 0.227832 -0.146394 0.198759 -0.106579 -0.245424 0.100232 0.240521 0.0731364 0.00365193 0.165435 0.0318262 0.222557 0.181966 -0.0739456 -9.8176e-05 0.0505284 0.0350632 -0.0727085 0.134014 0.154748 0.174642 0.0128381 -0.0494771 0.187869 0.0604619 0.0839119 0.0732685 0.00244936 -0.21442 -0.250404 -0.153782 -0.143731 -0.110116 0.223057 -0.179856 0.0306473 -0.134063 -0.0760413 -0.139834 -0.143589 -0.075963 0.192466 -0.1582 -0.253562 -0.0858867 -0.000625901 -0.0803486 -0.0540923 0.0472136 -0.183876 0.241651 -0.143545 0.122738 -0.00886442 -0.015815 0.152809 -0.0820783 -0.0621997 0.193885 -0.207119 -0.0762608 -0.0849133 0.0808232 -0.0722396 -0.0886402 -0.107221 0.105499 0.119868 0.0206321 0.10498 0.0964006 0.0222671 0.296287 -0.0355135 -0.160627 0.0833175 0.0768661 -0.242051 0.0850718 -0.00734999 0.051301 -0.0137468 -0.0731013 -0.0412257 0.134585 -0.179254 -0.121059 0.0992334 0.013457 -0.0196746 -0.150765 0.167663 -0.090207 0.156396 0.0657505 -0.0719243 0.00107182 -0.0562988 -0.0315218 0.0192214 0.00405449 -0.18178 0.0419431 0.114826 0.025375 0.125611 -0.123035 0.18371 -0.0263958 0.183322 -0.0779714 -0.220091 0.0731063 0.0287577 0.100177 -0.133686 -0.0735851 -0.13736 -0.0599914 -0.0350407 -0.0713065 0.152936 0.0237886 -0.186468 -0.0498822 -0.0282016 -0.0381563 -0.208139 -0.0100796 -0.142589 0.0855976 -0.20912 0.00495441 -0.0851689 0.0273109 -0.304783 -0.0641337 0.0378522 -0.203629 -0.0410252 0.205954 -0.202226 0.314818 0.067175 -0.0467974 0.111945 0.178134 -0.145891 0.0486081 -0.00259237 -0.255101 -0.0613179 -0.14492 -0.0843667 0.0348219 -0.164632 -0.183874 0.100487 0.0716606 -0.0157384 -0.0946814 -0.136878 0.0684111 0.227526 -0.146671 -0.0793564 0.0384488 0.142558 0.0343996 -0.273774 -0.0214256 -0.0818732 -0.00576011 0.0539753 -0.0174563 0.27721 -0.0503372 0.245919 -0.176543 -0.0323683 0.0842963 -0.0879704 0.0658913 -0.115295 0.161041 -0.0830058 0.0818414 -0.244266 -0.233466 0.0892379 -0.169594 0.187224 -0.0127674 -0.111076 0.0242652 -0.0158274 0.0386473 0.0144568 -0.00630568 -0.0792478 0.0283672 0.129031 0.0303417 -0.0426345 -0.0458102 -0.0798766 0.00834157 -0.0429872 -0.0165471 -0.0381343 -0.0561926 9.73519e-05 -0.124829 -0.124354 0.432848 0.0575445 -0.250345 0.0100077 -0.218427 -0.0580633 0.181356 -0.115485 0.120876 -0.105848 0.0311799 0.0783368 0.0156578 -0.108218 0.0914826 -0.00624808 -0.144746 0.197561 0.0773756 -0.160885 -0.084728 -0.0793179 -0.0453501 0.0488733 0.0699848 -0.0171009 0.0766806 0.134411 -0.162103 -0.00611102 -0.14666 -0.135314 -0.00303457 0.162791 0.1133 -0.323031 -0.167023 -0.0341584 0.0485017 0.175018 0.410849 0.104443 0.0455163 -0.0130439 0.0295958 -0.233746 0.196629 -0.0858901 0.0567273 -0.0547107 -0.0088038 -0.0373388 0.169968 -0.150095 -0.111998
party 0.0400242 0.23771 -0.338153 -0.218452 0.0960148 0.253501 0.152394 0.181195 0.409536 -0.163942 -0.00832345 -0.155076 -0.0978999 -0.0135169 -0.165582 -0.193024 -0.0876232 -0.137047 -0.347848 -0.0551122 0.22706 -0.254721 -0.135186 0.132139 -0.00353237 -0.0147059 -0.174153 0.0106306 0.0526073 -0.169721 0.0393846 0.148632 -0.0461586 -0.0581758 -0.187622 -0.151062 -0.175543 0.386887 0.0594122 0.12202 -0.0426805 -0.158839 0.0303017 -0.132991 0.0510378 0.0814791 0.0636453 0.218368 -0.0792474 0.0258327 -0.118991 -0.00225573 -0.128787 -0.1646 0.0808618 -0.145255 -0.015785 -0.239702 0.149796 0.205435 -0.130169 0.0890451 -0.193957 0.0602325 -0.153752 -0.104526 0.0584255 0.179901 0.259431 -0.108039 -0.0436485 0.216541 0.117997 0.0734153 0.158201 -0.0830286 0.01052 -0.133207 -0.0546435 0.142061 -0.00573824 -0.120482 0.155893 0.0418578 -0.0292182 0.174896 0.185833 0.0225565 0.186824 0.138846 -0.0231018 -0.172397 -0.00366635 -0.117968 0.196556 0.428119 0.0490784 -0.0574867 -0.0365965 0.139522 -0.0645867 -0.0122151 0.114374 0.0855476 -0.0959949 -0.0899452 0.25286 0.0978858 0.056576 -0.454173 -0.167139 -0.000484283 0.0343814 0.364896 -0.0586027 -0.0853222 0.0274538 0.253527 -0.177503 -0.177452 -0.0717356 -0.182691 0.203076 -0.0585512 -0.28339 -0.207916 -0.0407696 -0.325163 0.100199 -0.0453171 -0.0222227 0.203578 0.300609 0.17601 0.0314167 -0.237803 -0.107302 0.15253 -0.333475 -0.154142 0.17104 0.0167112 -0.0597125 -0.155843 -0.0592812 -0.0113664 -0.0149225 0.300046 0.123874 -0.0361263 -0.00580217 0.189095 0.220379 0.145211 -0.0306244 -0.0690179 0.167189 0.207943 -0.0564844 0.0606461 0.125344 -0.139332 0.096488 -0.159453 -0.150715 0.0867853 0.235785 0.0674621 0.109569 0.0421767 -0.140031 0.197264 -0.191588 -0.356147 -0.221704 -0.237721 0.0250426 0.190345 0.0199741 0.122628 0.218957 -0.00356484 -0.118426 -0.128968 0.202474 0.052532 -0.0299079 0.0880795 -0.0151025 0.078641 -0.00275408 -0.344853 -0.0506345 -0.00435026 -0.0684444 0.160191 0.0617135 0.0520111 0.0115734 -0.0239422 0.179328 0.0558993 0.202583 0.155414 -0.0768781 0.07376 0.213898 0.0019489 0.0086957 0.28509 -0.0787577 0.159823 -0.128338 0.0431417 -0.0712898 -0.00297442 0.0876145 0.213619 0.402738 0.0398878 -0.00795258 -0.0768016 0.0644661 -0.1795 -0.072089 0.0288304 -0.184391 -0.00213942 0.28879 0.0414731 -0.0688875 -0.0831856 0.129355 -0.0266716 -0.170972 -0.0517737 -0.211067 -0.043961 -0.0607929 -0.0598473 -0.0788494 -0.132407 0.00095921 0.0392536 0.146589 -0.287696 -0.178732 0.0349629 0.0733268 0.124381 -0.0629361 -0.116903 0.0381321 -0.0475447 -0.178029 0.0282543 0.20965 0.0220921 -0.134668 -0.156333 -0.0872727 0.186481 -0.0453141 -0.0323221 -0.0122648 -0.147552 0.0730639 0.175319 0.177182 0.171122 0.166495 -0.114601 0.215177 0.0313928 0.104549 -0.231979 0.0122379 -0.0304945 0.00565943 -0.0169291 -0.0323332 -0.0612526 -0.107937 -0.0818541 -0.0302757 0.369326 -0.109636 -0.0401117 -0.121193 0.00797284 -0.0186828 0.0067741 -0.0540593 0.299498 -0.29325 -0.0464764 0.0229679 0.0555302 0.14474 0.167971 -0.201164 0.203179 0.170506 0.148391 0.0951767 -0.0407632 0.31351 0.0593113 -0.105059 0.271303 0.00440081 -0.0748514 -0.336758 -0.122617 0.0869655 -0.0505213 0.0106233 0.217113 -0.0482532 -0.105289 -0.17716 -0.0123974 -0.30495 0.0411601 -0.244314 -0.0254 -0.0379527 0.180464 0.167793 -0.11547 0.0294491 0.301409 0.145224 0.0894482 -0.0706441 -0.104841 0.307931 0.045486 -0.152135 0.0915938 -0.0386604 -0.0845977 -0.136175 0.282897 -0.0512615 0.0824288 0.0962338 -0.300693 -0.12476 -0.258198 0.012424 0.0363973 -0.106264 0.127904 0.238345 -0.048768 -0.389013 0.145814 -0.227511 -0.110332 0.239421 -0.0987443 0.0795747 -0.138554 0.0353411 0.164109 -0.391743 0.138038 -0.0252455 0.384304 0.316411 0.357715 0.00010151 -0.0889904 -0.0775593 -0.0332249 -0.111781 -0.364171 0.224989 -0.164001 -0.155487 0.183936 -0.113425 -0.0420775 0.197245 -0.0117834 -0.0937084 -0.264916 -0.0501115 -0.0416833 0.0501772 -0.224696 -0.28001 -0.302414 0.0265449 0.0692406 0.0244106 0.0815971 0.340977 -0.240222 0.086818 -0.331639 0.0281575 -0.193751 -0.147874 0.0868527 -0.00769233 0.0463115 -0.171642 -0.0443717 0.183133 -0.174407 -0.0267516 -0.0148691 0.0322211 -0.165074 0.139832 0.055742 0.122035 -0.102907 -0.0843021 -0.0203754 -0.202363 0.150658 -0.167866 0.00707053 -0.0393826 0.0187306 0.0666294 0.0994795 -0.0570967 -0.00592918 0.247654 -0.242634 -0.417872 -0.161996 0.106666 0.172841 -0.063011 -0.00149024 0.0436527 -0.0755018 -0.0179814 0.32572 -0.0767813 -0.0467261 -0.0356588 0.137279 0.048437 0.0151065 0.0148616 -0.0706612 -0.145695 -0.0513515 0.12892 -0.108828 0.118781 -0.158222 -0.190942 -0.0592008 -0.221066 -0.224806 -0.166684 0.0054331 0.206448 -0.179833 -0.0419194 0.103552 0.0200533 0.204031 0.283145 0.0689875 0.119391 -0.114897 0.0548553 0.184328 0.214082 -0.0447206 -0.00981772 -0.0757421 -0.028599 0.119855 -0.0943698 0.15555 -0.0367562 -0.19844 -0.137457 -0.110003 0.215133 -0.0352739 -0.209622 -0.0439152 -0.221312 -0.263707 -0.130661 -0.0216023 -0.0378449 -0.109721 0.104942 -0.07435 0.153238 -0.170398 0.0541254 0.00643811 -0.148851 0.0587944 -0.0271841 -0.10767 0.0882799 -0.0387581 0.0545836 0.141159 0.183115 0.0431231 -0.0715846 0.0834279 -0.279158 -0.181698 -0.0277254 0.26876 -0.00632914 0.173844 0.0789736 -0.0805905 -0.0347316 0.310355 -0.02284 0.0181118 0.171766 0.00900975 -0.28428 0.0402467 0.0365063 0.192337 -0.234896 -0.172581 0.0401494 -0.13332 0.093807 0.0901828 0.222009 -0.0975863 0.29348 0.209869 -0.0214953 0.158156 0.114568 -0.0512761 -0.153333 0.232453 -0.183602 0.0126946 0.0709905 -0.0555188 -0.241344 -0.0112981 0.17636 0.176298 0.210619 -0.0302332 -0.0999196 0.0933219 -0.0926815 -0.394362 0.0465785 -0.00979644 0.0444118 -0.103224 -0.0437608 0.0968072 -0.231288 -0.164113 -0.418659 -0.20369 0.0243317 0.0786774 -0.0666255 -0.0180519 -0.197484 -0.0547558 0.256005 0.104182 -0.0611037 0.207285 -0.0373347 -0.0353445 -0.0183018 0.0798297 0.221585 0.0970298 0.188389 -0.0181704 -0.237385 -0.0164224 0.175886 -0.148611 0.121027 0.342428 -0.118078 -0.278567 -0.176398 -0.0573736 0.0489602 0.00180586 0.0240486 -0.158916 -0.142414 0.0409843 -0.12186 -0.157626 0.050861 0.00704082 -0.0191936 -0.216312 -0.0784463 0.0280486 0.0717941 0.026755 -0.0639609 -0.255859 -0.135793 -0.0534475 -0.260172 0.132138 -0.0782842 0.0252684 -0.132238 0.0904145 -0.0611755 0.421397 0.201403 0.194726 0.10865 -0.201354 -0.170605 -0.0705792 -0.0609736 -0.0474987 0.0752186 -0.115434 0.227258 0.181771 0.00975343 0.0983129 -0.122667 0.155421 0.186817 0.142555 -0.0329 0.0726763 -0.299329 -0.173868 -0.142555 -0.194044 0.253221 -0.137342 -0.127177 0.0493846 0.0832454 0.0384203 -0.0220352 -0.0794587 -0.161842 0.00441493 -0.327757 0.174866 0.10949 -0.278724 -0.0913458 -0.178123 0.0190774 -0.138393 0.0413403 -0.286674 0.076915 0.133203 -0.035135 0.0393821 0.270867 -0.0577034 0.206555 0.189068 -0.240618 0.0878222 -0.150358 0.187995 0.0393983 0.151924 -0.0383606 0.247605 0.0251161 -0.0224008 -0.111952 0.243744 0.131495 0.110931 0.210444 -0.0293634 -0.192602 0.0967953
fuck 0.0419896 0.217523 -0.107251 0.122822 -0.0709459 0.395943 -0.0518005 0.230682 0.18254 0.144492 -0.246549 -0.00196763 0.0367446 -0.064231 0.0322139 7.00393e-05 -0.00811693 0.244501 0.127576 -0.138041 -0.0999905 0.0501832 0.085343 0.0731803 0.108514 -0.131776 0.0952773 -0.211626 0.0653998 0.0251769 -0.233565 -0.0236066 -0.173607 -0.0519213 -0.0162345 0.0213395 0.070071 0.215435 0.0252269 0.167358 0.00582626 0.024695 -0.0989843 0.0934292 0.0730989 -0.102034 0.12623 0.287487 0.0182139 -0.144417 -0.11413 -0.00380946 -0.00985693 0.0263428 0.357676 -0.0479342 0.126588 -0.0723778 -0.17649 -0.0772962 0.327219 -0.0169312 -0.000379267 -0.0982028 -0.112588 -0.043058 -0.030874 0.0505304 -0.136842 0.161198 -0.199797 -0.172812 0.336478 0.297515 -0.146768 0.0139253 0.205561 -0.230286 -0.246746 0.187948 -0.0383172 -0.0286338 0.0408257 -0.138532 -0.132213 0.172671 0.210439 -0.260133 0.0840518 -0.144737 0.156123 0.117556 -0.138127 0.00983124 -0.0434201 -0.0647662 -0.0736296 -0.135578 0.0911909 0.00491737 -0.145858 0.251443 0.161931 -0.142033 -0.197682 -0.158304 0.0191217 -0.173578 -0.224033 0.000997146 0.0260022 -0.0311899 0.0820985 -0.137845 0.518268 0.156246 -0.0151604 -0.0307239 -0.0404413 0.0200001 -0.341513 -0.0498677 0.0107683 -0.10948 -0.140269 0.0315412 0.021004 0.314552 0.306541 -0.0528218 0.226392 -0.0529989 0.0747072 0.128863 0.16583 -0.167866 -0.188711 -0.124068 -0.151859 0.00668069 -0.139989 0.0870238 0.155616 0.0459101 0.0229825 0.00246098 0.121241 -0.343584 0.118735 0.242653 -0.0683777 -0.13962 0.248889 0.18701 0.0413958 0.00462007 0.0363138 0.473934 0.285676 -0.0118196 -0.15253 -0.0987732 0.0134592 -0.236495 -0.334038 -0.0107681 0.109783 0.210328 -0.00473094 -0.12878 -0.081306 0.127342 0.17353 0.0549924 -0.137362 -0.331156 -0.0164495 0.0284681 -0.0821619 -0.0613616 -0.154524 0.151409 -0.307323 -0.0480176 0.152443 0.0778406 0.0415509 0.108317 0.0337614 -0.342538 0.145496 0.00958907 0.0428621 0.147976 0.0921559 -0.00196599 -0.155796 0.00491134 -0.0307482 0.0407243 -0.121767 -0.0759033 -0.0706479 -0.167876 0.191953 -0.0677556 0.316002 0.260703 -0.0380624 0.127402 -0.148869 -0.179523 0.195936 0.0131237 0.231352 0.0705917 0.0400373 -0.0130083 0.325278 -0.134383 -0.121103 0.206732 0.044155 -0.0595496 0.0480003 -0.136885 -0.202122 -0.105731 0.0900354 -0.193329 0.159381 0.0393318 -0.219651 0.194493 -0.0253221 -0.0498788 0.170529 -0.128822 0.078774 -0.110861 -0.0872834 0.148933 -0.216945 0.201064 -0.0457069 -0.0145731 0.194275 0.0485154 -0.32858 0.0114787 -0.0477438 -0.0228075 0.0100276 -0.141026 0.16731 -0.0835118 0.253594 0.0896959 -0.03899 -0.150443 -0.139059 -0.0891567 0.225898 -0.445452 0.284252 0.342292 -0.030252 0.15116 -0.238791 0.124545 -0.0929826 0.32366 0.127536 0.282896 -0.0771415 0.0383036 -0.206745 0.261744 0.024014 -0.0929066 -0.229971 0.426173 -0.278441 0.0507669 -0.19236 0.343482 -0.138007 -0.282298 -0.184655 -0.125539 -0.0787111 0.140469 -0.160369 0.0495139 -0.414057 0.026231 0.0272182 0.0223192 -0.00801594 0.200389 -0.045588 0.267028 0.0871112 -0.143714 -0.183831 0.0932697 -0.110733 0.0483822 -0.058763 0.307908 -0.0790015 -0.178679 -0.160022 -0.024772 -0.0101101 0.113836 -0.0335838 -0.345833 0.169312 0.246315 -0.125356 -0.083335 -0.132712 0.111211 0.371562 0.0180038 0.460781 0.390451 -0.00285433 -0.108314 0.262972 0.308772 0.374103 -0.00249872 0.0447013 0.016994 -0.0461895 -0.478745 -0.0197088 -0.00507013 -0.103797 0.121529 -0.154578 0.27659 0.15634 0.188086 -0.0585532 -0.178796 0.085667 -0.161899 -0.00911874 0.150437 -0.0393769 -0.341265 0.018501 0.0767635 -0.235059 0.019082 0.0206104 -0.0318661 -0.0386845 -0.242869 0.212421 0.0721925 0.0768505 0.339965 0.275737 0.234274 0.0773442 0.0289446 -0.259412 0.275978 -0.0322904 0.20498 -0.136044 0.18929 -0.153519 -0.259167 0.0253017 -0.316473 0.141428 -0.0206186 0.0851737 -0.0547512 0.0166777 -0.0182552 0.0677781 0.0828025 0.13487 -0.0294789 0.245461 -0.282219 0.0364353 -0.0294525 0.156545 -0.0573807 0.226425 0.183179 -0.132873 -0.151785 0.103209 -0.047818 -0.255055 0.114706 0.0960095 0.223685 0.0633719 -0.123083 -0.112903 0.141749 -0.144181 -0.0594992 -0.137283 -0.0900501 -0.146338 0.0962364 0.145195 0.00542625 0.255735 0.220205 -0.106888 -0.111192 -0.173293 -0.316216 0.0347679 -0.0943912 -0.00113478 -0.17116 0.0364589 -0.239051 -0.164885 0.284345 -0.302355 0.0385727 -0.00523794 0.00414697 0.0763093 -0.0197509 0.0418804 0.178594 -0.113325 0.184927 0.00440413 0.266103 -0.495976 -0.352311 -0.0484716 -0.120303 0.204759 -0.401964 0.0436635 -0.217176 -0.0365471 -0.100072 -0.107778 -0.189412 0.128391 -0.158859 -0.082476 0.223195 0.171588 -0.0795045 -0.153878 -0.0674293 -0.0946457 0.100228 0.0562185 -0.056254 0.10228 -0.159092 -0.00220932 0.0922828 0.0720546 0.01708 -0.0209683 -0.195352 -0.273142 0.079015 0.0330478 0.0424496 0.039184 -0.182294 -0.00824122 0.103763 0.145137 0.063332 0.223704 -0.00820472 -0.135503 -0.085481 0.105006 0.167708 -0.0788298 0.193998 -0.0212872 -0.123619 -0.0390874 0.248436 0.335938 0.0299144 0.0153593 -0.0618755 0.26157 -0.370478 -0.051035 0.211843 0.0993244 -0.235335 -0.147909 -0.185295 0.104583 0.211717 -0.0374855 -0.382675 0.0581975 -0.00641742 -0.167601 0.367444 -0.220986 0.241505 0.0469201 -0.317955 0.0973915 -0.063781 0.132789 -0.0232452 -0.0515891 -0.00523232 -0.0220336 -0.0278383 -0.0466566 -0.0630767 0.263416 0.0842037 0.0616263 -0.0180279 -0.142897 0.00487605 -0.00343049 0.116878 -0.00978698 0.213868 -0.212088 -0.118461 0.117143 0.293002 -0.0946705 0.0921233 -0.0811567 -0.229546 -0.108959 -0.0960654 0.332965 -0.234544 -0.471349 -0.163846 -0.0794145 0.0395258 0.0847485 0.038586 0.0372497 0.0042954 -0.154001 0.0474517 -0.424097 -0.0214631 -0.070566 0.202635 -0.0827083 -0.396404 -0.0990094 0.000348329 -0.498873 -0.0405567 0.0163677 0.204766 -0.0223129 0.473397 -0.204155 0.255 -0.00054465 -0.0849662 -0.247427 -0.0951008 -0.137169 -0.114564 0.142957 0.0211028 0.0918422 0.101317 -0.214037 -0.0829327 0.11699 0.0992943 -0.0146382 -0.112852 -0.204512 0.0630367 0.239212 0.0127056 -0.061236 -0.115954 0.00200967 -0.0833549 0.204846 0.308093 -0.14958 -0.295002 0.00496717 -0.223029 0.0176102 0.0689561 -0.157335 -0.272331 -0.0808811 0.048932 0.0210527 0.0258105 0.108731 -0.0695914 -0.13998 0.208314 0.0358269 -0.193644 -0.0604061 0.0718478 0.208099 0.192684 -0.137341 0.0466166 -0.272687 -0.0414433 0.0717667 0.0158186 -0.216738 -0.260176 -0.157938 0.0195922 -0.376354 -0.160663 -0.357385 -0.0234051 -0.0507708 0.0540315 0.0236257 0.245015 0.0715425 -1.8516e-05 0.0485766 -0.041441 -0.0935491 0.0572602 -0.0617842 -0.0436532 0.126612 -0.234442 -0.0843829 -0.0733057 -0.030495 -0.107216 0.320227 0.07808 0.201369 -0.00776835 -0.16036 -0.155061 0.23061 0.316687 -0.164933 0.154302 0.102308 -0.254056 0.0464383 -0.0158316 -0.00678926 0.0071259 -0.50279 -0.167389 0.146688 -0.119023 -0.320052 0.0521511 0.206826 -0.026699 -0.00465873 -0.0592838 -0.301355 0.102403 -0.180781 0.135258 -0.0791624 0.10276 -0.244433 0.0535493 0.155036 0.196655 -0.0964751 -0.10575 0.0526755 0.0815842
psychology -0.138111 -0.281078 -0.218281 -0.0517555 -0.251833 0.00922088 -0.256964 0.129292 0.22815 -0.0089445 -0.050734 -0.165013 -0.368523 0.207809 -0.0521085 -0.095449 0.119147 0.210467 0.141196 -0.220949 -0.0557261 -0.24073 -0.430471 -0.000769673 0.0905862 0.144454 -0.306576 -0.26722 -0.0822349 -0.190281 0.392876 0.226361 0.0802931 -0.110443 0.224328 -0.148539 -0.0325659 -0.188567 0.0901544 -0.199439 0.067706 0.115205 -0.126213 0.0163313 -0.0731955 -0.0849972 0.0898885 -0.270181 -0.0500272 -0.0258434 0.222716 -0.217152 -0.0824825 0.200836 0.0244338 -0.299216 0.480173 -0.0350595 0.0351692 0.0335214 -0.176176 -0.290159 -0.126008 0.201022 -0.229271 0.386435 0.0451086 0.0188338 0.103211 -0.04717 0.19909 0.198352 0.0134923 0.0941513 0.114563 0.225787 0.00675744 -0.028486 0.0459031 0.0805531 0.0127835 -0.0177503 0.0119909 -0.22085 -0.0845409 0.0295926 -0.112547 -0.0209097 0.232641 -0.00788682 0.0373139 0.101662 -0.143264 -0.0578247 0.0642545 0.151271 -0.309241 -0.103236 0.202529 0.125925 0.28307 -0.02645 -0.144879 -0.00689535 -0.375775 -0.149618 0.15076 0.00609832 -0.0926941 0.137271 0.0931791 -0.105937 0.00644435 -0.0575014 0.0658643 -0.280887 -0.0798996 -0.14895 0.260527 -0.130314 0.29314 -0.223283 -0.280446 0.120822 -0.0574433 0.101012 -0.00319216 -0.0886935 0.0333617 0.0406241 -0.161409 0.122606 -0.0982709 0.160454 -0.17998 0.0407777 -0.0755862 0.117837 -0.131321 -0.286177 0.0332921 0.0497409 0.0931538 0.140344 -0.156802 -0.136877 0.123117 0.202222 0.338112 0.227426 0.171513 -0.0410201 -0.216925 0.00300494 0.0151065 -0.0332959 0.122528 0.203804 -0.252533 -0.0184169 -0.249479 -0.0868395 -0.116246 0.29133 -0.00788652 -0.145242 -0.322084 -0.154487 -0.087009 -0.0507658 -0.0570418 0.0328028 -0.0254086 -0.0907731 -0.137361 -0.320803 0.141777 0.0629456 -0.318469 -0.142825 -0.182147 0.0128239 0.178233 0.0887505 0.0111462 0.0594698 -0.172548 0.0497716 0.122283 -0.0176151 0.0262013 0.148889 0.155788 0.0726208 -0.117121 0.248783 -0.0516912 -0.1435 -0.109858 0.214773 -0.029995 0.22856 -0.452006 -0.186655 0.13279 -0.0848331 0.0210115 0.113521 0.00745429 0.285714 0.0770729 -0.375134 -0.00997639 -0.0340199 0.273034 0.189458 -0.14568 -0.0690862 0.339937 -0.0338312 -0.137845 0.250771 0.252867 0.473525 -0.257927 -0.224485 -0.00333537 0.337458 0.0875293 -0.0444294 0.245436 0.173924 0.128722 0.137834 -0.114328 -0.225546 0.0491071 -0.240415 0.106504 -0.175982 -0.0503587 -0.126638 -0.136423 0.0470994 -0.0379267 0.124489 -0.103478 0.0928623 -0.0155021 0.000551718 -0.0350482 -0.00868307 -0.0103753 -0.380304 0.0366746 -0.101498 0.141222 -0.112137 0.120735 0.0922284 0.383388 0.0480538 -0.282219 -0.406686 -0.0273989 0.0155412 0.0225739 -0.0608961 -0.209086 0.183558 0.0143934 0.0644503 0.0475344 -0.242747 0.0363448 0.0293288 0.100922 -0.418907 0.0438265 -0.24409 0.139385 -0.194845 -0.253529 -0.0872159 0.0264526 0.494732 -0.206962 0.174178 -0.21256 0.0979272 -0.335704 0.0358099 0.0889537 0.114107 -0.185304 0.219042 -0.00305742 0.175415 0.101107 0.233666 -0.0563953 -0.232039 0.0650335 0.288101 0.00143706 0.0356891 0.0610054 -0.00222938 0.191775 -0.0314164 0.0544443 -0.0466192 -0.122835 -0.155672 0.0751552 0.211427 0.262138 -0.0303338 -0.00119309 -0.326445 -0.0211112 0.181525 -0.350286 0.026236 0.0389616 0.222114 0.0475619 -0.102537 -0.0159554 0.0918475 0.0595129 -0.07787 -0.109833 0.105824 -0.0597129 0.194965 0.246759 0.118487 0.202995 -0.031168 -0.0500881 0.0713881 0.215073 0.135715 0.0858113 0.26909 0.231565 -0.0390219 -0.0780446 0.0994383 0.0282056 0.0414828 0.16134 0.0253257 0.0746359 0.0425043 0.0568563 -0.313339 0.322566 0.0511428 0.222912 -0.0952705 0.13085 -0.34191 -0.0388455 -0.0446589 0.122557 0.181531 -0.18269 -0.207947 -0.00400908 0.0323485 -0.127377 -0.280004 -0.0547836 0.194532 -0.0706452 0.0181183 0.137485 -0.0281246 0.112243 0.0120353 0.0679244 0.208981 0.200195 0.293298 0.0984302 0.0936487 -0.293535 -0.134627 0.378405 0.0501773 0.0955203 -0.220294 0.183006 -0.090168 0.200592 0.0805427 0.222295 -0.109867 0.0300213 -0.143949 -0.0856882 -0.195226 -0.210242 0.171187 -0.0243744 -0.071189 -0.0103548 0.176764 -0.0388933 0.0616651 0.130283 -0.0270621 -0.360425 0.318571 -0.100325 0.17979 0.0800585 -0.0238189 -0.0374999 0.0928113 -0.144294 0.0732525 -0.220445 -0.138012 -0.15466 0.149279 -0.155539 0.0290473 0.319567 -0.249767 -0.42854 0.193014 -0.472387 -0.148439 0.200652 0.0927545 0.123686 0.291058 -0.176138 -0.19362 -0.200629 0.278548 -0.0655906 0.102911 0.050982 0.140083 -0.271101 0.00105968 -0.119386 0.00737907 -0.1554 0.174555 -0.0365559 -0.163144 -0.179616 0.0294745 -0.0636634 -0.292033 -0.357833 0.0255185 0.0544827 -0.240053 0.031782 -0.0171752 -0.0132301 -0.266196 -0.189255 0.0159761 -0.0602489 0.00976661 -0.132773 -0.274454 0.118065 -0.0596811 0.0665559 0.198961 0.100988 -0.086353 -0.160532 0.180548 -0.162804 -0.110237 0.0850427 0.104544 0.0221473 0.18619 -0.150093 -0.00386022 -0.0681101 0.0963107 -0.0352046 -0.0257671 0.194259 -0.111026 -0.11563 -0.0319194 0.0612926 -0.0567914 0.288335 -0.0889748 -0.135573 0.0437376 0.060059 -0.339475 -0.256289 -0.114377 0.23886 -0.0544366 0.0599288 0.0216984 0.142193 0.0197357 -0.0356699 0.257493 -0.191482 -0.289218 0.190706 0.304388 -0.134736 0.0363562 0.00973846 -0.0691779 -0.227997 0.199318 -0.170852 -0.250673 0.182863 -0.233008 -0.157254 -0.152222 0.0866179 0.0212625 0.303176 -0.0428509 -0.0421129 -0.0180619 -0.221437 0.0801041 -0.0337857 0.24421 0.0829534 -0.0562914 0.264488 -0.109071 -0.131147 -0.287627 -0.280564 0.0623247 -0.367533 0.407757 0.313112 0.0406507 -0.0885458 -0.182183 -0.0759442 0.213515 0.0195974 -0.00788233 0.260578 0.115227 0.0472917 -0.228552 0.281452 0.183437 0.0646887 -0.0794211 0.199033 0.0859914 -0.146493 -0.0738874 -0.0448215 0.228499 -0.146779 0.076687 0.440582 0.0750815 -0.181933 -0.240483 0.17655 -0.0116476 -0.0637024 0.00603323 -0.142214 -0.272255 -0.240544 -0.164312 0.0167065 0.0250119 -0.202952 -0.219401 -0.171611 0.00801835 -0.111267 -0.246713 0.192685 -0.00226309 -0.236443 0.126969 0.0359342 0.224141 0.307678 -0.025388 -0.171197 -0.18516 -0.243494 -0.0119056 -0.166671 0.14486 0.0212708 -0.360893 -0.0270054 -0.159036 -0.20646 0.226038 -0.300071 0.200364 -0.246321 0.142463 0.143393 -0.045882 -0.177859 0.0533595 0.0119677 0.110904 -0.22874 -0.227004 0.0812779 -0.0750758 -0.369776 0.0203383 -0.103141 -0.122856 -0.0849693 -0.126887 -0.0871252 -0.2028 -0.388275 -0.109702 0.228041 0.0122185 0.0301213 0.00211376 0.0625558 0.0253813 0.258635 0.110134 0.058033 0.0200547 -0.540588 0.0669313 -0.0641885 -0.280123 0.0553483 -0.163848 0.160122 0.145135 -0.510001 -0.107782 0.164064 -0.0285606 0.333048 0.0645905 0.132206 -0.000943616 0.0783659 0.0226434 -0.114992 -0.0128671 0.161906 0.00644269 -0.0260133 -0.00997409 -0.526804 0.228321 -0.16628 0.0942251 0.100708 -0.0534369 -0.202449 -0.0587668 -0.212877 -0.2809 -0.102058 0.016758 -0.141965 0.44072 -0.0761443 -0.0148013 0.164827 -0.0532897 0.0891894 0.185648 0.263009 -0.0341604 -0.048745 0.186688 0.0764066 0.245642
government 0.212105 0.14329 -0.202953 0.208027 0.0924344 -0.0126291 -0.00469437 -0.126328 0.0886617 -0.112351 -0.0717568 0.0534601 0.226953 0.101169 -0.0847563 0.0145171 0.00063122 -0.215091 -0.0986361 0.0525214 0.284328 -0.270594 -0.0369219 -0.00283092 -0.0615252 0.174076 -0.388513 -0.0492114 -0.115205 0.174782 0.243052 0.106778 -0.181983 -0.0494256 -0.164301 0.298075 -0.209428 0.143687 0.0710115 0.0803039 -0.144934 -0.268421 0.0651482 -0.0402162 -7.665e-05 -0.0344738 -0.0704898 0.106546 -0.209908 -0.259802 -0.187476 0.00150651 -0.0221647 -0.0638603 -0.0200325 -0.0258451 -0.0419757 0.0123492 -0.0334321 0.0496417 0.162187 0.0991255 -0.181239 0.11364 -0.0424384 -0.197801 0.116875 -0.0801163 0.0664685 -0.0381761 0.0586098 -0.000982009 0.133378 -0.0466099 0.0497017 0.313761 -0.188759 0.0204614 -0.022326 0.0847241 -0.103153 -0.107118 0.0577839 0.0125862 0.0793141 0.131566 0.259971 0.06148 -0.0245695 0.17896 -0.0316976 -0.0233358 -0.13667 -0.0821067 -0.0028812 0.123815 0.0244554 0.0624523 -0.0365966 0.218111 -0.00159088 -0.0456623 0.0288386 -0.216049 -0.079002 -0.146363 0.0915379 -0.00751985 0.00746223 -0.267576 -0.234744 0.181642 0.0921886 0.270425 0.387128 -0.228373 -0.0858339 0.0306274 -0.125401 -0.0128892 0.0610847 0.100477 -0.0868253 -0.042385 -0.0557188 -0.176592 -0.103341 -0.141718 0.163097 -0.168215 0.127884 0.1507 0.181297 -0.142372 -0.0397687 0.0820002 -0.144999 0.0596532 -0.0573672 -0.0500573 0.104726 0.0244992 0.0633151 -0.0626458 -0.226805 -0.157454 0.124649 0.190952 0.0337427 0.0178797 -0.113352 0.0820975 -0.00952093 0.237989 0.143605 -0.0281417 0.180981 0.232294 -0.086263 0.136574 -0.123058 -0.225309 -0.170067 -0.182008 -0.0403537 0.0250585 0.104116 0.153915 0.0491078 0.146681 -0.0958211 -0.028235 -0.0665003 0.0565688 -0.167231 -0.209773 0.192034 0.150303 0.160234 -0.0188992 -0.0430596 0.116313 0.089329 -0.0665519 0.0449662 0.236853 0.022328 -0.0851776 -0.0752427 -0.222774 -0.106351 -0.176538 -0.162472 -0.0888906 0.0770084 -0.0281235 -0.155017 -0.151726 0.0566752 -0.173047 0.260274 -0.132879 0.0610561 -0.0104444 0.0759232 0.103555 0.0679229 -0.0173056 -0.114406 0.230785 -0.217668 -0.035059 -0.128751 -0.0418896 0.28666 0.175117 0.0418649 -0.0134272 0.108697 0.0469445 0.0862904 -0.143024 0.0965263 0.0910057 -0.198465 0.0502303 -0.0146687 -0.224517 0.0247716 -0.00126292 0.0964713 0.0845293 0.147443 -0.0220482 -0.180362 -0.138552 0.0150977 -0.0855776 0.139942 0.182325 0.380824 -0.124003 -0.151392 -0.0846983 -0.259113 -0.0675718 -0.0773283 0.0350615 0.18696 0.0931717 0.135837 -0.129848 -0.00247456 0.0279032 -0.263104 0.179432 -0.160484 0.0144288 -0.0315439 -0.129774 0.0316159 -0.194777 -0.0265729 -0.211348 0.123682 -0.11094 -0.16426 0.0342322 0.0898805 -0.0441716 -0.0938096 -0.14603 -0.0683385 -0.0601531 0.0140116 -0.0864794 0.1862 -0.0574961 -0.0902807 -0.0939071 -0.0785075 -0.214126 -0.0626054 -0.20246 0.0785597 0.216431 -0.159452 -0.0434357 0.000969182 -0.0118421 -0.277364 -0.194617 0.238427 0.106825 0.128067 -0.0423916 0.0425556 0.276134 0.0164435 -0.00143298 0.0396625 -0.0844578 0.0722154 0.403816 0.0246168 -0.0581209 0.159332 0.235587 0.119706 0.186987 0.118524 -0.0500587 -0.0458709 0.110317 -0.110905 -0.121597 -0.0237928 -0.0631014 -0.156353 -0.0193209 -0.101279 -0.13478 -0.321139 -0.158485 -0.213183 0.171548 -0.00970608 0.134398 0.164191 -0.0919501 0.023395 0.234929 0.0232909 0.107402 0.00122575 -0.0641367 0.0545881 0.000328104 -0.152353 -0.171233 -0.221566 -0.158241 -0.218651 0.260081 0.0452092 0.0697643 0.0138833 -0.0104907 -0.0913651 0.122713 -0.214585 -0.0597708 -0.000390385 0.102592 -0.122047 0.0571136 -0.301609 -0.0982073 -0.0872912 0.100572 0.132829 -0.205204 0.119543 -0.266196 0.0352978 0.11499 -0.242744 0.104681 -0.0363926 0.102488 0.0457446 0.119819 0.0980702 -0.0432441 0.0370891 0.215934 0.112464 -0.259625 0.0732592 0.00935007 0.225 0.0333428 -0.0810253 0.0874538 0.0342958 0.17501 0.0193356 0.0489296 0.0143344 -0.043407 0.0357622 -0.135861 -0.0831321 -0.316997 -0.0993681 0.174434 0.150802 0.254199 0.197275 0.0105552 -0.143999 -0.363679 -0.0648868 0.179286 -0.0592889 -0.106115 0.0835382 -0.0554989 -0.177434 0.0649745 0.0739012 0.000240256 -0.0702184 -0.0975884 0.0069609 -0.0154164 0.0552862 0.0423067 -0.140652 0.228058 0.0459171 0.0728001 -0.147036 0.0862981 -0.0118551 -0.209 0.0388949 -0.0734241 0.00374958 -0.0657706 0.11405 -0.0956694 0.234197 0.0635942 0.097001 0.0021047 -0.248613 -0.021956 0.0167342 0.0944898 0.211314 -0.140463 0.00357972 0.150133 0.0753584 -0.0128661 -0.0566621 0.1261 -0.0265262 0.0523499 0.20098 -0.215758 0.063954 -0.159781 0.0226311 -0.203318 0.258033 -0.106582 -0.155008 0.00197191 -0.0589696 -0.11925 -0.120049 -0.227046 -0.124634 0.121083 0.0881848 -0.00187226 -0.0537312 -0.114328 0.282799 -0.0322019 -0.0123637 -0.183883 -0.0270023 0.0144008 0.0575041 -0.115594 -0.202454 -0.0671 -0.0367507 0.116091 0.0145577 0.114727 -0.142903 -0.13443 0.02008 -0.0639739 0.0737961 0.0922639 -0.0351524 0.207424 -0.14223 -0.151861 0.0603552 0.211028 -0.0748876 -0.303877 -0.010604 -0.140719 0.132769 -2.57796e-05 0.0142099 0.0402692 -0.0275232 0.040049 -0.0643453 -0.129867 -0.0483581 0.14109 0.0513504 0.150867 -0.0123414 -0.20909 0.00459657 0.00287379 -0.0914499 0.115697 0.0739634 0.140166 -0.108329 -0.0485195 -0.144411 0.096896 -0.108827 0.043724 0.00207837 0.0453018 -0.0493139 -0.164389 -0.309039 -0.0308656 -0.111166 -0.0555104 -0.0209107 -0.131935 -0.0556572 -0.170842 -0.0350269 -0.0471803 0.0264251 -0.0973431 0.031192 -0.0545736 -0.0183636 -0.043385 0.111611 -0.0322959 0.142379 -0.0475527 0.0912984 -0.100043 -0.106043 0.117535 0.0287318 0.077348 0.179592 0.0281882 -0.0541022 -0.107757 0.213939 -0.0433443 -0.0313777 -0.232539 0.185736 0.214669 0.163138 -0.120167 -0.127227 0.0802929 -0.319611 -0.0393773 -0.167609 -0.109739 -0.147548 0.244852 -0.0150098 0.043822 -0.247989 -0.00676882 0.304055 -0.127269 0.0953447 -0.104415 0.147234 -0.0558705 -0.085747 0.235641 0.208731 0.0811116 -0.10191 0.0335428 -0.0115102 -0.246944 -0.119502 -0.106984 0.100552 0.239445 -0.116261 -0.156555 0.104986 -0.154758 -0.0661942 0.175505 -0.143399 -0.200364 0.120671 -0.0921938 -0.054617 0.0728732 -0.0339523 0.106246 -0.038819 -0.103487 -0.0630066 -0.0500413 0.0215725 0.0413711 -0.00187419 0.0738026 -0.014474 0.149299 0.0894878 -0.005729 -0.0941299 0.0836353 -0.0845714 -0.0579422 -0.0289378 0.138128 0.110545 0.0347517 -0.00518085 0.00134599 0.101194 -0.0278559 0.145435 0.130351 0.106301 -0.0880131 0.0745917 0.047578 -0.224396 0.196551 0.0260355 0.184911 -0.0187765 0.0772357 -0.0512332 0.148909 0.061666 -0.140643 -0.0420597 -0.276854 0.129126 0.0687523 0.0159766 0.155446 -0.0533922 -0.0821717 0.0485961 0.124908 -0.0383166 0.0441254 -0.162721 0.04147 -0.115312 -0.219022 -0.0412673 0.0356037 0.018804 -0.0458781 0.0105568 -0.176464 0.101804 0.137917 -0.0752557 0.0300008 0.122239 -0.0242453 0.0171853 0.213385 -0.0565183 -0.0501609 -0.0573086 0.0396717 -0.157931 -0.0171277 -0.0348348 0.0776391 -0.175943 -0.215145 0.147744 0.182653 -0.141181 0.0333242 0.0915806 0.134268 -0.156021 -0.213236
madhouse 0.155901 -0.250302 0.0937567 0.0306327 -0.148001 0.228623 0.00473521 0.145795 0.0375271 0.00929779 0.13047 -0.32359 -0.27103 -0.164665 0.234784 0.0383548 0.125399 -0.32158 0.254652 -0.0411108 -0.0702767 0.128852 -0.0267103 -0.0090411 -0.00755149 -0.00673825 0.166373 -0.0130934 0.318328 0.0713988 -0.0293639 0.142905 0.0830129 0.259808 0.257068 0.15769 0.343889 0.0345569 0.125043 -0.028278 0.0888582 -0.241549 0.238059 -0.0364042 0.0553473 0.256789 0.0456641 0.172361 0.1358 0.0477265 0.0324889 0.0585235 -0.179128 -0.0173358 0.422033 0.120385 0.0150855 -0.185771 -0.167378 -0.0674963 -0.0450509 -0.142204 -0.219372 -0.239376 0.350183 0.183347 0.111265 -0.141429 -0.0099223 0.135131 -0.0932666 0.134196 0.122016 -0.195628 0.070238 0.206494 -0.0887411 -0.152376 0.121765 0.235533 -0.113924 -0.315951 0.262355 -0.313828 -0.0235103 0.218956 0.170178 0.0388233 -0.00155678 0.218181 0.0082354 -0.00455579 -0.031099 -0.151548 0.0311838 0.0738096 -0.16672 -0.0653463 -0.175632 0.00174581 -0.140956 -0.133016 -0.16878 -0.115436 0.0409927 -0.167168 0.304239 -0.0546493 0.0448097 0.184519 -0.0641073 -0.0855938 0.199898 -0.13138 -0.117095 -0.175607 -0.0712894 0.144537 0.0882377 0.0339404 -0.18428 -0.0142022 -0.0340829 -0.156101 -0.292264 -0.334351 -0.189702 -0.123292 0.220712 0.0319236 -0.250973 -0.0227784 -0.0143814 -0.0168114 -0.210315 0.155064 -0.132602 -0.0980276 0.0464342 -0.0223179 0.295155 -0.0397346 0.10479 -0.220523 -0.0567171 0.0196214 0.0543156 -0.129761 0.103665 -0.0603505 0.497516 0.225249 -0.125506 0.193669 0.168632 -0.0151097 -0.404605 -0.104272 0.0893508 -0.0338979 0.232865 0.205756 -0.0873951 0.415835 -0.33559 -0.111558 -0.264922 -0.225065 0.185335 0.352918 -0.0552477 0.132926 0.110751 0.00781325 -8.27016e-05 -0.13523 0.0645623 0.130626 0.11358 -0.110956 -0.27581 0.240768 0.184759 -0.135121 0.137526 -0.0651723 0.0704049 -0.0547368 -0.0577859 0.0627024 0.267386 0.314854 0.29244 -0.0703911 0.272778 0.0481946 -0.0203765 -0.154795 0.0584234 -0.0496161 0.250515 -0.283433 0.200205 0.0750117 0.19655 0.219503 0.384026 0.0424962 -0.0411643 0.257412 0.0294076 -0.336238 -0.0477753 -0.481774 0.10389 -0.249846 -0.0448343 -0.16006 -0.135609 -0.238487 -0.15263 0.224033 0.669915 0.0510345 0.273044 -0.127358 -0.31451 0.0571596 0.552161 0.239715 0.158703 0.0606399 0.124881 -0.169317 -0.0443612 -0.20871 0.405809 -0.161828 -0.228485 -0.0426034 0.221085 -0.132478 0.0367339 0.0699139 0.0105214 -0.00713078 0.241876 -0.175145 0.105422 0.0236275 -0.184381 -0.118185 -0.100706 -0.06934 0.10842 -0.206162 0.414094 0.190067 0.134173 -0.0690487 0.214744 -0.0165273 0.392116 -0.211742 0.283199 -0.0143327 -0.26657 -0.0897035 -0.034972 -0.156131 0.035155 0.0503873 0.163021 0.193486 -0.0990636 0.183108 -0.115447 -0.0955077 -0.0306841 -0.0954861 -0.100702 0.126262 -0.319434 -0.245655 -0.315649 0.152921 0.171573 -0.0815841 0.0560819 -0.292113 0.0393727 -0.172207 -0.220898 0.248147 0.143128 0.204776 -0.0961135 -0.0837007 0.362431 0.272386 -0.0536868 -0.00485033 -0.0389572 -0.0884373 -0.0218885 0.272635 0.0439172 -0.236605 0.206913 0.166835 0.054164 -0.16783 -0.056105 -0.195154 -0.0338796 -0.20984 -0.178861 0.137145 0.0115367 -0.219942 0.0234492 -0.107059 0.111357 0.0261799 0.157175 0.118004 0.113052 0.040801 0.0805353 -0.224547 0.100028 0.0814489 -0.00675466 -0.246109 -0.311907 -0.277674 -0.228254 -0.149553 -0.22036 -0.0886473 0.00986636 -0.177085 -0.0849351 0.110247 -0.0542015 0.244005 0.0398001 -0.171379 0.143367 0.0593848 -0.3449 -0.295651 -0.0493358 0.196716 0.218311 -0.0650183 -0.315732 -0.1215 -0.0891738 -0.149401 0.0417893 0.110267 0.0351999 -0.0158397 -0.156251 0.130976 0.295086 0.385666 0.0153911 0.029497 0.0669109 0.268327 -0.148457 0.0731465 -0.0523994 0.165472 -0.0665267 -0.0604649 0.321011 -0.12577 0.184019 0.148673 0.0665948 0.0509257 0.00655048 -0.293376 -0.0699986 0.0915704 -0.331954 0.0670153 0.237756 -0.136206 0.305694 -0.0615277 -0.0964129 -0.125525 0.0648352 0.0308767 -0.214436 0.0588469 0.303928 -0.0429149 0.397965 -0.0297802 -0.0983787 -0.20876 -0.0294791 0.0124423 -0.0890428 -0.1056 0.0113151 -0.0540861 -0.238254 -0.138371 -0.322239 -0.0926196 0.0241806 0.186565 0.400143 0.0124628 0.216328 0.113616 -0.132318 -0.11405 -0.201931 -0.00638085 -0.0729229 0.135384 0.170592 -0.365943 -0.254706 0.00565727 -0.0143383 0.0409055 -0.0317667 0.0117721 -0.21136 0.283484 -0.0607281 -0.11192 -0.0226138 -0.123797 -0.0306346 -0.0227636 0.102073 -0.162966 0.30919 -0.177156 0.0761509 -0.0386595 0.365233 -0.319392 0.0531848 0.257214 0.155957 -0.0781028 -0.0354062 -0.165408 -0.135527 0.172881 -0.0982119 -0.05601 0.131738 -0.111902 -0.115381 -0.0382468 0.241205 -0.143838 0.0527143 0.0225194 0.0140689 -0.0662117 0.19636 -0.0215248 0.308332 -0.0381765 -0.223146 -0.312508 0.279037 -0.0817425 0.102421 0.253609 -0.166029 0.109996 -0.110665 0.00409151 -0.0681975 -0.105688 0.148029 0.0279641 -0.270931 -0.0102408 -0.134028 0.24918 0.160189 0.0629459 0.27896 0.112793 -0.167977 0.18096 0.164902 0.0616406 0.126681 0.0489698 -0.159983 0.290467 0.0928115 -0.103226 0.0604139 0.22184 -0.312254 -0.023276 -0.0197516 -0.266052 0.0381404 0.172632 -0.227856 0.0371952 0.0204682 -0.00961835 -0.120624 0.0209285 -0.168899 0.0689947 0.0100137 -0.179349 0.125519 0.395826 -0.193992 0.0255802 -0.264737 -0.154342 0.190527 -0.182787 0.078251 -0.187002 -0.0130179 0.00924766 0.120231 0.00970367 -0.224849 0.257005 0.431508 -0.0627602 0.0152357 0.0430354 0.147761 -0.0610181 0.259856 -0.292804 -0.106468 0.0925909 -0.0402372 0.0627509 0.0366532 0.00504004 -0.308343 -0.28824 0.202546 -0.158899 -0.0834664 0.0648487 0.169973 -0.232392 -0.275084 -0.0361262 0.170819 -0.320912 0.110782 -0.169248 0.194265 -0.00993412 -0.545889 0.050345 -0.15586 0.194434 0.28742 0.0814642 -0.0457047 -0.221243 0.100623 0.0421507 -0.0628302 0.148584 -0.100154 -0.167239 0.168504 -0.00644145 -0.0685691 0.0407488 -0.0957404 -0.108876 -0.195278 -0.142115 -0.0873037 -0.269203 0.0555978 -0.119807 0.118721 -0.0171843 -0.0752275 -0.135301 -0.442797 0.083797 -0.242368 -0.111146 0.0289632 0.0329255 0.0630054 0.0307616 0.121847 0.0516173 -0.0821176 -0.036649 -0.056941 -0.193426 0.159302 0.0670504 -0.168503 -0.319196 -0.150314 0.0341871 -0.00756864 0.162882 0.00410534 0.0158162 -0.102312 0.0345985 -0.185924 0.241246 -0.376431 0.0298215 0.311716 0.462666 0.0722238 0.0487645 0.00293385 0.25365 -0.160926 -0.190663 -0.0369961 0.146852 -0.115153 -0.100982 -0.240018 0.109809 0.457111 0.146687 0.226495 -0.0117937 -0.0611079 -0.221151 -0.129327 -0.0536028 0.0888809 0.0965206 -0.320873 -0.532609 0.0220131 -0.123148 0.305122 -0.201867 0.14643 -0.0599525 -0.100829 0.0623176 0.0746931 0.0380656 -0.00887281 0.152395 0.00474233 -0.218481 0.200345 0.102492 0.320353 0.0745843 -0.127252 -0.0506012 -0.148383 0.155871 -0.21398 -0.105657 -0.0681539 -0.226067 -0.0093018 0.246551 -0.0603043 0.134119 -0.22526 -0.12199 -0.104935 0.308037 -0.0332217 -0.320906 0.0601065 0.11068 -0.316316 0.134738 0.0940196 -0.384802
video 0.225954 0.0172254 0.193888 -0.0178943 -0.0164767 0.347482 0.0558196 0.126282 0.0231517 0.0386222 -0.173288 0.0189925 -0.309617 -0.119484 0.0700138 -0.123839 -0.0611127 -0.0838364 0.248166 -0.102097 0.194681 0.0482583 0.0235365 -0.336909 0.0883101 0.143223 0.244753 -0.140648 -0.0285111 0.18596 0.108916 -0.0864173 0.00486263 -0.22609 -0.102552 -0.00834948 -0.0360841 0.136274 0.287769 -0.265808 0.0255274 0.0333666 0.131385 0.0822302 -0.15237 0.0732641 -0.0339209 0.0884443 -0.131942 0.00614086 -0.314246 -0.152294 -0.0539335 -0.0383526 -0.214904 -0.177887 0.298375 -0.127835 0.134987 -0.019771 -0.22962 -0.0242647 -0.0284432 -0.0556972 0.129137 -0.0624866 0.0987736 0.07936 0.167947 0.230202 -0.00274944 0.0216923 -0.278454 -0.133968 -0.103614 -0.150541 0.355606 -0.00154992 -0.217412 0.246283 -0.0407257 0.0842247 0.0627381 -0.410731 0.0520731 -0.0678668 -0.100535 -0.30516 0.231471 -0.123021 0.0970814 -0.121363 -0.311329 0.0214285 0.331792 0.128304 0.155363 -0.0655725 0.0229445 0.00538846 -0.206079 -0.262126 0.0768463 -0.0960554 0.0672019 -0.288901 0.2577 0.0387206 0.0579024 0.0236137 -0.239281 -0.0971336 -0.0438339 0.0208249 0.00626837 -0.0100964 -0.00865047 0.0571132 0.102743 0.16215 -0.177214 -0.104904 0.00939614 0.0644068 -0.236455 -0.0105608 0.0822703 -0.0591028 -0.0134958 -0.191282 0.0171144 -0.200196 0.0290729 -0.0706926 0.0382761 0.26188 -0.143289 -0.138063 -0.097028 -0.0395936 -0.0437772 0.109932 0.0972986 -0.0157614 -0.0721353 -0.216507 -0.154791 -0.134287 0.285629 -0.103085 -0.0375524 0.170263 0.125119 -0.261646 0.0407271 -0.211944 -0.12365 -0.0326549 -0.21112 -0.119359 0.0857363 -0.0850359 0.0273041 0.0434593 -0.258563 -0.189208 0.0868675 0.104674 -0.261943 0.0228482 -0.180474 0.0321208 -0.228951 0.0366837 0.125405 -0.0573806 0.165863 0.183739 -0.24515 0.0649804 0.0977054 0.526095 0.0416318 -0.114808 0.106976 0.137645 0.265019 0.18564 -0.160244 -0.0854587 -0.0242285 -0.227883 0.0829885 0.183 0.047461 -0.0058516 0.0617893 0.115529 0.252749 0.0299948 -0.0117257 0.0474451 -0.0544449 -0.0627337 0.197324 0.101325 0.088938 0.148324 0.137653 0.312238 -0.0886594 -0.0819349 -0.144539 -0.128136 0.148024 0.0695687 0.0878349 0.0175591 0.0103867 -0.0252975 -0.218338 0.0633456 0.0749791 0.0556584 -0.0481018 -0.207858 -0.34124 0.118698 0.243145 -0.169902 0.107838 -0.0840373 -0.0192135 0.0470266 0.0469476 -0.102438 -0.0690809 -0.148696 -0.0831011 0.0820125 -0.0740256 0.19174 -0.244063 -0.00785012 0.149518 -0.152672 0.301424 -0.0928084 -0.189769 0.116147 0.0361198 -0.0482206 0.126959 -0.0623783 0.119385 0.0763877 0.260987 0.0221526 0.156543 -0.00280358 -0.0532763 -0.137277 0.0540551 -0.253124 0.0302575 0.182705 -0.0536945 0.0752474 -0.128182 -0.0496444 -0.0668011 0.17734 0.067917 -0.0248387 -0.170341 -0.0018675 -0.0131815 -0.0109246 -0.0989577 0.0701224 0.168032 0.059589 -0.0420905 0.132848 0.0109404 -0.0199494 0.116205 -0.101495 0.281977 -0.348628 0.0437352 -0.0227127 -0.324759 0.184962 -0.0626446 0.0821307 -0.122086 -0.00299618 0.0442386 0.337908 -0.0181733 -0.121603 -0.0691446 -0.057687 0.0903967 0.0869103 -0.0136028 -0.000291424 0.164936 -0.141893 -0.13645 -0.215586 0.149173 0.16351 0.0750331 0.173652 -0.0361111 -0.104515 0.171746 -0.0774585 -0.0741809 -0.145197 -0.13262 0.0710666 -0.167298 -0.183156 0.112535 -0.0243077 0.152199 -0.0998012 -0.108769 -0.119792 0.035895 -0.110772 -0.0952806 0.245435 0.138696 -0.256383 -0.00309518 -0.0046691 0.0690406 0.165813 -0.405146 0.235811 0.21913 0.0938978 0.0907159 -0.325588 0.251605 0.162613 -0.168974 -0.140324 -0.0155786 0.0783854 -0.0341519 -0.0476618 -0.104432 -0.0589108 0.120732 -0.0888677 -0.217284 -0.0788065 0.13087 0.0746977 -0.230025 0.132114 0.275166 0.176225 0.156235 -0.0506508 -0.0823419 0.295788 -0.076486 -0.0320328 0.0828308 0.0958267 -0.0920826 -0.0816919 0.294939 -0.438944 0.0801156 0.149583 -0.0139957 0.0202535 0.185032 -0.0173413 0.00707936 0.027034 0.00964421 -0.393826 0.251567 -0.111133 -0.0664514 8.19238e-05 -0.00101712 0.024733 0.231102 0.0749691 -0.296022 -0.141344 0.0233103 -0.216652 0.0771011 -0.0179812 0.114316 -0.0323928 -0.0649379 0.081095 0.300425 -0.330622 -0.102283 -0.189742 0.0206623 -0.0791524 -0.120621 -0.0689725 0.202977 -0.164838 0.0066113 0.0453769 -0.0842613 -0.0545655 0.0146958 -0.115164 -0.137288 -0.0257632 0.091932 -0.13752 0.0130253 -0.042023 0.040154 0.0361762 0.0165274 0.144947 -0.0371978 0.216687 -0.0607088 0.00651362 0.143202 -0.200375 -0.209517 0.0291348 0.0161026 0.17443 0.0437995 -0.230793 -0.0736484 0.0365722 -0.11464 -0.272405 0.226784 0.00499734 0.192514 -0.096137 0.351603 -0.293491 0.135678 0.216705 -0.111929 -0.195185 0.069574 -0.0339347 -0.0787884 0.0694346 -0.138628 0.0852069 0.0102946 -0.0253431 0.213381 -0.191612 0.039753 0.143749 -0.0155182 0.0495103 -0.279083 -0.100968 -0.377868 0.20273 -0.0404306 0.0614496 0.175818 0.137165 -0.00104582 0.288783 0.0319821 0.00716151 0.024058 0.11179 -0.211896 -0.044457 0.146876 0.290942 -0.298394 0.154082 -0.10799 -0.155638 -0.0996903 0.190671 0.0105086 -0.225836 0.375132 0.0185558 0.00865674 0.0830228 0.255347 -0.0106803 -0.179278 0.172309 0.142292 0.0660688 0.0259955 0.129947 0.120474 -0.156449 0.0324135 -0.0403429 -0.0112465 -0.0454619 -0.142536 -0.00958279 -0.0414387 0.0721247 0.0211628 -0.26031 0.203354 -0.225341 -0.152116 0.127707 -0.0731998 -0.139571 -0.0394723 0.000916537 -0.0996916 0.1036 -0.198409 0.234845 0.00439788 -0.0920469 -0.0875469 0.19704 -0.130242 -0.0485987 0.244755 0.0696536 0.12913 0.125879 -0.0754408 -0.0189595 -0.111552 -0.111276 -0.259419 0.125006 -0.0294546 -0.0758677 -0.167779 -0.0307642 -0.171766 -0.0302175 0.0277171 0.168778 0.00472476 0.078668 0.0117427 -0.180783 -0.145795 0.324355 0.172023 -0.171107 0.220436 -0.312094 -0.0969286 0.0423337 -0.492857 -0.0967566 -0.119107 -0.0761358 -0.131272 0.230438 -0.270026 -0.040456 -0.0165749 0.130509 0.0543692 0.234821 -0.155255 -0.0706337 0.0532469 -0.169277 -0.017742 -0.217725 -0.19768 0.116354 -0.202317 -0.0699107 0.359732 -0.279718 0.0722587 -0.230511 0.351981 -0.0563945 -0.00640952 -0.199284 -0.157232 -0.118117 0.0115724 0.000845014 -0.101734 -0.176477 -0.0548396 -0.0243701 0.184734 -0.253998 -0.157702 -0.189473 0.0413666 0.0993442 0.127244 -0.176135 -0.0352307 -0.181565 -0.160212 0.249563 -0.206093 0.0136199 -0.120145 -0.108253 0.027158 -0.0675926 0.165428 0.00944825 -0.162964 -0.0257828 0.0959186 0.282342 -0.228871 -0.181828 0.0256291 0.188238 -0.0940269 -0.114687 0.00518469 0.0832157 0.0460393 0.0758188 0.0687188 0.0293141 0.281006 -0.0478779 -0.0120783 -0.115867 -0.231456 0.123361 -0.0529883 0.0331615 -0.114183 -0.118143 -0.152988 -0.384669 0.0982391 -0.0667547 0.246991 0.0602653 0.0973219 0.0946252 -0.027228 -0.191793 -0.0215764 0.111444 -0.201238 0.17658 0.255344 0.065346 -0.0865576 0.061378 0.122842 -0.11912 -0.072952 -0.170695 -0.0715021 -0.064022 -0.173156 -0.0240816 0.065125 0.179854 -0.348026 0.153409 -0.045897 0.0971355 -0.0162647 -0.0278461 -0.0808372 0.179401 0.092475 -0.0571669 0.116044 0.143495 0.0899619 -0.0315088 -0.255862 -0.0997752
defeating 0.0768902 0.235922 -0.285694 -0.281486 0.102977 -0.175033 -0.0304163 -0.0963486 0.124815 -0.143308 -0.0989356 -0.0870278 -0.00956168 0.233839 0.0895462 -0.0529163 0.171719 0.0541613 0.0448636 0.0281123 0.355425 -0.188286 0.0538121 -0.356466 -0.105907 0.150159 0.0143136 0.318204 -0.0648874 -0.112536 -0.318285 0.439563 -0.123296 -0.0150252 -0.211238 -0.0676049 -0.128303 0.126861 -0.316533 0.082037 0.00227581 -0.0211176 0.24792 -0.173984 0.0621365 -0.134389 0.371111 0.208611 0.218137 -0.050218 -0.145676 -0.0314945 -0.352467 0.143532 0.208005 0.0151439 0.0923591 -0.0153101 -0.112803 -0.101904 -0.214155 -0.0662231 -0.20054 0.0785562 -0.0526593 0.340555 -0.0317532 0.156995 -0.0940693 -0.377375 0.044611 -0.086401 -0.119214 0.154632 0.228297 -0.0332977 0.0100966 -0.29705 0.0254392 0.230899 -0.0256886 -0.168508 0.0669773 -0.120019 -0.091687 -0.0266976 0.0209169 -0.166182 0.0862953 0.251402 0.412943 0.303405 -0.138852 -0.104852 -0.186276 -0.0506498 -0.429724 0.190934 0.0170678 0.294214 0.260478 -0.12545 -0.232716 0.245257 -0.240998 -0.0942969 -0.0165071 -0.0486501 0.104309 -0.0120485 0.621405 0.316924 0.160065 0.189374 -0.068706 0.0556564 0.0434819 0.189818 0.050899 0.0299927 -0.169398 -0.160305 0.130174 0.223583 0.0676422 0.0438835 0.0452149 -0.212388 0.196609 -0.0972499 -0.379673 -0.176184 -0.00387325 0.0356213 -0.358696 0.0416836 -0.203788 -0.181201 -0.135669 -0.262774 -0.0679877 -0.0453504 0.104622 0.0245162 -0.171766 0.0867666 -0.0296713 -0.208167 0.188989 -0.119325 -0.114783 0.204337 0.149713 0.194076 -0.234977 -0.0466788 -0.122026 -0.0561628 -0.184887 0.288368 -0.00666685 -0.0479077 0.372636 -0.14728 -0.135016 0.189136 0.337212 0.121655 -0.0799027 0.00847995 -0.0749562 0.355152 0.199149 -0.0236531 -0.214553 0.267893 0.119075 -0.225465 -0.142663 0.0556406 -0.075551 -0.22703 -0.359479 -0.379975 -0.280793 0.0324451 0.321761 -0.0489119 -0.132167 -0.0639971 0.238195 -0.264913 -0.104603 0.116365 0.135431 -0.123136 -0.23936 -0.023314 -0.00823241 -0.174502 0.254714 0.114464 -0.0786476 -0.172485 -0.157741 0.157348 0.00362504 0.342752 -0.0622903 0.133374 -0.364875 0.077211 0.192813 -0.119282 -0.145619 0.0580663 0.141475 0.216036 -0.25984 0.221814 -0.103163 0.146288 0.164913 -0.122602 0.068875 -0.152879 -0.436578 -0.278462 -0.170967 -0.473198 0.162149 0.150829 -0.000431788 -0.115978 0.0614166 -0.150798 -0.270807 -0.00463148 -0.212344 -0.062718 0.0411016 -0.184455 -0.272048 -0.0814784 0.311905 -0.0735741 0.118431 -0.0958293 -0.345724 0.156057 -0.200424 0.359608 -0.0695324 0.199597 0.0541491 -0.0944142 0.248163 -0.0383831 0.256627 0.188745 -0.347052 -0.0174369 0.0478948 -0.0520047 0.0179506 -0.32434 0.171535 -0.110976 0.0355254 -0.0233129 0.0615978 -0.131777 -0.0564159 -0.109795 -0.0732512 -0.0449469 -0.0289128 0.213552 -0.130706 0.087129 -0.0860411 -0.120961 -0.0666472 -0.050754 -0.347724 -0.0372426 -0.414099 -0.0699236 -0.132608 -0.131127 -0.140849 -0.0840909 0.0637309 0.177056 -0.23353 -0.241751 -0.0291871 0.147518 0.129021 0.20609 -0.222915 0.189128 0.210344 0.612787 -0.0680154 0.0335959 0.0654251 0.131052 0.0643187 0.00632705 0.0167021 -0.0737467 -0.0697752 -0.230918 -0.0110722 -0.0649059 -0.24494 0.136719 0.0348019 -0.12163 0.00167235 -0.152218 -0.609823 -0.0106294 -0.114057 0.250208 -0.0557764 0.0180192 -0.204353 -0.133764 0.0566081 0.298774 0.00629199 -0.137937 -0.205021 -0.173592 0.648507 -0.146258 0.0336328 -0.176819 -0.0396836 -0.304956 0.0936071 -0.249046 -0.0140914 -0.0827212 -0.0625924 -0.229897 0.126344 -0.163563 -0.0982944 0.017243 -0.231778 0.216408 -0.0959424 -0.0371315 -0.0678993 0.0642076 0.280293 0.00212092 -0.170526 0.0958535 0.55063 -0.295417 0.0109877 0.289819 -0.187997 0.0379013 0.28968 -0.0640455 0.222976 0.248855 -0.207261 0.0518472 0.179442 0.104645 -0.0379565 -0.0915524 0.223599 0.199453 0.136428 -0.152649 0.2567 -0.244458 0.210847 -0.240252 -0.12985 0.0615743 -0.295409 -0.229608 0.313032 -0.0171705 -0.148978 -0.369862 -0.0710797 0.275393 0.0440622 0.0355898 0.168958 0.198708 -0.00403912 -0.307288 0.132329 -0.0118414 -0.00349062 -0.0963224 0.220238 0.0379739 -0.268106 -0.223282 -0.237696 -0.170052 -0.0216623 -0.175376 -0.30419 -0.306227 -0.0861792 -0.105935 -0.307851 -0.328219 0.203044 -0.251224 0.205805 -0.108407 -0.333584 0.0751915 -0.0937534 -0.031262 0.0507152 0.00747912 -0.265386 -0.0355523 -0.256563 0.126837 0.189636 0.19503 -0.176342 0.114159 0.297209 -0.266253 0.159719 -0.127053 0.21501 0.0379995 -0.207756 0.0917791 0.186697 0.00411681 0.121079 -0.224989 0.238306 0.178395 0.0410235 -0.0611651 0.0997682 -0.0451016 -0.139355 -0.0659746 -0.10113 0.329014 -0.123069 0.102263 -0.0279297 -0.38359 0.307951 -0.273244 0.000534845 0.0937023 0.144448 -0.33489 -0.0710216 -0.0301422 -0.184502 0.335774 -0.163053 -0.133182 0.0489225 -0.170155 -0.342195 0.15149 0.0938582 -0.0135426 -0.0464317 0.452657 -0.261341 -0.416419 0.389168 0.128781 0.157277 -0.304903 0.0449826 -0.233602 -0.200593 0.0918071 0.24261 0.0276538 -0.0876662 -0.247847 0.282567 0.105622 0.259803 0.114427 0.412604 0.0530277 0.00683602 -0.00998772 -0.154568 -0.0211848 0.121925 -0.137369 -0.32883 0.34805 0.15596 0.148065 -0.0399059 0.386135 -0.255896 -0.372058 -0.128051 0.224579 -0.314621 -0.0393646 0.51535 -0.23419 -0.140191 -0.144161 0.11924 -0.166751 -0.00581018 -0.00546054 -0.067263 -0.0298947 -0.0844194 0.0271109 0.145802 -0.191476 -0.169288 -0.395955 0.143543 0.109869 0.256791 0.098447 -0.00602161 0.0708291 0.134884 0.179925 -0.14934 -0.19512 -0.221855 0.320028 0.118427 0.0683975 0.150584 0.415553 -0.0774385 -0.117227 0.0982044 -0.0604622 -0.0714846 -0.217201 0.0120301 0.0832804 -0.160158 -0.0101974 -0.279529 0.114611 -0.194397 -0.0965364 0.0902206 -0.102126 -0.107467 -0.121068 -0.109148 0.0706028 -0.054307 -0.20067 0.325049 -0.277572 -0.168583 -0.0765551 0.0221589 -0.0242259 0.461117 -0.0794344 -0.0450662 0.0797507 0.121241 -0.0100295 0.0737533 0.363762 0.416218 0.0619559 -0.282983 0.156178 -0.17207 -0.0503389 -0.301988 0.0826529 0.0312464 -0.133354 -0.0571417 0.215599 -0.120225 -0.219598 0.149991 -0.331886 0.253434 -0.247172 0.327143 -0.0286892 -0.111239 0.0897009 -0.307213 -0.00679805 -0.235925 -0.281392 -0.036633 -0.155148 0.0288114 -0.0454077 0.292951 -0.254299 -0.27711 -0.155167 -0.109627 -0.0161417 0.0273126 -0.0995228 -0.0798258 -0.0245779 -0.299869 -0.185771 0.191466 0.0318939 0.188984 -0.143219 0.0852692 -0.0370259 0.184591 -0.00451279 0.317019 -0.115359 0.05695 -0.226632 0.0916991 0.0699599 -0.0602418 0.263571 0.208048 -0.260601 -0.238375 0.239852 -0.011131 -0.143227 -0.0656412 -0.287546 -0.235527 -0.00100672 0.233753 -0.154831 -0.136358 0.00487213 -0.147857 -0.00782284 -0.233014 -0.336713 0.0322882 -0.320452 -0.156979 -0.0994563 -0.0438756 0.263176 -0.245699 -0.26862 0.142676 -0.0677117 -0.304482 0.104211 0.497565 0.025836 -0.160518 -0.160843 0.0381411 -0.00568163 0.0830562 0.224758 0.0986395 -0.0967191 -0.0997672 -0.0302633 -0.02897 0.0154702 0.00309842 0.0819568 -0.000598962 -0.256367 0.0897103 -0.137931 0.264265 0.209584
death 0.133232 0.146019 -0.0649627 0.120182 -0.0332455 0.159182 0.018814 0.0241891 -0.033821 0.122156 0.0230265 -0.062769 0.0649744 -0.00488754 -0.366144 -0.0318107 0.134404 -0.151527 0.284921 0.0276911 -0.116104 -0.00744448 0.0915573 -0.194829 0.223562 -0.0737866 -0.199408 -0.142791 0.0990301 0.310039 -0.145965 0.0795674 0.244031 -0.185346 0.0607999 -0.0887498 -0.120564 -0.112522 0.000169298 0.0136192 0.0890658 -0.238332 0.00820801 -0.0459097 0.507308 -0.0579191 0.17129 -0.119022 0.0778585 -0.200876 0.130285 0.0158546 0.111345 0.00566183 0.0730244 0.121075 0.163681 0.0656222 -0.120295 0.0980176 0.153693 0.182442 -0.0694111 -0.057815 0.0290839 0.173686 -0.0100191 0.0474886 -0.0358253 -0.0743088 0.274755 -0.193406 0.287244 -0.235051 0.364142 0.0667965 0.0606472 -0.0929082 -0.104965 -0.221723 0.0397358 -0.0393822 0.000932629 -0.0530618 -0.0582524 -0.000484237 -0.199504 0.204952 0.0213592 -0.0683955 -0.090111 0.13724 0.0245981 0.139312 0.0912875 0.145571 -0.182157 0.102478 0.112011 0.0185918 0.128252 -0.0478052 0.178395 0.00423976 -0.0673388 -0.038818 0.284776 -0.177573 -0.0097334 -0.0652585 0.090428 0.0534692 0.0602573 0.0632009 -0.287869 0.0362173 0.0978333 -0.107463 -0.0124774 -0.267164 -0.0050746 0.138327 0.104422 -0.147138 -0.211884 0.0258915 0.0379716 -0.0281238 -0.208474 -0.205271 -0.0511635 0.17406 0.0109136 -0.0388137 -0.225699 -0.105679 -0.0923776 -0.0454421 -0.0621366 -0.0893543 -0.167106 0.0560396 -0.266751 0.297682 -0.0945411 0.0981297 -0.00606222 -0.0324239 0.0333725 -0.0243825 -0.0706222 -0.0493477 0.0784424 0.212757 -0.102756 -0.0470132 0.216382 0.0510433 0.0548964 -0.0503855 -0.14214 0.104509 0.175653 -0.100576 -0.181698 0.13162 0.144045 0.263311 0.0357228 0.0349558 -0.111221 0.0810761 0.0392165 -0.00366947 -0.0141841 -0.126883 0.156126 0.179008 -0.208297 0.0271639 0.117576 0.175452 -0.0317956 -0.14645 0.0352213 0.172398 0.100683 -0.12641 -0.0843915 0.0191493 0.287889 0.179196 -0.303841 0.272273 0.0614334 -0.108845 -0.222203 0.22449 0.0654002 0.00109536 0.223837 0.0294197 0.026531 -0.189588 -0.0982778 -0.0384838 0.259592 -0.089762 -0.081002 0.244728 -0.0708912 -0.144635 0.017111 0.0537548 0.121148 -0.108402 0.0271601 0.052212 -0.249418 -0.12419 0.211501 0.219169 0.0659387 -0.00950848 0.125166 -0.143999 0.102521 0.186958 0.0412883 -0.111305 0.211882 -0.0605843 -0.0516216 -0.0745042 -0.0629417 -0.140635 -0.0601528 -0.269181 -0.0486732 -0.0545606 -0.120356 0.0695524 -0.0931462 0.0517972 0.11351 0.0140233 0.0328538 0.0595275 -0.0359768 0.0404253 -0.249987 0.00443509 -0.0411742 -0.401637 0.0463988 0.0313132 0.154441 -0.0257312 0.164137 -0.171687 -0.0217642 -0.126675 -0.157067 0.0908075 0.314516 -0.0202261 0.0405826 -0.0466482 0.37252 -0.0850466 -0.163675 -0.0555565 0.0994384 -0.0627771 -0.111715 0.20847 -0.0337681 0.0410032 -0.212038 -0.0684502 -0.122283 0.189931 -0.18336 -0.0857701 -0.0668728 0.0887113 -0.0487918 -0.000898464 0.237329 -0.290231 -0.158589 -0.0640483 -0.0903116 0.194642 -0.126252 0.0226851 0.129078 0.310927 0.374009 0.107266 -0.0145696 0.113481 0.112498 0.00143543 -0.0432917 0.126624 0.0973211 -0.038919 -0.0834721 0.213376 -0.177387 0.122595 0.0620851 -0.288271 0.0799075 0.0181144 -0.0418175 -0.0384925 -0.0558755 -0.0542858 0.0333234 -0.0280245 -0.406431 -0.174778 -0.020879 0.0580152 -0.121444 0.0824763 0.00677737 0.0834028 0.047493 -0.0152811 -0.110187 0.173771 -0.0439265 0.0927895 0.268116 -0.0235309 -0.284674 0.0269432 0.118767 -0.210733 0.0125173 0.1251 -0.0775196 -0.0657161 0.158441 -0.00629596 0.151926 0.110745 -0.0441159 -0.0556494 0.0238349 0.00160458 0.0856146 0.0157764 0.132589 0.00311732 0.289914 0.373279 0.111906 0.0407487 0.027483 -0.124828 -0.110848 -0.0332137 -0.067021 -0.165461 0.152963 -0.119572 0.104503 0.215685 -0.00325594 -0.0500917 -0.0112929 -0.0542247 0.036638 -0.185863 -0.148908 -0.136828 -0.0152116 0.206918 0.0533585 0.0042656 0.033622 0.0696824 -0.113637 -0.0806218 -0.145255 0.313096 0.345969 -0.117185 -0.116926 -0.275705 0.0428578 0.00901362 0.0179638 0.200354 0.17866 -0.0247077 0.18239 -0.16548 0.21409 0.0757951 -0.135807 -0.159527 -0.139104 -0.137147 -0.172812 0.0320895 0.0787819 -0.110668 0.142584 -0.0722342 -0.000592549 -0.127102 -0.05883 -0.276731 0.212447 0.077642 -0.0747744 -0.264295 -0.063847 -0.0436307 0.0104874 0.286597 -0.30628 -0.27641 0.0678419 -0.00963145 0.0599988 0.0829243 0.0642228 0.176155 -0.0609261 0.00280978 -0.26663 -0.018228 0.186037 -0.00208604 0.00977418 -0.0361078 -0.194768 0.121562 0.0809563 -0.13064 0.0366011 0.170838 -0.208598 -0.196931 0.0585556 -0.143959 -0.0497465 0.0457169 -0.0436097 -0.0300143 0.104146 0.120062 -0.15863 0.181939 -0.103319 -0.166973 -0.224175 -0.106392 0.144288 0.00251076 0.00197949 0.0618934 -0.0126206 0.161809 0.0828668 -0.118489 0.112788 -0.0791511 -0.0478771 0.107244 -0.120975 -0.17394 -0.0270111 0.109175 -0.257254 -0.0124679 0.107377 0.271314 -0.161649 -0.0271706 0.0710821 -0.00575766 0.042955 0.132211 0.0201284 0.00753973 -0.189939 -0.119413 0.0424805 0.0394996 0.119031 -0.0977729 0.198777 0.0839653 -0.0834364 -0.0175827 0.00518373 -0.0177971 0.138857 -0.161852 -0.00948682 -0.155404 -0.0813827 0.123069 -0.00693986 -0.214755 -0.100045 0.375879 -0.0269326 0.135983 -0.365708 -0.0607163 -0.293171 0.0176689 0.0210382 0.0655427 -0.00600674 0.0618496 -0.00865191 -0.0940842 0.0854325 -0.0400969 -0.132077 0.202518 -0.226399 -0.00757512 0.077393 -0.0230658 0.0535577 -0.113021 -0.0117215 -0.229855 -0.00644819 0.0206069 0.121738 0.23389 -0.0268947 0.147169 -0.110194 0.149967 0.179703 0.0628612 0.112566 -0.122959 0.0129217 -0.0777678 0.0812699 -0.151443 -0.053119 0.165407 -0.0518125 0.0425312 0.148615 -0.139424 0.0642061 -0.145839 -0.117311 -0.058422 -0.0751859 0.141023 0.0300031 -0.0440983 0.0667401 -0.260912 -0.0364843 -0.210781 -0.136615 0.0470425 -0.0649572 0.0118687 0.111756 0.0813874 -0.275541 0.0596194 -0.00953815 -0.205381 -0.0585535 0.00394885 0.0135244 -0.0607312 -0.0463432 -0.173507 0.101992 0.266441 -0.0526933 0.00369605 0.0467931 -0.213048 -0.176446 -0.173367 0.0567801 0.00333489 -0.0556916 0.209083 0.0560752 0.194506 0.118702 -0.18253 -0.171091 -0.0575032 0.00824738 -0.181887 0.14133 0.0677774 0.132372 -0.181658 -0.0851869 0.00396092 0.351421 0.0847903 0.0400962 -0.082567 -0.0299838 0.0691869 0.0556135 -0.0993343 -0.059039 -0.0890907 0.111267 0.282554 -0.100934 -0.0711315 0.00206008 -0.0238029 0.0483816 0.0293425 0.167567 0.0168514 -0.17067 -0.0512375 0.143192 -0.0963856 0.0292524 -0.0541174 0.140334 0.0767388 -0.0405857 -0.0339922 -0.131412 -0.10167 0.16056 0.0302955 0.043358 -0.367384 0.24889 0.0473478 -0.0813358 0.125775 0.0794483 -0.00970315 -0.183612 -0.40625 -0.106404 -0.21048 -0.159028 -0.114977 -0.0360696 0.235776 -0.314679 -0.0909419 0.128201 -0.0211841 0.00425718 -0.00956573 -0.0285699 0.0792036 -0.106333 -0.286027 0.111816 0.19591 -0.187106 -0.156028 -0.0671924 -0.108182 0.0198733 -0.0943054 -0.204416 -0.114427 -0.154309 -0.0386391 0.134723 0.259106 -0.0871088 0.0390972 -0.11255 0.258119 -0.0451674 0.181521 0.127447 0.277727 -0.0268925 0.131775 -0.246268 -0.231169
image 0.288043 0.095164 0.0519562 0.182063 0.079994 0.0962403 -0.0267842 0.129544 0.202302 -0.107215 -0.247196 0.0654439 0.0121421 0.0767287 0.290288 -0.0637287 0.0436537 0.0761162 -0.0890815 -0.0243723 0.214586 0.100909 -0.0272584 -0.375092 0.121527 0.181735 -0.102094 -0.115963 -0.0310897 0.163459 0.107136 0.138026 0.110672 -0.240397 0.0958626 -0.0704584 0.0431312 0.161622 -0.0324325 -0.334842 -0.0686374 -0.177971 -0.133932 0.115915 -0.0146862 0.383044 -0.0319865 0.126737 0.0663323 0.0307325 -0.121822 -0.0282059 0.0276399 -0.109518 0.0131147 -0.165332 0.322331 -0.0677652 0.116664 -0.0494946 -0.277711 0.0282962 0.0718817 -0.218384 -0.0853126 -0.285676 0.0964108 -0.156074 0.109542 0.0916899 0.0169645 -0.000801232 0.0395579 -0.10566 -0.213357 0.150777 0.200096 0.0506836 0.0580421 0.157447 -0.00129002 0.05442 -0.193471 -0.145484 0.136615 -0.164261 0.0298005 -0.297292 0.427843 0.383685 0.0834926 -0.0984577 -0.0430405 -0.0855079 0.12467 -0.117708 -0.291637 -0.0831717 -0.0567033 -0.219699 0.201981 0.0704046 0.0527387 0.0104074 0.0491555 0.0281885 -0.0435674 -0.0099532 0.117418 -0.19001 -0.0966426 -0.0479667 0.21287 -0.11843 0.128203 0.00387375 -0.125721 0.0709532 0.111713 0.291101 -0.166523 -0.087224 -0.097731 0.154418 -0.0921083 -0.0712267 0.168299 -0.0721904 0.318716 -0.0604042 0.0966395 0.000532381 0.0260892 0.0100627 -0.167064 0.160842 0.0475721 0.0421134 -0.238889 0.0590291 -0.0807207 0.0915647 0.165803 -0.0938467 -0.0180737 0.0275156 -0.21229 -0.0662416 -0.0096364 0.277217 0.158904 -0.0368814 -0.0182123 -0.0661182 0.0455738 -0.152165 -0.0974148 -0.0322154 -0.158786 -0.010682 -0.0222737 0.0999397 0.121434 0.0546702 -0.17767 0.0657554 -0.0962376 0.170395 -0.0561718 0.23378 -0.127946 -0.0687976 -0.0854524 -0.00520164 0.315477 -0.163627 0.15728 -0.0243381 -0.252812 -0.25174 0.093153 0.167016 0.192513 -0.120911 0.289307 -0.186035 -0.105404 0.346482 0.190046 -0.148511 0.0829875 0.0508658 -0.233672 -0.0847478 0.112779 0.296649 -0.127381 0.0644493 -0.202168 -0.0463417 0.325823 -0.045718 -0.0227961 -0.0376115 0.0730364 0.103876 -0.0943393 0.207669 0.0788429 0.159939 -0.118737 -0.0205861 0.0189379 -0.0401135 -0.0857646 -0.0840857 0.0659543 0.0380698 -0.0732464 0.165788 -0.135142 0.131721 0.0466168 0.0206162 -0.123363 -0.0736761 0.115508 0.00400875 0.11544 -0.137043 0.238975 0.0921352 -0.0772983 -0.128899 0.0186768 -0.0683138 0.134104 -0.107655 -0.111125 0.0368768 -0.29221 0.0843635 -0.130579 -0.0120466 0.0227767 -0.250608 0.035903 0.342968 0.0811763 0.0356964 -0.0278697 -0.0313208 0.0362238 -0.289668 0.192151 0.0258495 -0.173288 -0.158578 0.168103 -0.0664294 -0.2614 -0.0822027 0.0640618 -0.278622 -0.10412 -0.0732437 0.0470118 -0.104947 0.130437 0.0147072 -0.0204384 -0.0738024 0.00511109 0.317203 -0.108197 -0.253824 -0.0698871 0.0782416 -0.212129 -0.0707953 0.180569 0.161628 -0.0606409 0.13527 0.055728 -0.0728996 0.13359 -0.0361544 0.132823 -0.29657 -0.0707897 0.0928333 -0.0052956 0.209105 0.202138 -0.0430258 -0.0952421 -0.0527053 0.0780072 -0.182316 -0.101172 -0.0582949 0.0904526 0.0438741 0.0152547 -0.0365789 0.0718119 0.135414 -0.0158353 -0.179653 0.0889658 0.00485637 -0.124584 0.136734 -0.0830246 0.181396 -0.257381 -0.0173656 0.224076 -0.121219 0.0427702 -0.0425475 -0.00925217 -0.211047 -0.0973107 0.0346719 0.101446 0.118569 0.077007 -0.0829461 0.00315667 -0.140429 0.00176779 -0.12447 0.0404457 0.030813 0.128656 -0.0666562 -0.00916211 -0.0768811 0.00445686 0.221658 -0.135936 0.188017 -0.136713 0.0936527 0.0696355 -0.137992 0.109544 0.253015 0.000484074 -0.141334 -0.055823 0.103515 0.172601 0.0153871 -0.0579123 -0.126876 0.293433 -0.0555798 0.111421 -0.165714 0.127927 -0.131401 -0.129856 -0.176526 -0.00612014 0.0644732 -0.0357914 -0.0322672 -0.0965167 0.0150164 0.206226 -0.0389006 -0.0203764 -0.0557163 -0.393636 -0.0181387 0.24326 -0.0377319 -0.0677328 0.158715 -0.0563365 0.0157181 0.114907 0.0431788 0.0916757 0.0847808 0.212647 0.051563 0.0514909 -0.194853 0.0472917 0.0451488 0.0258735 0.119853 0.0999416 0.104654 -0.0596865 -0.173461 -0.169562 -0.296598 0.205782 -0.25046 -0.134848 -0.295416 -0.0443961 0.167605 0.185159 -0.101812 -0.0340967 -0.0145704 0.168189 0.156993 -0.111562 0.203368 -0.0217637 0.163544 0.28295 -0.0152713 -0.0225155 0.00511293 -0.0742228 -0.0481855 -0.1301 -0.0324793 0.0440819 -0.240616 -0.281317 -0.118668 -0.139487 -0.0562699 -0.0807932 0.203558 -0.104457 -0.0729755 0.125619 0.142348 -0.0158877 -0.0669668 -0.177577 0.133822 0.117049 0.161374 -0.21878 0.00170219 0.0300563 0.101256 -0.0171104 0.10506 0.158884 0.077131 0.0900446 -0.0354326 0.324275 -0.305056 -0.0626208 0.339358 -0.105301 -0.220379 0.135131 -0.221598 0.0346263 -0.061016 0.317932 0.253565 0.14407 -0.120423 0.193509 0.0546582 0.140961 0.0261185 -0.171582 0.0953358 0.104649 0.0736152 -0.040325 -0.091333 0.115714 0.00963802 -0.0837935 0.113202 -0.0608627 -0.130499 0.0840514 0.0631869 0.0874548 0.0704328 -0.170758 -0.116754 0.14314 0.00441369 0.0769045 -0.115801 -0.106504 -0.18836 -0.17624 0.0610042 -0.022991 0.0392721 0.126608 -0.274438 0.0642451 -0.0473913 0.136499 -0.125119 -0.187655 -0.180188 -0.107148 0.148152 -0.138657 -0.0145212 0.1692 -0.0755156 0.0112855 -0.187005 -0.0829621 0.203039 -0.0272772 0.385017 -0.260881 -0.157376 -0.110383 -0.0366736 0.156958 -0.0765049 -0.0913288 -0.0230257 -0.1167 -0.0594736 -0.0968962 0.0939969 0.132537 -0.172171 0.0388851 0.0463159 -0.125223 -0.0421972 -0.0525799 0.0989675 -0.0169742 -0.102642 0.0709615 0.0453541 -0.0028094 -0.00312386 -0.0801326 0.0472795 -0.104058 0.0215597 -0.126657 -0.0610155 -0.00929687 -0.045181 -0.180438 0.0446729 0.110244 -0.181422 0.0240581 0.0113745 0.194906 -0.0537124 0.0647388 -0.0237261 -0.185254 0.311626 0.0241287 0.00846992 -0.0292333 -0.179085 -0.228219 -0.146337 0.0280838 -0.205732 0.00205379 0.16296 -0.216526 -0.0781101 -0.120912 -0.202495 -0.1893 0.112485 0.0544859 -0.0412172 -0.179198 0.0895755 -0.0872011 -0.138128 -0.101794 0.210511 -0.232559 0.145362 -0.218951 0.0193276 -0.109312 -0.0806856 0.0325204 -0.123229 0.0182691 0.0401195 0.32759 -0.0668774 -0.0759455 -0.185515 0.210045 0.014884 0.0143658 -0.114654 0.295544 0.00477209 0.194303 -0.0606639 -0.0637749 -0.115356 -0.00173608 -0.218108 -0.0855386 -0.234114 -0.125388 0.151462 -0.0217824 0.162971 -0.347134 -0.0218524 -0.210066 0.030116 0.0159428 0.174805 -0.077022 -0.135084 0.0275461 0.136162 -0.0781236 0.050485 -0.339629 -0.107443 0.00374138 -0.163357 0.0213753 -0.197853 0.0448402 0.117963 0.0993999 0.141726 -0.0649147 -0.0522145 0.194473 -0.0660886 -0.076006 0.0123481 0.0231311 -0.132754 0.115404 -0.0421429 -0.0511344 -0.071258 -0.0440539 -0.190088 0.104776 -0.219811 0.112109 0.111309 0.00693782 -0.050483 0.0888248 0.194563 0.196136 -0.0102074 -0.0774626 -0.0463926 -0.188216 0.0916325 -0.032265 -0.170385 -0.199888 0.0571015 -0.0419991 -0.149091 0.165566 -0.448879 -0.211176 -0.0970905 0.0378984 -0.0360931 0.115064 0.135348 0.0220179 0.0599345 -0.146425 0.0986728 0.105679 0.164682 0.157033 -0.0973938 0.0126734 -0.067062 0.0899826 0.104938 0.0922392 -0.0831839
theater -0.151276 -0.301338 -0.152651 0.140554 -0.0997703 -0.00300324 0.242775 -0.143581 -0.330088 0.0667848 0.0543807 -0.191486 -0.0673442 -0.0795385 -0.00251685 -0.365521 -0.186631 0.0813479 -0.179043 -0.19087 0.15812 0.125215 -0.0197058 -0.219687 -0.0751584 0.138859 0.0711393 -0.0731452 0.0710129 -0.19673 -0.0291275 -0.0365728 0.112185 -0.223897 -0.0408708 0.18701 0.111806 0.0553747 -0.00433045 0.175515 0.0060868 0.0496127 -0.0304738 -0.0803499 -0.131007 0.268023 0.0308736 -0.198979 -0.0552175 -0.176714 0.126147 -0.0862392 -0.127927 -0.0453449 0.099479 -0.0530009 0.266127 0.157856 0.0682449 0.0703132 -0.161298 -0.172678 -0.013678 0.0855205 -0.149177 0.211255 0.164575 0.225418 0.0670712 0.0845227 0.181016 -0.145902 -0.264705 0.112327 -0.127338 0.170391 -0.030406 -0.226094 -0.107683 0.0594823 -0.0818354 -0.0481382 -0.201975 -0.0669768 -0.0676338 0.0902776 -0.0343981 0.0480982 -0.140686 -0.305987 0.0437838 -0.0859856 0.0636047 -0.234154 0.203212 2.84326e-05 0.0992774 0.166448 -0.0089293 0.030335 -0.152703 0.166556 -0.0407052 -0.0987622 -0.464035 0.0726826 0.0519347 0.11567 -0.30401 0.194846 0.119688 -0.0491352 0.069334 -0.101034 0.0910147 -0.131556 -0.0892102 -0.00752008 0.112913 -0.247441 -0.227708 0.034465 -0.106963 0.122336 -0.0340092 0.0431569 -0.165806 0.129207 -0.0829175 -0.162158 -0.062205 0.016866 0.0894211 0.0435815 -0.489799 0.114048 -0.0707204 -0.0433088 -0.138005 0.0407244 0.0979106 -0.189382 0.166157 0.0916823 -0.270413 0.081868 -0.286677 -0.394643 0.169575 -0.202316 0.224346 0.15929 0.0700724 0.261202 -0.00290881 0.183197 0.0618311 -0.036488 0.00561431 0.128353 0.0892859 -0.0517494 0.0974206 0.104177 -0.406054 -0.113061 -0.0612092 0.00252847 -0.0823927 0.148476 0.0595779 0.0941814 0.0160463 0.0640397 -0.237382 0.20463 0.00135564 0.0916005 -0.214012 -0.106876 -0.361258 0.30638 0.31243 -0.135267 0.0523731 -0.11915 0.0559752 0.104751 0.260906 -0.138728 0.0848347 0.0491177 0.0183173 0.160095 -0.040487 0.201491 -0.0799906 -0.150025 0.0771556 0.0830839 0.459553 -0.307464 -0.118136 -0.233063 -0.0950435 0.112794 0.0192725 0.0247634 -0.130419 -0.141706 0.023085 -0.0514944 -0.0511146 -0.205438 0.330108 0.330717 0.0819484 0.142361 -0.0628817 -0.213764 -0.00253721 -0.154043 0.10984 -0.00169774 -0.0559619 -0.125512 -0.15716 0.182553 0.498818 -0.130467 -0.0303269 -0.222933 -0.0504631 0.141423 0.00305248 -0.280337 0.0400902 -0.121777 -0.0280046 0.0705249 0.0732067 0.0715908 0.0551155 0.205456 0.135103 -0.201917 -0.0108781 0.257426 -0.0361169 -0.0285599 -0.151317 0.0912783 0.07278 -0.183335 0.0868163 0.272057 0.185202 -0.0558061 0.0803951 -0.0927303 -0.0457483 0.0354728 -0.190978 -0.190309 0.255492 -0.0460995 -0.481045 0.267459 0.31722 0.0607309 0.151864 0.294529 0.0705414 0.000718874 0.18683 -0.125951 -0.105114 -0.212613 0.237997 0.214827 -0.101613 -0.25475 -0.278999 -0.0825113 0.0263353 0.0950255 -0.228259 -0.0562146 0.195918 0.10588 -0.236611 0.176057 -0.0384583 0.165395 0.199574 0.225648 -0.161852 -0.0273063 -0.0204293 0.125041 0.19884 -0.212201 -0.0639993 -0.302678 -0.00907816 0.136324 -0.0557206 -0.104235 0.232906 -0.0773845 -0.00919623 -0.136537 -0.240022 -0.165365 0.0556039 -0.0982613 0.0335254 0.261411 -0.120232 -0.393025 0.0200444 0.252001 -0.128959 0.0152668 -0.308977 0.102085 -0.0411495 0.147505 0.187024 -0.0303506 -0.0228589 -0.00421796 -0.0111209 0.111204 0.076676 0.135904 0.300594 0.179866 -0.224762 0.220756 0.0725332 -0.105842 0.0878789 -0.0721292 0.142814 0.102741 0.14798 0.0749618 0.101951 -0.091898 -0.115164 0.0044322 0.0772754 -0.332944 0.0991612 -0.0892727 0.0220185 0.163291 0.253825 0.0108563 0.253208 0.119246 -0.0355665 0.0881734 -0.278194 -0.0982368 0.175599 0.144541 0.0200017 -0.18666 0.128081 0.269443 0.0322622 0.133425 -0.255103 0.403426 -0.180147 -0.134299 0.107909 0.0776704 0.0628259 -0.21018 0.235356 0.104189 0.0442524 0.160329 0.0197955 0.161325 -0.0974603 -0.464909 -0.0823428 0.133199 -0.0611518 0.0490158 -0.0509308 0.120958 -0.102869 0.168238 0.137316 0.0460785 -0.0054242 0.112999 0.098372 -0.288979 -0.418413 -0.0493279 -0.176687 -0.108108 -0.172135 0.116148 -0.150585 -0.0481518 0.215049 0.379643 0.0474156 0.0267115 -0.124533 -0.218781 0.0475592 0.0625372 -0.136454 0.314283 -0.0604381 -0.0554725 -0.286251 -0.0795619 0.126282 0.0551002 0.0242513 -0.134054 -0.0273048 0.0247588 0.088379 -0.296253 -0.199286 0.0610731 0.0148392 0.187937 0.168898 0.24399 -0.0341914 0.0175694 0.182285 -0.158581 -0.076515 0.0496138 0.112355 0.139515 -0.0230464 0.108611 0.075121 0.0766565 0.201328 -0.117178 0.048453 -0.176036 0.036049 -0.0145685 -0.252029 -0.168079 0.0403907 0.0219563 -0.0817662 0.0167953 0.0649415 0.333258 0.346211 0.254021 0.207458 -0.0977371 -0.00373082 0.0934109 0.0100369 0.108569 -0.17471 0.229734 -0.28557 0.0569692 0.0365442 -0.0736903 0.020948 0.0953459 -0.106673 -0.0694464 -0.0857959 -0.0557188 -0.130541 0.181012 0.230705 0.0214721 -0.127216 -0.0324842 -0.166238 0.000118297 0.307686 -0.104839 -0.0649737 0.157646 -0.0251687 0.151901 0.254135 0.0842218 -0.119129 0.18389 -0.112089 -0.0497515 -0.0575355 0.0575064 -0.247655 0.118275 -0.249643 -0.0617484 0.102434 -0.085063 0.0107795 -0.0567579 -0.274775 -0.0293663 0.137793 0.0122846 -0.0370071 -0.00360182 -0.037948 -0.0508901 -0.171044 0.0887862 0.0586306 0.171372 -0.133112 -0.242323 0.0447384 -0.0488376 -0.114105 0.0973799 0.00993196 0.0307938 -0.0545291 -0.422186 -0.104997 0.238855 0.140123 -0.111117 -0.137457 0.00258651 0.172273 0.0966549 -0.06942 -0.171162 0.0666111 0.243192 0.0518936 0.0420064 -0.10638 -0.0190076 -0.127587 0.0715541 0.0878044 -0.123148 -0.0434203 0.0328583 -0.257774 -0.113713 -0.0317624 -0.0295197 0.0741239 0.167187 0.366498 -0.146815 0.139819 0.00294661 -0.0217947 0.0673183 -0.272317 -0.0392289 0.0832492 -0.0616757 -0.105908 0.291048 -0.191347 -0.0592169 0.109699 0.156723 -0.154494 -0.010865 -0.0299456 -0.310763 0.0657874 0.295738 0.124712 0.0917999 -0.0184986 0.0115137 -0.328189 0.302371 -0.0358479 -0.0985334 -0.165184 -0.0617599 0.0153983 0.0911153 0.0620894 -0.130151 -0.130869 0.0740442 0.0675896 0.115227 -0.12651 -0.355112 -0.317561 -0.0309697 -0.0177712 -0.0185247 -0.186825 -0.0650699 -0.206864 -0.0996016 0.115697 0.122903 -0.0542353 0.031719 0.217667 0.0745124 -0.337197 -0.21922 -0.215909 -0.102933 -0.131239 -0.145997 -0.00948052 0.0591235 0.144966 -0.117857 -0.103095 0.0556102 -0.0157816 0.10331 -0.0323854 0.190324 0.0583584 -0.291002 0.014847 0.171584 -0.0540909 -0.0881306 -0.0446516 0.152593 0.111465 0.0675995 -0.0825262 -0.127426 0.0782503 -0.227086 -0.00863582 0.0890405 0.0383888 -0.123364 -0.152326 -0.260285 -0.213076 0.0254639 0.133813 -0.192225 0.0250468 0.186888 -0.129395 0.188571 0.0262343 0.129253 0.0404683 0.0852554 -0.14717 0.177097 -0.0159651 -0.127452 -0.0179326 0.0155101 -0.0881605 -0.173374 0.0456022 -0.111813 -0.127732 0.110011 -0.208566 -0.0856897 0.163575 0.209739 -0.222396 0.202222 -0.175884 -0.357103 0.0663407 0.0699138 -0.132578 0.16232 0.135518 0.227234 0.0167943 0.0718867 0.108031 -0.248071
number -0.115823 0.0599624 0.0311661 -0.133349 -0.0938325 -0.0734562 0.0112613 0.171314 -0.0611036 0.0853368 0.039616 0.305802 -0.0807232 -0.172679 0.0538879 0.0344439 -0.0398044 -0.198372 0.166195 0.0453935 0.0582868 0.246334 0.0816535 0.133053 -0.0747227 -0.0689066 -0.157018 -0.187165 0.00290663 0.0830653 0.0540864 -0.195989 0.0492656 -0.119779 -0.172145 0.0580668 0.0230164 0.0745745 -0.0437298 0.0614336 -0.0228689 -0.0028622 -3.75782e-05 -0.00390919 0.157185 -0.00242347 -0.0707326 0.1491 0.0453104 0.268743 -0.0821374 0.0140389 -0.0212636 0.039068 0.267247 0.0576427 0.00609368 0.0499841 -0.139432 0.0959679 0.0995684 -0.200022 0.00645582 0.0920188 -0.105399 -0.04848 -0.0217888 -0.0376042 0.223284 -0.0387283 0.0224235 0.229676 0.149987 -0.14418 -0.0464724 -0.0578182 0.181116 -0.112659 0.144633 0.150424 0.0724839 -0.10526 -0.174169 0.0228837 0.199368 0.0370168 0.100608 0.00290666 0.226773 0.103843 0.0283104 0.0260704 -0.12013 -0.0208249 -0.0246306 0.0380425 -0.0109048 0.0519087 0.168692 0.138869 0.038785 -0.0403663 0.145312 -0.0330711 -0.229445 -0.265434 -0.00744652 0.0930587 -0.0708348 -0.127107 -0.116584 -0.161482 0.086322 -0.094267 -0.00152513 -0.0485725 -0.0276673 0.137479 -0.0164056 0.0119901 0.0192798 0.137478 -0.193933 0.138583 -0.144464 -0.0260196 -0.012939 -0.0992995 0.0934388 0.112531 0.0202003 -0.205118 -0.222938 0.0972565 -0.109247 0.0107665 -0.0212254 -0.233773 0.0218592 -0.0126476 0.0977632 -0.0469002 -0.178323 -0.0282408 -0.0547302 -0.0180514 -0.130899 0.0371777 0.0647718 -0.0687146 -0.00839686 0.191686 0.133548 0.0114531 0.155813 -0.0017205 -0.0138454 0.0993146 -0.154629 -0.201472 -0.0626163 0.0176897 -0.096321 -0.258235 0.13142 0.0576545 -0.0106639 0.238591 -0.0683495 0.0498766 0.00936634 0.0343692 -0.0571721 -0.161083 -0.131988 0.195372 0.0177246 0.147443 -0.374585 0.049219 -0.236076 -0.141834 0.0576315 -0.062505 -0.182332 -0.0631962 0.109624 0.14132 -0.149659 -0.109027 0.168265 -0.208947 -0.0164648 0.0785081 0.125797 0.00164022 -0.204492 0.0108277 -0.0526053 0.0299307 0.137211 -0.165145 -0.144114 0.149822 -0.0584392 -0.0236453 0.0252498 0.028622 0.101505 0.219607 0.00316755 -0.0609561 0.136511 -0.0879703 0.0682483 0.0379989 -0.141275 -0.0821521 0.142803 0.0162082 -0.0117534 -0.0331526 0.00211515 -0.072881 -0.0620024 -0.163489 0.110963 -0.018733 0.190762 -0.0101924 -0.241226 -0.0481131 0.164072 -0.297826 0.113152 0.127675 0.00588502 -0.0141168 0.0592591 0.0878138 -0.00961378 0.0713753 -0.159546 -0.0221753 -0.0217662 0.206981 -0.157917 -0.0391051 0.249005 0.0509328 -0.0591526 -0.183836 -0.0838332 -0.11326 0.0186672 0.0364503 -0.148548 0.00440405 0.179823 -0.111251 -0.0779122 0.0348075 -0.270737 -0.0204405 0.0382673 -0.0984371 0.0552561 -0.0247849 -0.00718944 -0.161269 0.117087 0.223014 0.0511941 -0.0651523 -0.234598 -0.0209528 -0.0793116 0.158704 0.130474 -0.0304872 0.0533952 0.211727 0.0719213 -0.175057 0.117773 0.206087 -0.122902 0.0223939 -0.0203775 -0.277359 0.131328 -0.145413 -0.0296252 -0.000357789 -0.0624339 0.170101 -0.0794969 0.136554 0.05888 -0.0195493 -0.0286598 0.10102 -0.360837 0.0568524 -0.0153061 -0.00722471 0.15355 0.00762072 0.171242 -0.0698055 0.110541 -0.209482 0.0717626 0.0343481 0.069274 0.0663094 0.113249 0.095015 -0.0722219 0.0630909 0.161976 0.056362 0.018288 -0.144025 0.0546677 0.00542407 -0.263629 -0.0464571 0.154906 0.0324637 -0.0231172 -0.0654283 -0.127759 0.112128 -0.0984722 0.144822 -0.154085 -0.0905012 0.0681677 -0.215012 -0.197488 -0.174124 -0.0579735 -0.168197 -0.0913419 0.0384512 -0.0661867 -0.174705 0.104549 0.111236 0.189141 0.111216 0.0822726 0.0290319 -0.0201985 0.135471 0.159867 -0.0442613 -0.0402506 -0.0218585 -0.0583455 -0.0389191 0.100142 -0.059548 0.147645 0.166741 -0.0483403 0.197529 0.138372 -0.0180711 -0.105185 0.156534 -0.0196824 0.0330456 -0.0520107 -0.00957928 -0.121312 -0.0808595 0.0749946 0.013088 0.0600696 0.162287 -0.166533 0.0595916 0.131455 0.163892 -0.0628398 -0.1983 0.0167045 -0.333405 -0.0886019 0.0225497 -0.031164 -0.162388 -0.0721386 0.104245 0.07568 0.0916641 -0.00474315 -0.0220498 0.0279595 -0.0811195 0.21964 0.0775089 -0.13817 -0.192822 -0.068493 -0.0665832 -0.132291 -0.0836771 0.154948 0.168751 0.268275 -0.0986074 -0.0498163 0.0881936 0.121456 -0.118778 -0.0309319 0.00970671 -0.00181138 -0.176602 0.0495369 -0.0523102 0.0708834 -0.0373768 -0.0607764 0.0722773 -0.0965375 -0.10735 -0.0412277 0.102852 0.0190053 -0.0969393 -0.0814491 -0.083415 -0.0288564 -0.0423764 -0.0227415 0.0509881 -0.317469 -0.00931238 -0.0683637 0.222219 -0.084824 0.0406543 0.164588 0.0180671 -0.0590815 -0.261419 0.0025236 -0.214715 0.193657 -0.207989 0.1609 -0.0653517 0.0949842 0.125865 -0.0496667 0.0282969 0.0760237 -0.353139 0.121618 0.0811752 -0.0122355 -0.210278 -0.0149208 -0.0853861 0.0490121 -0.0438134 -0.0334363 0.0448383 0.11175 0.0602814 -0.094994 -0.0406666 -0.0814581 -0.144678 0.0648999 -0.0142287 -0.0664717 0.135833 -0.0991165 -0.145306 -0.173211 -0.124808 -0.0590153 0.20362 -0.273667 0.107809 -0.0899009 0.100856 -0.0896002 -0.0128247 0.0125201 -0.2256 -0.06968 -0.0992184 -0.00170206 0.105958 0.224376 0.00440389 0.232589 -0.0224164 -0.015573 -0.13573 0.0988841 0.110127 -0.0514553 0.129985 0.195707 0.125821 0.0848237 -0.0365092 -0.236177 -0.00743823 -0.105534 0.0340658 0.00081069 -0.0388381 -0.111996 -0.136278 0.0338243 -0.0819355 -0.0744987 0.118003 0.0580855 0.0816449 0.0900807 0.159811 -0.165019 0.220197 0.0313872 0.118441 -0.0958175 -0.0217727 -0.0995352 -0.171394 -0.10852 -0.164232 -0.0279957 0.0993721 -0.192386 -0.265088 0.0830008 -0.0594298 0.00954499 -0.105769 0.0474802 -0.172466 0.00176284 -0.0696755 -0.0085994 0.00334515 -0.0634741 -0.030258 0.0975137 0.122506 0.203181 -0.0819801 0.00274283 -0.0231218 0.064256 -0.177068 0.089342 0.0209796 -0.0677472 -0.0151986 0.0605876 0.0564046 -0.392138 0.0316868 -0.0311485 0.0077407 0.207647 -0.0161712 -0.0740602 0.204795 -0.102172 -0.0104747 0.235734 -0.109745 0.00114903 0.0406848 -0.190897 -0.0753222 -0.116602 -0.035931 0.0149485 -0.054615 0.0163639 -0.0389585 -0.0500072 -0.104738 -0.149709 -0.103019 -0.10925 -0.0294393 0.145564 0.087814 -0.139757 0.0598892 -0.0685277 0.106678 -0.0204118 -0.0910414 0.0153952 -0.192833 0.00225437 0.126999 0.374077 0.0335453 0.04369 -0.072722 -0.0791545 0.279064 -0.205789 0.0382817 -0.0673475 -0.0849094 0.0353407 -0.0182376 -0.160629 0.105738 -0.0640351 0.161461 -0.0585459 0.163365 -0.0950764 -0.058517 0.0931898 0.122614 0.070765 0.0350525 -0.0237518 -0.0075793 0.0191509 0.0537916 0.0740437 -0.0954067 0.0208948 0.00356646 0.0900105 0.00358533 0.0146607 0.289837 0.196381 -0.0100267 0.0373536 -0.0548391 -0.129629 -0.0403395 -0.152331 -0.134812 0.145622 -0.0150242 0.120599 -0.123294 -0.0689626 -0.000359318 -0.118798 0.0209759 -0.0701878 0.135294 -0.156284 0.116013 -0.195213 -0.0301921 0.188765 -0.126875 -0.21442 -0.144517 0.0944269 -0.140429 0.114523 0.130923 -0.181103 -0.0672528 0.0211991 -0.000667091 -0.189598 0.178535 -0.000428734 0.0928492 -0.107021 0.291186 0.0702592 0.135747 -0.176778 -0.161473 -0.165058 0.0595835 -0.119652 -0.0554361 -0.0648709 0.19132 0.141258 0.0458847 -0.257248 -0.0371664
