437 300
president 0.239334 0.0711665 0.201851 0.126428 -0.0116546 -0.112305 -0.0451582 -0.0837002 -0.203529 0.0961759 -0.185772 0.179196 -0.169945 -0.148704 0.0871275 0.153717 0.0424158 0.228708 0.107487 -0.0164439 0.221109 -0.20745 0.0739663 0.062099 -0.0492957 -0.30725 0.0819649 -0.0256894 0.175655 0.0374557 0.184441 0.0643806 -0.133047 0.0289739 -0.0596749 -0.0709615 0.270081 0.252892 0.15106 0.195858 -0.00928805 0.0953897 0.0277663 0.0155625 -0.0143981 -0.054603 -0.0589085 0.0118368 0.081063 0.0889458 -0.162882 -0.0702089 -0.0786993 0.124371 -0.0831853 -0.0408625 0.219067 -0.0273421 0.212086 -0.050304 -0.121765 0.0180779 0.00598567 0.156356 0.180063 -0.290877 -0.136776 -0.12554 0.101075 0.138927 0.166475 0.357039 -0.102526 0.184562 -0.226333 -0.103549 -0.00311901 -0.317335 -0.314598 0.00453864 0.00794604 0.0981489 -0.0941864 0.294743 0.0590538 -0.0203453 0.0196834 -0.0634079 -0.16984 -0.260011 -0.0383682 0.0631532 -0.0265524 -0.453324 -0.186886 -0.0260887 0.0829085 0.00063193 0.262476 0.0625892 0.0679922 -0.105324 -0.0479835 0.16592 -0.0212453 0.0483138 0.11623 0.00446453 -0.129872 -0.0731497 -0.0189113 0.169434 -0.0584452 -0.291106 0.226113 -0.270803 0.0406444 0.0932487 0.0772497 -0.122296 -0.294328 0.364122 0.0282957 -0.200781 -0.0418645 0.274431 0.345254 0.232361 -0.0247435 0.0869286 -0.0710923 -0.15653 0.0497096 0.0392905 -0.330027 -0.22491 -0.066115 -0.133576 0.222577 0.1106 0.321578 0.196551 0.0186579 -0.258988 0.0435741 0.0383714 -0.0979209 0.139428 -0.115777 -0.10173 0.124349 0.335874 0.0276544 -0.29387 -0.0550753 0.016595 -0.128895 0.135151 0.171688 0.0379703 -0.419296 0.178577 -0.123614 0.0135282 -0.00791335 -0.167877 0.0481311 -0.227784 0.017523 -0.0680779 0.243295 0.00430805 -0.0254866 0.0134699 -0.0448938 0.0349127 0.186733 0.0373851 0.0182074 -0.00859839 -0.00863067 -0.184203 0.0474246 -0.0514444 -0.119735 0.124569 0.0105714 0.0306726 -0.117306 -0.103403 0.308915 -0.124809 0.110529 0.15205 0.0984548 0.127539 -0.142337 -0.0150579 0.137876 0.0729154 -0.182243 0.0148132 0.0146724 -0.0717915 0.073961 0.0192726 0.108468 0.285371 -0.192797 -0.110789 -0.0904374 -0.0859206 -0.284532 0.0193991 -0.046755 0.253278 -0.125719 -0.20158 0.269686 0.282428 -0.048534 0.125932 0.164161 0.0894073 0.0483318 0.0776643 -0.0202521 -0.163712 -0.0304775 -0.122441 0.135034 0.00760508 0.0927891 0.0465975 0.258425 0.0727651 -0.0515882 -0.182696 -0.0607799 0.319008 0.215147 -0.16733 0.0818419 0.230501 -0.0833946 0.0526865 0.170464 -0.0860174 0.0532343 -0.329905 0.180574 0.0536213 -0.0848829 -0.00609166 -0.0805874 0.0160048 0.127794 0.0770262 0.222874 -0.128989 -0.15125 0.0174255 0.0701457 -0.119079 -0.00809816 -0.0454417 0.10224 -0.322162 -0.165715 0.344393 -0.026915 -0.172365 0.116473 -0.0632983 -0.369565 0.0141998 -0.16141 -0.0786928 0.373471 0.163765 0.0546176 0.101914 -0.137552 -0.0943006 0.0203059 0.146325 -0.195412 -0.0383747 -0.0888595 -0.340015 -0.0345262 0.119079 -0.0284753 -0.125747 -0.143593 -0.10144 0.0667765 0.254038 -0.083986 0.161165
monk 0.208629 0.342492 0.0468823 0.222544 0.175789 -0.0813735 0.0763831 -0.137818 -0.0340803 -0.0523358 -0.0389137 -0.105405 0.312594 0.0791433 0.025885 0.0602886 -0.0990764 0.0918451 0.0411178 0.0554893 -0.111977 0.101281 0.199302 0.0145845 -0.0826541 0.107265 -0.201776 0.0862304 0.15401 0.0738204 -0.237359 -0.136871 -0.280916 -0.113781 0.0355339 -0.0289479 -0.259978 -0.0353303 0.00317711 0.0594866 -0.0667153 0.133153 -0.0108906 -0.130361 -0.0500795 0.0209588 0.158882 0.0753461 -0.0261512 -0.138322 0.16982 -0.0815095 0.133458 0.0803082 -0.221816 -0.0374784 -0.0168995 -0.0966591 -0.268804 0.237752 -0.347782 -0.0459053 -0.0153526 -0.0708765 0.233308 0.129462 0.150103 0.169469 -0.0244526 -0.176093 0.126979 0.337828 -0.0795965 -0.122287 0.0280327 0.0715207 0.0964194 0.235453 -0.109636 -0.119449 0.333908 -0.098338 -0.274484 -0.24291 -0.223926 -0.135108 0.0285891 -0.0539689 -0.105462 -0.163463 -0.183683 0.182217 -0.109198 -0.259506 0.0979135 0.122101 0.0933645 0.0812137 -0.282269 -0.0211245 0.0738684 -0.246693 0.20132 -0.0240843 0.0954818 0.081802 -0.255267 0.00418402 0.0780821 0.009752 -0.120696 0.0946225 0.036693 -0.0715758 0.204007 0.00546372 -0.00376589 -0.0151813 0.129264 0.049577 0.124725 -0.0435888 -0.194771 0.031559 -0.0900274 0.0216511 -0.0596285 0.105677 -0.224232 0.0406541 -0.204607 0.0545976 0.0983533 0.00655082 0.0357576 -0.150165 0.0390582 0.0930143 0.200668 -0.130666 -0.093878 0.0460401 0.0340416 -0.0246549 -0.149062 -0.0208608 0.0322648 -0.0556412 -0.085973 -0.240039 -0.179268 -0.0211906 -0.122012 0.202552 0.0286413 0.163974 -0.0965147 0.00669227 0.276927 -0.00520289 -0.226097 -0.177769 0.0204222 -0.00470713 0.117994 -0.205161 -0.224427 0.128094 -0.154157 0.118118 -0.0768252 0.326379 0.00555979 0.117365 0.0661542 0.00269607 -0.205879 -0.141043 0.0674626 -0.107525 -0.0817305 0.00530344 0.0195863 0.120606 -0.141613 0.0500829 -0.125571 0.109868 -0.063698 0.306543 0.16404 0.0771159 0.0973239 0.268114 -0.0127222 0.222068 -0.0750089 0.0426951 0.0797538 0.040948 0.065008 0.0999927 0.139689 0.149415 -0.260815 0.315934 -0.0539372 -0.090877 0.102273 0.0789351 0.131384 -0.342538 -0.00230457 0.0576321 8.69058e-05 -0.185258 0.103376 0.0320741 -0.01906 0.139738 0.0132385 -0.0285617 -0.171047 -0.0850725 0.0575177 -0.232626 0.204728 0.265788 -0.0176178 -0.0569698 0.210518 -0.0626957 -0.133506 -0.160172 0.122964 -0.0854941 -0.126282 0.188895 0.144835 0.1374 0.0529998 0.0591637 -0.207187 0.282489 0.177029 0.327435 -0.0295828 -0.105542 0.143099 0.185785 0.0504979 0.144644 -0.178768 -0.102235 -0.103606 -0.0305231 -0.0473513 -0.0301561 -0.00776336 -0.0457241 -0.0745606 -0.115008 -0.220872 0.071981 0.316162 0.29936 0.151837 -0.0140759 -0.113421 0.281082 0.0905615 0.249295 -0.0509454 -0.235045 0.0917611 -0.114054 0.164263 0.209056 -0.00732189 0.130637 0.228107 0.179615 0.0109376 0.0772669 0.038945 -0.0883826 0.197405 -0.094587 0.130883 0.0566787 0.154859 0.0377558 -0.0839437 0.333434 0.0694566 -0.393082 0.190341 0.0858554 0.200133 0.205991
chance 0.0616575 -0.0163182 0.0397801 -0.0115099 -0.0802137 0.00834995 0.0375043 -0.213518 0.0671721 -0.0867447 0.25824 -0.0460412 -0.204652 0.206774 0.147351 0.157685 0.00384119 0.169759 -0.03128 -0.0547992 0.0705111 0.250834 0.0407003 0.0311914 -0.0908458 0.216992 -0.276003 0.0767972 0.0170538 -0.0916831 -0.0348828 0.054423 -0.105036 -0.0363029 -0.0539428 0.0388489 -0.0609608 0.192755 0.0155894 0.00109317 -0.0279029 0.0848157 0.0469438 -0.120986 -0.126214 0.233949 0.0988345 -0.215023 -0.0551751 -0.0656957 -0.151019 0.0650729 0.211249 0.00160793 0.0526808 0.330006 -0.0455966 0.138019 0.167477 -0.00884211 -0.208175 0.0371353 0.00763836 0.081159 0.0936093 0.0608888 0.0729995 0.179727 0.0557809 -0.0710287 -0.345351 0.0647886 0.0379165 0.0203972 -0.146502 0.0160145 0.0937423 -0.0104006 0.124047 0.0385342 0.0228274 0.0155667 0.00594798 -0.00125254 0.206641 0.127127 -0.150383 -0.0106478 0.125497 0.158028 -0.197849 0.2656 0.188001 0.113455 0.098806 -0.186013 -0.0210254 0.0434784 0.0953187 0.164767 0.0316698 -0.0323538 0.00115066 -0.0952509 -0.0545445 -0.0176203 0.00622463 -0.0732362 -0.0534567 -0.245439 -0.0438163 0.0805286 0.166335 0.20667 0.00493046 -0.0353589 -0.0743458 -0.168249 0.077717 0.00448696 -0.00169825 -0.114441 0.104805 -0.129976 0.157558 -0.165885 0.187905 -0.0619588 0.0272079 0.0883778 0.0153544 0.138931 -0.0141138 -0.0190244 0.00912598 -0.0156888 -0.0793098 0.0214518 0.0480379 -0.110118 0.0271349 -0.0534832 -0.0387369 0.0499305 0.072631 -0.138716 0.0992801 -0.140534 0.0354804 -0.1586 -0.120013 -0.0457437 0.175895 -0.00194764 -0.0663708 -0.00205731 -0.0752892 0.0881366 -0.129514 0.289326 -0.075935 -0.0552682 -0.136842 0.111239 0.124137 0.00100789 -0.084746 0.0933127 0.0853997 0.0641752 0.0630997 0.0569214 0.0157548 0.285823 0.0282718 0.113658 -0.111161 0.27009 -0.0690178 -0.155905 0.0566049 0.110753 -0.0388817 0.00227807 -0.0760717 0.0211622 -0.242071 0.343083 0.111668 -0.00475271 -0.169922 0.0399195 0.0435089 0.00755225 -0.170425 -0.0414538 0.031259 -0.100057 -0.158307 0.144646 0.0777234 0.0929995 0.00043163 -0.159832 -0.113204 0.165603 -0.0513038 -0.014992 0.213855 0.0674888 -0.0777666 -0.0551818 -0.0640756 0.0277429 0.137864 0.0699606 0.0210896 -0.0900143 0.15285 0.0143225 0.0710302 0.126148 -0.00899995 0.0223954 0.0309046 0.0486467 0.0159199 0.12825 0.210508 -0.00150677 0.0121281 0.0454107 -0.0630057 0.0717424 0.00122113 -0.0380941 -0.0674761 -0.143541 0.116032 0.0712275 0.0050329 -0.0303407 -0.0174506 0.0461534 0.0722217 0.105712 -0.110904 0.188879 0.253226 0.137829 0.0060383 0.219958 0.103755 -0.134353 0.0439157 0.0652311 0.0888362 0.0554682 -0.0961932 -0.015472 0.0409283 0.127681 0.04607 -0.0280936 0.0587531 0.247305 0.15288 -0.145314 0.000776033 0.0638289 0.0380787 0.0299017 -0.137364 0.219805 -0.143201 -0.163088 -0.188857 0.0505647 0.0839865 0.0636482 0.0880905 0.0932299 0.0332451 0.00792802 0.0476933 -0.0989219 0.0783004 0.0706339 0.0141758 0.118297 -0.108712 -0.110874 0.141849 0.161793 0.154998 -0.203226 0.16705 -0.192649 -0.148247 -0.052817
party 0.081268 -0.0893714 0.082745 -0.0416537 -0.0328562 0.0804184 -0.0314359 -0.212571 -0.253011 0.298167 0.176585 0.187043 -0.209416 -0.107095 0.238025 0.219323 0.0562795 -0.167957 -0.116599 -0.012325 0.0187894 0.117414 0.096201 -0.156604 0.09581 0.180208 0.0720816 -0.224047 0.115546 0.166462 0.191419 0.173674 0.0667469 -0.088106 -0.0837659 0.0542961 0.248958 0.151799 -0.1145 0.143496 0.19095 0.219788 -0.104861 -0.176207 0.0450268 -0.197398 0.0902397 0.21503 -0.141673 -0.197791 -0.0398305 -0.258132 -0.141888 0.170168 0.171195 -0.0384294 0.14701 0.0268053 0.31607 -0.0183483 -0.171257 0.127633 0.114818 -0.403055 0.14953 -0.141409 0.203913 0.0036635 -0.0815197 0.0269921 0.199618 -0.140009 -0.0485428 0.256743 -0.218208 0.245148 0.032803 0.0214111 0.0485591 -0.142125 0.123103 0.103868 -0.0639407 0.259611 0.0573866 -0.331543 -0.00229238 -0.147798 0.0980522 -0.0169279 -0.142669 0.164321 0.0446597 -0.209417 -0.168978 -0.143995 -0.110884 -0.125362 -0.0821442 -0.0797252 -0.0638589 -0.211548 -0.0141927 0.199417 0.0994836 0.161254 -0.208746 -0.107245 0.266915 0.045206 -0.102241 -0.282045 -0.152902 0.14178 0.0715622 -0.0213476 0.119298 -0.0476663 -0.178554 -0.208012 -0.1963 -0.00227968 -0.00423684 -0.244471 -0.0566311 -0.0628785 -0.318397 0.178083 0.0730367 -0.0959906 0.322798 0.0138195 0.020564 -0.0100686 -0.172508 -0.108209 -0.17207 -0.175302 0.0894685 0.130296 0.350561 -0.133421 -0.116011 -0.192743 -0.064488 0.0524183 0.0353967 -0.103114 -0.00626038 -0.136827 0.15365 0.282066 -0.148659 0.31524 -0.202935 -0.0960558 0.179714 0.19342 0.148258 0.0376042 -0.108491 0.132916 -0.27232 0.202813 0.128768 -0.159947 0.00890592 -0.0871053 -0.111928 0.0811068 0.300782 -0.00233675 0.177444 0.0810202 -0.0991465 0.0704274 0.121141 0.413435 0.104599 -0.136316 0.20883 0.181688 0.09526 -0.104617 -0.0714636 0.0721156 -0.165021 0.0270779 -0.20364 -0.247953 0.25588 -0.034333 0.239957 0.146465 0.082322 0.134864 -0.256002 0.00297409 -0.0768251 0.125692 -0.0387681 -0.0409774 -0.091622 -0.134059 0.139789 0.0897353 -0.0418657 0.128267 0.186238 -0.0513786 -0.18051 0.0247175 -0.0514623 0.242265 -0.16135 0.0946258 0.0696526 0.031613 -0.141803 0.192387 -0.224552 -0.0279148 -0.0930019 0.0548355 -0.095029 0.116848 -0.00616753 -0.032993 -0.0632729 -0.0691028 -0.125619 0.148441 -0.23388 -0.110406 0.392536 -0.0272316 0.0119047 -0.17345 -0.244407 0.304026 -0.0936348 -0.0845324 0.202025 0.0735103 -0.023975 0.238442 0.308257 -0.0598435 -0.247656 -0.126026 0.123803 -0.0251342 0.0278227 0.0564701 -0.0247355 0.0490725 0.0191043 0.141375 0.0775894 0.0428677 -0.236153 0.204605 0.141076 0.174185 0.21249 -0.231895 0.0983711 0.293842 -0.116835 0.148407 -0.113953 -0.198757 -0.248951 0.0415197 0.216841 -0.158002 0.0475112 0.398929 -0.0554916 0.0728101 -0.0149301 0.349976 0.0274853 0.132903 0.122631 0.103323 -0.395805 -0.198986 -0.138402 -0.00222865 -0.11339 0.100264 0.123884 0.0736945 -0.16734 -0.170095 0.0473759 -0.0943707 -0.119135 -0.208124
fuck 0.00242056 -0.117284 0.0542112 -0.0372528 0.294417 0.0814917 -0.210493 -0.209037 0.235977 -0.103509 0.300446 -0.0919688 -0.541928 0.10529 0.0853055 0.0783636 0.157012 0.137542 0.194359 0.0859805 0.0205459 -0.306255 0.230362 0.10671 0.25999 0.173661 -0.0236979 -0.0924514 -0.0519433 0.261476 -0.0746155 -0.219862 -0.186943 -0.0779826 -0.125713 0.0270374 -0.407932 -0.156607 0.142698 -0.192645 0.13006 0.0238776 -0.094703 0.231567 0.0241229 -0.0199332 0.0105378 0.175258 -0.375748 0.0994499 -0.366737 -0.0461584 0.0274303 0.15469 -0.0587541 0.00707312 -0.0136237 -0.0684311 -0.251599 -0.150547 -0.0112979 0.0357721 -0.266863 0.0231412 0.0835662 -0.00705074 0.101777 0.181311 0.225289 -0.0147207 -0.260971 -0.402065 0.203907 0.27231 0.0408283 -0.0399106 0.1694 -0.325811 0.217697 -0.226399 0.0777727 -0.0505832 0.110643 0.156506 0.0722248 0.401911 0.0742279 0.156295 0.0190232 -0.0411488 -0.0956628 0.0741655 -0.00392298 0.13672 -0.0352852 0.000292277 -0.386835 -0.129659 -0.0628059 0.0111793 0.237834 -0.31413 0.126343 -0.069703 0.0718883 0.0729295 0.249079 0.341298 0.0181168 -0.0349052 0.0534948 0.0477079 0.0264348 0.0743404 -0.152854 -0.0747107 0.0239747 -0.231847 -0.079217 -0.165866 0.159837 -0.104907 0.0748984 -0.102978 0.373343 -0.0784978 0.253085 -0.182919 -0.0373639 -0.138949 -0.0742008 0.138976 -0.063236 -0.0458909 -0.215799 0.0423155 0.281258 -0.267405 0.0941489 -0.107036 0.105768 0.119325 0.0832161 0.028795 -0.207992 -0.128359 0.211357 0.0318163 0.209437 -0.0885587 -0.0736802 0.0611935 -0.0744258 0.0746358 -0.29752 0.0718195 -0.0678185 -0.142141 0.132802 -0.349648 -0.0880669 -0.154207 0.165088 0.0649627 -0.321991 -0.117412 0.272191 0.0951252 -0.310359 0.339044 0.357712 0.182913 0.172754 0.00520701 0.0754389 0.283687 -0.119117 0.327769 -0.116385 0.124921 0.208702 0.0416646 0.194743 0.17993 -0.12465 -0.122587 -0.0396364 -0.159938 0.25414 -0.101209 0.109022 -0.112305 0.0805324 -0.0108016 -0.471834 0.0771811 -0.197498 0.234302 -0.181695 -0.162966 -0.0961198 0.16495 0.0929217 0.0201429 0.41667 -0.248888 0.15479 -0.121653 0.0780869 0.0902577 -0.320373 -0.370072 -0.281348 -0.021637 0.0215697 -0.199561 -0.249882 -0.0261344 0.262769 -0.111024 -0.112877 0.0825112 -0.0126915 0.00979807 0.270674 -0.0168792 -0.152811 -0.251098 0.0444245 0.330007 0.200686 0.35386 0.151288 0.0681076 -0.0628806 0.000948695 0.0894753 0.102979 0.139703 0.0787198 -0.0709107 0.214319 0.230173 -0.202038 0.184424 -0.0419882 0.0392398 0.1996 -0.313678 0.172646 0.0293133 0.460916 0.406185 0.00860775 -0.0118351 0.380173 -0.0279124 0.00904748 -0.0426617 -0.096637 0.153247 0.236977 0.0617239 -0.162138 -0.144185 0.233492 -0.121228 -0.051739 -0.296648 0.350037 -0.093828 -0.102491 -0.283234 -0.124599 0.0862413 0.0655239 -0.244175 -0.0408688 -0.0277067 0.242143 -0.0197952 0.0237957 0.0479909 -0.0136588 0.335059 0.206053 0.230173 -0.477023 0.231022 -0.0833901 -0.424345 0.00248581 0.0549269 0.194376 -0.212159 -0.310097 0.150538 -0.283226 0.285637 0.237455
psychology 0.101969 0.0832991 0.0300384 0.190217 -0.108174 0.0341137 -0.421001 0.0288677 -0.219026 0.137684 -0.144999 0.379452 -0.0664308 -0.110915 -0.15142 -0.0951425 -0.196871 0.0148041 0.0957301 -0.120155 -0.11781 -0.126932 0.145715 0.040047 -0.167194 -0.168718 -0.100898 0.110681 -0.0183036 0.0418504 0.164508 -0.178777 -0.198418 -0.0776802 0.0205485 0.0543552 0.0823732 0.0289888 -0.0217047 -0.195452 -0.0950932 0.0392182 -0.225408 -0.166805 0.0211903 0.194243 -0.118128 0.0705571 -0.163958 0.306671 -0.0786626 -0.00394948 -0.0843095 -0.0404674 -0.029178 -0.1011 -0.138195 -0.195607 -0.398461 -0.13724 0.0210423 -0.0475987 -0.245778 -0.131963 0.160279 -0.389069 -0.115918 -0.00670836 0.0254816 -0.175988 0.118969 0.123104 -0.171515 0.0294939 0.130599 -0.126607 -0.183407 0.00308754 -0.344171 0.263647 0.0681275 -0.203036 0.112672 -0.013218 -0.101028 0.19838 0.10152 -0.132966 0.0739883 -0.0749261 -0.17556 0.0370425 -0.0203085 -0.223785 -0.319388 0.125656 0.0227846 -0.299478 -0.0168673 -0.109817 0.0189435 -0.145438 0.00809804 0.0767309 0.0454178 0.274224 0.079378 0.0944556 -0.00544718 9.77142e-05 -0.283815 -0.256151 0.22129 -0.013675 -0.432143 0.134851 -0.201896 0.215232 0.00055842 -0.282938 -0.0225152 -0.21883 -0.0820715 -0.102704 -0.0205282 0.3503 -0.160721 0.0179497 -0.177331 0.130947 0.037709 0.0225867 -0.0216382 -0.402938 0.0428336 0.0454401 0.185788 0.130369 -0.344431 -0.0104844 0.206635 0.0182725 0.0883292 0.370499 0.362065 0.339481 0.0406279 0.104347 -0.352049 -0.152602 0.350392 -0.178308 0.395015 0.0832945 -0.284981 0.117633 -0.107347 0.0190243 0.130149 -0.454888 -0.0548002 0.0185454 0.049151 0.0527059 0.0605099 -0.107912 -0.277595 -0.260452 0.29233 0.0448701 0.204095 -0.0454382 0.262773 0.28747 0.322264 0.117955 -0.0562463 0.163759 -0.192207 -0.110256 0.0369508 -0.0485821 0.0693863 -0.0983693 -0.231295 0.387583 0.174054 0.137324 -0.0173299 0.223375 0.258084 0.172651 0.340048 0.327693 -0.165526 -0.23888 -0.456495 -0.182148 0.175168 -0.316244 -0.0228908 0.0348912 0.0249326 -0.0532872 -0.213316 0.0330341 -0.00341452 0.369348 0.277044 0.0954821 -0.0783142 0.217726 -0.17303 -0.0114586 -0.236322 -0.112204 0.208345 0.269895 -0.214268 0.12938 0.0663638 -0.125766 -0.046488 0.0797034 -0.123159 0.106786 0.0360934 -0.0318552 0.245232 0.318896 -0.130559 0.023478 0.243949 -0.0575055 0.0909464 0.0288865 -0.278543 0.00194848 -0.162868 -0.145397 -0.137634 0.135288 -0.345811 -0.259859 0.272197 0.0823456 -0.0331999 0.0687724 0.211424 -0.0358324 0.141723 0.129445 0.191471 -0.0162615 0.453198 -0.199093 0.0431516 -0.029799 0.281251 -0.10136 -0.0794581 0.315024 0.0844652 0.0204591 -0.334204 -0.150133 -0.314942 0.101514 0.0367049 -0.0479344 -0.101932 -0.115414 -0.146396 0.0325691 -0.116775 -0.0588864 0.188683 -0.175738 -0.298759 -0.101605 -0.0731861 -0.109179 0.117453 0.465121 -0.0550567 -0.273837 -0.0422933 -0.0376175 0.118357 0.420739 -0.193198 0.0380274 0.0985528 0.163821 -0.107507 0.155393 -0.133787 0.024852 -0.44931 0.00309147
government 0.236864 0.0842313 -0.0330055 0.18435 0.102241 -0.0363607 0.162526 -0.078165 -0.132219 0.101353 0.0530859 0.0384738 0.0148427 0.264211 0.00216735 0.0139614 0.0539869 -0.160858 -0.167558 -0.103651 -0.0828341 0.167655 0.149691 0.146701 -0.0112625 -0.0320048 -0.0975916 -0.196298 -0.108456 0.0907727 0.0246652 -0.0427028 0.0287612 -0.120025 -0.00416281 -0.0522778 0.166249 -0.0665489 0.029329 0.135377 0.0716371 0.0821584 -0.0325285 0.0375386 -0.0191104 -0.00941229 0.0169509 0.00169686 0.151769 -0.00914834 -0.0268527 -0.00812575 -0.0224538 0.110257 -0.00762739 0.0501939 0.132923 0.00374437 0.148651 -0.0557832 -0.0259656 0.0987275 -0.0543357 -0.0610788 0.0110135 -0.251644 0.0556652 0.0101832 -0.0684004 0.136004 0.0993679 -0.0886301 -0.112867 0.0890306 -0.249831 -0.097442 -0.121834 -0.0525152 -0.212353 -0.0300931 0.165826 0.273627 0.0652338 0.156761 -0.0470016 -0.433932 -0.0195354 0.0880628 -0.00263599 0.0258321 -0.173521 -0.0965761 -0.160903 0.0168718 -0.091377 0.0398813 -0.112457 0.0463513 0.117847 0.0745121 0.0253448 0.107596 -0.103713 0.17307 0.0837059 -0.0867311 -0.12131 0.077933 0.145277 -0.243373 0.131844 -0.0967582 -0.162211 -0.0804807 0.0732584 -0.116929 0.252165 0.222952 0.20442 -0.195208 -0.212636 0.223834 0.131376 -0.184655 -0.258361 -0.0778578 -0.11826 -0.0538477 -0.082863 0.0540833 0.373851 -0.0360288 -0.0858163 0.132359 -0.173943 -0.0123758 0.0920351 0.143583 0.0981363 -0.166283 0.0847165 0.156 -0.0687036 -0.177804 0.0472118 -0.0197828 -0.0554439 -0.0511496 -0.0427331 -0.167323 0.147996 0.119646 -0.0418591 -0.0209487 -0.237188 -0.0605402 0.130978 0.0945413 0.186189 0.105983 -0.131257 0.0058931 -0.0379517 0.0509673 0.026753 -0.0597441 -0.0505755 -0.064119 -0.0299595 -0.125352 0.238109 -0.106492 -0.156157 0.0994359 0.0133165 0.0325709 0.117969 0.0631189 0.0670558 0.13754 0.215114 -0.0927406 0.0444692 -0.228141 0.102467 0.176233 -0.106467 -0.0204252 -0.174145 0.0173554 0.179127 -0.0827109 0.231511 -0.0737805 -0.0465333 -0.212014 -0.0424953 -0.128646 -0.0962364 -0.0116375 -0.0685672 0.029302 0.040551 0.0760646 0.0212251 0.0969651 -0.080505 0.191321 0.0324858 -0.00181384 -0.0619398 -0.0734004 0.0785051 -0.0392495 -0.0545339 -0.0902685 0.0140537 -0.0393712 -0.00744214 0.119547 -0.130616 -0.0650513 -0.0778037 0.0413088 -0.109676 -0.0487865 0.0323063 -0.118989 -0.018055 -0.185317 0.0239581 0.139947 -0.108919 -0.0327103 0.146429 0.0732839 -0.0433301 -0.0414882 -0.154856 0.136339 -0.102938 -0.142721 0.0497977 0.0148553 -0.0140138 0.0700405 -0.0193424 -0.287826 0.0926354 -0.156822 0.174964 -0.0763459 0.0947401 0.0612551 0.0747775 -0.0743978 -0.225105 -0.0494784 0.113525 -0.0170738 -0.114916 -0.0524688 0.114873 0.103637 -0.12044 -0.0915355 -0.0272293 -0.0126746 -0.0247625 0.1464 -0.0279155 0.0626536 -0.188705 -0.186798 -0.0625004 0.0408717 -0.164525 -0.0267542 -0.0173032 0.0473253 0.221762 0.167296 0.00113842 -0.402366 0.0976632 0.0723996 -0.186984 -0.0912382 -0.0866856 0.0731721 -0.0443172 -0.0299739 -0.131018 -0.188204 0.149695 -0.0446603 0.0255722 0.0530928 -0.1362 -0.107897
madhouse -0.0650229 0.0500584 -0.064165 0.173903 0.286043 -0.274548 -0.3078 0.0911465 0.013825 0.157636 0.183856 0.111166 -0.107017 -0.186046 0.168109 0.19348 -0.0149623 0.0249698 0.183732 0.271017 0.0339267 0.0658687 0.209171 -0.0428677 -0.174919 -0.153534 -0.0612889 -0.0338188 0.0980871 -0.398098 -0.205465 -0.0602959 -0.285449 0.105446 0.0662679 -0.0656833 -0.030427 -0.00793563 -0.157184 0.247324 -0.00670617 -0.158292 -0.186091 0.122816 -0.0274157 0.140908 -0.00311166 0.0754962 0.0515568 0.159806 0.0173439 0.0505036 -0.0803927 -0.0142549 0.0221863 0.128063 0.115838 -0.0466848 0.00555334 -0.0543209 -0.285646 -0.0281299 -0.0948849 -0.0797956 0.197768 0.00596378 0.194135 0.0879173 0.0893376 -0.111213 0.00202775 0.118496 0.104323 -0.18434 0.0417703 -0.0332573 -0.0298197 0.0242909 0.129461 -0.192198 -0.140894 -0.153963 0.0793554 -0.0763641 -0.161315 0.203464 -0.00140465 -0.0251699 0.00506597 -0.173166 -0.0180659 0.0193927 -0.0143316 0.230547 0.0245403 -0.0301331 -0.149525 -0.222602 -0.176928 -0.0963392 -0.247446 0.0617118 0.094845 0.29349 -0.0438444 0.13699 -0.185557 0.10968 0.270666 -0.0540488 -0.369829 -0.370919 -0.177342 0.0278095 -0.0548134 -0.0956959 -0.0732788 0.0532338 -0.240842 0.264804 -0.132178 -0.105184 0.165135 -0.280379 0.136724 -0.00716389 0.15221 0.178793 -0.327526 -0.125167 -0.118875 0.162672 -0.131051 0.0433845 -0.0258189 0.0937448 0.0292573 -0.00613228 -0.0374601 0.169694 0.0935156 0.133092 0.192856 0.125402 -0.0575457 -0.40498 0.0967013 0.0930001 0.0223346 0.125095 -0.103674 0.170005 -0.0947907 0.0442999 0.0104985 -0.235536 0.317056 0.0280193 0.178253 -0.0529481 -0.142034 -0.182627 0.176275 0.00881286 -0.0484879 -0.349597 0.207373 0.0433321 -0.0709324 0.524481 -0.0850744 0.153154 -0.0418103 -0.0813161 0.0836316 -0.140236 0.0522706 0.202807 -0.0686609 -0.198509 0.151864 0.0510474 0.248242 0.125802 0.0327316 -0.111203 0.261115 -0.170309 -0.0446483 0.151366 -0.223257 -0.030155 -0.0181014 -0.227035 -0.215693 0.0774321 0.00899889 -0.100947 0.0317251 0.0877684 -0.287458 0.150261 -0.0976152 0.00659146 -0.0255896 0.0728792 -0.247028 -0.452082 -0.00812303 -0.154056 0.0217295 0.102615 0.22644 0.0130738 0.139667 0.0602845 0.120696 -0.0474251 0.269102 0.0435063 0.186771 -0.0576087 0.0357332 0.0681422 0.0289427 -0.150352 -0.150023 0.0634858 -0.0493698 0.0597397 -0.0907038 0.20431 0.0417324 -0.163328 -0.135082 0.00391594 -0.0123131 -0.0437251 -0.17079 0.109378 -0.0480479 0.0900789 -0.224295 0.400624 -0.146406 0.0627489 -0.0497391 0.13384 -0.052875 -0.0913119 -0.0982119 -0.146421 -0.0785422 -0.0395155 0.0678434 0.187997 0.0306313 -0.244339 -0.244106 0.0119725 -0.0383314 -0.193565 -0.133778 -0.173173 0.290253 0.0747856 -0.00187748 -0.0420419 0.0308016 0.149478 -0.122978 -0.0763443 -0.012371 -0.0720824 0.0713431 0.0240643 -0.245452 -0.0395394 0.0691185 -0.0848393 0.237918 0.112679 -0.101694 0.187188 0.00325515 0.070981 0.0590124 -0.0539935 0.240616 -0.010071 -0.170632 -0.167172 0.125036 -0.0632618 -0.00359495 0.0754521 0.221206 0.206617 0.188145 -0.132807
video -0.196663 0.0109162 0.116552 -0.0171375 -0.141258 -0.144595 -0.0894176 -0.0241505 0.401953 -0.0294572 0.5084 0.0340298 -0.136866 -0.0858841 0.322109 -0.1984 -0.0291751 -0.00264919 -0.146349 0.262466 -0.0235628 -0.256262 -0.177173 -0.0291713 -0.156865 0.108486 -0.0834007 -0.0699353 0.123481 -0.094982 0.0834257 -0.0938646 -0.168518 0.150807 0.168282 -0.0250074 -0.193726 -0.29162 0.0684134 0.330544 0.0511145 0.101648 -0.0979495 0.0879763 -0.130635 0.108654 -0.0214371 -0.0880964 -0.0504186 0.0705278 -0.259246 0.0526979 -0.184974 -0.0127557 -0.240276 0.0095287 -0.128643 -0.0198483 0.099305 -0.0270678 -0.03312 0.166715 -0.180974 -0.0735219 -0.0174182 -0.0832781 -0.00278117 0.267013 0.193656 -0.0856414 -0.111836 -0.140382 -0.111411 0.126214 -0.0242846 -0.10336 -0.00573679 -0.0711888 -0.0151377 0.00308744 -0.146702 -0.132078 0.11955 -0.0206473 -0.219599 0.263765 -0.0247796 -0.24039 0.0130012 0.117645 0.116387 0.0392751 0.258345 -0.0288448 0.0593569 -0.264514 -0.2669 -0.193068 -0.0630182 0.128395 0.100783 0.193887 0.0913764 -0.0366356 0.139129 0.220208 -0.234798 0.350789 -0.00257613 0.136253 -0.0423794 -0.19117 -0.236952 0.128376 0.0130623 -0.072953 -0.117294 -0.0103037 -0.122393 0.249408 -0.127599 0.00795439 -0.121089 -0.297472 -0.136902 -0.313239 0.228684 -0.196381 -0.153447 0.0850516 -0.0187077 -0.246707 -0.0970323 -0.183069 -0.0960023 0.0430005 -0.0526018 -0.147335 0.128364 -0.238198 0.0902514 -0.0778475 0.23397 0.0789978 0.290531 0.0491353 0.186079 -0.174348 0.151901 0.32932 -0.00641503 0.0584813 -0.0940975 0.103794 -0.280342 0.0582464 0.211056 0.31761 0.23251 0.110965 -0.0227671 -0.258554 -0.00822526 -0.140819 -0.0270451 0.32477 -0.102871 -0.141718 0.196937 0.311318 0.0962555 0.106537 -0.0794943 -0.0486186 -0.144254 -0.172414 0.120535 0.294515 0.162097 0.224397 0.261048 0.0606566 0.150899 0.125926 -0.0946129 0.313777 0.0328861 -0.144508 0.0827663 0.00373778 -0.078384 -0.207808 -0.0774878 -0.0273705 0.000661696 0.0333469 -0.0488634 0.0714598 -0.300505 -0.0344568 -0.033141 0.181403 -0.208196 -0.0890924 0.124805 -0.0980061 0.101238 -0.128383 0.105286 -0.189309 -0.401792 -0.168789 -0.032153 0.247093 0.0296332 -0.0403831 -0.115805 0.0279117 0.189671 -0.155556 -0.500528 -0.028637 -0.0276247 0.158458 0.184698 0.160547 -0.380048 -0.0218006 0.116517 0.0608194 0.158728 0.300232 0.0966581 -0.00553502 0.00037039 0.302821 0.285076 0.051098 0.273861 0.361088 0.273615 0.140853 -0.283765 0.0215101 -0.332979 0.175557 -0.121263 0.184664 -0.189033 0.00865096 0.166759 -0.227472 0.310207 -0.193524 -0.223068 0.174704 -0.178012 0.130007 -0.0810306 -0.0320333 -0.00598761 -0.039443 -0.164833 -0.00564276 -0.0651943 0.223183 0.0976077 -0.37781 0.0395836 -0.148552 0.00595883 0.0142276 0.0391786 -0.170425 -0.0383787 0.159049 0.0976254 -0.284262 0.114615 0.198746 -0.11234 0.0930385 0.13341 0.199277 0.345358 0.114191 0.285314 -0.0415077 0.343935 0.290071 0.343864 -0.281416 0.150971 -0.118947 -0.276811 0.0588177 0.0660431 -0.0692106 0.132635 0.236833
defeating -0.0382021 -0.0662802 -0.110287 -0.0126355 0.0307445 0.0383222 0.0793374 -0.267976 -0.230205 0.0349856 -0.0103969 -0.38262 0.136057 -0.0256901 0.20389 0.108449 0.302819 0.0670631 0.273412 0.20511 -0.162863 0.205081 0.104643 -0.0933983 -0.352873 0.123258 -0.203195 0.273637 0.0760769 -0.232282 -0.302696 -0.0832121 -0.26419 0.215951 -0.293612 -0.0623732 -0.0017135 0.0837108 -0.263383 -0.155611 0.101157 -0.489729 -0.134877 0.225063 0.0580876 -0.0591391 -0.174903 -0.149481 0.0282128 -0.10965 -0.0224774 0.0777282 0.133071 0.126223 -0.0134045 0.142418 -0.0317064 -0.0278975 0.292127 0.0949642 0.399028 -0.114618 -0.0736587 -0.0202528 -0.0744063 -0.182316 0.168062 -0.0342234 0.0697555 0.0588116 -0.0132 0.44258 -0.173911 0.282429 -0.00185286 -0.260254 -0.118336 -0.218667 -0.0563564 0.199571 0.217374 0.213119 -0.0880378 -0.182402 0.0123729 -0.0627908 -0.0763205 -0.301396 -0.0635772 0.0612505 -0.10596 0.182974 0.00966319 0.201108 0.0583975 -0.236383 -0.12355 0.202536 0.100368 0.0104908 -0.127996 0.01662 -0.0788201 -0.0391031 -0.0558728 0.33172 -0.152314 0.0649718 0.0832941 -0.265435 -0.0426927 0.0136643 0.253826 0.22614 0.0239632 -0.11711 0.27354 -0.0703665 -0.108246 0.218571 -0.0816238 -0.0337947 -0.244248 0.0106524 -0.190828 0.152697 0.060641 0.0728996 -0.101569 0.233248 0.0377061 0.207908 0.0271101 -0.305306 -0.249857 0.00133375 -0.515146 -0.375184 0.219308 0.17548 0.217695 -0.265421 0.0942616 -0.0204939 0.21636 -0.378317 -0.161917 -0.0194771 0.435799 -0.039759 -0.0370345 0.322789 0.0598381 0.343521 -0.224415 0.0900849 0.176627 0.0928769 0.360873 0.143135 0.194026 0.303962 -0.273818 -0.0717414 -0.1014 0.165938 0.106401 0.0149912 0.173335 0.0404478 -0.200461 -0.227174 0.220035 0.167484 -0.135268 0.155628 -0.0939265 -0.045852 -0.0442432 -0.075511 0.00472983 -0.262834 0.256032 -0.387654 -0.0987907 -0.0592029 -0.163593 0.145639 -0.134817 -0.0753904 0.0197317 -0.221754 0.344826 -0.153192 0.283936 0.124026 -0.322819 0.106264 0.0499156 0.0640643 -0.157747 -0.107266 -0.104269 -0.00590147 0.186402 0.0977351 0.324808 0.0464773 -0.233901 0.15721 0.458689 -0.0878145 -0.241186 0.289636 -0.067247 0.123662 0.267819 -0.0996124 -0.0997444 0.0755812 0.0471332 0.0537282 -0.380126 0.266164 -0.0155984 -0.32046 0.0952326 0.0912205 -0.00523283 0.27206 -0.0381638 0.0169387 -0.141955 -0.204137 0.0890552 0.00083581 -0.0108585 -0.113457 -0.252659 0.384082 -0.0446296 0.14686 0.140004 -0.0666068 0.111388 0.133306 0.0592791 -0.0947867 0.290418 0.180815 0.108476 0.109129 -0.189514 -0.159133 -0.222588 0.202308 0.163093 -0.0691848 0.0054633 0.241294 -0.0529155 0.305314 0.25774 -0.0911781 -0.080747 0.0410754 0.118686 -0.00118381 0.0157517 0.204762 -0.237868 -0.0667161 -0.0380262 0.458528 -0.0369688 0.00132206 0.0460913 0.0279939 0.186061 0.0299267 -0.0981058 0.0910984 0.014661 0.485963 -0.156412 0.127777 -0.229001 -0.329602 -0.0250915 -0.23982 -0.00732979 -0.166205 0.351098 0.0475255 0.0705249 -0.130815 -0.0870939 0.0469516 -0.00309369 -0.0030593
death 0.302897 -0.00417642 -0.150569 0.113616 -0.0984517 -0.106457 0.0914629 0.233731 -0.081857 0.165126 -0.179669 0.037001 0.0839047 -0.0659602 0.207723 0.128652 -0.0419629 -0.0923038 0.0442743 0.10635 0.00811978 -0.0689843 0.108712 0.028417 -0.0294937 0.110762 0.00473336 -0.0641319 -0.142102 0.0111143 0.0279558 -0.0293401 -0.0866476 -0.0435873 -0.0281673 -0.0635463 0.0748657 -0.0314318 0.00154751 0.137818 -0.0658636 0.0313092 0.229983 0.156344 0.0220355 0.247107 0.0877757 -0.0565912 -0.089387 0.0077825 0.0417291 0.0289383 0.0613771 0.0250327 -0.0458722 -0.205288 -0.0224848 -0.11343 -0.111673 -0.222305 -0.283392 -0.194543 -0.0603973 -0.297581 -0.103153 -0.137889 -0.00939075 0.0167534 0.131608 -0.0561204 -0.0855425 0.173859 0.0161562 0.0429977 0.0688061 -0.172693 -0.0598907 0.102032 0.142216 -0.335697 0.323765 0.0981554 0.0449078 0.0438286 0.146116 -0.178661 0.0932889 -0.308017 -0.0820523 -0.0697455 -0.149342 -0.016586 -0.0334335 0.157231 -0.00335264 0.018574 -0.167429 0.0928105 -0.0255733 0.00316041 0.157384 0.037429 0.153903 0.179039 -0.0839748 -0.218288 -0.175246 0.0239786 0.105619 0.0674519 -0.0910592 -0.0479218 0.253303 0.0740965 0.229404 -0.0328977 0.0160628 0.371165 -0.116055 0.0205376 -0.0249248 -0.146012 -0.075954 0.0328765 0.208146 0.121702 0.125432 0.161675 0.133516 -0.0175735 -0.122806 -0.0660145 -0.0361284 0.056309 -0.206772 0.308021 0.0385773 -0.0596541 0.0825601 -0.0770759 -0.0345929 0.0140492 0.0475398 -0.0923451 0.134908 -0.0472275 0.00590341 -0.152136 0.168025 0.0443787 0.125822 0.110928 -0.0843057 0.155867 -0.0615505 0.217611 -0.0474845 -0.00970664 0.183148 -0.162457 -0.153582 -0.155256 0.0209353 0.0423306 0.122965 0.0577837 -0.107389 -0.0201 0.150146 -0.00136852 -0.040819 0.173026 0.0741324 0.0861189 -0.355612 0.0268555 0.0216979 0.11719 0.051394 -0.0698058 -0.218613 -0.0661677 0.0861167 0.194954 -0.138889 -0.0259627 -0.230552 -0.0468961 0.099525 -0.0872051 0.263524 0.0874785 0.217386 -0.173906 -0.0177277 0.329616 -0.126832 -0.00240395 -0.126055 0.0140551 -0.0598128 0.200174 0.041696 0.178942 0.207509 0.254104 0.15339 -0.0134959 -0.0949483 -0.0655503 0.147928 0.00469003 -0.12922 -0.0331457 -0.118903 0.0847362 -0.109192 0.23019 0.0818745 -0.00679598 -0.310408 0.120027 0.319081 0.0635602 -0.158018 -0.0686784 0.0104944 0.0788414 0.117454 -0.0635601 -0.0783185 -0.102878 0.117182 -0.157145 -0.0477935 -0.111623 -0.0706029 -0.201616 -0.196891 0.052525 -0.182016 -0.0170665 0.384639 -0.0200769 0.156185 0.194072 -0.0696779 0.0508428 0.15093 -0.00434276 -0.0222036 0.0344525 -0.250797 -0.329277 0.300618 0.0100773 -0.101137 -0.121336 -0.0396614 0.198697 -0.0163465 -0.134916 -0.130132 0.140759 0.10384 -0.110713 -0.0388975 0.0206469 0.172831 0.0607854 0.06179 -0.0458739 0.0219466 -0.0968896 0.0259866 -0.0480932 -7.13751e-05 -0.17813 0.114848 -0.0146378 -0.00623136 0.178321 -0.238188 0.0798926 -0.0924316 -0.0221132 -0.100661 -0.19627 0.0117462 0.0757384 0.0834803 0.139476 -0.00657511 -0.0534887 0.0670303 -0.190197 0.0260841 0.0823762 -0.0726967 0.145586
image -0.00638019 -0.177186 0.0803248 -0.119509 -0.184325 0.0455675 0.00362858 0.0381146 0.155053 0.131244 0.141758 -0.0388577 0.00988035 -0.124293 -0.0119707 0.0578581 -0.00129025 0.0206383 0.0438864 -0.0936821 0.127136 -0.226974 0.00770586 0.0615734 0.065568 0.0772986 -0.0456458 -0.0344027 -0.0995669 0.069332 0.01264 -0.135561 0.136026 0.197623 0.325948 0.151687 -0.176234 -0.169307 0.050343 0.356322 -0.102388 0.0738039 -0.124346 -0.0677694 0.126458 0.0990121 -0.0081959 -0.0313582 -0.0554131 -0.208443 0.0337355 0.130352 -0.0872885 0.055453 0.096235 -0.0389305 0.0458406 -0.00612979 0.00760828 -0.0653547 -0.152464 -0.231246 -0.195962 -0.0262472 0.0327005 0.0573574 0.0862404 -0.0599236 0.0652897 -0.11017 -0.0342789 0.0217693 -0.0525458 0.00699157 0.264632 0.0407666 -0.118371 0.036979 -0.0673067 0.0810438 0.0277832 -0.1457 0.115567 -0.103313 -0.0568818 0.211206 0.083233 -0.0436613 0.0616925 0.19661 0.065756 -0.0991008 0.203484 -0.00303063 0.0499647 -0.186327 -0.018079 0.142686 0.00372203 0.307389 0.109992 -0.0205556 0.0881402 0.0951227 -0.0494397 0.0154407 0.0718895 -0.0635045 0.295676 0.154708 0.10657 -0.0503314 -0.185131 0.123826 0.0325575 0.0280155 -0.159065 -0.0129294 -0.0778391 0.0879772 -0.212083 0.0365032 -0.0584899 -0.172009 -0.00709185 -0.0593428 0.271921 -0.103462 -0.0458692 -0.0339343 -0.0479866 0.0155717 -0.0520094 -0.214611 -0.19048 0.111215 0.127688 0.0362304 -0.0559019 -0.0374139 0.0843305 0.00554524 0.148551 -0.0988912 0.142564 0.00208334 -0.0310391 -0.0758171 -0.0303225 0.0666878 0.0327187 0.265302 0.0660215 0.0247934 -0.208823 -0.030244 -0.101731 0.218834 -0.0719876 0.138735 -0.100901 -0.262841 0.130063 0.0930783 0.0195638 -0.0453799 -0.0651655 -0.0168427 0.0784201 -0.039434 -0.0498606 -0.137467 -0.225584 0.244615 -0.211085 -0.0530986 0.0524554 0.0254247 -0.076432 0.132078 0.304119 0.0254842 0.268575 -0.0801126 -0.019142 -0.0758928 0.148911 -0.110428 -0.113901 0.0315481 -0.105939 -0.211461 0.238816 -0.0172499 -0.0518737 0.00433436 -0.108497 0.257883 0.0448541 -0.113136 0.135779 0.159667 -0.134503 0.0182759 -0.0309482 0.0226035 -0.136017 -0.0415702 0.126716 -0.0235441 -0.187151 0.0724017 0.0591778 -0.124109 -0.0341031 0.112336 -0.128706 -0.0900281 -0.0510732 0.302359 -0.0125046 0.1541 0.236435 -0.119509 -0.00934722 -0.101634 -0.262949 0.274773 -0.130679 0.266421 -0.0181021 0.0922457 -0.0726089 0.0335221 0.11875 0.0761314 -0.0110851 0.101195 0.136172 0.0693413 0.004214 0.0851353 -0.0870049 -0.098047 -0.0596921 0.0471502 0.276283 5.83261e-05 0.00439278 0.0685081 -0.0988411 -0.17216 0.148328 0.0241314 -0.0327447 -0.0918044 -0.0677926 -0.148604 0.0262826 0.0296143 0.0551585 -0.0181409 -0.0084482 0.0542609 -0.120412 0.129178 0.0159553 -0.0173317 0.0267958 0.0651774 0.0450123 -0.0140562 0.0971604 -0.172612 0.131976 0.00810829 -0.26911 0.044445 -0.057528 0.0968629 0.13229 0.150623 0.0988962 0.0275751 0.157358 0.157396 0.227532 -0.0248245 0.0309303 0.138666 0.281305 -0.0418416 0.159978 0.000549371 -0.0992599 -0.0256042 0.180778 -0.0538824 -0.0927692 0.11562
theater 0.0278717 0.0698501 -0.132639 0.315841 -0.0609146 0.146241 -0.25329 -0.166891 -0.00415054 0.0180482 -0.0429695 0.158627 -0.216276 0.267997 0.0304557 -0.0411533 -0.175983 -0.14825 0.156954 -0.0186199 -0.205928 0.042282 -0.249431 0.150508 0.0432658 -0.102043 -0.0622581 0.166426 0.0309092 -0.0491252 0.170642 0.0587257 0.0592739 -0.112092 0.153966 -0.0840191 -0.0169236 -0.192661 -0.0095161 0.0317273 0.0597023 -0.18568 -0.249977 -0.134521 0.0895986 -0.2905 0.0756153 -0.161448 0.127251 0.135387 -0.0363437 -0.108051 -0.193436 0.182101 0.0851349 0.175223 -0.0541979 -0.0179656 -0.116575 0.125298 0.0620334 -0.00409767 -0.200173 0.0208809 0.166587 0.0537303 0.0862872 0.0190963 -0.142095 -0.144941 0.115742 -0.0282049 -0.0408891 0.0108004 -0.0534783 0.0371652 0.0168012 0.240919 0.0974878 -0.0091287 -0.187083 0.0852339 0.168054 0.0728877 -0.179128 -0.103085 -0.127995 0.0415339 0.117542 -0.00447362 0.190124 -0.180338 0.080266 -0.0143047 0.11871 -0.111231 0.178507 0.0550701 0.104884 0.127034 0.188711 0.0814545 -0.121664 0.170026 -0.0699245 -0.106387 -0.0540473 0.11905 -0.2566 0.117748 -0.234535 -0.0786911 0.0847133 0.0602758 0.134638 0.0219119 -0.129123 -0.0829724 -0.268105 -0.167706 -0.0371085 0.134471 0.158003 -0.27107 -0.0592709 0.0206654 0.251255 0.0189075 -0.168831 -0.121994 -0.245535 0.0231629 -0.00215633 0.0511821 -0.0497696 0.0242837 -0.0799218 -0.106096 0.149189 0.0481845 -0.102361 -0.181917 0.255863 0.15395 -0.0993025 0.0370713 0.0896457 -0.0200009 -0.229861 -0.124948 0.0387746 -0.123777 -0.168139 -0.336283 0.0397949 0.0911126 -0.217862 0.0411413 0.205222 -0.087942 -0.0561597 0.0763201 0.172112 0.0330589 -0.00964819 0.106407 0.108577 -0.0479928 0.0156772 0.128049 0.0337114 0.0317553 -0.107466 0.00754569 -0.185055 0.110699 0.0958407 0.11718 0.123004 -0.295481 0.178222 -0.281502 0.161762 0.00909083 -0.0997465 0.0649211 -0.013012 -0.0684648 -0.0301408 -0.00112229 -0.0866905 0.117189 -0.00716438 0.164918 -0.363516 -0.120041 -0.268225 -0.169594 0.0860839 0.00611805 -0.0109348 -0.12679 0.05622 -0.0581167 0.0963361 0.0502383 -0.0403258 0.120046 0.15111 0.0157401 -0.0125837 -0.184939 0.091823 -0.0647967 0.0560642 0.0557103 0.117824 0.142137 0.101054 0.20297 -0.122045 -0.146488 0.00436552 0.0569549 0.0161212 0.214239 0.13167 -0.141027 0.0360558 -0.117288 0.00215278 0.00356737 -0.0539134 0.0392698 -0.254322 0.0839479 -0.0011659 0.137451 0.046593 0.221906 -0.117493 0.202594 0.0368461 0.0584898 -0.0175047 -0.054193 -0.0194009 0.0936594 0.105038 0.114315 0.0580437 -0.160867 0.110385 0.254942 -0.164438 0.0219956 -0.206775 -0.158024 0.0348089 0.233543 -0.114211 0.0811648 0.0308104 -0.131583 0.142611 0.0597927 0.0544532 0.226002 0.0333636 0.262822 -0.0213096 0.11577 0.211581 0.100365 0.0619624 -0.0231843 0.111355 0.0533909 -0.0625604 -0.131479 -0.0835523 0.107039 -0.140661 -0.0505377 0.035117 0.0126676 0.263246 0.17791 -0.176103 0.131152 -0.0772803 -0.101063 0.200455 -0.0579787 -0.0633993 0.130089 -0.161273 0.196934 -0.226724 0.00202425
number -0.115372 -0.000498391 0.0465936 0.135155 0.191894 -0.0717431 -0.0415039 -0.17086 -0.0868992 -0.165135 0.331499 -0.201025 -0.205505 -0.248649 0.014433 0.201114 -0.000553421 -0.0373936 -0.126221 -0.00499516 0.170591 0.00600799 0.235887 -0.0282292 -0.253136 0.0607359 -0.0637424 0.0308258 0.0168202 -0.0906969 0.0811189 -0.227463 0.0504392 0.126395 0.254285 -0.107955 -0.0672223 -0.119786 -0.0784542 0.0857254 0.144097 0.0850521 0.114217 -0.23315 -0.16897 0.0360573 0.124276 -0.0342691 0.00530244 -0.22058 -0.030141 -0.191206 0.0396331 0.0773321 0.030334 0.14151 0.270394 0.0850872 0.0380509 0.0887706 -0.0587721 -0.166046 -0.0189628 0.057689 -0.0866393 -0.0858961 0.141691 0.245843 -0.0584476 -0.0565762 -0.310668 -0.0585117 -0.18383 -0.088214 0.119659 0.0914453 -0.279044 0.221119 0.0257407 0.112057 -0.0222422 -0.132263 -0.224005 -0.200257 0.0288219 -0.0876138 0.147708 -0.059056 0.1444 0.199171 0.280243 -0.149758 -0.00602921 -0.0766114 -0.0795896 -0.103584 0.280913 -0.0937832 -0.142748 -0.227581 0.193874 0.113052 -0.120592 -0.114475 -0.145838 0.097672 -0.156333 -0.0510106 -0.0046772 0.11959 0.128365 -0.0326798 -0.155597 -0.10671 -0.00605861 0.0822409 -0.0186549 0.156421 -0.202695 -0.0428203 -0.0752532 -0.102926 0.0243299 -0.0415782 0.0491176 0.0258137 -0.0390052 0.0188626 0.0860685 -0.168857 -0.0249662 -0.226062 -0.0440564 0.101221 0.00605259 0.113606 -0.0562229 -0.0728065 -0.0585976 -0.143801 0.0838318 -0.0209833 0.0342623 0.0103786 0.153974 -0.0808199 0.173185 -0.245892 -0.0199703 -0.0294477 0.0134325 -0.0696263 0.0172859 -0.037966 -0.0960406 0.00547474 -0.0800615 0.0727896 -0.0102528 -0.00672728 0.0535023 0.137576 0.0224454 0.00675559 0.105268 -0.0917806 -0.0215623 0.055801 0.166921 0.207163 0.0627611 -0.241776 -0.074446 0.134459 -0.0156218 -0.257057 -0.115706 -0.165268 0.0180713 -0.223617 -0.0823305 0.0724078 -0.0359509 -0.0548362 0.0460815 0.105933 -0.0228674 0.156108 0.0101582 -0.0240473 0.0523501 -0.149751 0.0488861 -0.242305 0.189416 -0.0708194 0.158867 -0.192161 0.0169262 -0.164272 0.13501 0.28831 -0.0945622 0.135988 -0.0449629 0.0803198 -0.160766 -0.000119536 -0.00701499 -0.183358 -0.336135 -0.0931962 0.00997144 -0.023523 0.110569 -0.105643 0.00685725 -0.136315 0.252344 -0.216831 0.157975 -0.112156 -0.109943 -0.0540119 0.0936768 -0.0794153 -0.0287854 -0.157526 0.0241546 0.0718605 -0.0976556 0.173806 0.064184 0.105331 -0.021547 -0.0939883 0.0826653 0.126036 -0.0848982 0.00232398 0.0584752 -0.122967 0.322324 -0.281068 0.0904189 -0.0500133 -0.209236 -0.0769131 0.101771 -0.0607069 0.126333 0.123469 0.0576254 0.0705545 -0.0783607 -0.0309633 0.142604 0.00326967 -0.172737 -0.106225 0.142331 0.325876 -0.0290238 0.0682019 0.0427698 0.103843 -0.113752 0.00490648 -0.248011 -0.128726 -0.103534 0.00605981 -0.145616 0.159716 0.0643931 -0.0176935 -0.0956414 -0.0460729 0.0127016 0.178972 -0.0269727 0.16751 0.0786755 -0.0368285 0.104103 -0.259797 -0.0628743 0.138936 0.314949 -0.0200196 0.175949 0.185668 0.0112278 0.0662335 0.230949 -0.15517 -0.175086 -0.0762821 -0.136546 0.122935
astronomer 0.211777 0.0894945 0.39497 0.170292 0.247509 -0.546375 -0.0578978 -0.202987 -0.237315 -0.359439 -0.156314 -0.216681 0.193198 -0.125603 0.154278 -0.126197 -0.311284 0.108463 0.195607 -0.219336 0.0747815 0.209108 0.0149106 0.0456565 0.24252 -0.164905 -0.109075 -0.0490651 0.124006 -0.123459 0.0791615 -0.027319 0.0520803 -0.0276359 0.347084 -0.306791 0.353811 -0.0892266 0.0559565 -0.113123 -0.0173952 -0.138842 -0.140594 -0.0890978 0.0860967 -0.103487 0.123337 0.0591627 0.149992 -0.0064654 0.0944961 -0.421403 0.116512 0.0667217 0.218209 -0.115204 0.0307898 -0.345045 -0.000997509 -0.156721 0.0169033 -0.0601158 -0.383873 0.0893241 -0.144887 -0.123001 0.00234451 0.18062 0.224359 -0.202557 -0.0137523 0.161017 -0.162345 0.309335 0.450319 0.193512 0.284342 -0.149095 -0.00371365 0.242683 0.343363 0.0271711 0.0863204 0.170478 -0.104289 0.0587859 0.0244492 -0.224029 -0.0672592 -0.134973 -0.257951 -0.0857769 -0.152327 -0.168661 -0.205112 0.190345 -0.0409497 0.173372 -0.186489 0.12937 -0.0826084 0.232925 0.337132 0.0270394 0.271664 -0.278202 -0.192811 -0.203737 0.108814 0.0104019 0.0495358 0.0862836 0.23833 0.135911 -0.0660392 -0.0599226 -0.314122 -0.131091 -0.345512 -0.24412 -0.0411554 -0.0656049 -0.00855716 -0.293241 -0.0796928 0.0131729 0.079647 0.00989125 -0.0362048 -0.0929706 -0.357773 -0.129441 -0.153469 -0.0510375 -0.161878 0.178824 -0.447326 0.0801741 -0.119709 0.249217 -0.127319 0.0248207 -0.465988 -0.0525184 0.255884 -0.0298725 -0.359147 -0.0560096 -0.29233 0.170603 -0.107657 -0.014922 0.142521 0.0220819 0.00730693 -0.21768 -0.052528 -0.0272229 0.155847 0.159525 -0.214007 -0.045413 0.0192838 -0.303454 -0.0818991 0.186488 -0.0632606 -0.196981 0.0106872 0.00936366 0.335597 -0.0262904 0.00819158 0.19697 0.0495201 -0.3712 -0.094642 0.267986 -0.121446 0.0207348 -0.0847159 0.0285617 0.371231 -0.06038 0.0676278 0.129771 0.294294 -0.172126 0.111014 0.129552 0.264911 -0.0516817 0.229411 0.0259274 -0.189712 -0.198097 -0.00183186 -0.185335 0.126405 -0.300404 0.0880825 0.244091 0.0513992 0.140239 0.131067 0.169131 0.0830854 -0.218549 -0.0515263 0.391728 0.250854 0.0603583 -0.0579548 0.0619356 -0.0501803 -0.256034 -0.156375 0.132826 0.0461748 0.397055 0.10679 -0.0575866 -0.012098 0.181292 -0.0880599 0.134769 0.136832 0.0912897 0.0812393 0.0251162 0.414255 0.13694 -0.0464843 -0.273583 0.439456 -0.206486 0.0903016 0.123086 0.450907 0.000323945 0.0197646 -0.00153177 -0.150834 0.0946529 0.053494 -0.0395741 -0.139689 0.00464309 0.206456 0.0148521 0.057879 -0.115378 -0.35128 0.19317 0.147057 0.128222 -0.210657 -0.239035 0.0349912 0.128468 0.0622276 -0.378471 -0.185262 0.364274 0.290118 -0.0375438 0.243605 0.0632821 -0.099173 -0.277974 0.0419464 -0.0679766 -0.23408 0.226061 -0.00129462 0.0243837 0.0396092 0.217608 0.0512314 0.0165562 -0.048962 0.219386 -0.0630736 0.0271872 0.033635 0.0901779 -0.228459 0.0845145 -0.183995 -0.00856547 0.0354467 -0.0358684 0.158871 0.122395 -0.0848465 -0.252608 -0.209106 0.0178415 -0.252404 0.239298
project 0.000825242 0.0216307 0.210434 0.11148 -0.0900253 -0.00523107 -0.0559013 -0.114149 0.0381816 0.114159 0.118151 0.0450896 -0.155266 0.211584 -0.0316855 -0.0945956 0.0716415 -0.0161155 0.135511 0.0972924 -0.0473599 -0.0875309 0.136546 0.0506531 -0.0242224 -0.123209 -0.0397777 -0.0102927 -0.103976 -0.0922539 0.131963 -0.0157748 0.00847558 -0.0533594 -0.0405619 0.0197638 -0.0273835 -0.0256942 0.0439238 0.0184252 -0.17624 0.0924698 -0.0782139 0.065264 -0.0418362 -0.0615702 0.150264 -0.158936 0.0994832 -0.108098 -0.229689 -0.0720717 -0.0730329 -0.0217432 -0.0429616 -0.0683205 0.0357757 0.00353862 -0.0936868 0.0992367 0.0317931 0.138714 -0.208343 0.0348354 -0.0865059 -0.0406386 0.0543095 0.113456 0.0496897 -0.0263791 0.0366736 -0.103411 0.0281526 -0.0695301 -0.0808575 -0.0336702 -0.0970984 -0.0578237 -0.0138081 0.0624636 0.0323566 0.0688748 0.0620126 -0.0460319 -0.0410746 -0.214445 -0.0538632 0.044855 0.181027 -0.102882 0.0680577 -0.0177015 0.0300064 0.0835418 -0.0402439 0.121384 -0.00473671 -0.0782076 -0.0594997 0.0120905 0.0315344 -0.110112 0.00697593 0.0750178 -0.114272 0.126992 -0.117103 -0.152309 -0.00967672 0.041381 -0.25091 -0.139615 0.0240826 -0.0306915 -0.00734301 -0.0298665 0.0581678 -0.0101773 0.035145 -0.0310088 -0.0760507 -0.00626738 0.0584739 0.00572681 -0.120973 -0.126237 0.0889499 -0.202955 -0.152565 -0.182087 0.0100111 0.0351562 0.133694 0.142398 -0.0265996 -0.0178285 -0.0249855 0.00754774 0.0508096 0.0657825 0.107592 0.0348415 0.218511 -0.0285425 0.0475956 -0.0922411 -0.123923 -0.088097 -0.0143064 0.194271 0.137957 0.0242278 0.0779559 -0.135798 0.027007 0.0988313 -0.0878639 -0.0904862 -0.0349323 0.108086 -0.181307 -0.215645 -0.051462 -0.0761974 -0.190667 0.0710958 0.158994 -0.145288 0.0432297 -0.0862345 0.113271 -0.0372411 -0.156405 0.00126853 -0.0534163 -0.0721076 0.0475941 -0.0237978 0.129481 0.342227 -0.103319 0.0304371 0.0820793 0.0140254 0.0707651 0.0620826 0.117157 0.0460932 -0.0418746 0.0512425 -0.117447 -0.0677518 0.175174 -0.0263768 -0.163611 -0.0019855 -0.123054 0.071147 0.0101855 -0.0695636 0.0301651 0.141867 -0.0798926 -0.123252 0.0154725 0.084787 -0.170756 -0.168905 -0.0932243 0.076813 -0.0843439 -0.0268057 -0.0752764 -0.0869154 0.0287931 -0.0496726 -0.106522 -0.0020841 0.114126 0.11363 0.0987656 0.0712163 0.165351 -0.0288728 0.0292733 -0.00479751 0.132521 -0.0083089 0.16499 -0.059305 -0.144502 0.157669 -0.0284849 0.000362136 0.109656 -0.017202 -0.0647258 -0.00134149 0.0294988 0.103312 -0.00913915 -0.0389028 -0.290875 0.10624 -0.0905915 0.149879 0.0304934 -0.0712323 -0.0832446 -0.260666 -0.0244103 -0.211608 0.216183 0.190608 0.0805081 -5.25348e-05 -0.124567 -0.0841934 -0.00739804 0.00156338 -0.0409473 0.0510632 0.217337 -0.00586748 0.0472832 -0.0103255 0.0406159 0.0340512 0.230284 0.218656 0.0434559 0.0189335 -0.24928 -0.0648774 -0.0414322 0.0734368 0.0858709 -0.0278655 -0.0476293 -0.0717999 0.148523 0.0244873 -0.0926991 -0.18546 0.123671 -0.0944194 0.113491 -0.159377 -0.0153578 0.260696 0.0783738 -0.0789186 0.148496 0.0167819 0.187333 -0.00196664 0.0401351 -0.0779122 -0.201999 0.0352807
dawn 0.0427686 -0.0486046 -0.124008 0.119131 0.11373 -0.171295 -0.118609 0.0684476 0.088362 0.00133852 -0.0428013 0.00115285 -0.0538701 0.195877 0.0941913 -0.0634662 -0.0406537 -0.106194 0.0437304 -0.0308489 0.161174 0.0947152 0.255001 -0.0312619 -0.0848488 -0.0535076 0.245694 -0.0260254 -0.0620805 -0.102612 -0.0296824 -0.00445188 -0.140578 -0.00782096 -0.105708 -0.00996777 0.049451 -0.043115 0.0688001 0.185483 0.202879 0.0602335 -0.0817906 -0.0331741 0.00325977 0.0907965 0.142816 -0.0404369 -0.0590101 0.0677959 0.255756 -0.0499365 0.00622109 0.0149083 0.122202 0.108733 -0.0507157 -0.0769065 0.0102416 -0.00854288 0.0138062 0.0150876 -0.0820106 -0.112934 0.0786612 0.100442 0.250494 -0.000655713 0.14498 0.0254376 0.0901463 -0.0789671 -0.0978601 0.114178 0.0494396 0.0269328 0.236912 -0.0832173 0.0999828 -0.109722 0.0196016 0.194844 -0.163514 0.0131926 0.101458 0.0198999 -0.106752 -0.045412 -0.00982993 -0.101153 -0.00351964 0.0667877 0.207423 0.225617 -0.0703297 0.0709721 -0.0330919 0.0525099 -0.0179687 -0.00440456 -0.0142722 0.134718 0.0915902 -0.198385 -0.0748037 -0.0772814 -0.0906991 0.143611 0.0651493 0.0340871 0.0424627 0.116375 -0.0654539 0.125924 0.0120408 0.0758333 0.108406 -0.0560556 -0.0777279 0.0237946 0.108927 -0.127164 -0.0650243 -0.23117 -0.0381478 -0.0804522 0.228549 -0.154029 -0.14631 -0.12349 -0.153093 -0.0356626 0.0381515 0.0606006 0.194358 -0.0305175 0.0896964 -0.0742044 0.00890577 0.146477 0.215887 -0.196055 0.0047513 0.0819044 0.0176952 0.10657 0.132138 -0.100181 -0.00995353 -0.0207325 0.0182826 0.0944485 0.0939904 -0.124088 0.0209929 0.00328145 -0.0663594 0.0162157 -0.123453 -0.212419 -0.134953 -0.00286131 -0.0625867 0.0969258 -0.0821016 0.130672 0.0727071 -0.102198 -0.134734 -0.0117126 -0.0306138 0.278503 0.00880096 -0.00758355 -0.132955 0.00892281 -0.111775 0.174274 0.047609 -0.126889 0.13936 0.0216743 0.0234375 0.0664198 -0.115703 -0.139162 -0.036917 0.0369613 -0.00938393 -0.0460164 0.154966 -0.0206027 0.20584 -0.00678581 0.0488409 -0.0387018 -0.0905522 -0.154014 0.0287228 0.145339 -0.0396965 0.0625056 0.0657055 0.0408902 -0.0385353 0.0287653 -0.0339382 0.0205617 0.23804 -0.18728 0.0437247 -0.170251 0.121219 -0.0616029 0.0938009 0.133969 -0.0776248 -0.0362922 0.147963 -0.165579 -0.079755 0.00919111 -0.00447753 -0.010038 -0.112582 0.0878725 -0.0369187 0.0706293 -0.0564141 0.244984 0.169791 0.0598894 -0.0627389 0.0435834 -0.0522568 -0.00675962 -0.145117 0.0398414 -0.0589941 0.130164 -0.0466228 0.117663 0.0283322 0.0846302 -0.0694801 -0.0834409 0.0137034 -0.056272 0.14565 0.00634442 -0.0749533 0.00241419 0.156037 -0.184831 0.11185 -0.148203 -0.157554 -0.296732 0.105513 0.369938 0.0366017 0.128429 0.0939631 0.0687556 0.135957 0.0521898 -0.0596105 -0.125127 -0.15144 0.037287 -0.10542 0.192461 -0.251489 -0.0874903 0.107845 0.0167727 -0.0718898 -0.0976833 0.0926467 0.256223 -0.0798232 -0.0381753 -0.0434601 0.116385 0.152811 0.0268631 0.0829366 0.0283223 0.0874847 0.146358 0.0750906 0.0302205 0.070856 0.0693551 0.0657066 -0.23536 0.131053 0.105416 -0.11012 0.137144
ear 0.126376 -0.0371267 0.0638621 0.173787 0.0892028 0.0806624 -0.104512 0.281902 0.499111 0.0680908 -0.0681302 -0.086883 0.106945 -0.133964 -0.019815 0.0874321 -0.0188329 0.31973 0.206615 0.0127885 0.128286 0.115177 -0.0579707 0.165137 0.0680935 0.134809 0.111879 -0.160215 -0.279487 0.152904 -0.17912 -0.307274 -0.0194641 0.0678642 0.0616684 0.280705 -0.167247 0.0194177 0.0138564 0.131492 -0.0608067 0.125978 -0.187075 -0.180787 0.339294 -0.00294569 0.0689338 -0.158843 -0.0618138 0.111058 0.140651 0.119704 0.0811115 -0.0473218 0.0110569 -0.320266 -0.277515 0.300247 -0.278295 -0.278969 -0.364007 -0.114739 -0.224821 0.071514 0.173283 0.255111 0.0230524 -0.0605302 -0.073462 0.1032 -0.148704 -0.161524 0.233905 -0.0818239 -0.121924 -0.294198 0.302508 -0.0293343 -0.170386 -0.224035 -0.159393 0.0108722 0.132995 -0.131616 0.077188 0.0120691 -0.0845335 -0.113598 0.0295531 0.0461879 0.0750816 -0.16016 0.292081 0.0186908 0.0144846 -0.146319 0.124924 -0.247101 -0.168918 -0.174255 0.194221 -0.300819 0.184384 0.0687466 0.224038 -0.329803 0.0168923 0.0680342 0.144541 -0.0186157 -0.092965 0.173926 -0.0642353 -0.0850134 -0.161381 -0.126723 -0.124646 -0.113119 -0.115646 -0.141687 0.0100694 0.081102 0.0233939 -0.158187 0.16821 0.12969 0.200527 0.0810555 0.118659 0.26135 -0.0783848 -0.0424483 -0.0234735 0.0168786 -0.286722 0.156921 0.030598 -0.196063 0.00838531 -0.0299551 -0.0791593 -0.111163 0.197711 -0.373559 0.125785 -0.0596855 -0.0958906 -0.0844863 0.11056 0.142406 -0.0458191 -0.176128 0.0945964 0.0799905 -0.0429212 -0.317226 -0.0387295 0.154361 -0.0149784 0.194315 -0.0729263 -0.0646175 0.117159 0.056637 -0.0488659 0.173195 -0.111747 0.247781 0.0975725 0.0924472 -0.186862 -0.0818666 0.0453386 -0.0779106 -0.110809 0.0433433 0.175123 -0.118678 -0.368007 0.0677954 0.239942 -0.0171126 -0.165965 0.229544 -0.0528428 0.0901139 -0.0732337 0.111319 -0.0371971 0.130748 0.0480916 -0.0838387 0.260852 0.00817426 0.0415934 0.0323077 -0.377124 0.223754 -0.346408 0.127307 -0.202278 0.214364 -0.15323 0.292993 0.263047 -0.0843414 0.128786 0.293095 0.0820895 0.0592614 -0.0314119 0.149981 0.0673973 -0.0453837 -0.10313 0.0257795 0.0394514 -0.0727691 0.0141449 0.0288147 0.012215 0.304928 0.0751872 -0.341724 -0.0728905 0.159503 -0.0438921 0.0572761 0.0858617 0.0594272 -0.0325308 0.0757533 -0.0114894 0.0902184 -0.057928 -0.200434 0.0777701 0.0701703 0.00177557 -0.0256142 0.0450695 -0.0987099 0.022587 -0.249595 0.241779 0.0902513 -0.274883 -0.161535 -0.191593 0.183967 -0.075078 0.00829638 0.110235 -0.0502467 0.0123878 -0.0230698 -0.0537007 -0.176176 -0.206713 0.211639 0.12235 -0.0936394 -0.0100213 0.0417081 0.0447498 0.193416 0.00858447 -0.0433094 -0.0635865 0.23104 -0.271115 -0.122531 -0.163013 -0.19853 0.368606 0.0948856 0.180884 0.169184 -0.0525403 0.0913452 0.226255 0.30593 0.0995462 -0.175849 0.272947 0.266689 0.23782 -0.145486 -0.0207071 0.108935 0.142276 -0.251938 0.0908517 0.0723631 0.153326 -0.0872351 -0.131702 -0.142063 0.132284 0.118206
voyage -0.00819924 -0.0737894 -0.107027 -0.0122776 -0.0504683 -0.147335 -0.128873 -0.0416882 0.0553669 -0.0703984 -0.0317756 -0.0628529 0.270816 0.106652 0.00695761 -0.0361461 0.0490218 0.163418 -0.412784 0.230504 0.273102 0.290099 0.177249 0.0107581 0.227513 0.230861 0.0530562 0.0360887 -0.0880351 0.159584 -0.117242 0.448346 0.216845 -0.285066 0.00163151 -0.152052 0.0142231 0.00089849 0.0953574 -0.103708 0.0578014 0.159902 -0.0244133 -0.0640626 0.0483784 -0.110132 -0.129355 0.135233 -0.106476 0.090926 -0.302795 0.158303 0.0185109 -0.29627 0.218105 -0.333312 0.154077 -0.17739 0.212279 -0.277075 -0.121489 0.0750581 -0.225793 -0.0195009 -0.218203 0.022673 0.112649 0.0491778 0.207559 -0.108174 0.0981126 0.0408161 0.104355 -0.194263 -0.0398279 -0.100849 0.190346 0.0255625 0.272648 -0.179426 0.0337134 0.0598538 -0.285104 -0.0757454 0.0974483 -0.00668463 -6.35987e-05 0.0264484 0.253301 0.107681 0.0520563 0.331135 0.0573486 -0.0855122 -0.165746 0.303169 -0.0607173 0.0416588 -0.172113 -0.122853 0.0158376 -0.0556291 0.293518 0.0333297 -0.00413619 -0.252737 -0.196231 0.279341 0.152278 0.0564284 0.106992 0.10654 0.287649 0.486442 -2.85069e-05 -0.040373 -0.150754 0.101202 -0.0374887 -0.0988155 0.108506 -0.0169657 0.201221 -0.106054 0.148583 -0.0110586 0.0795384 -0.142186 -0.371169 -0.307966 -0.0305018 -0.133949 -0.0963596 0.00705404 -0.151671 -0.10704 -0.383836 -0.0108123 0.0480054 -0.0245974 -0.123514 -0.0523972 -0.112521 0.0418373 0.374081 0.0142306 0.0242303 -0.0782338 -0.0170528 0.019556 0.115038 0.166444 -0.0309548 0.192379 0.112236 -0.0921551 -0.0254933 -0.0293236 0.259497 0.0170271 0.111744 -0.416947 -0.234202 0.240549 -0.349331 -0.0125774 0.174813 -0.0296505 0.0250134 0.0434127 0.115766 -0.239286 0.0085883 0.0372318 0.13978 -0.061994 -0.0885788 -0.0126654 0.214197 -0.270111 -0.113817 0.036889 -0.0852101 0.241078 0.121203 -0.113364 0.169556 0.12713 -0.123734 -0.00892985 0.0495057 -0.109767 0.0559411 0.0615015 -0.133682 0.141854 -0.0645123 0.134608 0.186873 -0.0135143 -0.0104113 0.0995296 0.144024 -0.0113485 -0.271854 0.0382442 -0.211903 0.105884 0.172629 -0.125859 0.216928 -0.295712 -0.12244 -0.235676 -0.169383 0.306749 -0.0217879 0.22917 0.145796 0.0249486 0.26024 0.0434246 -0.153986 0.0146865 -0.123959 -0.0955604 0.0209498 0.0644777 0.100997 0.0514115 0.0729748 -0.154405 0.168436 -0.0655353 0.160568 0.129858 -0.0092735 -0.13041 0.0801942 0.0875645 -0.174231 -0.0341966 -0.218714 0.0359301 0.00974213 -0.182105 0.182327 0.11081 0.233244 -0.336277 0.286353 0.0430834 -0.0167966 -0.103136 0.0323268 0.0454659 0.0166239 -0.064734 -0.157694 0.359103 -0.0698567 0.214339 -0.013869 0.105824 0.0902746 0.125211 0.071607 -0.248803 0.0364211 0.179033 -0.209314 -0.137316 -0.181817 -0.156738 0.0258661 0.139694 0.10172 0.0323397 -0.121684 -0.068276 0.183998 0.204069 -0.0453613 0.0945594 0.163367 -0.174256 -0.0527003 -0.0325445 -0.0123351 0.136383 -0.0135164 0.315667 -0.0912179 -0.216205 0.16588 0.10446 -0.196047 0.124388 0.106399 0.106176
valor 0.0614548 0.0297959 0.11646 -0.0390629 -0.0198953 -0.46996 -0.0512687 -0.392755 -0.100151 0.227117 -0.108109 0.216415 0.0938473 -0.12847 -0.00945015 0.331689 0.179931 -0.212588 0.023884 -0.0770826 0.333964 0.108869 -0.168337 -0.0824865 0.109387 0.321001 0.13452 0.17225 -0.0143169 -0.192863 0.0722369 -0.341655 -0.0648071 -0.0766145 0.0731267 -0.148336 -0.493734 -0.124499 0.0557404 -0.52712 0.219826 0.0864811 0.0320652 0.0827996 0.502551 0.0636498 -0.0339365 0.157239 0.180148 0.0209255 -0.223619 0.0125389 0.0168905 0.0456225 0.337441 -0.178287 -0.129838 0.00220961 0.0611932 -0.239449 0.111139 0.174141 -0.109268 0.0979024 -0.0394292 -0.373559 -0.200245 -0.177779 -0.0416126 -0.4158 0.0507693 0.0459393 -0.207582 -0.172872 0.0962021 0.443757 0.123072 -0.292765 -0.113851 -0.00481115 0.0612892 -0.125147 -0.00444149 0.176622 0.110063 0.282203 0.30468 -0.318051 -0.161449 0.200581 -0.317943 0.0547349 0.159787 0.0943524 -0.0643426 0.185452 -0.102439 -0.0733673 -0.179123 -0.128037 0.519464 0.192585 -0.219268 0.119761 0.071242 0.0804685 0.12359 -0.315462 0.269202 0.123453 0.207011 -0.226695 -0.170736 0.209611 0.297564 0.363969 0.245867 0.239611 -0.336399 0.0399687 0.166233 0.0600165 0.299522 0.107799 -0.089828 -0.225645 0.231469 -0.261663 0.0114359 0.332984 -0.0162263 0.0127432 0.300686 0.0908026 -0.0115447 0.0190123 0.0386469 0.0165428 0.245676 0.17085 0.0319825 0.00887637 -0.194897 0.13015 0.144812 0.108948 0.190579 -0.135167 -0.0298571 -0.0252826 -0.105162 -0.317969 0.332944 0.144859 0.00474935 0.184397 -0.0531043 0.217559 0.0584006 -0.0062719 0.0654121 -0.0414715 0.194473 0.235185 -0.0611421 -0.0856361 0.238585 -0.0220797 0.33219 0.0133222 0.0814858 -0.0156065 -0.0670664 -0.186746 0.0379436 0.0365571 0.0570408 0.224427 0.434877 0.370436 0.0775378 -0.29592 -0.3962 -0.141808 -0.0583351 -0.0484051 -0.0344852 0.0040934 -0.116332 -0.147193 -0.0191267 -0.0175224 0.110317 -0.00390762 -0.109699 -0.192924 -0.184013 -0.0213477 0.23339 -0.0429725 -0.145581 -0.0893084 -0.253019 0.174936 0.103362 0.178953 0.0604439 -0.185246 0.297403 -0.0725502 0.125606 -0.222536 -0.498854 -0.212368 0.263089 0.404037 -0.0421215 -0.213429 0.0575735 0.0571772 -0.062493 -0.100761 0.247725 0.304638 0.249505 -0.131993 -0.0100617 -0.115944 0.0256683 -0.149665 0.210249 0.0100673 0.00541123 0.0136032 0.177422 0.13799 0.0784886 0.0148331 -0.0370822 0.228116 -0.0942526 0.239036 0.194646 0.154911 0.187484 0.179835 -0.213838 -0.105167 0.0371673 -0.00681731 -0.201794 -0.211928 -0.238899 -0.355878 0.0986443 0.0732333 0.0172189 0.126496 0.307091 -0.00571494 0.114434 -0.171951 0.0620274 -0.160944 -0.0969502 0.146509 0.0391102 -0.0659664 -0.339161 0.230582 -0.121293 0.0422032 0.358948 0.0522218 -0.0468339 0.286345 -0.0291578 -0.214887 0.201214 -0.186256 0.365004 0.171108 0.361505 -0.208518 0.000235499 0.250251 0.106898 -0.0533297 -0.248003 0.116137 0.513072 -0.00682491 0.137104 -0.155684 -0.161222 0.0996226 -0.0849774 0.0730561 -0.259011 0.16458
butter 0.446742 -0.109302 0.030565 0.0552664 0.00643299 0.0586319 -0.0731153 0.110976 0.347647 0.0422501 0.0210265 0.30096 0.116127 0.239711 -0.0371522 -0.200035 0.304087 0.12521 0.0659783 -0.0891653 0.0243375 0.0483015 -0.25741 0.0689021 -0.0630007 0.235555 -0.000642417 -0.0396798 -0.34576 0.107064 0.0673194 0.242612 -0.0848066 0.173639 0.0448477 -0.00358382 -0.275124 0.068323 -0.338654 0.235642 -0.12413 -0.388314 0.258015 0.190981 0.135253 0.0870896 -0.408562 0.0807697 0.32881 -0.112975 0.0296941 0.144771 0.332508 -0.359748 0.0454933 0.0776064 0.0321393 -0.0860156 0.089826 -0.0620614 -0.120448 -0.340522 0.0122149 -0.119461 -0.114171 0.170584 0.376216 -0.120823 -0.014613 0.152438 -0.133815 -0.164886 0.323005 -0.100104 0.10882 0.0775167 0.3276 0.0371897 -0.213146 0.0457372 0.262488 -0.316201 0.427589 0.114017 -0.335263 0.170925 0.290292 0.0842193 0.00839166 0.0787554 0.378118 0.0166789 0.0316536 -0.0985907 -0.0429198 0.106355 -0.0946922 -0.0331748 0.00746264 -0.0173103 0.104978 -0.588585 0.0237829 0.0244855 0.130749 0.110152 -0.0362767 -0.0851473 0.376065 -0.0741548 0.0191352 0.0996453 0.141212 -0.258811 0.0109488 -0.0558604 -0.369627 0.117377 -0.105197 -0.090334 0.0514744 -0.202707 0.016277 -0.0630339 -0.0853723 -0.477257 -0.171119 -0.267917 0.107538 0.0651034 0.226284 0.115221 0.456829 -0.0521468 -0.305087 0.0263389 -0.0689368 -0.310782 -0.200987 -0.0287988 0.152553 0.344081 -0.0575031 0.225961 -0.0726708 -0.200061 0.228085 -0.145653 0.280664 0.0558519 -0.183963 0.372393 0.14697 -0.290184 -0.226159 -0.357454 -0.0034969 -0.155835 -0.290296 -0.0598209 0.0977976 0.120331 -0.1907 0.203284 -0.184301 0.132375 -0.315566 0.0292915 -0.173415 -0.344345 -0.23473 -0.205757 -0.0277673 -0.109658 -0.079545 0.162909 -0.10808 0.0872984 0.0711766 -0.0368542 0.320587 -0.0209633 0.234926 0.28392 0.317167 -0.156664 0.163505 0.299624 0.174777 -0.113607 0.209633 -0.0203003 -0.051069 -0.14847 -0.169022 0.0363943 0.210362 0.435386 -0.230047 0.129521 -0.221616 -0.295936 -0.0767536 0.0312814 0.236994 -0.192746 0.131566 -0.15566 0.195165 0.143599 -0.140278 -0.0238136 -0.408835 -0.397152 -0.364652 0.154604 0.0290263 0.228374 -0.118759 0.195702 -0.160371 -0.127617 0.0853054 -0.292716 -0.09161 -0.234323 0.326687 -0.441081 -0.0897814 -0.0183373 -0.147082 -0.147291 0.140753 0.00195174 -0.320711 0.107953 0.25785 0.374944 -0.0296611 0.0499522 -0.144825 -0.158642 0.119935 0.0681272 0.0359528 -0.247252 -0.0894799 -0.323747 -0.0608045 -0.385647 0.0470283 0.409077 -0.0537005 0.124106 0.0496028 0.048754 -0.141327 0.101402 0.314495 0.0291665 -0.231702 0.128536 -0.680868 -0.19718 -0.367435 -0.137663 -0.230054 0.174785 -0.296148 0.367502 -0.290827 0.128392 -0.299484 0.139683 -0.226039 -0.128288 0.0386361 -0.172719 -0.170911 0.32631 -0.262917 0.454635 0.043929 0.0190591 0.201836 0.294334 0.465445 0.280647 0.31125 -0.136736 -7.67704e-05 0.0236215 0.14838 0.269231 -0.00718466 0.0738207 0.0406568 -0.0859626 0.199073 0.20464
gin -0.0717295 0.0357313 -0.200845 -0.0464886 -0.204829 -0.189597 -0.410477 -0.288224 0.353968 -0.1709 0.164356 -0.0325121 -0.0513031 -0.000118015 0.134428 -0.277487 -0.117823 0.103447 0.288523 0.429609 -0.0447726 0.0499038 -0.00608415 -0.0861433 0.0323108 0.113431 -0.10133 0.0676924 -0.0249748 -0.108855 -0.0461113 0.206156 -0.0477865 0.155959 0.0281488 -0.0716742 -0.199919 -0.110499 -0.334474 0.198464 -0.0580745 -0.183893 -0.0222019 0.285925 0.0190533 0.0877595 -0.0342308 -0.277991 0.140829 0.0902054 -0.145494 0.0378593 0.0977738 -0.18434 -0.066716 0.068083 -0.152669 -0.0227698 -0.128967 0.0346573 -0.395879 -0.145158 0.0277996 -0.0334198 0.0963083 0.189832 0.329275 0.277442 -0.0365296 0.00939978 -0.22125 -0.049706 0.108193 -0.193764 0.205693 0.0139037 0.309266 -0.0492082 -0.150796 -0.0929383 0.162088 -0.0727904 0.331444 0.244025 0.0271167 -0.0870558 0.0550925 0.0529655 0.0248045 0.0128426 0.0335699 -0.0754213 0.269612 0.129826 0.242168 -0.00283309 0.0586404 0.227751 0.0672745 -0.0846467 0.0584959 -0.0707423 -0.0738799 0.514071 0.00478411 -0.0503449 -0.20813 -0.164549 0.151894 -0.146733 -0.176404 -0.0774661 -0.0104431 -0.201399 0.134985 -0.0564364 -0.137461 0.0670058 0.0503034 -0.375594 0.350578 0.00833521 0.235163 0.0296499 0.22986 0.0205762 0.0645533 -0.25514 0.0900431 0.0910571 -0.00462385 0.0846924 0.262426 -0.0156377 0.0123342 0.0523911 -0.168011 -0.0697689 0.120946 -0.111583 0.101217 -0.0891477 -0.259476 -0.00958396 -0.246615 0.0477437 0.24296 -0.00856127 0.021921 0.0805309 0.153792 0.203786 -0.030101 -0.10522 -0.119079 -0.264384 -0.0372002 -0.119066 -0.0514701 -0.202002 -0.326859 0.0935564 -0.222731 0.0227816 -0.188913 0.00465373 -0.228654 -0.173768 -0.183037 0.122558 0.00204346 0.15716 -0.0356461 -0.104927 -0.132133 0.149291 -0.157147 0.0516502 0.146385 -0.144292 0.0426618 -0.0864131 -0.110317 0.0710627 -0.196084 0.00611703 0.000844842 -0.113089 0.331114 -0.278175 0.303129 -0.366079 -0.145116 -0.0653734 -0.143386 -0.0984801 0.117317 0.0222535 -0.100039 0.163897 -0.325171 -0.0561455 0.108701 -0.00787331 0.28396 0.0526933 -0.0108855 0.0376839 0.0117943 0.15322 -0.00686737 -0.291904 -0.15673 -0.0645724 -0.168902 0.12651 -0.0344057 0.118146 0.0217341 -0.163557 0.0792462 -0.229144 -0.0455177 -0.183032 0.162246 -0.138576 0.151815 -0.130614 -0.272985 0.0692019 -0.180184 0.169958 -0.2033 0.143322 -0.0716499 0.0324212 -0.0703353 0.340836 0.0257965 0.149326 0.0510507 -0.0573097 -0.0488984 -0.0497459 0.421692 0.0178395 0.0981917 -0.0564546 -0.266342 -0.0477263 -0.010917 -0.0505546 0.161396 -0.106374 -0.213511 0.0366526 -0.0989528 0.315601 -0.240519 -0.0167447 0.0897056 0.183616 -0.319209 0.0648498 -0.219552 0.116054 -0.0528986 0.0416913 0.0268771 0.103561 -0.296296 -0.13601 -0.026575 0.0360575 -0.137251 -0.196627 0.00438151 -0.0485235 -0.102429 0.401275 -0.123739 0.246256 -0.043513 0.010341 0.290186 0.243822 0.0303614 0.0924994 0.0470668 0.0584929 -0.0724002 -0.0324554 0.0454853 0.00893681 -0.221203 0.199342 0.0881481 -0.117306 0.254704 0.259227
reservation 0.281708 -0.222984 0.169906 0.376139 0.210524 -0.248059 -0.287734 -0.0149012 0.108051 0.221709 0.25288 -0.103824 0.0178515 -0.0371248 0.0874802 -0.216235 0.0565736 -0.0977677 -0.0828653 -0.159899 -0.224397 -0.267528 -0.296025 0.16867 0.275596 -0.0555162 0.265561 0.123431 -0.0549117 0.0443354 -0.0877539 0.181231 0.299646 -0.0852649 -0.0548817 -0.0594957 -0.134356 -0.0596574 0.0961453 -0.295942 -0.337225 0.173395 -0.149187 -0.061902 -0.217118 0.0949978 0.034036 -0.0184857 -0.0325544 -0.109564 -0.0558738 0.0845014 -0.397833 0.274142 0.119095 0.219949 0.194148 -0.0863619 0.147996 -0.0802191 -0.176568 0.293811 -0.0937352 -0.0543485 0.133232 -0.112253 0.326501 0.0798405 -0.12359 0.0417117 -0.0833328 -0.0443348 -0.0517514 -0.36415 0.170809 -0.0239945 -0.0805818 0.0302363 -0.252165 -0.114252 0.0333646 -0.0511035 -0.164309 0.14286 0.119583 -0.162047 -0.286519 0.0501741 0.0407067 0.293694 0.0523027 0.0673072 -0.102394 -0.00698617 0.171807 0.0518553 -0.0964245 0.22805 0.0692597 -0.240422 0.0868419 -0.0227108 -0.0150737 0.0383855 0.00055502 -0.0727064 -0.118974 -0.0304263 0.0396153 -0.0482911 -0.147077 -0.262919 -0.104489 0.0942263 0.151395 -0.217147 -0.162044 0.150869 0.0517282 0.0407298 0.463704 -0.0231988 0.0986594 -0.304827 -0.260782 -0.0964815 0.139476 -0.319594 0.284458 0.574347 0.25438 -0.139768 -0.213625 0.0589468 0.164728 0.214135 0.125171 0.0947661 -0.2663 0.0339753 0.256878 -0.170696 -0.135937 -0.266698 -0.293073 0.0519231 0.0251282 0.065052 -0.0764989 0.366825 -0.0942622 0.0984751 -0.0701843 -0.0980887 -0.060188 0.172129 0.0104342 -0.076508 0.176344 0.00175596 -0.158768 -0.308259 -0.308108 0.219372 -0.387428 -0.129047 -0.205509 0.208119 0.0438397 0.23727 0.0870957 -0.111794 0.0864465 0.106292 0.147226 0.196567 0.175212 -0.160508 0.196782 0.144613 -0.192551 -0.215997 -0.166981 -0.262606 0.178624 0.323633 0.105046 -0.00507649 0.0518894 -0.122556 0.219297 0.189189 0.0971491 0.252005 -0.0265697 0.010337 -0.0674905 -0.045591 0.00573154 -0.137666 0.240453 -0.0104048 -0.0377109 -0.0735042 -0.118747 0.0374183 0.045319 -0.0667952 0.0973594 -0.0075892 0.140294 -0.191013 0.101185 0.0560527 0.149111 -0.152825 0.213473 0.295039 -0.0481358 0.0169047 0.0333238 0.0870156 -0.315177 0.181631 0.0660528 0.114715 -0.00314288 0.148824 -0.345699 -0.14117 -0.0885944 0.0211031 0.215987 0.181001 -0.0369229 0.0428409 -0.113325 -0.278455 0.159845 -0.00999686 -0.0740974 0.219804 -0.0637484 0.0326475 0.32146 0.251553 -0.49789 -0.0664149 -0.0244393 0.03865 -0.0123676 0.078935 0.121514 0.158161 0.117277 0.120517 -0.333556 -0.214665 -0.115282 0.120211 -0.225386 -0.160238 0.0482255 -0.257757 -0.211801 -0.255783 0.1693 0.0890804 -0.218671 0.262506 -0.0546789 0.224686 -0.0470137 0.167204 -0.0145415 -0.20201 0.0516355 -0.28853 -0.214722 0.236568 0.0945656 -0.0650423 -0.258783 -0.152138 -0.0684657 -0.0169236 -0.0566982 0.0263706 0.0679401 0.0802525 0.0541873 0.079747 0.00334039 -0.411395 0.0456 -0.117783 0.0316128 -0.203541 0.0163403 -0.123349
wealth 0.0921708 0.168128 -0.073618 0.203778 -0.049984 -0.0995235 0.0327093 -0.18767 0.259816 0.0434218 -0.115009 0.0695892 0.0138113 -0.0197303 0.0781537 0.119621 0.030939 -0.050737 -0.114369 0.310599 0.166385 -0.172891 -0.0725966 0.337374 0.108812 0.0713935 -0.252266 0.0345792 -0.108478 -0.0134975 -0.140508 0.146965 0.0514935 -0.182068 0.0975377 0.0367213 -0.076059 0.0157695 0.0968084 -0.0519775 -0.126508 0.13414 -0.256048 -0.234521 0.157302 -0.0775412 0.101608 -0.0499966 0.14953 -0.143197 0.0336775 0.000757869 -0.133755 -0.138535 -0.219772 -0.0438903 -0.0398523 -0.0216571 -0.033198 -0.0911447 -0.31859 -0.0422219 0.022604 -0.0803484 0.130948 -0.275083 0.0432491 -0.176727 0.0493082 0.11408 -0.0771255 -0.0736118 -0.0713894 0.0218063 -0.0959251 -0.0211374 -0.135194 0.0443679 0.140175 0.0319515 0.154009 0.0288538 0.0532691 -0.168832 0.148849 -0.0585274 0.0527551 -0.153734 0.00277146 0.200694 -0.00365603 0.0867884 -0.0523068 0.00671663 -0.118493 0.00103555 -0.0625981 -0.137129 -0.0121523 0.105575 0.0671146 0.234864 -0.140463 0.115196 -8.48761e-05 0.0464504 -0.200075 0.0282225 0.207163 0.19553 -0.0733311 0.0591504 0.0877666 -0.0335911 -0.294949 -0.185772 0.0368731 0.329188 -0.0815396 -0.0612051 0.10568 -0.192329 0.0870042 -0.00522099 -0.0303528 0.0127105 -0.130151 0.0158554 -0.0312177 -0.00466631 0.123966 0.0409319 0.232799 -0.0866139 0.00538928 0.0915027 0.0174596 0.0751837 0.00496558 -0.0523705 -0.0174962 -0.0418172 0.076261 0.0452821 0.0859938 -0.152424 0.121072 0.0435058 -0.17741 -0.184731 0.26028 0.144357 -0.0462005 -0.0947739 0.128156 -0.0805192 -0.166759 0.0991334 -0.139189 0.00263056 -0.117539 -0.203572 -0.0149271 -0.0538658 0.154748 0.0124203 -0.167285 0.00971832 0.175482 -0.112604 0.215969 -0.0773463 -0.0841649 -0.0510312 -0.0662809 -0.0528807 0.084682 0.0231275 0.138243 0.086727 0.139821 -0.0520038 -0.167346 -0.0820486 0.029008 -0.187777 -0.00398647 0.0694003 0.142292 -0.41073 0.0978846 -0.0778784 0.14856 -0.0944117 -0.0808892 -0.0270553 -0.00899745 0.229633 -0.0448431 0.1038 0.0514897 0.189072 -0.12154 0.00938656 -0.0265587 0.108433 -0.179357 -0.0150903 -0.141814 0.219582 -0.0528606 -0.00672642 0.0314328 -0.0530521 -0.119265 -0.0794255 -0.0352917 0.0816577 -0.19027 0.136153 0.154666 0.116903 -0.107294 0.0618167 -0.130342 0.00398525 0.0877466 -0.0167572 -0.046436 0.227667 0.153384 0.0859989 -0.164685 -0.00972135 0.355492 0.181722 -0.0968044 -0.0367141 -0.232705 -0.069793 -0.0499688 -0.0746337 -0.014909 -0.0246457 0.240053 0.0976182 -0.0635054 -0.116679 0.166041 -0.0024183 -0.250428 0.017937 0.135727 -0.170242 -0.0877423 -0.0115637 -0.165 -0.0118742 0.0743627 -0.256468 -0.0297725 0.145345 0.0544178 -0.112499 -0.0119823 0.187178 -0.0122219 0.130282 -0.0783941 0.128526 0.0844305 -0.136006 0.0876704 0.0783268 -0.132882 -0.0494196 -0.064082 -0.337787 -0.173941 -0.158403 0.08754 0.196293 0.113127 -0.00546093 -0.219886 0.0290679 -0.157183 0.0696803 0.166553 0.155886 0.195836 -0.0650993 -0.0746133 -0.000689787 -0.0739478 -0.0317985 0.192018 -0.0355135 -0.1451 -0.176411
eat 0.387236 0.00723018 -0.244309 0.123225 0.113295 -0.281161 0.101604 0.172971 0.221395 -0.0747248 0.221826 0.180448 -0.0530961 0.120158 0.133461 -0.0726446 0.211689 0.122972 0.186712 0.0543471 0.0355846 0.0595669 -0.0793823 -0.215959 0.217057 0.00679901 0.0291839 0.00372391 -0.0586839 -0.0623533 0.00846462 0.0520164 -0.133496 0.183529 0.074319 0.0137193 -0.275925 0.0585771 -0.0424229 -0.000388763 -0.022402 -0.09047 0.284138 0.0490898 0.180444 0.124498 -0.333287 -0.00837587 -0.00505939 -0.151439 0.159532 0.0593538 0.23743 0.158052 -0.0320907 0.0894469 0.105698 0.0048961 -0.0138388 0.137634 -0.0352349 -0.180708 0.00824701 -0.059647 0.298182 0.105558 0.301083 0.0745381 0.151066 0.0459154 0.0580972 -0.0543686 0.235207 0.0782297 0.00975273 0.0998283 0.33834 0.0845394 -0.0417007 -0.022042 0.187795 0.11831 0.0804851 0.278817 -0.0809506 0.0707647 -0.073613 0.151579 0.000758593 0.0946651 -0.192066 0.12357 0.075173 0.0352089 -0.166305 0.173232 0.0224433 -0.17157 0.140144 -0.438228 0.150886 -0.0248817 0.0803807 -0.0725478 0.214738 -0.0505486 0.00337988 0.209439 0.0935773 0.0191923 -0.217055 0.217227 0.0109586 -0.098133 -0.101184 -0.11235 0.0156573 0.0286801 -0.065348 -0.344393 0.111453 -0.0808014 -0.127543 0.0530163 -0.0901392 -0.153803 -0.00811293 -0.0301559 -0.00217625 -0.116379 -0.0128656 0.231578 -0.0566909 -0.0545616 0.120507 0.0157482 -0.00836005 -0.268025 -0.0564836 0.188888 -0.0630401 0.123014 0.111539 0.0785707 -0.0413056 -0.112556 0.454887 0.0109458 0.136726 0.20795 -0.215026 -0.0610845 0.139209 -0.0309487 0.0192134 -0.248813 -0.127835 0.0597341 -0.19483 0.0500538 0.179224 -0.0994606 -0.305989 0.157122 0.0191089 -0.118225 0.068079 0.0345568 0.227774 -0.0558312 -0.11331 0.218812 0.0695991 0.136716 0.00827373 0.238349 0.207587 0.242539 0.145838 -0.123099 0.187362 0.0327651 0.112969 0.14141 -0.00747247 -0.00619686 0.133738 0.0304908 0.0843595 -0.151178 0.051488 0.136979 0.163024 0.0554591 -0.00288975 -0.0290489 0.0606264 0.171214 0.00675548 0.0770335 -0.067337 0.0357805 0.109564 -0.233602 -0.0288559 -0.122886 0.165917 -0.134639 0.0372548 0.00495254 0.175556 -0.0374156 -0.258728 -0.19392 -0.00512529 0.0988676 -0.0270166 0.151892 0.0305773 -0.138727 -0.120735 -0.0539318 0.107988 -0.000866271 0.00587711 0.0489348 0.215503 -0.0554413 0.0294711 0.0453829 0.220399 -0.125673 0.015941 0.0347172 -0.207672 -0.0275992 0.184753 0.0437447 -0.0471824 -0.0591488 0.169828 -0.128737 0.0334278 -0.035082 -0.122708 -0.429431 -0.176624 -0.112656 -0.154371 0.16703 0.269543 0.420296 0.11919 -0.289249 -0.0389761 0.199749 -0.282378 -0.162691 0.226924 -0.0327645 0.0447297 0.128267 -0.114823 -0.0201872 0.0505352 0.169881 -0.115014 0.0308879 -0.198112 0.210773 -0.436364 0.113245 -0.214361 -0.112799 -0.121188 -0.0619884 -0.143044 0.0207296 -0.160276 0.252504 -0.170207 0.106532 0.0477269 -0.115977 -0.0346854 0.089829 0.299235 -0.100753 0.382376 -0.018927 -0.400157 0.0136 0.0609214 0.0705132 0.19096 -0.234199 0.0293449 -0.510912 0.0344068 0.216024
soap 0.243714 0.0263089 -0.154689 0.0733343 -0.149163 -0.222912 -0.095359 -0.0722557 0.326994 -0.0991631 -0.238879 0.322691 -0.146065 0.238937 0.19433 -0.0866775 -0.133728 -0.207943 0.129874 0.612611 -0.179322 0.180725 0.0676194 0.26397 0.000446684 0.177494 -0.100138 0.254936 -0.0741492 -0.12128 0.0435712 -0.079502 -0.0836433 0.0125971 -0.124531 -0.0908144 0.0338144 -0.166118 0.168636 0.221101 0.305801 -0.0878123 -0.275331 0.168906 0.0344894 -0.0435765 -0.0536766 -0.167637 -0.031001 -0.189216 0.133158 -0.194253 -0.123666 0.154028 0.00756964 -0.172453 0.119367 -0.401475 0.0943822 -0.0938134 -0.0381581 -0.127986 -0.0880774 0.189851 0.353936 -0.00771444 -0.0344372 0.150045 -0.0920718 -0.0959525 -0.200334 -0.0976172 -0.0259426 0.0554173 0.241967 -0.0560034 -0.0866701 0.0183538 0.164461 -0.145032 -0.0260871 0.121735 0.0773342 -0.0913742 -0.069124 -0.0683963 0.262957 -0.244231 0.176708 0.225313 -0.167089 -0.114467 0.419449 -0.098941 0.182941 -0.0922505 0.171451 -0.0490117 0.319736 -0.159618 0.0310969 0.237266 0.0999446 0.200529 -0.101466 0.282417 0.241241 -0.0893932 -0.399414 -0.0360767 -0.22418 -0.00897422 0.0744302 0.0496276 -0.0052403 -0.190234 0.154033 -0.154794 -0.365076 0.114047 0.0144231 -0.101986 -0.0392776 -0.190148 -0.00343182 -0.175801 0.052138 0.0445658 -0.273217 0.000418492 0.472736 -0.0473638 0.444423 0.199132 -0.29683 0.174651 -0.110533 -0.00986696 0.023708 0.0409995 0.267761 -0.287319 0.108367 0.329583 -0.0658864 -0.0607549 -0.145933 -0.171491 0.242156 0.0372989 -0.25012 0.0970505 0.0412346 0.240948 -0.0752072 -0.108178 0.160436 -0.0354898 -0.00396814 -0.488828 -0.0436129 0.272914 -0.0184397 0.110395 -0.226945 0.00690847 -0.203693 -0.0616203 -0.0733633 -0.267237 -0.238469 -0.0309645 -0.143853 -0.241229 0.166452 -0.0415676 -0.098317 0.333278 0.0339143 0.0784368 0.237592 0.139988 0.0822962 0.12303 -0.120913 0.479315 -0.0148616 0.208085 -0.255298 -0.23706 0.0593969 -0.663806 0.00467275 0.328975 -0.202519 -0.0746592 0.188244 -0.0359468 0.29237 0.26134 -0.0942487 0.439997 0.0402206 -0.00945582 0.0158265 -0.14457 -0.0381382 0.0765191 0.0970889 0.0283081 0.093628 -0.0470003 0.0885348 -0.0416926 0.10467 -0.357462 -0.0588005 0.392636 0.190822 0.0993729 -0.130591 -0.206739 -0.0911297 -0.213101 -0.125451 -0.10532 -0.00127254 0.258286 -0.171594 0.147787 0.0210945 -0.589132 -0.0870989 -0.149586 -0.136121 -0.0163122 0.178449 0.182712 0.346166 0.0271072 -0.0539669 0.29039 -0.0537322 -0.175444 -0.273073 0.019742 0.332087 -0.130666 0.428924 0.0154363 -0.0028819 0.0918379 -0.199244 0.381422 0.251891 -0.0318001 -0.0749612 -0.105483 0.279311 0.0709817 0.077969 -0.253658 -0.207924 0.336985 0.084052 0.0551699 0.0374245 -0.129399 -0.314413 0.149686 -0.0884564 0.163165 0.0705588 -0.307323 0.388635 0.012848 -0.104403 0.122278 -0.284817 0.439436 0.0727814 0.244787 -0.158013 0.0395995 -0.164031 -0.011591 0.451845 0.431631 0.210034 -0.193395 -0.0945899 -0.255837 -0.487684 -0.121752 -0.111337 0.0389765 -0.0198177 -0.187916 0.129751 0.16697
Jerusalem 0.112823 0.25304 0.109397 0.0260482 0.0809794 -0.307927 0.0843941 -0.0665382 0.196395 0.43466 -0.117113 -0.104806 -0.0498185 0.0550677 0.431387 0.222575 0.0857086 0.0940196 0.0272775 -0.200004 -0.128822 -0.15065 0.0701367 -0.0186895 -0.459187 0.0690956 -0.113613 -0.127027 -0.00146113 0.323336 0.125766 0.0710196 0.269299 -0.132615 0.159043 0.235127 0.0881102 0.233867 -0.193769 -0.0672929 -0.285627 0.0959032 -0.188632 -0.166681 0.0339696 -0.0398938 -0.0495354 -0.142272 0.0515185 -0.0848052 -0.33666 -0.157792 -0.0776814 0.00220835 -0.17019 0.039687 0.053129 -0.362879 -0.0434571 -0.00293189 0.0492452 -0.0884471 0.0470504 -0.23634 0.113323 0.140835 -0.0461268 0.0913571 0.255029 -0.174949 0.124656 0.0317738 -0.00772283 0.0910975 0.0370787 0.0905823 0.0255056 0.059974 0.0879691 0.10325 0.00492981 0.00378238 -0.0262 0.00315441 0.0122681 0.0223518 0.0822008 0.23897 0.0893361 -0.0441605 0.0351296 0.0510351 -0.169286 -0.134387 0.228429 -0.109618 -0.153309 -0.274492 0.0163575 -0.175847 -0.385681 0.0408339 0.0485501 0.0819146 -0.0343953 -0.0559364 0.0844247 -0.146533 0.302079 -0.373936 -0.137172 0.177225 0.086901 0.238153 0.0808098 -0.108244 -0.111971 0.143436 0.13658 -0.0877789 -0.125575 -0.226928 -0.346229 0.00579832 -0.0424019 0.346121 0.0688917 0.0403232 -0.107833 0.0281342 -0.292236 0.0938243 -0.208916 0.0578749 0.067632 0.123225 0.330222 0.191388 0.182388 0.380535 -0.144175 -0.187983 0.212897 -0.0828721 -0.0517981 0.198593 0.00307057 0.242433 0.24172 -0.185061 0.164119 -0.0636343 0.0433533 -0.252815 -0.0568139 0.00759024 -0.0327033 0.0399422 -0.159579 -0.237643 -0.0491105 0.251357 0.0336064 -0.0950582 -0.128545 -0.245609 0.221899 0.0264268 0.0698239 -0.259557 0.0329218 -0.19505 0.102152 -0.160555 -0.0368237 -0.0103841 0.0880175 -0.216066 -0.249407 0.0320422 0.0863108 -0.0978217 -0.0236558 -0.0848066 -0.42803 0.181621 -0.2054 -0.134773 -0.0997499 0.00309805 0.0800826 -0.146705 0.308389 0.0484546 -0.0193181 -0.0599633 0.109028 -0.170239 0.0320673 -0.0212922 0.0864992 -0.130431 -0.0592685 -0.0497223 -0.0981378 0.117977 -0.0994226 0.0855644 0.481144 0.0142626 -0.15045 -0.0424012 0.0701166 0.335291 -0.0436874 0.0981715 0.031749 0.194967 0.200475 0.0497748 0.0284667 -0.0672515 0.0053591 0.0645675 -0.116195 0.0405223 -0.056075 -0.116869 0.166199 -0.00810832 0.18833 -0.0704533 0.138704 -0.273965 0.0340484 0.430422 -0.122042 -0.100055 -0.0532971 0.398634 -0.0691456 0.0364226 0.0173963 0.0844616 0.0869984 -0.11312 0.0329675 -0.297633 -0.100871 0.106081 -0.071423 -0.0823832 0.0795952 -0.0739654 0.17569 -0.0387576 -0.42407 -0.120264 0.0419647 0.0466389 -0.175754 -0.0464721 -0.210141 0.0588236 0.0890342 0.28965 -0.0941555 0.120817 0.0443808 0.00753555 0.107124 0.207179 0.136183 -0.110466 0.0508385 0.105099 -0.0843397 0.0656311 -0.0137039 0.0382258 -0.308181 -0.00547198 -0.136964 -0.384312 -0.0363574 -0.0510894 0.305997 -0.050088 0.0529779 -0.168034 0.147217 -0.0651872 -0.0303609 0.0672128 0.154427 0.0540796 -0.318036 -0.0374395 -0.197793 0.471394
discovery 0.0848703 -0.0703006 0.169199 -0.138799 -0.113866 -0.318263 -0.0599872 -0.0828088 -0.102897 0.0253048 0.0142866 -0.156111 0.132795 -0.098589 0.00291525 0.1601 0.131413 0.0348347 0.0530856 0.0727679 0.0430857 0.0852918 -0.0511387 0.151344 0.193732 -0.0118904 -0.0311182 0.0330078 -0.0545447 -0.076537 0.0624097 0.0188268 0.169225 0.00951276 0.0671793 -0.170896 -0.10526 -0.0884055 0.112886 0.0213853 -0.067043 0.182189 -0.129627 -0.0209283 0.0553708 0.185274 0.0784032 0.144097 -0.0419475 -0.0759848 -0.0629546 -0.126848 0.0441263 -0.116512 0.184425 -0.105453 -0.0548706 -0.0416252 0.0409354 0.0172212 -0.0435796 -0.0279224 -0.332883 0.0505945 -0.16992 -0.171159 0.0666826 -0.107217 0.21978 -0.0940049 -0.148302 -0.0458198 -0.0211827 0.0545541 0.163363 -0.0822798 -0.0372128 0.0208369 -0.00940573 -0.0233537 0.0390543 -0.122274 -0.0726174 -0.0902991 -0.0240464 -0.0889865 0.143128 -0.120656 0.162128 0.191129 0.150056 -0.00614127 -0.0192881 -0.138872 -0.125306 0.0223342 0.121888 -0.0149915 -0.156057 0.04184 -0.0438124 0.0331308 0.120284 0.111199 0.0975265 -0.0611729 -0.000190373 0.11566 -0.0650763 0.151714 -0.380967 -0.0284135 0.0944547 0.203897 -0.0763843 -0.0754181 0.118092 0.152717 0.0382059 0.140505 0.0266402 -0.0935876 0.105724 -0.0837847 0.0364001 -0.0407397 0.078686 0.0780589 -0.0900173 0.0554836 -0.178586 0.0304636 0.169765 0.327398 0.039074 0.135369 -0.0821575 -0.0129341 0.080575 0.0207139 0.0324559 -0.131502 -0.102903 0.103348 0.143964 0.0783929 -0.105278 -0.099593 -0.084392 -0.0700755 -0.0166422 0.0114028 0.417897 -0.0219413 -0.0478057 -0.0341461 0.198714 -0.03039 -0.132773 -0.108052 -0.0406923 -0.23618 -0.0320025 0.161765 -0.333569 -0.119087 -0.0745373 -0.323829 0.0860091 0.0696785 -0.00334122 0.0588594 -0.133791 0.011663 -0.101718 -0.298876 0.0457115 0.0742182 0.00690814 0.0695498 -0.0940539 0.145887 0.0670241 0.0785845 -0.0488537 0.146892 0.22736 0.0548728 -0.0599268 -0.144243 0.10897 -0.120811 0.0958927 0.066276 -0.186521 -0.0104564 0.116605 0.221017 -0.0848944 0.105689 -0.0405467 -0.000890925 -0.102957 0.0484322 0.138713 0.0770105 -0.134244 0.0842179 0.0187786 0.0275744 0.102563 0.128558 0.0864795 -0.0633513 -0.151926 0.0951506 -0.126915 0.0994843 0.148349 0.00825817 0.0289711 0.201228 0.0288336 -0.060885 0.0815263 0.0697808 -0.102278 0.112131 0.119032 0.186263 -0.0585674 -0.154291 0.091721 -0.155301 0.0523611 -0.0412532 -0.112765 0.183871 0.17422 0.156623 -0.140882 -0.183575 -0.183747 -0.0328074 -0.0287819 0.0838236 -0.188461 0.00383365 0.196666 -0.0606756 0.0793648 -0.111864 0.0195093 -0.0707472 0.189507 0.083973 -0.0771252 -0.0555475 -0.0302411 0.194011 0.08911 0.0238743 0.0234942 -0.0142862 0.0109491 0.056321 0.0130976 -0.17973 0.0016913 0.149788 -0.0756456 0.142503 -0.101292 -0.0735161 -0.113362 0.184268 0.0323626 -0.169484 -0.101878 -0.0753782 0.0744949 0.0326555 -0.0312802 0.00898946 -0.0429755 -0.110706 -0.0405095 0.123738 0.064943 -0.00915474 0.129487 -0.0166463 0.0388385 0.137409 0.105009 -0.160135 0.000382338 0.125085 -0.13529 0.00803725
hospital 0.295665 -0.0545835 0.092839 0.0127596 -0.19797 -0.0783796 -0.249492 0.145528 0.290562 0.0471333 -0.159136 0.137463 -0.233219 -0.130574 0.106691 -0.0770541 -0.237962 -0.0646481 -0.17215 -0.0374675 0.0300527 0.239849 0.0485988 0.0843803 0.188893 0.120198 0.131628 -0.0405784 0.0628746 -0.279299 0.0109158 -0.151822 0.0408736 -0.129039 0.0872369 0.0408627 -0.114689 0.154702 0.0111478 0.0855193 0.0988731 -0.0911363 -0.0760618 -0.185001 0.0821787 0.126841 -0.00846296 -0.0868786 -0.0116841 -0.0735288 0.104762 0.24665 0.0826442 0.0599704 -0.0118608 -0.359787 0.198233 0.21107 -0.0932042 -0.0889729 -0.0936394 -0.0865198 -0.296009 -0.158365 -0.0343624 -0.200403 0.133055 0.149229 -0.112238 -0.0554978 0.318381 0.239083 -0.176719 0.0388078 0.0450773 -0.452222 -0.105442 -0.109956 -0.0259722 0.0115235 0.0533862 -0.0798271 0.0500046 0.337039 0.212071 -0.0715925 0.0500297 -0.163987 0.223935 -0.253549 -0.0636648 -0.0541404 -0.108707 0.249295 -0.0771002 0.0418528 0.0416244 -0.150994 0.100932 -0.0720003 0.0826864 0.054336 -0.167927 -0.125949 -0.149832 -0.115573 -0.10757 -0.046906 -0.105101 0.00281582 0.00184472 -0.113825 0.191138 0.0927784 0.297807 0.0381912 -0.112318 0.237572 0.0948196 -0.0265813 -0.000282562 0.223831 9.52928e-05 -0.29536 -0.0452791 0.124106 0.242666 -0.119589 -0.215373 0.023303 -0.160554 -0.0412701 -0.0460486 -0.0250779 -0.158931 0.054593 0.00421183 0.00841164 -0.110084 0.0382596 -0.00329057 -0.0871136 0.173194 -0.402092 0.249576 -0.148006 0.0866775 0.0398994 -0.0405232 -0.0482047 0.028291 -0.0177522 -0.0640838 0.156696 -0.26402 -0.073846 0.116129 -0.278726 -0.100444 0.038969 -0.122268 0.149645 -0.137984 -0.188983 0.141674 -0.161941 -0.210689 -0.039215 0.0648822 -0.074451 -0.308212 -0.236252 0.164037 -0.0356007 -0.116983 -0.0558201 0.0603301 0.0133959 0.00388218 0.0253122 0.159657 0.113391 0.0100876 -0.00633412 -0.369446 0.337474 -0.133013 0.146925 0.0363829 0.048926 -0.00429173 -0.167714 -0.02325 0.193311 0.000196 -0.102537 -0.00413807 -0.175257 0.0977808 -0.152087 -0.0414302 -0.131886 0.0888729 -0.101656 0.00564752 0.154992 0.0635404 0.00133239 0.22982 0.116522 0.339512 0.0441922 0.141435 0.301099 -0.0762089 -0.121061 0.140771 0.18333 0.0470138 -0.112596 0.261852 -0.160244 -0.0370223 0.087863 -0.0451241 -0.239164 0.177082 -0.165443 0.202039 -0.283466 0.0968623 -0.00103192 0.112968 -0.147251 -0.178258 -0.076553 -0.0802121 -0.0718453 -0.0361211 0.353815 -0.102046 -0.0532012 -0.123309 0.100038 0.113712 0.0889264 0.106495 0.03046 0.0557517 -0.136541 0.0807975 -0.196984 -0.0444794 0.0752702 0.0353454 -0.055951 -0.269595 0.047227 -0.013516 -0.0959087 0.0295928 -0.170189 -0.134316 0.0921067 -0.187672 -0.00951101 -0.0150224 0.25045 -0.0916865 0.215717 -0.389745 0.0811521 0.17394 -0.215516 -0.0546617 0.0472876 -0.0173088 0.0407516 0.0361787 -0.00937466 0.128642 -0.0802732 -0.163838 -0.0402808 0.220436 -0.186952 -0.0863212 0.307902 -0.0606766 0.0315056 -0.238798 0.116553 0.205178 -0.0063835 -0.052106 -0.100412 -0.150239 -0.142463 -0.363197 0.0740775
computer 0.010419 0.0841622 0.0522304 0.0892325 -0.105218 0.0800878 -0.296322 -0.121022 0.0380099 -0.0141144 0.0282515 -0.092573 0.0793333 -0.0319788 0.170527 -0.0837667 -0.170144 0.0934576 0.17935 0.106027 -0.044864 -0.231867 0.305453 0.319347 -0.176698 -0.130408 0.0234592 0.109727 0.0974139 0.0139321 0.100196 -0.168437 -0.147021 -0.0320944 -0.12592 0.157248 -0.219985 -0.128315 -0.0795565 0.170571 0.126563 0.242915 -0.0912589 -0.0956687 0.0961149 0.268194 -0.129457 -0.130402 -0.150584 0.221126 0.016109 0.0531399 -0.0138633 0.13291 0.0375183 -0.174846 -0.0908823 -0.178187 0.261229 0.038857 -0.180716 0.04705 0.00803484 -0.00121945 -0.183105 -0.152318 -0.160908 0.191616 0.0995161 0.238635 -0.214083 -0.0207358 -0.0500357 0.154109 0.286656 -0.042577 -0.249015 -0.215712 -0.328925 0.082783 -0.379916 -0.120015 0.0885046 0.135878 -0.310667 0.135869 0.0967109 -0.064791 0.0200681 -0.0144718 -0.0528294 0.15101 -0.108516 -0.116893 -0.299978 -0.0685763 0.151025 -0.0973496 -0.0348777 -0.0447378 0.0709246 -0.00408616 0.0328945 0.291186 0.0295251 0.0982129 -0.131456 -0.0320257 -0.0200265 0.320126 -0.0396696 -0.262959 -0.113886 0.0274297 -0.103427 -0.071392 0.0418155 0.0813429 -0.00449308 -0.0775444 -0.191483 0.0572334 -0.0143085 0.106769 -0.294311 0.0284781 0.101033 -0.0948604 -0.0690502 0.102124 -0.0836942 0.0783779 0.111107 -0.246755 0.204599 0.158169 -0.196668 0.207288 0.0841877 -0.150339 0.0637456 0.0346498 0.323154 0.202189 -0.00518802 0.120653 0.0776873 0.223227 -0.317691 0.229419 0.0267627 0.0140928 0.212085 0.238282 -0.191832 -0.22631 -0.00962269 -0.123227 -0.0507629 -0.0999485 -0.308893 -0.283369 0.159469 0.16356 0.120893 0.150378 0.0878164 -0.287911 0.314985 -0.0162796 0.108455 0.0354445 -0.0904892 0.151256 -0.115241 -0.030109 0.123401 0.169763 -0.058886 -0.0322727 0.0320655 -0.00661602 0.0121026 -0.109949 -0.0284708 0.139566 0.253264 0.0535432 -0.0177617 0.165812 -0.0452239 -0.20316 0.0557488 0.00863419 -0.0670623 -0.0461772 -0.0101925 0.102107 -0.166961 -0.112824 0.165466 -0.0448381 -0.133315 -0.0158779 -0.365588 0.0738841 -0.0385625 0.0658061 0.168701 0.0873348 -0.218161 -0.177788 -0.0163887 -0.0414009 -0.00780751 -0.0348283 -0.0372499 0.2943 -0.215693 0.178653 -0.0861352 0.0586227 -0.00254479 -0.0268957 0.217197 0.115684 -0.0150776 0.14279 0.339221 -0.0411151 -0.0757741 0.216888 0.141218 0.0092629 -0.208096 0.312856 0.154409 0.111303 0.100346 0.0971962 -0.066591 0.10584 -0.216729 -0.0524481 0.0587141 -0.0898859 -0.0550503 0.0100209 0.161606 -0.227161 0.00469343 0.0588625 0.379959 0.132125 0.07547 0.201875 0.0155585 0.0807283 0.130524 0.0773334 0.104522 -0.0948084 0.186864 -0.0622618 -0.0620437 -0.137018 -0.250935 -0.0501835 0.203587 -0.109562 0.0662232 -0.112228 0.0496005 0.0827711 -0.0954308 0.0546882 -0.0132413 0.25092 0.0311422 0.0652342 -0.0893081 -0.000611353 0.203503 0.345653 -0.0404255 -0.256451 0.123272 -0.174472 0.241781 0.531246 -0.132095 -0.0808037 0.0813807 -0.0987432 -0.159856 0.113541 -0.0948371 0.062067 -0.120288 0.0348585
queen -0.0175842 0.190887 0.0378658 -0.167843 0.0784942 0.0677183 -0.133471 -0.0266388 0.0795764 -0.098602 -0.101592 0.269984 0.0091888 0.0523746 -0.0777405 0.0655713 -0.283564 -0.165595 0.0669945 0.111231 -0.148979 -0.263633 0.120186 0.332951 -0.302679 0.116734 -0.129015 0.184581 0.0524068 0.0997379 -0.020277 0.173722 -0.202089 0.0419769 -0.0561743 0.129563 -0.0811408 -0.0100751 0.0721085 -0.0277144 0.167889 -0.143617 -0.0515636 -0.0900496 0.129278 0.024326 -0.21771 0.126758 0.0310301 -0.109782 0.0097619 0.0766089 -0.11696 -0.374495 0.177302 -0.116905 0.122055 -0.0649665 0.142589 0.0684497 0.135643 -0.248307 -0.22047 -0.318646 -0.00378143 -0.00218209 -0.161612 0.0925931 -0.0395151 0.0928654 0.176535 0.218261 0.0253457 0.130382 -0.0486125 -0.076926 -0.123533 0.0302212 -0.094103 -0.0932639 0.0571863 -0.0529706 -0.103664 0.066787 0.0154018 -0.00794521 -0.166488 -0.009932 0.369064 -0.0904712 -0.249885 -0.0206899 -0.0981333 0.0954243 -0.11368 0.0749545 0.201934 -0.30551 0.0455716 0.0173391 -0.0112043 -0.225208 0.187566 0.0448697 0.0396135 -0.0551558 0.0586119 -0.0359095 -0.0157932 -0.127341 0.311587 -0.0285273 -0.00751032 0.000561247 0.0753421 -0.149235 -0.121403 0.178723 -0.139358 -0.221457 -0.000632217 -0.185647 -0.148313 0.0585874 -0.119761 -0.0411028 0.146175 -0.105118 -0.0797878 -0.0442077 0.138794 -0.0498267 -0.292213 0.243014 0.115287 0.199862 0.152035 -0.0444024 0.0748436 -0.0212008 -0.163073 -0.171762 -0.154699 0.0723217 0.22493 -0.0252521 -0.29961 0.00691043 -0.0884504 -0.159105 -0.00955945 0.363467 -0.101884 -0.0697166 -0.269189 -0.287053 0.130159 0.109799 0.0144409 0.107428 -0.107647 -0.0151606 -0.00715242 -0.0458205 0.0539496 0.0219365 -0.177528 0.168489 0.182661 -0.466121 0.12392 0.177444 -0.102013 -0.197121 -0.181678 0.06432 0.0155973 0.266322 0.00101064 -0.142617 -0.193986 0.110784 0.0537518 0.255238 -0.127474 -0.0693362 -0.128606 -0.101723 0.116219 0.019462 0.0183564 0.148364 0.200993 -0.0565981 -0.348451 -0.0856804 -0.0248465 -0.101808 0.363002 -0.0763886 0.0222401 0.0771981 -0.139219 -0.137947 0.26352 -0.0253221 -0.227971 -0.0993505 0.273817 -0.245225 0.0146966 -0.194334 -0.231554 -0.130802 0.0422862 0.093557 -0.18915 0.0421563 -0.0318638 -0.350569 0.0360985 -0.120036 0.000459309 -0.0139188 -0.181901 -0.152716 -0.259804 -0.105807 -0.125545 -0.219231 -0.0254487 -0.146271 -0.0588243 -0.267447 -0.0188903 0.130207 -0.128791 0.00497108 0.0551295 0.322321 -0.277973 0.0979749 0.0945113 -0.0436869 -0.121298 -0.043342 -0.0385102 0.0734648 0.168447 0.100636 -0.143761 0.00668227 -0.0326365 -0.194423 0.0673999 -0.228625 -0.327766 0.0173247 -0.0709308 0.204191 -0.0124098 -0.044662 -0.098209 -0.0467612 0.239277 0.24633 -0.217893 -0.0463028 -0.336899 0.15298 -0.19504 -0.0727887 0.114883 -0.0892246 -0.0825372 0.0765118 -0.11545 -0.148938 0.148054 -0.0827555 0.0123786 0.104406 0.0543626 0.119321 -0.0266995 -0.0239999 -0.148692 0.0857652 -0.244903 0.00819477 0.182301 0.249832 -0.0906391 -0.00415287 0.0507483 -0.278099 0.252451 0.0794664 0.217733 -0.0899304
wizard -0.0391712 -0.11465 0.0117809 0.25369 -0.0485445 0.177265 -0.108429 -0.210844 0.0784053 0.0183657 0.0401312 0.0571099 -0.134029 0.104449 0.0948301 0.0623541 -0.101703 0.329639 -0.11792 -0.0393924 0.0817783 -0.33251 0.282878 0.196188 -0.246616 -0.0748616 0.0941351 0.227853 0.0881636 0.283213 -0.163875 -0.19744 -0.0391317 -0.100855 0.0362384 -0.164126 -0.058564 -0.164651 -0.0818422 0.0166379 0.0948252 0.0280772 -0.229822 0.165639 0.0085694 0.253421 -0.0697935 -0.0566147 0.0829973 -0.0717471 -0.0619511 -0.0485124 -0.056972 -0.199616 0.0330149 -0.0496595 0.0697194 -0.124147 0.0972847 -0.146694 -0.0236257 -0.0251081 -0.152013 -0.0329287 0.0927116 -0.0149765 0.141195 0.242848 0.303627 0.174403 0.0830566 -0.274241 0.0542116 -0.125242 -0.0616568 0.0582817 0.209747 -0.0457365 0.0539303 -0.0344185 -0.124287 -0.144 -0.0264546 -0.335108 -0.0268138 0.0229049 -0.00363831 0.00711409 -0.00650672 -0.088367 -0.29842 0.0894517 -0.0173549 0.224336 -0.0978694 -0.189271 0.0114364 -0.200655 -0.0336139 -0.0589568 0.0479299 -0.217325 0.0235671 0.53507 0.0807524 0.0448103 0.0818026 -0.0719839 0.208702 -0.279166 -0.346883 -0.161399 -0.0165629 0.23228 0.175663 -0.0106624 0.161625 -0.329443 -0.130602 0.0363344 -0.0548076 -0.104835 -0.0815746 -0.269056 0.0108024 -0.0493914 0.207665 -0.115757 0.111953 -0.32809 -0.0428231 0.0107375 0.14337 -0.0503368 -0.0122802 -0.101073 -0.239779 -0.0280754 0.248246 0.236031 0.209678 -0.131447 0.119797 0.252708 0.0771088 -0.163405 -0.119102 0.159607 -0.262031 -0.104265 0.0544742 0.000194823 -0.154767 0.0276484 -0.0173155 -0.291136 0.0464805 -0.0513041 0.205626 -0.268635 0.009753 0.175513 0.159882 -0.0154206 0.166388 -0.0550539 -0.14751 -0.149332 0.0831474 0.107712 -0.0660949 0.393196 0.0114067 0.222594 -0.0281882 0.0735694 0.108943 0.280299 0.0989012 -0.100588 -0.110279 -0.0720098 0.0231395 0.166582 0.0326852 -0.119276 0.0957691 -0.163976 0.147193 -0.095776 -0.226299 0.236319 0.173913 -0.239942 -0.39394 0.237135 -0.0470156 0.282269 0.0587068 0.169541 0.0918923 -0.0257185 -0.0136944 0.205715 -0.142933 -0.0128457 0.0599802 -0.0355944 0.154336 -0.0740388 -0.103518 0.0261848 -0.00273195 -0.303493 0.099711 -0.0478136 -0.104726 0.0947181 0.147133 0.125162 0.104121 0.0941156 0.0239595 0.229564 -0.269463 0.121515 -0.224487 0.00796489 -0.000606807 0.0837401 0.062241 0.0337382 -0.296861 -0.033831 -0.0477544 -0.0295752 -0.206859 0.124026 0.0394637 0.158657 0.185398 -0.0553267 -0.239664 -0.034596 0.317307 -0.0257003 -0.0641901 0.149842 0.212999 0.0510384 -0.371435 0.0392811 0.251074 -0.00352931 0.161694 0.0985296 -0.23818 -0.0637841 -0.363855 0.0630549 0.00117152 0.0259684 0.112733 -0.0647402 0.157667 -0.00983481 0.175118 0.103081 -0.0653978 0.463785 -0.0679973 0.151633 0.1436 -0.212167 0.132417 -0.0163504 -0.0794791 0.17555 0.274992 0.0498025 0.0345492 0.193771 -0.00879378 0.0536813 0.165192 0.130847 0.32972 0.0392863 0.122916 0.236507 -0.0356885 0.000665772 -0.0503669 0.167705 0.17704 -0.185266 0.116028 0.182269 0.0585299 -0.0887993
oil 0.228794 0.143556 -0.0733744 0.105862 -0.0811758 -0.290232 -0.0280685 -0.0521952 0.286987 0.164669 0.00242662 0.148837 0.197522 -0.048218 -0.19422 -0.353254 -0.16655 0.0553848 -0.0431211 0.293158 -0.0417702 0.218819 0.0293865 0.272036 -0.0404581 0.141703 0.256264 0.183194 -0.188314 -0.115659 0.0602962 0.203364 0.332964 0.0623094 -0.25259 -0.157279 -0.0880465 -0.00405817 0.00297987 0.236616 0.174086 -0.0299159 0.191744 0.129038 -0.0555001 -0.0269919 -0.23368 -0.217927 0.0275407 -0.0960406 0.0150908 -0.044129 0.0410347 -0.11084 -0.293169 -0.316956 -0.0905008 -0.258072 0.169492 0.00350938 -0.0414186 -0.121763 -0.134449 -0.172572 -0.273698 -0.133216 0.0545008 -0.106328 0.116292 0.0939058 0.112232 -0.0513964 0.0725721 -0.198092 -0.0735632 0.0247651 0.00566377 0.0498552 0.0317559 0.175452 0.271137 -0.216286 0.261292 -0.21935 -0.178518 0.0723928 0.242148 -0.0549852 0.0571775 0.223442 0.0749232 -0.0425511 0.132818 -0.0166569 -0.0251387 -0.157362 0.0477039 -0.200711 -0.0860193 0.283876 0.0845161 -0.160033 -0.210531 0.533115 0.0691642 -0.299758 -0.31405 0.119242 0.0727197 -0.301091 0.0517147 0.217974 0.110218 -0.027099 -0.0375168 -0.125775 -0.0466981 0.270167 0.242849 -0.268066 -0.045981 -0.225746 -0.0237763 -0.168724 -0.0503233 -0.191895 -0.0365677 0.144025 -0.0525266 -0.043593 0.135855 -0.169013 0.253101 0.0154893 -0.00900086 -0.00501659 -0.0525125 0.179119 0.0521427 -0.107821 0.0391929 -0.0411558 -0.0663207 0.0269965 -0.268681 0.242238 0.102211 -0.179467 0.199557 0.0182049 0.0434342 0.24323 0.00571268 -0.394868 -0.191517 -0.147166 0.0288488 0.0922599 -0.048532 -0.0173796 -0.363041 -0.152389 -0.336701 0.0231441 -0.344436 0.0234957 -0.0480153 -0.169327 -0.120755 -0.149666 0.141685 -0.238262 -0.0765384 -0.0241704 -0.138547 0.115485 -0.066542 0.0234587 0.137267 0.141576 0.143603 0.153959 0.0113419 -0.0800668 -0.105538 0.0136057 0.257743 0.0329027 -0.0389749 -0.201998 0.144222 -0.220749 0.00444205 -0.0285604 0.0616242 -0.147711 0.0287333 0.335332 -0.310683 0.169355 0.00997695 0.0613673 -0.194434 0.0543335 -0.0851804 0.00566803 -0.0162312 0.0823563 -0.180872 0.0962759 -0.0706961 0.0192572 -0.0373469 -0.364697 -0.309317 -0.213712 -0.117499 -0.012913 -0.155112 0.284652 0.0104641 0.127637 -0.20681 0.0245883 0.297957 0.19442 0.439852 -0.269135 -0.0153562 0.0230761 -0.14997 0.108081 0.223674 0.0493429 -0.0514031 0.0610332 -0.0430802 0.265443 0.0194505 0.0613063 0.107291 -0.130057 0.00877123 -0.124435 0.0432215 0.0797474 -0.235338 0.0378269 0.096182 -0.018708 -0.00387584 -0.100663 -0.117038 0.317261 0.0396246 -0.212636 0.0657522 -0.301722 0.0270736 -0.0237262 -0.184466 -0.22497 0.0955087 -0.028576 0.0570371 -0.327083 -0.212424 0.0907047 -0.225921 0.242725 -0.168016 -0.00919317 0.00196115 0.0468526 -0.393705 0.131583 -0.0540405 0.0514558 0.0472657 -0.0961808 -0.00614633 0.287578 -0.0331727 0.0803202 0.0281 -0.0856882 0.0262153 0.272388 0.16909 -0.149481 0.159785 -0.0378406 0.171788 0.0486454 0.144153 0.0407961 -0.068382 -0.228838 0.186807 0.228339
