437 500
president 0.14436 -0.014673 -0.234208 0.0580659 0.189659 -0.00628706 0.1092 -0.140821 0.00176576 -0.0879259 0.181583 -0.0773792 -0.0732507 -0.104817 -0.0870517 -0.270276 0.0504635 -0.149181 0.102115 0.0428684 0.0233138 0.394116 0.052809 -0.0244015 0.00754525 -0.0605101 -0.0181108 -0.0764999 0.0116484 0.326172 0.143785 0.0546493 -0.125181 -0.141704 0.142158 -0.366527 -0.11409 -0.18818 0.0341683 -0.100239 0.254518 -0.257302 -0.0804338 -0.0577646 0.082583 0.0713965 -0.106515 -0.0649594 -0.152559 -0.0415828 0.156107 0.0907827 0.108933 -0.214945 -0.109257 -0.277107 0.181647 -0.0577188 -0.0707646 -0.193552 -0.199486 -0.0649886 0.0235709 -0.0168933 -0.040621 0.0643496 0.321148 0.120604 0.095585 -0.0474141 0.00563186 -0.149604 -0.100531 -0.120688 0.0935194 0.247411 0.117617 0.171549 -0.0991266 0.0979553 -0.0595594 -0.0606365 0.0025076 -0.113515 0.0196154 -0.128462 0.0149484 -0.1431 -0.0495841 0.173367 0.115495 0.29662 0.0573747 -0.114452 0.0337155 -0.00516224 -0.0342481 -0.0148972 0.238765 0.238028 0.0561571 -0.00328429 0.119115 0.191031 -0.0606025 -0.106819 -0.116906 0.0934638 -0.0425247 -0.00202838 0.0210878 -0.087545 0.0905539 -0.222129 0.140717 -0.163288 0.242942 -0.340364 0.112951 0.0221657 -0.241443 0.161107 0.0162065 -0.0813972 -0.0210639 -0.00334778 -0.127927 0.108458 0.15062 -0.0138274 -0.0807966 -0.0267305 0.0570043 0.298517 -0.115264 0.380871 -0.328784 0.0815223 0.253172 0.0859907 0.0776644 0.0994513 -0.0663935 0.114372 -0.223174 -0.0508964 0.2033 0.00836517 0.176353 -0.219223 -0.0485798 -0.369558 0.114798 0.285744 0.193856 -0.100927 0.164232 -0.0584638 0.175588 -0.19838 -0.167329 -0.205411 0.0411864 0.0561064 0.0469768 -0.0383676 -0.193821 -0.154595 -0.287104 -0.13363 0.212995 0.153581 0.000708886 0.200461 0.0415465 -0.00962975 -0.0251743 0.0848261 0.0806037 0.0258064 0.0939973 0.380718 0.0761796 0.0267196 -0.065883 -0.0980313 0.0737457 -0.0383535 0.0120072 -0.275534 -0.16721 0.297836 0.284299 -0.034776 -0.00954832 -0.0502452 0.0619239 0.0919759 0.11458 -0.0460731 -0.139233 -0.00177039 0.00555019 -0.129761 0.0151235 0.0321845 -0.100381 -0.0427983 0.0999435 0.0431484 0.158196 -0.0400039 0.167545 -0.070717 0.102287 0.194849 -0.101065 -0.0302869 -0.0652047 -0.0415897 -0.00785403 0.00140043 -0.0738291 0.133484 0.118445 -0.179985 -0.110251 0.0965456 0.230087 0.0187599 0.287591 -0.106929 -0.00720473 0.130086 0.0484823 -0.0826969 -0.293376 0.0585556 -0.00881935 0.0639814 0.0418942 -0.0261811 0.127991 0.00941667 0.128011 -0.0526244 0.00819294 0.0480376 -0.011936 -0.0731606 -0.0103402 0.0112274 0.0826392 0.130282 0.0619677 0.0268101 0.228023 -0.103464 0.194541 0.0968415 0.0965491 0.0656794 -0.0961734 0.103464 0.0432961 -0.0479961 0.138179 0.194074 0.156503 -0.37105 0.0637881 -0.0137358 0.206282 -0.123029 0.237445 -0.365698 0.0693355 0.0566121 0.0478629 -0.0940328 -0.0566673 -0.189283 0.0255393 -0.162979 0.13213 0.18927 -0.11682 0.165918 -0.231367 -0.0357228 -0.0126529 0.188964 -0.132337 -0.0363655 -0.159584 0.0509365 -0.184876 0.256652 0.0967246 -0.163238 -0.0954823 -0.121154 0.0882929 -0.0833738 0.0957917 -0.256142 -0.156044 -0.386856 0.113184 -0.18221 -0.190753 0.131769 0.0361123 0.0644088 -0.328842 -0.185063 -0.0614886 -0.22085 0.119101 -0.0203128 -0.141531 -0.138084 -0.242245 -0.0561056 0.13648 -0.107154 -0.0636405 0.156794 -0.0857503 -0.165043 -0.150604 0.114729 -0.268606 0.267451 0.0759771 -0.124299 0.203503 0.00547907 -0.126466 -0.0978731 -0.052369 0.0470509 0.00207866 -0.0161678 0.00322499 0.101929 0.0531355 0.167639 0.0673054 -0.434272 0.0777512 0.0850872 -0.0307799 0.0510779 -0.0919874 -0.0252321 0.128512 0.167657 0.246586 0.155833 -0.177391 -0.156401 -0.164787 -0.304236 -0.11084 -0.170728 0.0071076 0.138176 -0.247873 -0.106415 0.0746115 -0.0824008 0.00999229 -0.0266671 -0.162252 0.149876 0.189163 -0.249151 0.0165076 -0.111238 0.223236 0.0532159 0.0355292 -0.0977165 -0.150066 0.11516 0.235608 0.117536 -0.205172 0.204314 0.157548 0.0501633 -0.00714347 0.152757 0.0513544 0.245228 0.28823 0.0494414 0.143701 0.0199695 -0.0841575 0.0695535 0.0440919 -0.0277164 -0.0960721 -0.0311203 -0.440685 -0.126157 -0.09983 0.0536513 -0.130453 -0.282624 0.328588 0.0879468 0.20392 -0.319813 0.151447 -0.0323247 -0.00484154 0.135107 0.228526 -0.0439575 0.173503 0.23693 0.100448 0.0456937 -0.0439517 0.11247 -0.0616557 -0.0946911 -0.0996803 0.0298921 0.0425202 0.110552 -0.0556516 0.185672 0.00548436 0.105024 -0.0424737 0.282244 0.143501 -0.130286 0.128351 -0.0254583 -0.467641 0.215912 -0.0926008 -0.0380796 0.0793563 -0.0330875 0.21948 0.104238 -0.0589706 0.218798 0.280221 -0.199411 -0.215549 -0.125365 -0.111679 0.0931574 -0.19031 -0.0658514 -0.110406 -0.00701017 -0.0831492 0.0724371 0.358481 0.214449 -0.0447058 0.119229 0.217044 -0.152464 0.0260606 -0.211005 0.131553 0.064239 -0.173573 -0.166407 -0.0890999 -0.155995 0.0626184 -0.0757648 0.231327 0.226182 -0.132594 -0.052992 -0.148274 0.153717 0.000332684 -0.0389372 -0.154581 0.0743748 -0.163177 -0.181687 0.116868 -0.0923881 0.0276375 -0.0180376 0.157417 0.0567065
monk 0.0135969 -0.0451587 0.0830076 -0.045642 -0.121419 0.0415832 -0.0278884 -0.199776 0.00424048 -0.0942287 0.047437 0.027657 -0.152789 -0.00827385 0.0845355 -0.175231 0.115518 -0.103847 -0.0844865 0.10778 -0.0630151 -0.101368 0.0253462 -0.112144 -0.0400531 0.0945155 0.0507758 -0.0612537 -0.0910379 0.0770624 0.00413137 -0.00955537 0.0890871 -0.0329951 0.0145669 -0.032423 -0.00249692 -0.126887 0.00417441 -0.0673142 -0.0862685 0.105026 -0.0960764 -0.062301 -0.0178102 -0.142755 -0.0571176 0.0378073 0.0736644 -0.0345006 -0.0497765 0.0399428 0.0411753 -0.0668472 -0.0429072 -0.0548875 -0.0586831 -0.0153628 0.0957054 -0.135791 0.0210258 -0.0263146 0.170835 -0.0395058 -0.0500501 -0.0238418 0.180223 0.035924 0.0393001 0.16063 -0.0284181 0.116362 0.00532551 0.146583 -0.0533297 -0.143449 0.111906 0.142776 -0.135214 -0.0239122 0.0229686 0.0968709 0.0863149 0.0875937 0.0579083 -0.04644 -0.0704759 0.0604336 -0.0214091 -0.0668443 0.0113473 0.0322404 -0.00190237 0.0203212 -0.0996635 -0.0654539 0.00456023 -0.0278361 0.111071 -0.0634668 0.0021002 -0.0405454 0.0149224 0.0288609 -0.156288 -0.174594 0.116837 -0.0236617 -0.0244263 0.106531 -0.0731597 0.0220235 -0.0550918 -0.0957014 0.129425 0.039953 -0.110127 0.126443 -0.119737 -0.020197 -0.074864 0.080384 -0.081908 0.0721087 -0.0505019 -0.0439691 0.0653049 -0.0996245 0.161233 -0.175855 0.129951 0.117854 -0.0871915 0.089548 -0.041039 0.0183657 0.0357493 0.124442 0.013744 -0.121939 0.0183306 -0.037396 -0.0712969 0.119702 -0.164374 0.059546 -0.00298004 -0.0574691 -0.063646 0.114085 -0.0159221 -0.0831493 -0.15644 0.11822 -0.0161365 0.0373254 -0.03354 0.0568668 -0.0157921 0.0391521 0.0475136 -0.0437415 -0.0138187 0.0321879 0.0713591 -0.132352 0.0074398 -0.0287874 0.0497663 -0.0491734 0.0826451 0.162187 0.136263 -0.0269895 -0.0793073 -0.0384582 0.0247442 -0.0794351 0.00115247 0.103827 0.00592106 0.143153 -0.0992367 -0.0580433 0.0755831 -0.0497076 -0.0498574 -0.0176471 -0.132521 -0.118888 -0.11144 -0.0249949 0.137524 -0.0290554 0.0413227 0.0417541 -0.0598313 -0.152239 0.0655281 0.00662125 -0.168104 0.052567 0.0702624 0.181764 -0.18525 0.0474148 -0.14923 -0.00802466 -0.00300336 -0.0816015 0.0224425 -0.0464302 0.0252617 0.0196574 -0.0163973 -0.0566199 -0.06241 -0.00969355 -0.0112003 -0.0391147 0.147973 0.0154735 -0.0423816 0.145932 -0.0217418 0.121224 -0.0684959 -0.10307 0.0325819 -0.101796 0.0786542 -0.0160337 0.0263915 0.0963254 -0.0905305 0.0677336 0.0488271 0.0265415 0.0874211 -0.108473 0.0809162 -0.117475 0.0454628 -0.0852457 -0.0311721 -0.0480423 -0.0385879 -0.0601201 -0.104667 0.105595 0.0339164 0.0721488 0.00658317 0.0551791 -0.0411163 0.132508 -0.0383801 0.0389573 -0.0123703 0.0273478 0.0547048 -0.0486275 0.0148405 -0.00345121 0.0739869 -0.0832788 0.0448688 0.133421 -0.00726621 -0.0843064 0.245571 -0.0650947 0.17713 -0.0250169 -0.0147639 -0.0119084 -0.0954915 -0.191536 0.118887 0.0204369 0.00168146 -0.0350699 0.0274217 0.0405958 -0.0538238 -0.0798492 -0.105647 0.104185 0.0497441 -0.0458958 -0.0155974 0.0318421 -0.0345309 -0.165607 0.0282274 0.134606 -0.119665 -0.151027 0.0306705 -0.097063 -0.00150255 0.00270052 -0.170602 0.0523095 -0.104647 -0.00615289 -0.12092 0.0339336 -0.0162835 -0.0865799 -0.0431952 0.0357072 0.159074 -0.0246296 0.0417947 -0.124752 0.0243595 0.00691092 0.0379358 -0.0309703 -0.00136967 -0.0841802 -0.188976 0.0237878 0.151691 0.068482 -0.0974291 0.00269679 -0.066193 0.0763255 -0.0544951 -0.199502 -0.0408747 0.0435085 0.0728773 0.0426247 -0.00153139 -0.0680049 -0.0455759 -0.0734763 0.029177 0.071877 0.163365 -0.00557373 0.000955093 0.0416543 -0.136832 0.151338 -0.0342172 -0.00580485 -0.00590709 0.146957 0.0571148 -0.00044749 -0.0412171 -0.134324 0.038585 0.101425 0.0118219 0.0468273 -0.060039 -0.0322061 0.0444243 0.00558073 0.0344465 0.0924563 0.000443695 -0.0187868 -0.0639141 -0.238922 0.120109 -0.163737 -0.178285 0.0447202 -0.0422843 0.0857221 -0.0317009 -0.0495691 -0.0506294 0.000106476 0.0838503 0.0780526 -0.0541856 0.0756588 -0.099352 -0.0652659 -0.00537432 -0.0485181 0.0417909 0.157152 -0.035329 0.0568651 -0.0745192 -0.0794706 0.0268554 0.00329437 0.0269188 -0.112502 -0.012389 -0.124358 -0.0249937 0.0208764 0.137959 -0.0372429 -0.0476488 0.126478 -0.0572232 -0.0868367 -0.0964938 -0.165266 0.14014 0.092333 0.0579846 -0.0332142 0.170541 -0.0348837 0.00670196 0.0370622 0.0506857 0.0654358 0.0987165 0.0444295 -0.0265106 -0.196097 -0.0433446 -0.00467292 -0.0130645 -0.125956 -0.0983874 0.0421865 -0.251913 0.0663343 0.0146266 0.127091 -0.129856 -0.0861705 0.0916741 0.00734551 -0.027036 0.13375 0.0239403 0.117678 0.0446904 0.0541469 -0.0984318 0.0194648 -0.0144122 -0.0764067 -0.0819418 0.0730205 0.0516326 0.0939674 0.0150911 0.0262412 0.103273 0.0275758 0.0699367 0.0622436 0.158604 -0.0476313 -0.0218446 0.0501194 0.0308537 0.112003 -0.0564589 -0.0849091 -0.108453 0.0320169 -0.0399645 0.023876 -0.0920815 0.0252044 -0.14354 -0.220789 0.146845 0.077664 -0.0735319 -0.0826934 -0.161334 0.0644291 -0.0100728 -0.110874 0.104747 0.201698 -0.187027 -0.0148555 0.00282747 -0.0856787 -0.0705035 -0.0384098 0.191037 0.149088 0.0885959 0.128452 0.0409977 0.0172226 -0.0380467 0.0246934 -0.0323962 -0.00659534
chance 0.01289 0.0494597 0.157543 0.120892 -0.0213459 -0.12389 -0.221784 0.0803686 -0.0289457 -0.0806805 -0.0680582 -0.0590686 -0.127467 0.0143388 0.135337 0.0035978 0.0848656 0.133325 0.0831537 0.00992232 -0.266091 0.0139225 -0.0669951 -0.126407 0.0248354 0.096329 0.0482103 -0.0774669 -0.0399902 0.124292 0.0622756 -0.0165099 0.123894 0.111256 0.0756029 -0.0360928 0.0363577 0.0654836 -0.0313224 0.155594 0.071553 0.09947 -0.06348 0.16576 0.00339926 0.0281649 -0.0995194 -0.105749 -0.192093 0.228031 -0.173072 -0.129781 -0.104407 0.104029 -0.05376 0.0709432 0.242516 0.218314 -0.0717327 0.11694 -0.0388803 0.0719256 -0.0127551 -0.320306 -0.0135307 -0.0297156 0.0629426 -0.0565555 -0.205619 -0.218223 0.0825488 -0.00989523 -0.15866 -0.106614 0.00354096 0.0897858 -0.00719395 -0.0708227 -0.00897259 -0.00173958 -0.0662508 -0.115869 0.0182343 0.109942 0.0951218 -0.166931 0.102009 -0.0368242 0.00227301 -0.0802939 0.155984 0.106641 0.133267 0.102255 0.128542 -0.0368628 0.000667128 -0.000968301 0.0549553 0.12252 -0.0659444 -0.116928 0.0510159 -0.222215 -0.116174 -0.0762448 0.0572528 0.0662345 -0.11087 -0.0336448 0.0603914 0.107914 -0.136529 0.298462 0.091981 -0.00595275 -0.034725 0.0756446 -0.0689805 -0.138706 0.0231086 0.407691 -0.0565039 -0.117463 0.0292212 0.13893 0.0492876 0.0938911 -0.0588899 -0.0662772 -0.162355 0.0464724 -0.238745 0.0608336 -0.0585092 0.119034 0.0205628 0.0336785 0.0317375 -0.169475 -0.0159288 -0.183841 0.197834 -0.00271658 0.0603411 0.00461423 0.11746 0.132052 -0.143714 -0.0882775 -0.0584424 -0.26826 -0.223709 0.0962748 0.065767 0.0618673 -0.101999 0.226842 -0.00336971 0.276638 -0.00324694 -0.0153454 -0.101538 0.158461 -0.0107802 -0.0640835 0.0617355 0.010891 -0.115863 -0.0428301 0.0917433 0.0129948 -0.00795172 0.0342037 -0.0280731 -0.0623939 0.0936546 -0.0894106 -0.277928 0.0422201 0.13613 0.182805 -0.0640314 -0.0405839 -0.0119744 0.140613 -0.22425 0.146712 -0.088009 0.0495413 -0.222999 -0.0977728 -0.073512 -0.0794092 -0.0444444 0.0993775 -0.112982 0.0442295 -0.0977569 -0.0593706 -0.101371 0.068525 -0.0221034 0.0803087 -0.110437 -0.0854381 -0.111104 -0.0358691 -0.0117969 0.0365577 0.0400387 0.0286529 0.124563 0.0849929 0.0962971 -0.0511217 -0.026938 0.216118 0.106297 0.013982 -0.121203 0.168261 0.0131669 0.0105444 0.146382 0.0803987 0.104226 -0.0754702 -0.0169279 0.0644355 -0.0156071 0.017747 0.0066111 0.0853523 0.0111313 -0.0882552 0.0520287 0.0781134 0.0239845 0.0673358 -0.0375986 -0.0131025 0.123708 -0.216011 -0.155651 0.0999547 0.050818 -0.146225 -0.00505565 0.0302367 -0.107452 0.200018 -0.103725 -0.0219537 -0.172558 0.0813544 -0.110736 0.101954 -0.013039 0.078654 0.0477108 -0.0936308 -0.0348607 0.0115588 -0.0969302 -0.00731982 0.177048 0.0213709 0.0302075 -0.148203 0.242392 -0.052219 -0.148639 0.123487 0.00453356 0.00149515 -0.0619065 -0.140462 -0.0413257 -0.0688346 0.0189569 -0.259942 0.0772234 -0.0795465 0.0324809 -0.15357 0.0304376 -0.006386 0.189825 -0.0135163 0.212594 -0.0169572 -0.129573 -0.00333567 -0.0532091 0.0848709 -0.043216 0.0191169 0.15124 0.163759 -0.0645951 -0.0555758 -0.0736685 -0.00567854 -0.0571908 0.0512451 -0.133104 -0.0080473 -0.119214 -0.15448 0.0264191 0.0703486 -0.0317246 -0.00750952 -0.0535714 0.107797 0.0904971 0.121706 0.0290666 -0.184852 0.026087 -0.0138637 0.0641827 0.00492752 -0.0822219 -0.186372 0.0800308 0.164366 -0.00561803 0.0283847 0.13106 -0.14815 -0.0120379 0.13475 -0.0600832 0.144139 0.172969 0.108098 -0.0280544 0.0470473 -0.0235113 -0.0333896 0.213864 -0.0962367 -0.0329203 0.115221 -0.0873513 0.085777 -0.0974493 0.0913456 -0.0815535 0.0226712 0.177235 0.100657 -0.143311 -0.0570931 0.133297 -0.116102 -0.000832524 0.0427255 -0.212073 0.0215299 0.0722416 -0.0157817 -0.162073 -0.0550228 -0.0245976 0.0816494 -0.0924946 -0.0396814 -0.134434 -0.0454509 -0.0426461 0.0281383 -0.193396 -0.143225 -0.0353304 -0.0330649 0.0431433 -0.0316509 -0.0961048 0.0859552 -0.0784443 0.0357789 -0.0853933 0.112903 -0.0204893 0.0122243 -0.0960508 -0.0499104 -0.0768931 -0.0919153 0.040767 0.0472948 -0.0277167 -0.0307564 0.0864595 -0.215173 -0.183681 -0.0795572 -0.0126013 -0.00452163 0.0157965 0.158304 -0.0115169 0.133645 -0.223409 -0.0979879 0.104122 -0.0467013 -0.0177111 0.214909 0.090963 -0.168634 0.140247 -0.0360447 -0.142073 -0.0346247 -0.197085 0.150853 0.0384631 -0.15411 0.0570002 -0.148545 -0.0766483 -0.0585492 0.223017 0.0252349 -0.142112 0.0891064 -0.185676 -0.0361159 0.0178953 0.0336758 -0.190645 -0.034349 -0.147827 -0.041004 0.171272 0.00506598 0.0342885 -0.097982 0.0653333 0.091252 -0.0978313 0.0983707 0.0402859 -0.126052 0.0177977 -0.00341078 -0.000292166 -0.0525476 0.020764 -0.0206668 0.0369349 -0.113455 0.0829115 -0.0611131 0.398777 -0.0519721 -0.0524906 0.0909702 0.123598 0.00710632 0.0456768 0.0528954 -0.0995955 -0.0842543 0.0891464 -0.00157092 -0.0744011 -0.0188985 0.0872313 0.0544697 0.0271776 0.0479864 0.00303566 -0.142168 0.0869987 0.315845 0.0242517 0.0490107 0.0782284 -0.0346231 -0.0395563 -0.0609063 -0.0376334 -0.146058 0.0991982 0.0667314 0.144499 0.0850896 0.217876 0.11243 -0.153716 0.174684 0.0317377 -0.10364 0.0525811 -0.0398077
party 0.28381 0.272356 6.7e-06 0.0368337 -0.142499 -0.01603 0.177043 -0.203776 -0.386474 0.0466232 -0.17406 -0.117211 -0.137884 0.292455 0.0594452 0.0966203 -0.0484235 -0.14465 0.200707 -0.0382891 0.00227228 0.000779411 0.356522 0.146313 0.261674 -0.0591738 -0.0701469 -0.280199 0.0232851 0.070909 0.0467314 -0.303617 0.115258 0.160356 -0.0318915 0.240228 0.190169 -0.120533 -0.138091 -0.0862155 0.2894 -0.0943749 -0.124511 -0.0496109 -0.107521 -0.212831 -0.0322125 -0.0253464 -0.080514 0.0934018 -0.0759936 -0.254746 -0.0688736 -0.316187 0.15702 -0.0181162 0.177237 0.184041 -0.147922 0.0185871 -0.226254 0.127946 0.257155 -0.0558765 -0.15153 -0.229476 -0.036315 0.124745 -0.360927 -0.323763 0.239044 -0.0525506 -0.000508506 -0.0599237 -0.030138 -0.0690207 0.033987 0.161485 -0.0575108 0.157729 -0.165383 0.240091 0.197693 0.285395 0.0471741 -0.192723 0.09821 0.121781 0.174801 -0.0887902 -0.293252 -0.400204 0.0947698 -0.130189 -0.0934565 0.0517864 -0.132865 0.129192 -0.0840757 0.0169873 0.0820357 0.197995 0.34361 0.00928024 0.128449 -0.118229 0.223314 0.0399548 -0.10588 -0.22519 -0.0854131 -0.157519 -0.0891826 -0.172907 -0.262447 -0.0137509 -0.0909709 0.0721565 0.0233848 0.167386 0.117408 0.0544416 -0.198565 -0.188055 0.0299642 -0.283549 -0.183255 -0.235149 0.101379 0.0775388 -0.304609 0.162038 0.105328 0.247581 -0.0924301 0.209455 -0.0687929 0.0815442 0.191672 0.0707 0.109799 0.0427454 -0.0203516 0.177799 -0.303939 0.0872223 0.210477 0.188552 -0.213025 -0.429785 -0.0171034 -0.00469128 0.00186749 -0.00852897 -0.10596 0.143315 -0.267028 0.262352 -0.312632 -0.293682 0.261611 -0.0183833 -0.00361031 -0.292655 0.0555388 -0.0965011 -0.270003 0.203387 -0.156187 -0.206367 0.0819173 0.196305 0.306088 -0.111322 0.1643 0.218077 0.166174 -0.0507039 -0.082629 -0.102417 -0.0252614 0.0652214 -0.0631501 0.139804 0.209083 -0.108342 0.0214556 0.137756 0.219084 -0.228759 0.0568954 -0.00868953 0.29397 0.309049 -0.220234 -0.0219551 -0.125425 0.22054 0.0385669 0.0477036 -0.393815 -0.266279 0.0625793 -0.13954 -0.000370743 0.0813806 -0.0879416 -0.243341 -0.0539804 -0.0121648 -0.138508 -0.289079 -0.121254 -0.160734 -0.053122 0.310623 -0.243455 0.214141 0.241892 0.0555731 0.0989453 0.28461 0.237025 -0.0295893 -0.101702 0.157772 0.0383126 0.110338 -0.0959456 -0.256797 -0.075173 -0.0162799 0.279356 -0.0544869 0.0867633 0.0215539 0.168064 0.0204999 0.597266 -0.124193 0.0743201 -0.103902 -0.0217923 -0.0763689 -0.12264 -0.120324 0.0452563 0.0946855 -0.28995 -0.0927036 0.0498997 0.0325625 -0.125254 0.215193 0.160035 0.257269 -0.127462 0.25428 0.0955424 0.211399 -0.226423 0.0698247 -0.256925 0.13466 -0.0540662 -0.357797 -0.132483 -0.122703 0.242477 -0.0762923 0.0932443 -0.0782388 -0.30199 -0.00601958 -0.0585947 -0.170479 0.204807 0.00167394 0.00601955 -0.065358 -0.0386651 -0.0903276 0.00228557 -0.134658 -0.222714 0.112469 0.122258 0.0949658 -0.178669 0.0706581 -0.126038 0.360671 0.364301 -0.037992 -0.0844151 0.221639 -0.139787 0.465522 -0.412268 -0.152022 -0.0167865 -0.0639288 0.158062 0.0904549 -0.0027384 -0.234664 -0.00628088 -0.187118 -0.110956 0.100515 -0.163693 0.0850385 0.195864 -0.0672713 -0.083189 -0.00926668 -0.0517042 -0.168041 0.142212 -0.0128952 0.0616081 -0.325628 -0.120544 -0.0699673 0.212082 -0.179947 -0.255644 0.15331 0.0734358 0.329321 -0.178734 0.0659216 -0.0446644 0.0628578 -0.218778 -0.391146 0.152047 -0.150821 0.0153486 0.0862374 0.329985 0.137175 -0.175361 0.22231 -0.0598688 -0.365116 0.0111467 0.0936695 0.0032434 -0.0831275 -0.0476687 -0.112729 -0.232625 -0.176129 -0.20031 -0.0046947 0.232596 -0.253596 0.091488 0.168784 -0.351344 -0.324834 -0.0284718 0.103778 0.0644216 -0.0750107 0.0887966 0.209949 -0.287172 0.0228271 0.126022 -0.0037542 0.459603 0.0428075 0.0552433 -0.189105 -0.142664 0.141252 -0.00817121 0.126449 0.0329945 -0.0833957 -0.163605 -0.0963282 -0.166298 0.325211 -0.198326 -0.215008 -0.161308 0.167716 -0.222253 0.228679 -0.00643924 -0.0786298 0.196739 -0.0139758 0.014584 -0.181686 0.0878772 -0.214794 -0.0729167 0.109962 -0.0628915 -0.0161437 -0.112406 -0.107215 -0.00839507 0.244555 0.0105184 -0.00952553 0.167881 -0.0684757 0.278735 0.094003 -0.109457 0.0990329 0.18468 0.242438 0.187257 0.198784 0.111208 0.264909 0.0362333 -0.181958 0.0285008 -0.0230321 0.076134 0.0818208 0.122773 -0.156963 -0.0172528 -0.0562395 0.160542 0.276341 0.120767 -0.0261255 0.254412 -0.0929598 -0.0396773 -0.0385253 -0.0319416 -0.405094 0.217468 -0.192356 0.241084 0.277639 0.0947423 -0.0435417 0.0536616 0.0545297 -0.0276242 0.00858216 -0.0519092 -0.194246 -0.167971 0.0612177 0.062272 0.101063 0.127517 0.0997629 -0.0700066 -0.382627 0.00603792 -0.0742641 0.244392 -0.0923105 -0.211735 0.192327 -0.137562 0.00375379 0.240195 -0.231128 0.33947 -0.0687445 0.0510827 -0.0731842 0.0794299 -0.194576 0.00492586 0.192569 0.0432981 -0.133208 0.288502 0.213311 0.107438 0.194437 0.293841 0.0654559 -0.0606316 -0.101303 0.324483 0.0684614 0.263472 0.0265612 -0.104209 -0.561947 0.118997 -0.0269786 0.0347464 0.159442
fuck 0.0160964 0.0256154 -0.0505046 0.00805309 -0.0575825 -0.0912364 -0.053071 -0.0247035 0.00318349 0.105466 0.00787247 -0.0158181 -0.0263453 0.0408535 0.0457755 -0.0299359 0.06784 -6.14582e-05 -0.0308407 0.0368817 -0.0159358 0.0622302 0.0528884 -0.082875 0.0500492 0.0362123 -0.0152089 -0.0133877 -0.0142807 -0.0296981 -0.0292212 0.017434 -0.0476036 -0.00566819 0.0236541 0.00577714 -0.0944196 -0.0325893 0.0115008 -0.010004 -0.0208659 0.00340826 -0.0756027 0.0179087 -0.0760154 0.0160336 -0.0268655 -0.0718388 0.0337608 -0.0662797 0.0259079 -0.106169 -0.0085742 0.0712568 0.0333047 0.0147138 0.0559383 -0.0857665 0.0735342 0.0668828 0.00497826 0.0104512 0.00267497 0.0666091 -0.0939604 -0.125958 0.0250195 0.0351693 -0.0708925 -0.0373303 0.0733042 0.00201641 -0.0622269 -0.0347956 0.0289853 -0.0497228 0.0636209 0.0295476 -0.0679787 0.0275299 -0.00662298 0.120158 -0.0426523 6.23735e-05 -0.0407938 -0.0291963 -0.0468271 0.0319638 0.00393706 -0.0331921 0.0128698 0.0404173 0.0702848 0.0453526 -0.0180517 -0.0727646 -0.0817465 -0.0681505 0.0513846 0.0600753 -0.010221 -0.0211266 -0.0154392 -0.0529915 0.0223915 0.00117672 0.00260379 -0.0158143 -0.0018826 0.00172475 0.0548218 -0.00654148 -0.123467 0.0399446 0.0619996 0.0468055 0.0198428 0.0083696 0.0004532 -0.0204179 -0.00883848 0.00864342 0.0810082 0.0341456 -0.0487989 0.0527497 0.0437045 -0.0422487 -0.0438773 0.0509744 0.0730856 0.0127063 -0.00376126 0.00716045 -0.0103635 0.0287951 -0.0123951 0.0406545 -0.0467376 -0.0154914 0.00436133 -0.0359457 0.108567 0.00691877 0.0233033 -0.0134007 -0.129448 0.0120431 -0.0278906 0.00670968 -0.015641 -0.0679611 0.0131349 0.0753527 -0.0120298 0.0253357 -0.0562914 -0.00102418 -0.0023948 -0.0709208 0.023285 0.0490201 0.0546167 -0.000667701 0.0717949 0.0935691 0.0830413 0.0688623 0.0597678 0.0588012 -0.00273425 0.0544641 0.024731 -0.0522224 -0.0074858 0.00676789 0.0487857 -0.0465479 -0.00783212 0.0360975 -0.0215172 -0.016415 -0.0843845 -0.0429837 -0.0813047 -0.0200843 -0.047066 -0.0300366 -0.0242798 -0.0118958 0.0141851 -0.091921 0.0389743 -0.0243724 -0.0310576 -0.021238 -0.0265464 -0.00887638 0.0341373 -0.0302161 -0.00940205 -0.0287578 0.0153026 0.0392596 0.00984723 0.041962 -0.0441096 0.0157036 -0.00232232 -0.0464215 -0.0890289 0.0838278 0.0577055 0.053945 -0.0679444 -0.022912 -0.0253313 0.00178346 -0.00203078 -0.048279 -0.0681333 -0.00917418 0.0217578 -0.00997027 -0.0346435 0.0431696 0.00207407 -0.0539231 -0.0391425 -0.0565283 0.0553671 -0.0387555 0.0973921 -0.0143086 -0.0622897 0.0915587 -0.0308192 0.0152368 -0.0426546 0.0272453 -0.0243187 -0.0233093 -0.0187458 0.0156828 -0.0561551 -0.0682744 0.0119299 0.0315784 0.0348074 0.040304 0.0257261 0.123963 -0.0566313 0.0211509 -0.0101975 -0.0352272 -0.0315453 -0.0257605 -0.0405153 -0.0393754 0.00295005 -0.059858 -0.0350757 0.013985 0.0772074 0.0144711 0.0173948 0.0177335 -0.0277146 0.0318885 0.0208863 -0.0751926 -0.11781 -0.0360246 -0.104236 0.036555 0.029429 -0.100835 -0.0500809 -0.00492763 -0.0507462 -0.0394835 -0.024308 0.0541466 0.00701184 0.0141257 -0.00842931 0.0117149 0.0436611 0.0365069 -0.0293582 0.0981032 0.0595185 -0.0496704 0.00657839 0.0290581 -0.0907155 0.0526273 -0.0109797 -0.0508307 0.0351174 0.0411033 -0.0085308 0.00795616 0.0680819 0.03935 -0.0728595 0.144961 -0.0963553 0.0330083 0.0159793 -0.00122513 0.000859279 -0.015952 -0.0779084 0.0682445 -0.0568425 -0.00552474 0.0100519 0.0617762 0.0438917 -0.0445714 0.0492586 -0.0533831 -0.0164534 -0.0788859 -0.0684348 -0.0663386 0.021298 0.0754088 0.110299 -0.130562 0.0306975 -0.0847727 -0.00756893 -0.0220306 0.0208315 0.00569581 -0.0426986 0.00865156 -0.0346 0.010082 0.0129247 0.0705721 -0.157682 -0.063961 -0.136328 0.0644465 0.0423842 -0.00399997 0.00135804 0.0957437 0.0594159 0.0194781 0.0789468 -0.044416 0.0663081 0.0274315 -0.0325494 -0.0770174 -0.0126566 0.090037 -0.0758365 0.0537565 0.0623716 0.0306921 0.046261 0.0347131 -0.0312792 -0.0425219 0.0125676 -0.0280392 0.0284966 -0.0266262 -0.0483519 0.00466034 -0.0359884 0.02107 0.0277641 -0.00328532 -0.0549416 0.00453397 -0.0692533 0.023792 0.0614392 -0.0510824 0.0832161 0.076996 -0.0175231 0.0191959 0.0787128 0.0738515 0.0737438 0.0318948 0.0797689 -0.011668 0.0696928 0.00831437 -0.0318971 0.00460513 0.0113971 -0.0587161 0.00682706 0.0355459 -0.010494 0.00937561 0.0362557 0.0356174 0.00100012 0.0257778 0.00328589 0.0716131 0.0986017 -0.0361019 -0.0170177 -0.0661044 -0.0218259 -0.0162278 0.0237335 0.00822355 -0.0505221 -0.0913139 -0.0751668 -0.0240404 0.0754076 0.0253934 0.0608726 0.0259539 0.0311625 0.0426036 0.063617 -0.0301491 -0.0290072 -0.0130654 -0.0665568 0.01611 -0.0203171 -0.00750871 -0.0263595 -0.0750671 0.0298145 0.0232802 0.00635156 -0.043569 -0.0402338 -0.00340054 0.0979969 -0.016192 -0.0456898 -0.0598505 -0.127724 -0.00994993 0.0182425 -0.0446446 -0.0556375 0.0422993 0.00892902 0.0484819 0.12434 0.0128837 -0.0512604 0.0502431 0.0501237 -0.0114098 0.0464906 0.0409892 -0.0385267 -0.0348873 0.00423076 0.00708304 -0.0212517 0.0813763 -0.0255577 0.0903643 -0.0928983 -0.0315532 -0.0787809 -0.0529935 -0.0273566 -0.00186441 0.00062465 -0.0236247 -0.00153219 0.0207229 0.00572768 -0.00570089 -0.0306528 -0.0244703 0.0689577 0.00198416 0.0876195 -0.0586578 0.0485744 0.0378194 -0.0779273 -0.0397459 0.0175465 0.0181121 -0.0218505 0.0356713
psychology 0.0956276 0.200289 -0.0245902 -0.0772872 -0.181784 0.172787 0.0156978 -0.085506 0.176338 0.11409 0.0771817 0.126483 -0.126602 -0.229682 0.0727147 -0.233157 0.361342 -0.267306 0.0376839 -0.194895 0.0305425 0.0975143 0.176843 0.180221 -0.0934153 -0.0387842 0.119127 -0.0485527 -0.0861738 0.00868257 0.0494256 0.0641152 0.00379953 -0.0386487 -0.0272771 0.164472 -0.0638281 -0.0966184 -0.0883427 -0.0493495 -0.0546139 0.0406174 0.166671 -0.0924721 0.0524263 0.109111 -0.206932 0.103334 -0.243942 -0.115235 -0.020147 -0.0618768 -0.266945 0.025139 -0.035952 0.012009 -0.107257 0.231354 -0.147298 -0.0526431 -0.237792 -0.270023 0.180221 0.131281 0.12593 0.196051 -0.0870303 0.0724148 0.237157 0.0720803 -0.11642 -0.0727849 -0.0532728 0.077529 -0.0837115 -0.0107219 -0.027883 0.163628 -0.0640668 0.0702027 -0.116663 -0.0470051 -0.209485 0.0453601 -0.0682001 0.134495 -0.0589044 0.0660314 0.108228 -0.186592 0.175314 0.0203212 0.0509866 -0.326979 0.309004 0.196097 0.0300818 0.0609707 0.128548 -0.150223 -0.0270501 -0.00612744 0.0739116 -0.0349004 -0.141875 -0.0293438 -0.0422505 0.0604555 -0.0599475 -0.135947 0.060221 -0.00664492 0.0168628 0.0984462 0.108336 0.00962392 -0.0138027 0.162976 -0.170777 0.115407 0.154465 -0.0589961 -0.0559027 0.069518 -0.0605967 0.177726 0.106462 -0.0293044 -0.0136896 -0.00821078 -0.0822653 0.088426 -0.0262839 0.141414 0.077951 -0.22153 0.00322378 0.0544375 0.249107 -0.104301 0.0626758 0.0196322 -0.0128472 0.0860151 0.0580644 -0.130103 -0.136895 0.200288 0.0724586 -0.0425407 0.0453033 -0.385137 0.201174 0.276369 0.152675 -0.0510206 -0.0508173 0.176849 0.0745797 0.0789284 0.0335246 0.0610935 -0.00737499 0.0564622 -0.112618 -0.159362 -0.0986249 0.0156125 0.242344 -0.0141998 0.159858 0.115111 -0.0865669 0.0339035 -0.112314 -0.00560623 0.0893081 0.0163416 0.0497487 0.0946371 -0.059209 -0.187284 -0.00218524 0.0164523 0.142664 -0.0590669 -0.0369678 0.0487926 -0.0759244 -0.0245002 0.0298624 -0.318993 -0.173905 0.118419 0.0407519 0.0787213 0.0182378 0.113647 0.142223 0.0297607 -0.157223 -0.0428168 -0.135796 0.0478884 -0.0263109 -0.0111467 -0.00276974 0.18361 -0.099368 -0.222533 0.0290157 -0.0486618 0.0455735 -0.0187251 0.0828168 0.0136183 -0.0404582 -0.0258736 0.0751949 -0.0293215 -0.0814843 0.108137 0.0963937 0.260324 -0.18298 -0.0215099 -0.00188568 -0.0919032 0.0730033 0.0391949 -0.00207978 -0.047123 0.2011 0.299569 0.147451 0.232296 -0.223766 0.225427 0.00709916 -0.244995 0.0118447 -0.0219382 0.0223684 0.0501367 -0.0150685 -0.0758426 -0.0992629 0.0278688 0.11016 -0.175087 -0.0107203 0.0153278 -0.0781018 0.117147 -0.146026 0.0811754 -0.114948 0.199697 -0.127016 0.0238184 0.0698238 0.0502345 0.0703984 -0.186657 0.0798742 -0.0600565 0.072869 -0.000929204 -0.121193 0.00514578 0.142663 0.0469875 0.299429 -0.0405272 -0.196779 -0.23738 0.139421 -0.128978 0.00865661 0.105545 0.0280456 -0.0487065 0.140237 -0.190246 -0.0185606 -0.0714221 0.0766932 0.0156883 0.0884581 -0.0100248 0.341874 0.088952 0.0290515 -0.0111425 0.0965275 -0.0476171 -0.0500561 0.19012 -0.0254074 0.142577 0.085462 -0.18893 0.00565262 -0.0352952 -0.0479799 -0.0791585 0.113817 -0.118115 -0.0528159 0.123535 0.109167 -0.0044112 0.107786 0.0426052 0.0402053 -0.060526 0.141035 -0.204638 -0.142102 -0.0105834 -0.0550753 -0.0320759 0.0949282 0.286063 -0.0590429 -0.121694 0.142359 -0.0555316 0.0282269 -0.0794102 -0.0461398 0.00371168 0.132374 0.215786 -0.139337 0.117614 -0.175814 -0.0269273 0.108356 0.202205 0.144291 -0.0234537 0.142862 -0.0742569 0.0510494 -0.0671903 0.152882 -0.11618 -0.207567 0.032038 -0.0491625 -0.0541306 -0.146007 0.245435 0.0619947 -0.110864 0.0492116 -0.0977447 -0.123713 0.103532 0.0446979 0.153651 0.0707196 -0.116074 0.249434 -0.168769 0.00635131 0.118412 -0.277066 -0.0113952 0.108609 0.0588004 -0.104375 -0.155031 0.111461 0.247684 0.0115075 0.0955076 -0.105608 0.0861701 -0.10786 0.0626206 -0.0252292 -0.270073 0.138938 -0.0214798 0.114398 0.0989277 0.136151 0.0911164 0.0578749 0.0671854 0.0813333 0.00450245 0.068186 -0.0771475 -0.199375 -0.104421 -0.0094939 -0.12429 -0.0386949 -0.0520364 -0.140063 -0.00440189 0.0837979 -0.0647014 -0.199143 0.0150574 -0.0736082 -0.0418795 0.0926388 -0.0678181 0.0447706 -0.0872295 -0.0461156 -0.0518919 -0.11242 0.0589252 0.101986 -0.00423877 0.095986 0.166177 0.0936862 -0.0282738 -0.066048 0.16381 -0.161733 0.0485209 -0.00214699 -0.0564726 -0.0374165 -0.0246141 -0.0462183 0.0932233 0.159615 -0.136241 0.171522 -0.189053 -0.0665502 0.0100458 0.0704292 -0.0678901 -0.0737689 -0.0670526 -0.183761 0.0164641 -0.0942454 -0.230545 -0.048123 0.129662 0.010614 -0.00280739 -0.0631161 -0.0168364 -0.00103721 -0.071492 -0.111055 0.022473 0.0528313 -0.175847 0.0388299 -0.0219715 0.183037 0.168934 -0.0308468 -0.109879 -0.225948 -0.115337 -0.0625089 -0.0122896 -0.0286648 0.228669 -0.0703454 -0.186209 -0.244414 -0.181567 0.0203283 0.285698 -0.148733 0.0438001 -0.0288632 0.0398908 -0.0824237 0.0804151 -0.184695 0.0493516 0.0905663 0.311442 0.104385 -0.270718 0.0363673 0.0259739 0.129008 0.0897189 -0.152892 0.123127 -0.0408983 -0.0545707 0.0019441 -0.134371
government 0.161833 0.172621 -0.0980814 0.0707111 0.106315 -0.228573 -0.0628377 -0.211875 -0.390748 -0.0404832 -0.181148 -0.108378 0.0109846 0.186512 -0.015279 -0.0782556 0.0405737 -0.0754446 0.0808734 -0.0562737 -0.0927222 0.0411049 -0.0824453 0.2575 0.203694 0.0660162 -0.146718 0.124451 -0.101143 0.233477 0.0561521 0.325125 0.116336 -0.21666 0.202386 0.00642605 -0.00844983 -0.0336503 -0.0652441 -0.0946526 0.408039 -0.0591492 0.100021 0.195371 -0.27589 0.293779 -0.0373841 -0.0607442 0.0493787 0.208898 0.10519 0.0383026 0.00989785 -0.250222 -0.257733 -0.0918757 0.0616912 -0.147178 -0.00700573 0.0822517 -0.143162 0.0350044 0.0742559 -0.11416 0.05443 -0.306878 0.163088 0.11672 -0.132124 -0.152133 0.142745 -0.0413853 -0.176814 0.076349 0.0823508 0.37572 0.131853 0.0983599 -0.0489731 0.000606336 0.110099 0.226899 0.303638 2.16519e-05 -0.126869 -0.210429 -0.0925327 0.136697 0.0979609 -0.274937 -0.012123 -0.0558479 0.0514325 -0.356741 -0.0221592 -0.033811 -0.273294 0.29309 0.12902 -0.0996854 -0.168375 -0.125296 0.140098 0.0406854 0.157385 -0.108089 0.0947362 -0.0454844 -0.246759 -0.0521802 0.129464 -0.133472 0.114011 0.267224 -0.0239175 -0.217333 -0.0140873 0.0869038 -0.231195 -0.352379 -0.132458 0.111545 -0.2563 -0.135377 0.0726047 0.249201 -0.156808 -0.0015808 0.164457 0.00417964 0.0887295 -0.140585 0.371573 -0.0472911 -0.0938511 0.215225 -0.335974 0.149525 0.0537357 0.158282 0.0473067 -0.0545808 0.154862 0.185637 0.163576 0.219996 -0.0446764 0.202192 -0.155405 0.0959028 -0.0486541 -0.34293 -0.0129216 0.0506296 0.109376 -0.170218 -0.239771 0.029136 0.0489001 0.432212 0.167407 -0.00665686 -0.174255 -0.173396 -0.190771 -0.0598123 -0.235118 -0.163827 -0.192335 -0.202646 0.0694774 0.0468179 -0.104187 -0.0381924 0.163048 -0.0249227 0.131762 -0.276841 0.0923541 0.117386 -0.0437179 -0.133395 -0.135592 0.372736 0.0162804 -0.0596237 0.192421 0.225562 -0.352051 -0.438767 -0.130206 -0.172186 0.205648 0.126717 0.0144151 0.0419948 -0.0385616 0.236713 -0.0376671 -0.110884 -0.0808664 -0.357723 0.00891106 -0.239194 -0.0443027 0.275046 0.0408562 -0.0610751 0.185002 -0.0262977 -0.0839207 -0.270585 -0.0200109 -0.0513367 0.0258997 0.380997 0.129863 -0.0313039 -0.00538423 0.111646 0.38645 0.25931 -0.126431 0.00546433 -0.0185248 -0.259518 -0.151915 0.0756144 0.136494 -0.0763685 0.223113 0.0504951 0.0188727 -0.0647804 0.177269 0.351509 0.261208 0.0424222 0.470797 0.0761892 -0.0240095 0.0564015 -0.0241786 -0.049612 0.267332 0.0511423 0.0500153 -0.121299 0.140069 0.102644 0.152737 -0.200838 0.231301 0.0139847 -0.0462878 0.210585 -0.537241 0.0316524 -0.0680828 -0.0393067 0.219863 -0.165686 -0.203779 0.274828 -0.0703217 -0.0101113 -0.457648 -0.144856 0.201434 -0.0538648 0.114656 0.135231 -0.136426 -0.0584133 -0.030571 -0.321998 0.16943 -0.0721392 0.302526 -0.219257 0.240756 -0.0183565 0.342885 -0.132284 0.102111 0.0543758 0.0971383 0.0332398 -0.00846826 0.161544 0.0773244 0.217676 -0.0821485 -0.133484 -0.0379928 0.202301 -0.0746826 0.529021 -0.272393 -0.0709673 -0.18163 -0.361632 -0.0279314 0.265414 -0.00582264 -0.21382 0.219667 -0.299956 0.0986063 0.0674863 -0.137486 -0.056067 0.257115 0.378745 -0.0375705 -0.108518 -0.0507072 -0.190977 -0.0193551 0.0617481 -0.0682262 -0.0301195 -0.0335676 -0.199528 0.10351 0.0259062 -0.138202 0.117134 -0.23968 -0.203472 0.000117651 -0.169268 -0.0363408 -0.0829014 0.0632403 -0.0440254 0.250243 0.00120254 -0.113328 0.0112755 0.1783 0.156858 -0.0667447 0.266798 -0.389538 -0.115577 -0.14834 0.281575 -0.014121 -0.0574347 0.0983045 -0.0819305 0.343302 -0.053966 -0.0944345 0.166016 0.141479 0.099557 0.00993643 0.00592185 -0.0596823 -0.0171513 -0.0912146 -0.0097375 -0.0340063 -0.433476 0.0950251 0.173816 -0.3503 0.0626755 0.0919093 -0.0287314 -0.133664 0.0801477 0.00786506 -0.120383 0.0362928 -0.317052 0.145631 -0.138088 0.103825 0.0407414 0.0225644 0.189733 -0.388246 -0.000353239 0.0538874 -0.06351 -0.157067 0.283405 -0.155276 -0.135826 -0.0662078 -0.043526 0.0401777 0.118257 -0.21517 -0.066001 -0.141716 -0.249712 -0.167992 0.296545 -0.0388413 0.103881 -0.184348 0.070262 -0.206156 -0.00409427 -0.208048 0.0896657 0.0106201 -0.200547 0.075322 0.078423 -0.0919112 -0.0416806 -0.115275 -0.0594989 0.147628 0.122824 0.0227592 0.202835 0.131511 0.104899 0.302307 -0.00439791 0.0492485 0.0444895 0.266059 -0.000211408 0.0407047 -0.00520445 -0.149317 0.194947 0.158603 -0.264167 -0.363876 0.138537 0.167816 -0.0571447 0.139616 -0.357999 0.143345 0.177618 -0.0145038 0.0815211 0.161321 -0.090715 0.0976351 0.213432 -0.0378639 0.0831225 -0.0549571 -0.471268 -0.0324575 -0.057235 -0.0794057 -0.0449142 -0.0952083 -0.278179 0.107191 -0.0189591 -0.152768 -0.0267451 -0.192496 -0.187793 -0.268042 0.0273642 0.03113 -0.145115 0.415329 -0.329856 -0.0155239 0.124978 -0.137937 0.0170791 0.271732 -0.0344367 -0.190542 -0.0131223 0.09466 -0.200642 -0.0260785 0.217157 -0.0554097 0.14504 -0.0579688 0.039492 0.108628 -0.123794 0.090923 0.062927 -0.109298 -0.0528407 -0.0434493 -0.0318218 -0.124789 0.0270776 0.119568 0.0543934
madhouse -0.0169514 -0.0104283 -0.00767209 -0.00443901 -0.00655008 0.00976474 -0.019831 -0.0102058 0.023111 -0.0132552 0.00042523 -0.00957511 -0.0307595 0.0182226 0.00259212 -0.031896 0.01351 -0.0162892 -0.0245558 0.00462881 -0.0136929 -0.0189597 -0.0127378 0.00685039 0.00262861 0.0282897 0.0128845 0.0088485 0.0078518 0.010001 -0.0174654 -0.0121398 0.0164273 0.0143474 -0.0114669 0.00237369 0.0171861 -0.0343698 -0.000992604 -0.0200278 -0.0268838 -0.00227175 -0.0147319 -0.0215006 0.0143581 -0.00293503 -0.0210385 -0.00824614 -0.00567753 -0.0206221 0.00117781 -0.01048 -0.0130978 -0.00586197 -0.00214803 -0.0151944 -0.00566078 -0.000188227 0.0149888 0.0010134 -0.00965437 0.00589127 -0.00195406 -2.52859e-05 0.0121472 -0.00194586 0.0149171 0.00837352 -0.00209565 0.0132401 -0.00803046 0.0142339 -0.0024783 0.0118049 -0.0015934 -0.0160171 0.0283841 0.00511765 0.00402239 -0.0149373 -0.0133561 -0.00515919 -0.00456648 0.00544555 -0.00942275 0.00305903 -0.0120788 0.00246406 0.0031975 -0.0369978 0.00265202 -0.0149093 0.0144754 0.00692274 -0.0219037 -0.00898316 0.0064415 0.00539918 0.0122101 0.00978606 0.0338387 0.00518033 -0.00551746 -0.00514547 -0.0200861 -0.0041179 0.00621254 0.0116283 -0.00591927 0.0135173 -2.47928e-05 0.000231209 -0.00877613 -0.000881438 -0.00550619 0.0186897 -0.0203378 0.00819214 -0.00349855 -0.011712 0.0068742 -0.0192009 -0.00588722 0.014733 -0.00696378 -0.0057292 0.0247282 0.00136377 0.014853 -5.07633e-05 0.0104063 -0.0111841 0.0207793 0.00385296 0.023252 0.0110153 -0.000399204 0.0243336 7.81061e-05 -0.0139585 -0.00849697 -0.00891031 -0.0159386 0.00735617 0.000436673 0.00811521 -0.0182918 -0.0171932 -0.023026 -0.0196885 0.00497319 0.00528388 0.0014253 0.0110741 -0.0181904 0.00133815 0.00263213 -0.00687151 0.017262 0.0135883 -0.00764289 0.00268538 0.0302733 0.0201343 0.00386142 0.0103354 -0.00138822 -0.00318491 -0.00683211 -0.0324172 -0.0124919 0.00761551 -0.00963532 -0.00740368 -0.000815489 -0.0104438 -0.00932878 -0.000904975 -0.0348761 -0.0120196 -0.00507291 -0.0049212 -0.00640974 0.00415999 0.00702981 0.00443963 3.19026e-05 0.00645122 -0.00775452 -0.0272661 -0.014038 -0.00246409 -0.0240055 0.00697111 -0.0201486 0.00717718 -0.0184702 -0.0169661 0.0130243 -0.00773779 -0.020575 -0.00882826 0.00343105 0.00603928 -0.00270359 0.0194861 -0.0133704 -0.00622547 -0.0222036 0.00477376 0.0178542 -0.00846634 0.0254309 -0.0061939 -0.0199036 -0.0211979 -0.00295712 -0.00979333 0.0123858 -0.00888492 0.0179485 -0.00844405 -0.0167114 0.012446 0.00836687 -0.00729082 -0.00345266 0.00526597 0.021108 -0.0218605 -0.00203441 -0.0182454 0.0459721 0.0284804 -0.00599571 0.0132737 0.000281276 -0.0111913 0.0107027 0.0213991 0.0237159 0.00022664 -0.000144428 0.0089642 0.017046 -0.010848 0.00546086 -0.00757757 -0.00106385 0.00508503 -0.0204792 0.0207497 -0.0288777 0.014904 -0.00805581 -0.0250426 -0.0228194 0.0195537 -0.0178307 -0.0124022 -0.0185686 0.00793952 -0.00784664 -0.0028027 0.0174724 -0.0142178 -0.0104003 0.0202149 0.00626671 -0.010295 0.0321102 -0.00145023 0.0338989 0.002974 0.0119995 0.0167796 -0.00888992 -0.0175022 -0.00643464 -0.00862621 0.00519136 7.88583e-05 -0.00148521 -0.00260907 0.0207901 -0.0101979 -0.00809138 0.0101587 0.0315381 0.00810912 0.00552425 0.00991084 0.0143104 -0.00901689 0.0267384 0.000611878 -0.0278041 0.0014687 -0.0174367 0.0110448 0.000625719 0.0135917 -0.0041068 -0.00287761 -0.0131345 -0.00384644 -0.00419291 0.00169222 -0.0125922 0.00118296 0.0264609 0.00468663 0.0146782 0.00785683 0.0071247 -0.0155793 -0.00368614 -0.0123765 -0.00345826 0.0118301 -0.00424221 -0.0149572 -0.00923638 -0.0232901 -0.00217776 0.0075504 -0.0147572 0.0270804 -0.00860513 0.0087858 0.0011542 -0.0167457 0.0341443 -0.00177002 -0.00349497 -0.0166609 -0.0271021 0.00424988 -0.00555745 -0.027034 -0.0152936 -0.0137675 -0.00657483 0.0177246 -0.00937104 -0.0154701 -0.00338744 0.000903464 -0.0217807 0.000756273 0.000864581 0.0250256 0.0114059 0.00343541 -0.00602063 -0.0162143 -0.0115156 0.00817451 0.00236979 0.0106252 -0.0152345 0.00115352 -0.00688442 -0.0136508 -0.00598148 0.00771645 -0.00847466 -0.00126215 0.00178749 -0.00642211 -0.00768133 -0.0197018 -0.00808977 -0.0184857 -0.00528211 0.00378152 -0.00746024 -0.00439221 0.0123028 -0.000325044 -0.00815236 -0.00609544 -0.0169169 0.00110829 0.0283301 -0.00561128 0.00266108 0.0147924 0.0161135 0.0159897 -0.00415905 0.0095973 -0.00460486 0.014821 -0.00336166 -0.00695264 0.0171315 -0.0255477 -0.0029651 -0.0161091 -0.0107943 0.00774014 -2.73966e-05 -0.0133044 0.0197873 0.0156159 0.00273954 0.00101936 -0.00746601 0.00920783 0.00776986 0.000773421 0.00484381 0.00633772 -0.00880344 0.000558776 -0.0209317 -0.00564761 0.0043483 -0.0112005 0.00315661 -0.0157119 0.00649789 -0.0265859 -0.00878913 -0.0228561 -0.00722855 -0.0285335 0.00140023 -0.000183272 0.0157104 0.019739 0.00830128 -0.000483638 -0.0022602 -0.0152072 0.0286578 -0.00647364 -0.0133108 0.00555979 -0.0264274 0.0184597 -0.00817861 -0.0109686 -0.0248327 -0.00410261 -0.0107914 0.00781709 0.00359955 0.00538011 -0.0054848 -0.00103025 0.0191283 -0.0280456 -0.00386325 0.00874536 -0.0132019 0.00223582 0.0196545 -0.00260222 -0.0090834 0.00711031 -0.014433 -0.00277843 -0.00111648 -0.0100861 0.0112862 0.0022057 0.0105772 0.0280429 -0.0178141 0.0073088 -0.00888683 -0.000864429 -0.0143408 0.0125163 -0.00105232 -0.0113108 -0.0145605 0.00322788 -0.0124277 0.0113649 -0.0131576 0.000360552 -0.00230699 -0.00364486 -0.00443342 -0.0133394 -0.0321901 -0.0115063 0.0208079 -0.0124051 0.0194727 0.050496 0.0123979 0.012107 0.0154749 -0.00332616 -0.02608 -0.0150075
video -0.0352745 -0.127433 -0.237168 0.201135 -0.15223 -0.0820834 0.0817854 0.0653748 -0.0351667 0.251961 -0.365343 -0.0880729 0.0610286 0.0586913 0.205041 -0.359583 -0.486237 0.134162 0.0195777 -0.0831832 -0.196176 0.167943 0.21044 0.173657 0.343056 0.28368 -0.059246 -0.315242 0.188655 -0.180354 -0.013155 -0.0519422 -0.0869119 0.0526243 -0.0182764 0.0643676 0.330231 -0.0602289 -0.151139 -0.187602 -0.0251257 -0.0787297 0.00910633 -0.0752882 -0.035338 -0.113255 -0.218965 -0.125132 0.0987682 -0.169579 -0.0669797 0.0356829 -0.144442 0.156 -0.0234527 -0.106448 0.302905 -0.178228 0.308014 0.0381166 -0.0115797 0.0108357 0.230005 -0.197566 0.176037 -0.249489 0.119748 0.115066 -0.150853 -0.142542 0.414138 0.0769921 0.0851552 -0.143707 0.155324 0.345388 0.107928 -0.328295 0.140876 -0.0678616 -0.0838917 -0.272377 0.00948735 -0.0751255 -0.0743385 -0.169666 -0.126313 0.303158 0.273417 -0.0915894 -0.0853222 -0.000525383 0.0741554 -0.0780998 -0.056144 0.12258 -0.169875 -0.167344 0.17303 -0.0509424 0.304404 0.000804675 0.209399 0.15721 -0.0910835 0.0879432 0.0662581 0.234243 -0.0686685 0.0179988 0.0364453 -0.00477059 -0.30308 0.222659 0.0525652 -0.181832 0.173532 0.180044 0.101309 -0.184556 -0.0753852 -0.230954 -0.16982 0.000167316 0.0933956 -0.168221 0.212173 -0.0788429 0.0109706 0.10493 0.145792 -0.0209703 0.200488 0.379121 -0.209994 -0.0171258 0.060867 0.304689 0.0539843 -0.0142317 0.0743054 -0.129685 0.195986 -0.0857712 0.0867488 0.13777 -0.0274482 0.227299 0.146844 -0.101947 -0.150726 -0.00375093 0.0558914 0.0454333 -0.163064 0.0532583 -0.25904 -0.0807908 -0.280675 0.315516 0.271321 0.286664 0.301637 0.0898048 0.109873 0.335213 0.0791935 -0.330509 0.00511266 -0.0928831 0.0753865 -0.017677 -0.0412254 -0.122562 0.0183941 0.02619 0.251448 -0.173026 -0.300652 -0.188736 -0.0215706 -0.109304 0.0371505 0.249961 0.411681 0.119656 -0.237256 0.0423619 0.216945 0.0275968 0.02871 -0.0543202 0.244282 -0.0364337 -0.26619 -0.0726436 0.282426 0.011491 -0.220701 0.0283904 -0.228661 0.152168 -0.286249 -0.316826 0.03839 -0.0361499 0.124596 -0.035601 -0.0852796 -0.333254 0.0799116 0.0199175 -0.0711931 -0.0301779 -0.338774 0.0204301 -0.215651 -0.222214 -0.111764 -0.0366201 0.146795 -0.271648 0.00190713 0.028217 0.247257 0.0324814 -0.188242 0.11532 0.146358 0.208982 0.415421 -0.216701 0.31416 0.0795825 -0.204387 -0.116146 0.186001 0.270962 0.0647786 0.183173 -0.232429 -0.0462757 0.0550281 -0.0212835 -0.0824873 -0.111891 0.0678669 0.0583492 -0.279755 -0.0126515 0.081151 0.00578834 0.110031 0.157838 -0.0908231 -0.106238 0.00881814 -0.231205 -0.404841 -0.0619521 0.0362716 -0.0881436 -0.153363 0.171405 0.192521 0.154911 0.0457481 -0.143554 0.0279855 -0.363107 0.296001 -0.125322 -0.185157 0.102527 0.282932 0.0436241 0.0965391 -0.0227353 -0.0462116 -0.0233281 0.0569811 0.218273 0.122516 -0.0725983 0.186639 0.00429188 0.282814 -0.116935 0.184638 0.0791486 -0.017171 -0.000662751 0.100239 0.268122 0.106166 0.101821 -0.446308 0.0669697 -0.244248 -0.151015 -0.0042055 0.0693796 -0.229634 0.0334438 -0.156806 -0.0167024 -0.00372129 -0.313695 -0.160387 -0.217876 -0.0061509 0.210685 -0.276193 -0.0960888 -0.200007 0.0895164 -0.242698 -0.0149152 0.171678 -0.0396376 -0.0809482 0.250011 -0.363003 -0.0151928 0.10608 -0.172521 -0.107058 0.142078 -0.0455072 -0.0712275 0.181176 0.0543931 -0.0613492 0.149782 0.20001 -0.0695357 0.126491 -0.00676524 -0.132829 0.0790516 0.38626 -0.127674 -0.0426037 -0.264507 0.000435554 0.509559 -0.270441 0.452578 -0.186656 0.0407851 -0.0510051 -0.0513609 0.319179 0.0784012 -0.193575 -0.0246932 -0.214058 -0.0390627 0.0285903 0.245649 0.0470727 -0.0298049 -0.0983418 0.205046 -0.0170866 0.0819352 0.0453562 0.123634 0.220029 -0.0730191 -0.146574 0.0489616 0.147221 0.166123 0.0702879 -0.214606 0.0806523 -0.189746 0.12245 -0.196795 -0.0284891 -0.0487905 -0.00160422 -0.0609258 0.137514 -0.0503339 0.179805 0.0438061 -0.128272 -0.00246009 0.0887642 -0.184204 0.317024 0.186892 0.034586 -0.0905089 -0.12171 -0.29703 0.0208133 0.133618 -0.104132 0.00510096 -0.0291851 0.0232929 -0.0316595 -0.0807599 0.00327098 -0.0573751 -0.131784 0.311848 -0.150195 0.349832 -0.215373 0.0862764 -0.182262 0.0396302 -0.154592 0.00111263 -0.0432618 0.0104805 -0.0828385 0.279779 0.243404 -0.212811 -0.0235395 -0.235476 0.110024 -0.101497 0.108687 -0.0880634 0.0884013 -0.159325 0.322314 0.178903 0.0711797 -0.100368 0.124099 0.0591076 0.24148 -0.091992 -0.27713 -0.0927605 0.0158384 -0.0447539 -0.221241 -0.288838 -0.0722248 0.198715 -0.022668 0.0318554 0.0431882 0.0941879 0.0196408 0.115628 -0.148828 0.005117 0.0430948 -0.366394 0.332162 -0.188095 0.297812 0.214157 -0.0417476 0.131058 -0.150401 -0.0127208 -0.045805 0.134487 -0.111713 0.255064 0.119735 0.0581863 0.0181979 0.306364 -0.301898 -0.119025 -0.113921 0.137017 -0.0217085 -0.095324 -0.0647722 -0.0168557 0.103882 -0.00064342 0.176738 -0.127252 -0.0122251 0.17723 0.165911 -0.403645 0.0220673 0.048634 0.153346 0.0143111 0.274394 -0.0344901 0.179411 0.146354 0.0237438 0.0220166
defeating 0.132808 -0.0950194 0.0320524 -0.0561074 -0.190522 0.166305 0.0479569 0.0177362 0.0749423 0.00227347 -0.0810915 -0.0144856 0.110067 0.126079 -0.0124955 0.0290409 0.204315 0.0982267 0.0205781 0.0285827 -0.111183 -0.205814 0.0204872 -0.0852815 -0.0527759 -0.0576047 -0.00876192 -0.0718379 -0.0357956 -0.0521849 0.0585432 -0.159785 -0.022107 -0.0749347 -0.00520969 0.0811324 0.116016 0.017803 -0.0754012 0.141579 -0.193699 0.0320474 0.0787633 -0.236157 -0.10953 -0.00727711 0.0626129 0.018617 -0.139241 -0.0966665 -0.00144339 0.0308915 -0.140086 0.0804917 0.0132999 0.0368738 0.0674129 -0.214147 -0.157153 -0.246707 0.0966583 0.0542826 -0.0308818 -0.0239505 -0.109761 0.134266 0.126551 -0.0325388 -0.0774544 -0.00589508 0.0755575 -0.104712 -0.0180259 -0.050309 0.088819 -0.212604 -0.0210644 -0.00341831 0.0263392 0.0532381 0.0915253 0.00997924 0.0646424 -0.0310348 -0.141221 0.12214 -0.0818901 -0.116998 -0.142466 0.0181414 -0.15335 0.067374 0.0544189 -0.0262812 -0.00272628 -0.124826 -0.0107436 0.0689477 0.0530611 0.0798242 0.0646216 0.123654 -0.124619 0.01195 -0.114936 -0.126521 -0.141145 0.0697077 0.129131 0.0880805 0.112608 -0.144408 -0.0464676 -0.0936274 -0.108138 -0.0383185 -0.0970527 -0.0634147 -0.10172 -0.0422773 0.00624402 -0.103376 -0.0199297 0.0685852 -0.137007 -0.0764177 -0.101182 0.0551574 0.0947775 -0.304697 0.165617 0.113174 -0.0625903 -0.0213827 0.0995091 -0.0381074 -0.0467734 -0.00939381 0.221935 0.0142495 -0.0339279 0.230203 -0.0200011 -0.179964 -0.0272556 0.139937 0.0894143 -0.0570435 0.0823583 0.0424927 -0.116094 -0.142758 0.0236259 0.083996 -0.119957 0.114896 0.151368 -0.0554988 -0.0445932 -0.203589 -0.0935298 -0.104074 -0.0347502 0.0841804 -0.127681 0.145165 0.0504181 0.0937131 -0.0510877 -0.100271 0.000468648 -0.0247204 0.047002 0.0109744 0.173533 -0.032752 -0.151224 -0.0234476 -0.0684024 -0.0192346 0.0412044 0.0813927 -0.165997 -0.104524 0.0129644 0.00814887 -0.0176194 -0.0513647 -0.131706 -0.0667146 0.00525653 0.0322768 -0.00766414 -0.156324 -0.213877 -0.118937 0.0483786 -0.15896 0.0525084 0.230437 0.101412 0.0619476 -0.0744859 0.00666733 0.175003 -0.259568 0.215364 0.00137152 0.150944 0.228732 0.0460981 0.130749 0.0468651 -0.149242 0.0736341 -0.0045981 -0.0490647 -0.0187354 -0.187647 -0.0646291 0.11477 -0.0132474 0.0328617 -0.118132 0.123877 -0.026027 0.0516697 0.0696987 -0.0564928 -0.145655 0.112554 -0.133036 0.017918 0.103406 -0.0246022 -0.163045 0.247077 0.023154 0.0231086 -0.127646 -0.12043 0.0431784 -0.0483862 -0.133768 -0.00540355 0.192928 0.16647 -0.0188022 -0.0760564 0.0368622 0.00764596 -0.0481597 0.0198263 -0.118489 0.0382147 -0.156203 0.0469085 0.0640352 0.304744 0.117278 0.0427416 0.0622881 0.0349457 0.00563193 -0.161551 0.110849 0.157535 -0.129391 0.0852455 0.21154 -0.0694077 0.0872692 -0.00848357 -0.0306219 -0.141416 -0.063851 -0.0344152 -0.031683 -0.170282 0.0234089 0.169228 0.0494695 0.0224825 -0.0101912 -0.00964085 0.0578259 -0.0798059 -0.0457926 0.0490319 -0.080526 0.0971903 0.136665 -0.0281439 -0.00731145 -0.0224351 0.0129709 -0.00579336 0.0472238 -0.00988744 0.00583407 -0.249024 -0.0607538 0.0624966 -0.123106 -0.155103 0.263526 0.0157098 -0.0169466 -0.0748715 0.223856 -0.0605127 0.115081 0.271465 -0.131327 -0.107166 -0.105691 0.119104 -0.128729 -0.0214215 0.00896498 -0.190682 0.0588604 0.222983 -0.011475 -0.131528 0.0758424 -0.0417147 0.0539679 -0.00724597 0.11018 0.0122037 0.10994 -0.0200475 0.123768 -0.0341718 0.0797901 0.223106 0.0415813 0.0135514 -0.283089 -0.0169152 -0.0338346 -0.164529 0.0076343 0.0634328 -0.101118 0.103732 -0.146746 0.145017 -0.0983886 0.0263193 0.21621 -0.259263 -0.155787 -0.0128347 -0.0526512 0.130798 -0.0368881 0.102729 -0.0412944 -0.0197697 -0.123706 -0.105095 0.120839 -0.0799555 -0.042012 -0.152247 0.132316 -0.0358989 -0.146651 0.200121 -0.0861791 0.056038 0.00447742 0.128298 0.00791182 0.0694666 -0.250179 -0.111399 0.0352342 -0.049873 -0.0606505 0.0694886 0.00584951 -0.114285 0.0615416 -0.200781 -0.0491747 -0.0850592 0.0826613 -0.0168043 -0.12862 -0.11678 0.0695523 0.0993782 0.0929258 0.0795854 0.0380432 0.0122159 0.108204 0.0660026 -0.061697 0.0571747 0.156466 -0.116574 0.131277 0.0326357 0.188637 -0.111982 -0.0482339 -0.0571255 -0.103094 0.0777991 0.023461 -0.0306996 -0.0179289 0.0690582 -0.0983 -0.0554624 -0.0349378 0.0566464 -0.18681 -0.00286055 0.134323 0.0313304 0.0715838 0.146645 0.059586 -0.00687906 0.082016 0.18761 -0.0579646 0.173984 -0.0685483 -0.0881662 0.0375811 0.0909292 0.0833495 -0.191901 0.219716 -0.100515 -0.0732023 -0.0993108 0.0718994 -0.0534441 0.0211746 -0.00906229 0.112945 -0.0350487 -0.161042 0.0861569 -0.181102 0.0862137 0.120876 -0.0388727 -0.0790268 -0.0541262 0.0444047 0.0352308 -0.130923 -0.00778502 0.127289 -0.171219 -0.145308 -0.010337 0.138076 -0.0353071 0.144001 0.119015 -0.0995154 0.238127 -0.151305 0.162518 0.0804234 -0.0347023 -0.0825608 -0.0866914 -0.0474586 0.00477094 0.195833 -0.0140621 -0.0998291 0.0215894 0.0578672 0.12467 -0.134095 -0.0979604 -0.106844 -0.0750312 0.250294 -0.159161 -0.0649716 -0.170747 -0.102288 0.0748338 0.17477 -0.324954 0.203733 0.0149662 0.269845
death 0.253618 0.0789349 -0.0816993 0.0344042 -0.138355 -0.214105 -0.190295 -0.00290117 -0.138374 -0.00180142 -0.00581197 -0.121867 -0.146703 0.269485 -0.230486 -0.153253 0.22382 -0.049199 0.241439 -0.164528 -0.161708 0.130385 0.358845 0.238227 0.094932 0.329011 -0.157067 -0.0713682 0.0738775 0.0721601 -0.342719 0.0387194 -0.266653 0.0311718 0.235021 0.0205647 0.235546 -0.125983 -0.173506 0.0754411 0.12327 -0.117068 -0.156473 -0.0103471 0.286098 0.24217 -0.0668964 -0.0931948 -0.131144 -0.202048 0.0190566 -0.47929 -0.0980381 0.085731 -0.186416 -0.302662 0.0749964 0.0617521 0.108711 -0.0348981 0.0693466 0.124099 -0.262821 -0.0637074 0.23578 -0.240776 0.398334 -0.20048 -0.204422 -0.236765 -0.0586079 -0.261851 0.076464 0.0381779 -0.11268 -0.0442921 0.154789 0.0360359 -0.138365 0.139761 0.0337263 -0.35521 -0.16374 0.226748 0.242145 -0.0290012 -0.125189 0.00589009 0.0935908 -0.261279 -0.0684686 -0.136414 0.0568744 -0.30691 0.0928899 -0.183305 0.0614824 -0.0874826 0.21208 -0.0283555 0.130012 -0.0320165 0.263926 -0.0455879 -0.123207 -0.131176 0.270525 0.115254 -0.0748491 -0.0587799 0.121298 -0.105295 0.0876581 -0.107496 0.105082 -0.307008 -0.120392 -0.000660647 -0.222333 -0.23045 -0.0917466 0.105453 -0.321481 0.024032 -0.0744354 -0.145922 0.0530317 -0.10297 0.0266235 -0.221639 -0.0990741 -0.0683351 0.0652869 0.136542 0.159969 -0.159391 -0.0755417 0.273273 -0.12026 0.138955 0.0249439 0.12253 -0.0114216 0.058554 -0.251301 0.255653 -0.0626076 0.159684 -0.315026 -0.30201 -0.00230692 0.0582383 0.0267341 0.0918037 -0.117999 -0.183092 0.0676529 -0.00654002 0.268849 0.252558 0.21678 0.270564 -0.102327 0.249722 -0.12577 -0.227804 -0.408358 0.0578795 -0.288082 0.022263 0.154522 -0.118091 0.0542835 -0.0318451 0.214355 -0.132997 0.153262 -0.138889 0.0107667 0.0155514 0.219107 -0.0605773 -0.0597639 -0.209512 -0.032592 0.381063 0.00295589 0.129625 -0.0579006 -0.260989 0.0271932 -0.289142 -0.0423729 0.276268 -0.115238 0.0529407 -0.159661 0.0395554 -0.0269256 -0.0835832 0.0118951 -0.279976 -0.155841 0.214456 0.212588 0.320901 -0.128001 0.0598032 0.0651415 0.223316 0.163544 0.0558853 -0.0695469 -0.0726864 0.0876749 -0.0381666 0.0292879 -0.0435782 0.066852 0.112286 0.0866561 -0.101808 0.229615 0.0333741 0.38538 -0.170036 0.014296 0.293746 -0.124056 0.0638724 0.240517 0.240209 0.105182 0.200063 -0.0397145 -0.10724 -0.0389545 0.289368 0.45544 0.0711732 -0.0182846 -0.0325878 0.048664 -0.172035 0.0692708 -0.0803914 -0.100735 -0.110234 0.116526 0.0359457 -0.142772 -0.0999655 0.0496128 0.0638522 -0.242965 0.132157 -0.204254 0.073213 -0.0310442 -0.0771696 -0.00753478 0.263651 -0.327168 0.14239 -0.12179 0.0349697 -0.173998 -0.0915778 -0.284157 -0.163583 -0.00613377 0.109329 -0.0295245 -0.132959 -0.0740449 -0.237529 -0.128385 -0.0245629 -0.111788 -0.0707349 0.228154 0.0458434 0.0379475 0.174917 0.0027483 -0.0303833 0.468802 -0.144913 0.14352 0.161834 0.0893534 0.0612384 0.155527 0.196473 -0.261414 0.136855 -0.521025 0.251788 0.163149 0.297175 0.102482 -0.0135766 -0.358286 -0.20183 -0.0776059 -0.0108522 0.157776 -0.226748 0.0238295 0.158711 -0.146473 0.108685 -0.0462757 0.00869307 -0.175178 0.237836 -0.157051 -0.179044 0.0410335 0.037586 0.0245078 0.199811 0.252205 0.0214808 -0.0588015 -0.00924526 0.0579889 0.156647 -0.201713 0.0562592 -0.0621635 -0.0199018 -0.227994 0.0935355 0.0855778 -0.145592 -0.0977528 0.0241877 -0.128799 0.287845 0.186458 0.267439 0.00107075 0.269405 -0.118104 -0.0557046 0.0862858 -0.0510247 -0.00276519 0.179512 -0.107737 -0.0422067 -0.122811 0.00895053 -0.0306499 -0.232377 0.0631191 -0.23816 -0.175921 0.250061 -0.0550231 -0.0715487 -0.19818 0.191588 0.0894971 -0.0839239 0.0638316 0.225382 -0.255269 -0.104479 0.00657433 -0.13424 -0.0372451 -0.0459494 0.0628199 -0.12988 0.165231 -0.230583 -0.118943 0.0780589 -0.109264 0.0668897 0.12816 0.0398567 -0.239705 -0.205997 -0.192722 -0.0226941 0.169573 0.621534 -0.214662 0.031598 0.151468 0.110652 0.142926 0.0879027 0.0987147 -0.0105687 -0.013008 0.0133946 -0.355426 0.0122391 0.00705297 -0.0646743 -0.121042 0.298654 -0.26855 0.22945 -0.248754 0.0378077 -0.0335437 0.272226 0.292258 0.130947 -0.288768 0.159327 -0.054194 0.106207 0.31626 0.100265 -0.0010427 0.0629094 -0.135904 0.108568 0.195096 -0.400432 0.0678023 0.3844 -0.0761432 -0.107821 0.0226921 0.0417927 -0.0196154 0.243057 -0.1187 -0.214804 -0.126526 0.00787932 0.0326234 0.0640665 0.259569 0.0162863 -0.275376 0.0918777 -0.0404181 0.194565 -0.124534 -0.220437 0.0986788 0.300203 -0.0115704 0.00254595 -0.0310858 -0.19726 0.0391395 -0.092392 0.0230626 0.0395176 0.37258 -0.212835 -0.123852 -0.112967 0.12772 0.0623219 0.404721 -0.12265 0.0216922 -0.0718765 0.115991 -0.0837856 -0.00303145 0.122537 -0.049017 -0.0102842 -0.0773463 0.0234291 -0.238697 0.0566502 -0.0414218 0.206952 -0.238551 0.150043 0.0680932 0.348378 -0.00145533 -0.00294357 -0.252819 -0.137056 0.0175437 -0.283101 -0.0833492 0.0526153 -0.330747 0.060213 -0.11768 -0.247567 -0.195355 -0.0479958 0.196995 0.128306
image -0.0403517 0.0189029 -0.00398127 -0.0206654 -0.0386428 -0.0373619 -0.0976257 0.0339399 -0.0030519 0.0894 0.0239599 -0.0736137 -0.151352 -0.0780654 0.219135 -0.18271 -0.0213328 -0.107605 0.105782 0.162052 0.0476207 0.0694394 0.0958191 0.0178315 0.164029 0.0870817 -0.0188573 0.12115 -0.0630655 0.0179887 0.0250215 -0.0891329 -0.0594512 0.046963 0.100286 -0.120897 0.0448016 -0.297497 -0.142877 0.0339619 -0.0407655 0.0655256 0.0508369 -0.00202672 0.173643 0.024041 -0.15006 0.114743 0.0488978 -0.0226222 0.0486352 0.00876166 -0.13492 -0.0772661 -0.117139 -0.135723 0.0153937 -0.0378682 0.0117322 0.0758215 -0.0540381 -0.128643 0.0139859 -0.201959 0.0552296 -0.108321 0.113317 0.0370211 0.0334327 -0.072486 -0.0127771 0.0159602 0.00684221 0.117959 0.0530397 0.0761926 0.0477759 -0.0577781 -0.185566 -0.0183892 0.00343627 -0.0041955 -0.219041 0.0475427 0.0366825 0.00167454 -0.0716856 0.0130417 0.0244329 -0.251926 0.165112 -0.222231 0.06495 0.0290105 0.07626 -0.129978 -0.0654522 -0.133904 0.0524784 0.0157522 0.223672 -0.090068 0.130375 -0.117373 -0.121868 -0.0824794 0.145298 0.0580376 -0.208535 0.0129801 0.0868984 -0.129269 0.0159694 -0.100445 0.190415 0.0651646 -0.022642 0.0664052 -0.0693656 -0.0362523 -0.0249724 -0.0341609 -0.0766231 -0.0177313 0.105888 -0.0401831 -0.0808067 -0.217072 -0.0417984 -0.00429757 -0.0931801 0.0104156 -0.0585791 0.151047 0.147024 -0.052762 -0.0252876 0.124209 0.174349 -0.0768628 0.0109134 -0.194804 0.0967524 0.0615038 0.0203435 -0.0634033 0.257023 0.179566 0.0323128 -0.115732 0.111966 -0.0286469 -0.0550295 0.0296775 0.122736 -0.0335819 0.0154004 0.0966825 0.12283 0.140339 -0.0139742 0.189403 -0.0521449 -0.0942738 -0.0101378 -0.00132766 -0.0964663 -0.105011 -0.165346 -0.127717 0.00933933 0.147816 -0.142051 -0.0356035 -0.0615918 -0.0427336 0.160709 -0.112092 0.0525967 -0.0263364 0.0291847 0.00182937 0.0183245 0.0175908 0.121337 -0.0593352 -0.0457936 0.0807624 0.122308 -0.00706685 -0.128411 0.084633 0.0816998 -0.0302958 -0.0353914 -0.16975 0.0499367 0.0547461 -0.0160719 0.0717159 -0.173703 0.0522947 -0.00550494 -0.00234897 0.128805 0.113663 -0.0996241 0.087847 0.0955755 -0.050596 -0.0237998 -0.0648551 0.0302407 -0.0762808 -0.103725 -0.00964827 -0.0681277 0.0604261 -0.0188656 -0.0746115 -0.0105312 -0.0766338 0.0513651 0.0227854 0.0450095 -0.104888 0.128383 0.00671857 0.176161 0.00646825 -0.0675652 -0.00172624 0.0315997 0.0343068 -0.118028 0.0784538 -0.108465 0.0739312 0.110232 0.113682 -0.00947691 -0.0266589 0.145878 -0.070358 -0.175211 -0.168369 -0.00785958 0.0953653 0.132481 -0.124407 0.11272 0.197377 -0.103681 0.110858 0.00753445 -0.0413016 -0.115304 -0.104406 -0.130861 0.0164709 0.0188243 0.202734 0.0557389 -0.0120085 0.0274077 -0.0418801 0.0498164 0.168182 -0.177557 -0.0491829 -0.0659521 0.0785274 -0.131967 0.107826 0.22324 0.0585354 -0.0556459 0.0141494 -0.105543 -0.0156856 -0.0230875 -0.129121 0.0221722 0.111073 0.0427963 -0.013192 0.173962 0.0197499 0.111056 0.20738 0.171148 -0.123614 -0.0543284 0.00503368 0.0450722 0.0713306 -0.244684 0.0931098 0.0391117 -0.0258486 -0.0076693 0.0797685 0.128035 -0.0778424 -0.0840685 0.00643806 0.00319827 -0.284591 -0.02511 0.105909 0.0183196 -0.061461 -0.0265356 0.0441266 0.116835 0.0123778 -0.0589454 -0.112242 0.099703 0.0570698 -0.0404984 0.100706 -0.0308853 0.153277 0.0364091 0.0445435 0.0218935 0.00473937 -0.214566 -0.0218283 -0.0384376 -0.0942397 -0.105676 -0.0408076 0.139432 0.0297651 -0.0184292 -0.0261217 -0.00544943 0.0457726 0.113045 0.0279037 0.245304 0.0330372 -0.0211147 -0.101293 -0.000375863 0.0943901 -0.0587917 0.103089 0.0349139 -0.046641 0.104994 0.0946668 0.00419989 0.121231 -0.126074 -0.210641 0.00688322 0.0990506 0.0678414 0.0722568 -0.199503 -0.0578102 0.0242679 -0.0721079 0.0702548 0.065028 -0.0796406 0.0065948 -0.0261516 -0.0551673 -0.031359 0.0136075 0.0614284 -0.021957 0.0969174 0.117998 -0.0992449 -0.0310718 -0.0285047 -0.0956865 -0.0214929 -0.0549277 0.179212 0.0857233 0.0116707 0.0512867 -0.0594289 0.234427 -0.0278128 -0.104868 0.23169 0.0537618 -0.0687474 -0.10852 -0.0496017 -0.0831394 -0.0209938 -0.176539 0.166555 0.104207 0.140728 0.118318 -0.00727433 0.147447 -0.0206715 -0.121914 -0.0705693 -0.00928678 -0.143255 0.143315 -0.045925 0.0684114 -0.0761297 -0.10302 -0.197291 0.045611 0.0399051 0.159396 -0.0408944 0.000255149 0.113202 0.0756841 0.167744 -0.0874854 -0.0829574 0.0461434 -0.0159196 0.0346317 0.089544 0.0757896 0.225881 0.155964 0.141378 0.0245834 -0.0455535 0.175282 0.20944 -0.180832 0.0495412 -0.117528 -0.168095 0.0404437 0.00808033 0.0320271 0.00943273 -0.0555471 0.0606194 0.0875432 0.0237765 0.0398376 -0.187099 -0.0439864 0.0285629 0.0391689 0.00302375 -0.0407971 0.0782396 0.0590096 -0.0380332 -0.112828 0.00175164 0.143722 -0.052502 -0.015631 -0.118236 -0.156596 -0.106635 0.231709 0.117789 0.133015 -0.115443 0.100058 -0.01196 -0.130822 -0.0341603 0.0786626 -0.0412562 -0.095169 -0.0852153 -0.00143129 0.108725 0.181788 -0.0405959 0.0647305 -0.135855 0.123644 0.129035 -0.0457502 -0.0450834 -0.0416914 0.175974 0.161524 0.0553528 -0.0648663 0.110992 0.00793408 0.102637 -0.0895733
theater 0.0703514 0.155979 0.0992829 0.0805722 -0.00444822 0.0186264 -0.093632 -0.0414389 0.0818992 -0.0831044 -0.0697208 0.00583659 -0.0304765 0.0574441 -0.0647412 0.0133142 0.00893191 0.00601099 0.135389 0.0315615 -0.151807 0.0508564 0.026478 0.129043 0.129335 0.0345436 -0.000927019 -0.0501335 0.234152 0.122348 0.0096483 -0.0640045 -0.106935 -0.205718 0.0910511 0.0218692 0.0940647 -0.203582 -0.0245116 -0.0697293 -0.138044 0.0580294 0.048649 -0.146309 0.110427 0.0841903 -0.163006 -0.168402 -0.160104 0.0759686 0.200869 0.070677 0.0462564 0.0289454 -0.122964 -0.210311 -0.208924 -0.0855689 0.161946 -0.194453 -0.0779577 -0.105704 -0.0458731 -0.00756034 0.0334127 -0.062871 0.133753 -0.0174578 -0.215069 0.0730653 -0.118374 -0.0286117 0.0931891 0.0634483 -0.021826 0.0623818 0.0453574 -0.0351696 -0.0466873 -0.185697 0.130221 -0.0323881 0.230087 0.0503222 -0.0110214 0.0677826 -0.128998 0.151202 -0.0441057 -0.247649 0.175393 -0.0235884 0.100283 0.0886039 -0.114156 0.290752 -0.0920341 0.0201593 0.123005 0.162506 0.0348821 -0.0632755 0.00690334 0.0706134 -0.155984 -0.073662 0.169269 0.0751269 -0.0764211 -0.0203165 -0.0179621 0.0217874 -0.278071 0.0367603 0.0446357 0.129098 0.0372966 0.140611 -0.302815 0.0703499 -0.0878993 0.130545 -0.0142308 -0.0188139 -0.0960528 0.0433078 -0.0438121 -0.206996 0.114517 0.0584676 -0.0191457 0.0356303 0.173954 -0.0976675 0.0707679 0.0186655 -0.0815676 0.103046 0.184106 0.0225469 -0.00788795 -0.0277916 -0.271767 0.0298665 -0.0142003 0.00477635 -0.0222217 0.0971406 -0.0476186 0.268578 0.0225502 -0.129038 0.0463114 0.0960984 -0.0150039 -0.219867 0.0549532 0.08223 -0.0383571 0.0386798 0.245434 -0.0648168 0.1453 -0.0312351 0.155548 0.071668 -0.0126218 -0.037208 -0.178224 -0.0497695 0.025653 0.142 -0.00600723 0.0572506 0.0816428 -0.048847 0.0405766 -0.0950555 -0.135178 -0.0317377 0.034247 -0.0691263 0.0480824 0.183688 0.132483 0.0757618 -0.111586 0.0374679 -0.164559 -0.0621842 0.0903677 -0.135303 -0.0395569 0.108075 -0.0891995 0.0735084 -0.044016 0.0480746 0.0913427 -0.0144131 -0.0513191 0.148594 -0.0774404 -0.0483653 -0.140846 0.021909 -0.167154 -0.0879388 0.0927605 0.230747 0.0393501 0.0482283 -0.0835862 -0.0778491 0.0433009 -0.0635129 -0.129764 0.0272615 0.0326212 -0.169669 -0.0720005 0.240639 0.0863731 -0.0271048 0.102175 -0.0227816 0.163458 0.0484843 0.139032 0.0800177 -0.0856348 -0.101061 0.238725 0.081923 0.0323864 0.0598931 -0.0633407 0.0424101 0.0315348 -0.0522581 -0.153344 -0.0209371 0.115367 -0.153114 0.235178 -0.16058 0.0114989 -0.0813015 0.0770224 0.0323202 -0.0719399 0.0906467 0.108358 0.119794 -0.0839873 -0.0140465 -0.0957623 0.313153 0.0116783 -0.0146595 -0.0320423 0.0433199 -0.107106 -0.0305986 0.137677 0.102462 -0.140898 -0.0485421 -0.0306528 -0.0931824 0.258685 0.00580343 0.0964448 -0.00440424 0.040921 0.0511958 0.0657008 0.00776261 -0.0363067 -0.0728974 -0.150723 0.0712091 -0.0182504 0.0630112 0.0492219 0.0283449 0.00942463 -0.0702754 -0.0751863 0.0944709 -0.0329252 0.188231 0.0486058 0.182075 0.219408 0.0653064 -0.173939 0.0302315 0.00785068 0.0271766 0.134534 -0.110273 0.0279765 0.0307209 -0.215247 -0.184801 -0.127577 -0.132717 -0.0487641 0.157163 0.168008 0.160849 -0.0266661 0.126039 0.0626063 0.0419768 0.0835519 -0.203156 0.260098 -0.136613 0.232196 -0.0328793 -0.0112213 0.109301 0.010586 0.144665 0.0187844 -0.0124275 -0.110871 -0.121565 -0.149195 0.0667881 -0.0614309 0.0324611 0.167982 -0.175074 0.0897953 0.0464986 -0.0854231 0.0933793 0.0198109 0.00753507 0.0121082 -0.0664737 -0.0849824 -0.0238466 0.0980119 0.0266005 -0.137274 0.1742 -0.110786 -0.0306822 -0.0117813 -0.0313577 0.180244 -0.102456 -0.0259591 -0.127519 -0.0228804 -0.0194742 -0.110028 0.0196223 -0.0295168 -0.22666 0.0776228 -0.186773 0.105071 0.00161131 -0.00305616 -0.05148 0.0126706 -0.0474019 0.0181624 -0.0883286 -0.165845 0.0792169 -0.0387823 -0.212912 -0.154764 0.0616439 -0.00731945 -0.0500242 -0.0323322 0.0386962 -0.0290747 -0.00964508 0.0571183 -0.22775 0.26586 0.0563109 -0.0711343 -0.036189 0.123036 0.0365596 -0.0181046 -0.06726 -0.114547 -0.330235 -0.250167 -0.199692 -0.0814281 -0.00382676 -0.0129118 0.211718 0.189746 -0.0738058 0.0749357 0.114857 0.0015321 0.174285 -0.0768965 -0.0294487 -0.127513 0.0642214 -0.143535 0.0172906 -0.12889 -0.0185236 0.0293982 0.0188312 0.209386 0.165511 0.063351 -0.0177278 0.0825007 -0.032893 -0.0994293 -0.168839 -0.0798009 -0.159655 -0.0958114 0.130743 0.0752183 0.135394 0.032139 -0.109975 0.157005 0.0170464 0.0067633 -0.0415645 0.0505235 0.0471538 -0.0150381 -0.00650055 -0.276669 -0.0930389 0.0611577 0.0128584 -0.0609349 -0.0450029 -0.0519715 0.106794 -0.107335 -0.162771 -0.0768369 -0.0309843 -0.126172 0.160848 0.0199457 0.0771555 -0.0440416 0.0599967 0.100197 0.0815722 -0.102257 -0.08575 -0.136701 -0.142047 -0.0178366 0.0893478 -0.00906076 -0.237107 -0.125866 -0.0701906 -0.0753694 -0.00232477 -0.0838809 -0.0783543 -0.0195965 -0.166199 -0.0638337 0.093921 0.0342962 0.235824 0.0753204 0.00888734 -0.0211393 0.119129 0.180089 -0.132163 0.222015 -0.0590106 -0.0979551 0.0777234 0.147356 0.0563514 0.109124 -0.0688432 -0.3071 0.110011
number 0.170961 -0.244507 -0.0577303 0.0304297 0.257786 0.142947 0.20428 0.169252 -0.215821 -0.0496943 -0.0931598 -0.0300483 -0.079796 -0.157163 -0.0163437 -0.0874888 0.0300844 -0.128868 -0.149341 -0.112552 0.00132433 0.041584 -0.203983 -0.0942235 0.143198 0.136503 -0.1039 -0.0924893 -0.22794 0.0320759 0.247997 0.0463588 0.222095 0.282584 0.107809 0.0268652 0.294727 -0.110005 0.058246 0.250831 0.200655 -0.0937869 0.000602715 0.302672 0.0998627 -0.0653825 -0.102372 0.0624932 -0.0568617 0.0379036 -0.229969 -0.099909 -0.00745797 -0.0658167 -0.207119 -0.133211 0.207124 0.443035 -0.146902 0.291715 0.0923737 0.140386 -0.193109 -0.480222 0.297802 -0.0670393 0.160164 -0.0869112 -0.208719 -0.0163215 0.0980594 0.270396 -0.0537539 0.129926 0.0560596 -0.0163075 0.0453817 -0.00416239 -0.138309 -0.103744 0.0261862 0.0855727 -0.0828915 0.338465 0.0799493 0.0564021 0.119741 0.0689003 0.0217145 -0.162206 0.32357 -0.345953 -0.149921 -0.104357 -0.17933 0.137431 0.14906 -0.194887 -0.0251413 0.0704022 0.131455 -0.451977 -0.175401 0.082145 -0.0464977 0.0153504 -0.123414 -0.298505 0.0173511 0.119855 -0.019899 -0.131397 -0.0286725 0.0631075 0.111101 -0.0806396 -0.171184 0.0891785 0.0921742 -0.00250738 -0.0166751 0.0964734 0.119726 0.177366 0.018396 -0.100743 0.0574301 -0.131512 0.0729277 -0.00170937 -0.0313894 0.0887281 -0.273472 0.183855 0.0276838 -0.0594783 0.0713956 0.168575 0.355562 0.0489659 -0.0795552 -0.00598847 -0.00434255 0.025796 -0.074995 -0.0726474 0.312029 0.111356 -0.252188 0.0714863 -0.0526979 -0.217582 0.0494478 0.0143635 0.157232 -0.156581 -0.207888 0.336093 0.153735 -0.00863649 0.181947 -0.0271693 -0.0863208 0.189828 0.278879 0.00547999 0.0308403 0.0688833 -0.0209194 -0.048216 0.15625 0.493479 0.0347463 -0.216387 0.095807 -0.124686 -0.296885 0.0750051 -0.132148 0.156312 -0.0100834 0.0757938 -0.126295 0.00240897 -0.138246 -0.0433821 -0.0513961 0.00570365 -0.0267338 0.0048289 -0.221339 0.00261391 0.165941 -0.082464 -0.0783317 0.0641963 -0.167506 0.0853451 -0.00505678 -0.0266455 -0.106775 0.229747 -0.0439646 0.140484 -0.0757754 -0.315506 0.112759 -0.11115 -0.0988887 -0.243033 -0.0661946 -0.00670748 -0.0918938 0.109535 0.126202 -0.0588009 -0.062362 0.211919 0.183539 0.16972 0.145709 -0.0754796 -0.079041 0.0300125 -0.0612559 0.144483 0.139317 -0.0715919 0.0839442 0.145276 -0.147542 -0.11523 0.217107 -0.0270576 -0.273765 0.0400705 -0.292756 0.138597 0.185419 0.1623 0.0685593 0.0638496 0.0800105 -0.0862049 0.171564 0.221724 -0.272777 0.123377 0.0680248 0.17313 -0.054492 -0.0171944 -0.0405185 -0.328047 0.0798572 0.138628 -0.0169182 0.050918 0.00775002 0.1368 -0.135994 0.0863918 -0.354695 -0.242988 -0.14234 0.0290373 0.00594542 -0.000138372 -0.195596 -0.183181 -0.10916 -0.0841313 -0.0941435 -0.110132 0.200945 0.0835846 0.106653 0.0130174 -0.0370875 -0.0889716 0.115507 -0.212887 -0.202823 0.0260128 0.0957209 -0.157297 -0.00195425 0.241339 0.0552933 0.103327 0.201045 -0.00360858 0.167391 0.14909 0.258865 -0.107093 0.335857 -0.0276577 0.103592 0.0851574 0.256913 0.0774524 -0.065484 -0.204089 -0.187581 -0.136969 -0.00185263 0.215558 0.418893 -0.140378 -0.156415 0.111447 -0.146182 -0.0358098 -0.0747719 -0.130417 -0.37831 0.262864 0.184916 -0.349582 0.00828023 0.0911845 -0.0816526 0.0102142 0.0707582 -0.182363 0.116366 0.143331 -0.060589 -0.0579668 0.119026 -0.198546 0.128967 0.277929 -0.0160788 -0.0594012 -0.135783 -0.00115124 -0.0342955 0.239582 -0.089972 0.0647498 0.35136 -0.0313719 0.202625 -0.103072 -7.11754e-05 0.103834 -0.224581 0.0517683 0.182616 -0.00777164 -0.0760967 0.0583474 -0.0700151 -0.0215948 0.0037062 -0.0395398 0.237222 0.00964866 -0.0698699 0.130256 0.086523 0.185373 0.0442655 0.188915 0.18399 -0.102664 0.0830986 0.0591558 0.0294209 0.0590961 -0.0159372 0.271195 -0.152261 -0.270423 0.08287 0.140559 -0.206686 -0.0454544 0.110047 -0.137074 -0.0995607 0.0639155 0.0525486 0.187777 0.253168 -0.00115203 -0.250004 0.14347 -0.111744 0.0974029 0.174955 -0.0103344 -0.0248097 -0.0652613 -0.00686895 -0.0282231 -0.104012 -0.166527 0.0359623 0.147407 -0.0240648 -0.0451893 0.216204 0.00473764 -0.196589 -0.204026 0.266875 -0.119735 -0.115562 0.205178 0.132224 -0.157287 -0.077642 -0.0929635 -0.0200478 -0.182581 -0.135708 -0.27584 0.000765255 -0.142944 -0.240347 -0.0122377 0.12904 -0.293557 -0.0941573 -0.000525501 -0.275956 -0.0369998 -0.13711 -0.114674 0.284876 -0.0790207 0.101419 0.235864 0.00608264 0.196705 0.321209 -0.132816 0.00917675 -0.0957713 0.127148 0.137722 -0.205796 0.150063 0.148064 -0.106828 -0.106615 0.0432284 0.113696 0.0362955 -0.0447107 0.294724 -0.0605731 0.157092 0.0916439 -0.13181 -0.148514 0.0110966 0.00583382 0.0571713 -0.151504 0.0415888 -0.0391936 -0.0228508 0.168019 0.126326 -0.140343 0.299726 0.0780762 0.127452 0.00780941 -0.164431 -0.0392682 0.00632236 -0.0608958 -0.104015 -0.0969549 0.100814 -0.0343324 0.0864278 0.0647762 -0.148108 -0.0833677 0.0675605 0.272615 -0.210307 0.171542 -0.0137291 0.314199 0.251162 0.141367 0.0536931 0.0434162 0.175246 -0.0798448 -0.0192685 0.0595263 -0.339568
astronomer 0.0792288 0.0354322 -0.0140595 -0.0666744 -0.014572 0.0372229 -0.0446877 -0.0702669 -0.002527 0.179789 0.0612437 -0.0437868 -0.112809 0.0258186 -0.060293 -0.117859 -0.0255711 -0.0529242 -0.0341479 0.0664589 -0.0911301 -0.014359 -0.0316118 0.0857941 0.0432524 0.0503431 0.0139211 0.0464451 -0.0369516 0.0587868 0.0488718 0.0608107 0.0565382 0.0022217 -0.0212862 -0.0406219 0.0736407 -0.141342 -0.0363997 -0.0157022 0.022492 0.00564636 -0.0952822 -0.103695 -0.0149916 -0.00967842 -0.012393 -0.0587024 -0.0843467 0.0773761 -0.0425959 0.0413397 -0.0635461 -0.108673 -0.0977609 -0.0552815 -0.0743863 0.123699 0.105089 -0.0856257 -0.108204 0.0746913 0.11903 -0.112864 -0.0291804 0.0228884 0.0929991 -0.0157606 0.0253917 0.130604 -0.00287731 0.0611953 -0.0839684 0.0641728 -0.0663523 0.0776056 -0.00486978 0.0610559 -0.126027 -0.0354394 -0.0470875 0.118944 0.152511 0.0167131 -0.0631291 0.0390254 -0.0353238 0.00833926 0.00959249 -0.102764 0.00454001 -0.0222145 0.0200584 -0.100274 0.119339 0.0130416 -0.023093 0.00575955 -0.0552015 0.0244564 0.012252 -0.116954 0.0196957 0.0914105 -0.0559035 -0.110837 0.0192468 -0.131719 -0.0624448 0.0737811 0.0119981 -0.034525 0.0544044 -0.107777 0.077952 -0.00287978 -0.0316462 -0.032552 -0.0984155 0.0474895 -0.0946379 0.0921358 0.0230837 -0.0187694 -0.0754349 0.126912 0.00500828 -0.0056295 0.0406119 -0.113453 -0.117291 0.0824492 -0.060836 0.0229086 -0.0479181 -0.00374882 -0.0494969 -0.00742629 0.0767638 -0.104587 -0.00271134 0.0388535 -0.0660315 0.0158861 0.0866775 0.0299516 0.0667388 0.0653858 0.0380193 0.0189246 0.0729171 -0.159716 0.00778433 0.0974788 0.0775219 -0.00855724 -0.0206075 0.130242 0.0280862 0.156022 -0.0089446 0.00996726 -0.0827325 -0.0100334 0.0479765 -0.0213412 0.0889846 -0.0876942 0.00437548 0.00870095 0.0832823 0.0413207 0.0105543 0.0845719 0.0292253 -0.071012 0.00499736 0.0248459 -0.0959468 0.0573173 -0.0289412 0.0260342 -0.0259277 0.0988747 0.154469 0.0166722 -0.0520869 0.0389574 -0.0402841 -0.083172 -0.0841489 0.0429249 0.0374386 0.010872 0.0312343 0.00904013 -0.00384484 -0.00209528 0.110322 -0.0413676 -0.124131 -0.0275182 0.0598801 0.0512804 0.0644334 0.0575809 0.00468532 0.0874149 0.122668 0.00648291 0.0630466 -0.0586421 -0.0695867 -0.0382141 0.00827634 0.0533288 -0.0462801 -0.0215737 -0.0342813 0.0260825 0.0254596 0.0555034 0.0423603 0.0752743 -0.0108177 -0.0784543 -0.0369628 -0.120831 0.00415485 -0.0941756 -0.0797301 0.00558516 -0.02305 0.0614816 0.0810938 -0.0161488 0.0160292 -0.158369 0.0715563 0.0732182 0.00117582 0.0325729 -0.0590702 -0.000687524 0.0648585 -0.109261 0.011875 0.0292098 -0.00356596 0.0827395 0.0339106 0.0503709 0.0592355 0.00515903 0.082779 0.0649308 -0.0996387 0.0946655 -0.0953785 0.0177552 -0.0225662 0.0136889 -0.0312485 -0.119858 -0.0378788 0.0313428 -0.0144042 0.0449387 0.0724857 0.00885147 0.116102 0.0432732 0.216238 -0.0598641 -0.0333028 -0.100283 -0.0245087 -0.0671677 -0.0990322 0.123107 -0.0429968 -0.0305355 0.0188781 -0.0496213 0.0598737 0.018959 -0.0689434 0.104408 0.00690755 -0.0130132 0.00497953 0.114785 0.00228341 -0.0259128 0.0234646 0.0430707 -0.0576912 0.0603534 0.0944185 -0.00621554 0.077165 -0.144303 0.0817519 0.0682736 -0.140268 -0.0160148 0.000305747 -0.127006 0.00206539 -0.00538812 0.00551688 0.0791942 0.142726 -0.0018223 0.0375947 -0.0524146 0.0607422 -0.00317343 -0.0432445 -0.044119 -0.0538679 -0.109145 -0.111489 0.00483617 0.105593 0.0978489 0.0528988 0.0534791 -0.0121001 -0.0681735 -0.0846525 0.00842481 -0.04206 0.0130261 0.0885189 0.0315224 -0.000337341 0.0192022 0.0253042 -0.0778685 -0.0137305 0.0165971 0.015598 0.0418765 -0.0882632 0.055478 0.000864025 0.0576215 -0.042028 -0.0635363 -0.099681 -0.0192758 0.00455952 0.0169412 0.0131867 -0.0875914 0.02209 0.010981 -0.0436885 -0.028265 -0.0339244 0.0104621 -0.0172355 -0.116445 0.0136133 -0.107232 0.00627209 0.0831655 -0.015368 -0.120625 -0.00746405 -0.062442 -0.00424965 -0.0461108 0.0801855 -0.0697586 -0.0397586 -0.0171922 -0.00252458 0.000324387 0.0518872 -0.0372378 -0.0505362 -0.0408161 -0.0930518 -0.0953963 0.0228576 0.0283315 -0.00334141 0.103246 0.0202577 -0.0633138 0.0424922 -0.0311563 0.0668019 -0.0373709 -0.048913 -0.102765 -0.0512032 0.0184037 -0.102828 -0.060101 0.0385644 -0.0639439 -0.0310197 0.0552079 -0.100598 0.0683122 -0.0522064 0.0680373 0.0423105 -0.0439044 0.100552 -0.0516852 0.0336292 0.0973093 0.0365859 0.0289206 0.0688715 -0.0081557 0.0500279 0.118703 0.00175717 -0.0674113 -0.0338259 0.049727 -0.0437621 -0.0759042 0.0146516 0.0665611 0.0694288 0.0425637 0.0703825 0.0616612 0.0546744 0.0168664 0.0177405 -0.00468701 0.077596 0.0741957 0.0359163 0.00390805 0.0425088 -0.0522455 -0.0983086 0.0091007 0.0438528 -0.0631284 0.00205418 0.14735 -0.00809672 0.00653221 0.0506654 -0.0189084 0.0196221 0.00969423 -0.0306077 -0.0422996 0.0991097 -0.100241 0.0826027 0.114409 -0.0486014 0.0136955 -0.0125409 -0.0603265 -0.00785146 -0.059786 -0.0551133 -0.0149989 -0.00897068 0.0044941 0.0171372 -0.128992 0.00467486 0.0559089 0.0484178 0.0348646 -0.0334998 0.0569691 -0.0336516 -0.0202108 -0.015818 0.125438 -0.0526896 -0.0393379 0.0258414 -0.124447 -0.0487287 -0.0814059 -0.0598101 0.0774999 0.0260878 -0.025076 -0.0673489 0.0141104 -0.115119 0.0456868 -0.0224083 0.0731378
project -0.0861983 0.082701 0.108867 0.0293926 0.0749128 -0.0679684 -0.226589 -0.142673 0.059331 0.231268 -0.151752 -0.0119499 -0.194151 0.00645866 0.00873615 -0.10077 -0.0512368 0.116268 0.114908 -0.0276683 -0.00188675 0.109739 0.211008 0.10833 0.166592 0.0436401 -0.136255 0.0399421 0.144558 0.0389975 0.0252962 -0.0343476 0.160517 -0.142368 0.136832 0.0520552 -0.0238556 -0.178668 0.110934 -0.10314 0.00258831 0.0537751 0.05702 -0.0242486 -0.118011 0.00385845 0.0355879 -0.15627 -0.043343 -0.181226 0.009137 0.0355097 -0.19292 -0.106218 -0.0277919 -0.0102318 0.069336 0.0947367 0.011034 0.130206 -0.307784 -0.140738 -0.0581522 -0.00490703 -0.0582424 -0.278337 0.0418328 -0.0112818 -0.135767 -0.0466711 -0.101204 -0.0563088 -0.06324 -0.00610911 -0.0149635 0.140765 0.0345532 0.0221783 -0.047229 0.153358 -0.153837 0.0706499 -0.146782 -0.0414386 0.206672 -0.198447 0.00364172 0.054448 0.180899 -0.2781 -0.127922 -0.149621 -0.0381804 -0.163922 0.0326088 -0.239254 0.0605703 0.107705 0.0873538 -0.0936867 -0.0409347 0.0412777 0.154598 -0.0226479 -0.238768 0.0540818 0.0870268 0.096315 -0.10181 -0.0501923 0.220012 0.1872 -0.0479219 0.00215242 -0.0687139 0.0422091 0.0907032 -0.0225635 0.0295461 -0.248844 0.0370314 0.0527444 -0.202347 -0.0222347 0.107319 -0.0333705 -0.0477781 -0.256343 -0.0898136 0.10956 -0.168154 -0.00480593 0.0857431 0.0988757 -0.0610793 -0.101288 -0.0884221 0.110974 0.0187892 0.013006 0.0797372 -0.21141 -0.231302 -0.0538507 -0.0433655 0.131199 0.075291 0.162382 0.0594207 -0.0668852 -0.149368 0.00113197 0.0259285 -0.0585144 0.0325183 -0.104906 0.0279673 0.243818 0.0747134 0.0976552 0.023075 0.0604178 -0.0796629 -0.0176286 0.150167 -0.0546645 -0.0497263 -0.0696324 -0.0479189 -0.080302 0.0068717 0.0200922 -0.0429607 -0.0445601 -0.0253242 0.0415008 0.0519488 -0.138442 -0.0733748 -0.10444 0.0965228 -0.134679 -0.0201041 0.108935 0.205525 0.0341586 -0.0103709 0.0749711 -0.117437 -0.0790644 -0.0399676 0.0961841 -0.0543361 0.271271 -0.0643444 -0.0463116 -0.0152421 -0.058224 0.0878345 -0.0268701 -0.235272 -0.144908 -0.0653328 0.0426936 -0.121464 0.0893227 -0.324652 0.115315 0.062649 -0.120533 -0.0522214 -0.0486482 0.0115465 -0.149076 -0.0368544 -0.0164155 -0.172948 0.162132 0.0381306 -0.0529859 0.119206 0.083294 -0.0638868 0.170233 -0.166433 -0.079983 0.211397 0.177613 0.00288538 0.117689 -0.0946073 -0.0100724 0.0950385 0.215992 -0.145329 0.122736 0.0227845 -0.00961793 0.0567027 -0.11716 -0.00839514 -0.0805121 0.102171 -0.0179917 0.0951793 -0.194037 0.0720147 -0.20276 0.130241 -0.19081 -0.0856676 0.172137 -0.268681 0.131702 -0.00484201 -0.0461704 -0.133331 -0.067682 -0.132501 0.133363 0.19541 0.0044072 -0.0123223 -0.0365127 0.0171682 -0.123917 -0.100132 -0.0715028 -0.108456 -0.111183 0.164383 -0.0449265 0.0550187 0.0253794 0.117914 0.0974783 -0.0481223 -0.0561563 0.0848097 -0.194376 -0.0656943 0.0490521 0.072816 -0.138972 0.0133637 -0.122054 0.261282 -0.161339 0.0830018 0.129593 0.0300624 -0.0314647 -0.0560922 0.054595 0.0382872 0.0534277 -0.127623 -0.0885272 -0.033971 0.107848 0.061383 0.0423884 -0.00954069 0.0168412 -0.149424 -0.17341 -0.0636684 -0.233477 0.0324898 0.103564 -0.14181 0.0519898 -0.087087 0.0306217 -0.0710604 0.0622904 0.0541538 -0.052574 0.12874 0.0720408 0.105774 0.16168 -0.0782051 -0.0940305 0.144162 -0.0196311 -0.0322868 0.167088 -0.0616946 -0.172368 0.0126679 -0.0745689 -0.0629978 -0.159789 0.116901 0.0184239 -0.103687 0.0577006 -0.160581 -0.0336396 0.129203 0.0948685 -0.0478002 0.0808042 -0.216714 -0.125146 -0.133246 0.118623 -0.116002 -0.0942707 0.0954758 0.228473 0.257584 0.0233328 -0.0517042 -0.130746 0.0939755 -0.120388 0.0266521 0.175844 -0.0364655 0.0340552 -0.026413 -0.115926 0.308887 0.0142473 0.0932889 0.0863915 -0.0516071 0.0042112 0.0633218 0.00190796 -0.00842585 -0.0576033 0.0444081 -0.0290891 -0.0390275 -0.0857829 0.00367862 -0.21679 -0.165587 -0.0273323 -0.0446403 -0.27376 0.00472871 0.00819062 -0.0480017 0.0426212 0.0486418 0.00539458 -0.111608 -0.0223439 0.113428 0.0370461 -0.0487129 -0.07724 -0.0841255 -0.289172 -0.164995 -0.089111 -0.188962 0.0716123 0.00297777 -0.15946 -0.0769387 0.0580277 -0.184255 0.0498017 0.0335174 -0.042764 -0.0796941 -0.181931 0.0599521 0.221862 -0.095061 -0.131742 -0.216473 -0.0754229 0.207532 0.00310194 -0.114723 0.0967488 -0.130225 0.0804211 0.2844 -0.0920617 0.00423043 0.0352572 -0.0306515 0.00544637 0.157734 0.104759 0.00998722 0.117462 -0.00470693 -0.152936 -0.113691 -0.00163475 0.343228 0.042158 0.00508559 -0.00961394 0.0389719 -0.049599 -0.0375043 -0.0300842 0.0715762 0.033763 0.00548318 0.14077 -0.267953 -0.124897 -0.0140861 -0.224445 -0.0921126 0.0394052 0.0233639 0.0386627 0.0298563 0.0502964 -0.096806 0.190706 0.0101807 -0.0181494 0.0942413 -0.0894058 -0.198912 -0.0851573 0.065047 -0.0539127 -0.0013566 -0.117097 0.0126701 -0.0143571 0.0431069 0.0474822 -0.0432757 -0.042712 -0.148085 -0.204082 0.0899679 0.0878527 -0.0650257 -0.134592 0.100862 -0.0704508 -0.0283095 0.140996 0.165932 -0.269957 0.0617619 0.0763381 0.144043 0.0655765 0.0507058 -0.00861154 0.122204 -0.22553 0.10299 0.0556367
dawn -0.0725078 -0.144294 -0.0714894 -0.133607 -0.0926964 0.13182 0.100831 -0.0857645 -0.0128995 0.140918 0.0309222 0.113583 -0.158023 -0.197463 0.0805281 -0.106303 0.0912151 -0.0965084 0.0535383 0.0577514 0.0454835 0.0847404 0.0195976 -0.0239172 -0.0438976 0.0279902 0.0350075 -0.203122 0.0486332 0.0708121 -0.0828979 0.0272482 0.16843 0.0479354 0.0606948 0.0824669 -0.0664003 -0.155705 -0.118031 -0.164685 0.0881369 -0.0259949 -0.135927 -0.0220306 0.0698961 0.023005 -0.081963 -0.0401591 -0.185729 -0.0777768 0.0725475 -0.0738607 -0.0215082 -0.0296276 -0.110677 -0.121545 0.035346 0.0148734 0.051047 -0.0287215 -0.0587319 0.042486 -0.10201 -0.0580169 0.118812 -0.0146018 0.137395 -0.040654 -0.154539 0.0273165 0.0141482 -0.0212407 0.0622688 -0.043456 0.0872159 -0.0836131 0.0747419 -0.0535664 -0.221813 0.068226 0.00459747 0.0786937 0.00965255 0.055408 -0.0524817 -0.054638 -0.0148204 0.0162945 -0.00941796 -0.208935 0.032115 -0.0527964 0.126929 0.0739568 0.0707404 -0.0187797 0.0114463 0.0893655 0.0416273 -0.102345 -0.0623008 -0.0362114 -0.0176518 -0.0471981 -0.0405815 -0.0458382 0.122172 0.124737 -0.0536343 -0.0950129 -0.0760857 -0.0458393 -0.0916533 -0.0338343 0.101741 -0.0457783 -0.0332554 0.203402 -0.0270524 -0.0449801 0.046377 0.0268272 -0.0783351 -0.0156747 -0.0168017 -0.0505127 0.00823539 -0.0735993 0.0392561 -0.0574567 0.0393956 -0.070777 -0.102889 -0.0619559 -0.0429093 0.0676074 -0.0838773 0.130403 -0.00895319 0.0121893 -0.0405024 -0.193529 -0.0255708 0.101824 -0.0266307 -0.0100001 -0.0427635 -0.0585031 -0.178891 -0.0163387 0.0155521 -0.0484887 0.012968 0.142445 -0.117479 0.0337521 -0.0153075 0.100247 0.0747478 -0.0396288 -0.0504364 0.155478 0.083087 -0.0450064 0.0646209 0.024569 0.150422 0.0933731 -0.0857954 0.0080147 0.0928206 0.123465 0.00500727 0.0234456 0.0577158 0.0461143 0.0925736 -0.0240539 -0.0710312 0.0796921 0.0737287 0.00213671 -0.00520677 -0.00176051 0.024562 0.0578337 -0.0813539 -0.189606 0.00328264 -0.0990818 0.0568829 -0.0963636 -0.0335218 -0.131849 -0.160878 0.0177121 -0.0764803 -0.148471 0.100881 -0.104606 -0.0930094 -0.156553 -0.0321943 0.171656 0.0166462 0.113156 -0.0812044 -0.056297 -0.129616 0.0647589 -0.0832942 0.0199189 0.0820047 0.0760486 -0.0379181 0.00620743 0.154519 0.171444 -0.0673727 0.0452241 -0.0330051 0.0848455 0.103486 0.0560213 0.00569642 -0.000660121 0.0488219 0.045705 0.0301018 -0.000387544 -0.0922718 -0.00830575 0.175272 0.131699 0.0602345 -0.0862263 -0.0516899 -0.0822641 0.0102701 0.11814 0.105561 -0.0848681 -0.0276069 -0.0597038 -0.091118 -0.125076 -0.127435 0.058073 -0.0441108 -0.0235145 0.0165553 -0.010794 -0.0984311 -0.0251856 -0.0531725 -0.00618762 -0.0833384 0.00498189 0.075633 0.0655429 0.188196 -0.0658369 -0.00787013 -0.0562985 0.0565088 -0.232403 0.0256834 0.068982 -0.0831746 -0.0645883 0.0819604 -0.0805448 0.0967775 -0.176794 0.00749025 -0.0567209 0.0209663 -0.0928816 -0.0893284 -0.165473 -0.0347756 0.0692952 0.1497 0.00376681 0.0103033 -0.0525001 -0.0827247 0.0747377 0.0655294 -0.0379103 0.0876035 0.0324391 0.110716 -0.0766629 0.0295154 0.106147 -0.132177 0.0187082 0.0480943 -0.00915385 0.101072 -0.00853686 -0.0819854 -0.0623785 0.0107263 -0.078407 0.171557 -0.0894056 -0.12193 0.0346143 -0.00733553 -0.0314804 0.168713 0.103535 -0.0470514 -0.02141 -0.0119006 -0.0189254 0.00251967 -0.19019 -0.107726 -0.0405664 -0.0363008 -0.0096508 -0.0967712 0.0574676 0.0380573 0.0553225 -0.109564 0.0111887 0.0146901 -0.178549 0.0213272 0.166471 0.0528086 -0.0255163 -0.103536 -0.0253386 -0.102426 -0.0276326 0.0837692 0.0111547 0.130183 0.108477 0.056513 -0.193032 -0.00369905 0.0231694 0.102333 0.0745112 -0.0731861 0.196141 -0.109392 0.156048 -0.0520976 -0.00163865 -0.00978541 -0.0689787 -0.00543872 -0.0293646 0.0746818 0.00394273 -0.0811867 0.101625 0.125969 0.124073 -0.0237491 0.0277727 -0.230057 -0.100938 -0.0220156 -0.0230566 -0.0446478 -0.00370669 0.0528487 -0.0366078 0.126152 0.043974 -0.125818 0.0291512 -0.0419444 0.0722556 0.103685 0.0228133 -0.0505106 0.0320349 0.104433 0.0628619 0.0237685 0.097197 0.0571886 0.184907 -0.0104889 -0.0162991 0.12266 0.021697 0.0480317 -0.0272598 -0.141345 -0.105989 -0.0390518 -0.0141505 -0.00521176 0.063492 0.000256499 0.113332 -0.0345873 0.11102 -0.105852 0.0539544 0.0843889 -0.0594406 0.0713494 -0.0313508 -0.0368486 -0.132104 0.0500052 0.152756 0.144962 0.0438296 0.123482 0.0442736 0.0566061 -0.162141 0.126301 0.0327774 -0.106029 0.151015 -0.129083 -0.195668 -0.0765348 -0.0607103 0.00735085 0.0104146 -0.195292 -0.0582895 0.0473919 0.0848701 -0.034766 0.221877 -0.0743221 0.120064 -0.147257 0.0217636 -0.116712 0.0741245 -0.0175085 0.0217656 0.0893087 0.141825 -0.238213 0.0780832 0.0153326 -0.104895 0.0237332 -0.114966 0.00611405 -0.0219855 -0.0849454 0.0906674 -0.147156 0.0558755 -0.0484343 0.164117 0.126869 -0.0264016 -0.00485378 -0.056699 -0.0336958 0.122479 0.0411574 0.100059 -0.118413 -0.0590749 0.0663246 0.184686 -0.137099 -0.0889357 0.155072 0.0780291 -0.080552 -0.1461 0.0734393 0.181756 0.02664 0.0114319 -0.0460076 -0.153535 -0.0773324 -0.054404 0.131034 -0.056719 -0.104899 0.102896 -0.09262 -0.028371 0.0964914 0.0404649 0.0649977 0.0882132
ear 0.0428596 -0.0247424 0.0215482 0.0631628 0.0434293 -0.0243029 0.0114559 -0.0369919 0.0968438 0.0821938 0.076524 0.0191167 -0.0305548 0.00431057 0.0784962 -0.191581 0.0985954 -0.206244 0.0592595 0.163573 -0.007633 0.0422921 0.0507971 -0.0123505 0.0808707 0.0583266 -0.00416637 -0.0591279 0.0552337 0.016449 -0.0673021 0.0364999 -0.00875395 0.0750314 0.212223 -0.105873 0.0873265 -0.17646 -0.0432106 0.0422854 -0.00349943 -0.00859095 -0.0536659 -0.0715113 -0.0183899 -0.0174074 0.0255349 0.045917 -0.0760849 -0.0789339 -0.0207067 -0.070739 0.000849034 0.0569256 0.0333641 -0.00626323 -0.0518047 0.0487856 -0.0381689 0.0105386 -0.0781109 0.00969765 -0.0597754 -0.0740454 0.0810554 0.0601315 0.00635951 -0.0554224 -0.119709 0.034885 -0.155972 -0.109406 -0.0111399 0.00839265 0.0602336 -0.0155305 0.00319216 -0.00294099 0.105873 -0.000872231 0.0830269 0.0832623 -0.0559826 0.0956668 0.0798012 -0.0259789 -0.0173407 0.0538987 -0.122382 -0.037062 0.0992535 -0.0746518 0.0582115 0.00130895 -0.051204 -0.0803317 0.0304397 -0.0553096 0.0555606 -0.0736819 0.0878772 -0.0697397 0.0281347 0.00841145 -0.149176 -0.0621454 0.0470908 0.0642669 -0.14392 -0.0270788 -0.135013 0.00209679 -0.0851804 0.0465496 0.164895 0.03618 -0.0859401 -0.0460349 -0.0694489 -0.14489 0.0115124 0.0714164 -0.0882553 0.0223624 0.0567041 -0.0385088 -0.0286899 -0.0652514 0.00490908 -0.0497633 0.0430266 0.116203 0.0198755 -0.0102446 0.0310175 -0.115615 -0.0435516 0.125306 -0.0635312 -0.0444848 -0.100737 -0.0712296 0.00921474 0.0391099 0.0347085 0.0452325 -0.013314 0.0688802 -0.120617 0.0047442 -0.056902 -0.090996 -0.0613459 0.0146455 0.029208 -0.0380758 -0.0473175 0.174704 0.0315289 0.0577268 -0.0533106 0.0760905 0.00806084 -0.0929885 0.11764 -0.00529728 0.0300913 -0.0701171 0.0500501 0.00790278 -0.0289625 0.0144966 -0.0475155 -0.00193922 -0.0294488 -0.00598956 0.0380367 -0.174792 0.046491 -0.0644809 0.00978646 0.0482603 -0.0525439 -0.0176 0.145477 0.117016 -0.0340067 -0.0107126 0.134151 0.171236 -0.0348902 -0.103506 0.0850767 0.00177739 -0.0446769 0.115028 -0.0365623 0.131927 0.0325023 -0.0761691 -0.110884 0.000137224 -0.0114113 0.0675047 0.022768 0.176452 -0.126382 0.0331705 -0.129776 0.0289076 0.126977 -0.232065 0.00599584 -0.00760837 0.0474788 -0.0708261 -0.0172555 -0.00176712 0.0922083 -0.0262995 -0.0459725 -0.101597 -0.02435 0.0359613 0.036534 0.00332745 0.0601528 -0.117202 0.0283587 -0.0627295 -0.12709 0.064552 0.112924 0.110454 -0.0494038 0.135505 -0.0697621 0.101122 0.0740376 0.0566989 -0.0167393 -0.10721 -0.060585 -0.0209043 -0.120616 0.0063199 -0.0127755 0.0767264 0.112324 -0.0929708 0.0226843 -0.000420767 -0.0814545 0.106383 -0.157761 -0.00901666 -0.117999 -0.012225 -0.00931302 0.115553 0.0118427 0.128599 -0.122659 0.0216205 -0.00621179 -0.00818704 -0.0195788 0.014324 -0.0214532 0.0672023 -0.113947 0.0720473 -0.0337568 -0.104675 0.0131588 0.0202325 -0.0541609 -0.148665 -0.000504994 -0.0648038 0.00443348 -0.0193724 0.0219616 -0.0510542 -0.0334475 -0.126299 0.0816485 0.0158845 0.0294308 0.0229929 0.104057 0.0533825 0.0815947 -0.126518 0.00172447 0.00643439 -0.229388 0.0557098 0.0286915 -0.0532849 0.0113575 0.0380568 -0.00272951 0.0385503 -0.111214 -0.0524461 -0.124432 -0.022023 -0.063469 0.110393 0.0513142 0.0180044 -0.0317973 -0.0142329 0.032908 0.0723028 0.00266016 -0.0208547 -0.0413642 0.063873 -0.00079848 -0.0552703 0.0393729 0.105025 -0.0669111 -0.0699961 -0.059972 -0.0400217 0.0333566 0.0130495 -0.0110113 -0.212276 -0.0751853 -0.000675314 0.114718 -0.0120091 -0.0382085 -0.0829298 -0.0353978 0.0755956 0.0527489 -0.0368923 0.0423644 -0.227166 -0.00393795 0.0272376 -0.0816742 -0.0361975 0.0135938 0.037511 -0.0492547 -0.0446613 -0.133646 0.00756718 0.0302125 -0.0605385 -0.106279 -0.0488754 0.167555 -0.0293985 -0.0281918 0.0284815 -0.0847621 -0.0844693 0.157198 -0.0976755 -0.0477644 0.106167 -0.0140053 -0.0911391 -0.0364779 -0.158245 -0.0132338 0.00128638 0.00346505 0.0517614 -0.0647113 0.140086 0.0467991 0.0023569 -0.0898415 0.0334171 0.00939718 -0.107366 0.0614596 0.146372 0.0929575 -0.0618756 0.118412 0.0679975 -0.0158321 0.105709 0.0914665 0.013858 0.193458 -0.0779597 0.0518568 -0.026894 -0.0519315 -0.077131 -0.105748 0.0315426 0.0238484 -0.0111017 -0.0647021 -0.0446924 -0.10117 -0.0918984 -0.0389992 0.0387069 0.0127143 0.013696 0.00920175 -0.00113045 -0.116674 -0.03991 0.0295473 0.0258236 0.0121319 0.175391 -0.0559673 -0.081778 0.0160354 -0.117956 0.0922113 -0.0239887 -0.0228282 0.157361 0.0426041 -0.0866576 -0.0838215 0.145232 0.0295198 0.0278174 0.0339606 -0.0160947 0.00101995 -0.0916382 0.124407 0.00602433 0.0430326 0.0636183 -0.146733 -0.0597693 -0.0605432 0.0911912 -0.0113728 -0.10558 -0.0251447 0.0182302 0.0621409 -0.0396348 0.0683871 -0.0838374 0.173385 -0.0411975 0.0742852 0.0998192 0.127891 0.0173192 0.0821599 -0.0696816 0.0994731 0.167327 -0.046312 0.12748 -0.030473 -0.00204438 -0.0141573 -0.038096 0.0933581 0.22975 -0.149704 0.0949576 -0.0405822 -0.00957601 -0.126283 -0.0106955 -0.114357 -0.0264484 -0.215023 -0.113032 0.0137908 0.0805513 -0.0319317 -0.0334917 0.0420959 0.0998939 0.0758956 -0.0459127 0.159979 -0.0148418 -0.0315804 0.156159 0.0410404 -0.111906 -0.0761989 -0.0971872 0.0639281 0.0399058
voyage -0.240705 -0.0901305 0.0967355 0.166361 0.00620212 0.17232 -0.103953 -0.0206916 0.0873481 -0.00380536 0.136173 -0.0788168 -0.0265939 -0.0895126 0.121316 -0.310428 -0.00754422 0.0885054 -0.0751756 0.0627161 -0.101745 -0.0342349 -0.0227195 -0.00343788 -0.0611051 0.171051 -0.0531026 0.0300372 -0.0153511 -0.0951833 -0.015498 -0.114603 0.00885719 0.0326993 -0.0244067 -0.0314729 0.120594 -0.137113 0.0659689 0.129442 0.048385 -0.0681284 -0.258008 0.163475 -0.0726573 0.0917548 0.116995 -0.0206486 -0.133835 -0.00360503 -0.0215143 -0.0431491 0.0518968 -0.00890473 -0.075959 -0.0448652 0.172595 0.0687027 -0.108356 0.127949 -0.0617937 0.0818136 -0.0309165 -0.0289746 0.0776605 -0.158303 0.174541 -0.102681 -0.271111 -0.0313271 -0.0491436 -0.022258 -0.0456805 -0.090049 -0.0586015 0.024718 0.077218 0.00207228 -0.0717178 -0.00826234 -0.0603597 0.108581 0.148743 0.168467 -0.0538944 0.0302117 -0.0178431 0.0367609 0.0234983 -0.0843748 -0.00987602 -0.189749 0.15895 0.116775 0.158563 -0.163506 0.0459197 -0.150201 0.0732279 -0.0616094 -0.0490693 0.104122 -0.00604289 -0.273794 -0.229547 -0.00190746 -0.0146983 -0.0219928 0.0732409 0.0105477 0.00594772 0.148079 0.0150439 0.0147194 -0.0349233 -0.00629257 0.0631281 0.093155 0.113674 -0.0529785 -0.102433 0.139749 -0.091617 -0.0161731 0.148043 0.144578 0.0458011 -0.0422248 -0.097631 0.0492322 -0.0332218 -0.0557635 -0.193451 0.125493 -0.0683781 0.0483204 -0.0227139 0.141067 -0.0372604 -0.0131995 0.0101067 -0.0995646 0.0429459 0.119317 0.0166346 0.00761665 -0.0626712 0.226023 0.00462462 -0.014429 -0.0925594 -0.00685249 -0.0888669 -0.0494964 -0.123548 -0.0334054 0.203144 0.112113 -0.184361 0.0946497 0.0544222 0.0999917 -0.0581765 0.119279 -0.0114486 0.10697 -0.156101 -0.0620798 -0.159217 -0.185911 -0.0314613 0.116364 0.0123121 0.106653 0.0860882 0.0368105 0.299519 -0.205634 -0.0911642 -0.0550642 0.0295503 0.0398715 -0.037359 -0.111059 -0.00806137 0.131205 -0.105429 0.0534518 -0.18724 0.147822 -0.116128 0.032754 -0.00397195 -0.0614833 -0.00126564 -0.0368959 -0.0840114 -0.0584044 0.0376064 -0.0744375 -0.265054 -0.0556833 -0.00984 0.0277591 0.0275732 -0.00234878 -0.0442984 0.0172462 0.0803251 -0.00696418 0.0220639 0.019592 0.0239038 0.0273694 0.00566022 -0.0370222 -0.0935394 0.132916 0.0698495 0.0428083 0.0753404 0.0267422 -0.0734566 0.0733749 0.119035 -0.0561881 0.0468765 0.0560338 0.0980656 -0.0117926 0.0568912 -0.0449386 -0.0894165 0.118876 -0.0856725 0.0161482 0.0124598 0.00099665 0.084198 -0.00699947 0.180984 -0.123264 -0.140939 -0.132557 -0.0718585 -0.14205 -0.0484676 0.079702 0.0212636 0.0687694 0.0312241 0.105975 0.148821 -0.00352712 -0.126213 0.0816882 -0.0170035 0.0609635 -0.126317 0.0147813 -0.0273021 0.081575 0.0695031 0.061771 -0.030638 -0.0919644 -0.0998852 0.140601 -0.14598 -0.170785 0.200943 0.0431068 0.109616 0.0265293 -0.055861 0.0643643 0.0161076 -0.358464 0.0343025 -0.225264 -0.0589062 -0.0870969 0.122701 -0.123932 0.127228 0.0632096 0.109586 0.110017 0.279139 0.0398127 0.022913 -0.0748144 0.0321348 0.0157617 -0.0393312 0.149803 -0.160266 0.0989747 0.247322 0.108535 0.0763897 0.0377037 0.120215 -0.0426047 -0.0262624 -0.130859 0.00341116 -0.044355 -0.143038 -0.0641674 0.0221694 0.128188 0.0996794 0.0304765 -0.16843 0.00177427 -0.0314749 -0.0728998 -0.0370304 0.118637 -0.0689088 0.0609077 0.02436 -0.0586182 -0.0542024 -0.105289 0.0763951 0.145706 -0.186292 -0.0055152 0.0215334 -0.121999 -0.0274392 -0.0635113 0.102875 0.0339092 0.0750626 0.0309097 -0.0272915 -0.0510778 -0.0764201 -0.0324996 0.0477919 0.0548236 0.0493509 0.0896434 0.0376543 0.0649712 -0.188385 -0.00312162 0.0102152 0.0371394 0.116156 0.124332 0.0222815 0.0581627 0.0986517 0.110922 -0.00860999 0.0581343 0.198563 0.125877 -0.101912 0.0182576 0.0678574 0.0449396 0.0247226 0.0411998 -0.0801678 -0.0983733 0.108205 -0.0580299 -0.196983 0.00743405 -0.19109 -0.013657 -0.0682477 0.0331796 -0.0452917 -0.0498862 -0.134856 0.0114775 0.0632684 -0.0490649 -0.0513315 0.0777534 -0.200542 -0.0162561 -0.16767 0.0549868 -0.17004 -0.177333 0.131088 0.106579 -0.0422989 -0.000804905 0.0478847 -0.0816156 -0.00773407 -0.0611116 -0.155913 0.101829 0.100268 -0.000558039 0.0234191 0.177754 -0.103427 0.0190752 -0.21485 0.0639408 -0.00833101 0.0118013 -0.0851132 -0.0730398 0.0109992 -0.0150874 -0.0377991 -0.0416298 0.0205007 0.0827734 0.0173224 -0.0209492 -0.0121317 -0.0470939 0.13498 -0.0777245 -0.132268 -0.00378334 -0.0658198 0.0621204 0.0749946 0.121998 -0.0121596 0.0150697 -0.0190172 -0.0415345 -0.17932 0.0360777 -0.0819741 0.0500015 0.0714586 0.0758711 -0.00610903 0.113003 0.0129039 0.139717 0.0787377 -0.0770641 -0.0648166 0.120448 0.0176294 -0.154494 0.0299519 -0.200283 0.00955588 -0.129595 0.116848 0.0149706 0.0966804 0.127516 -0.164336 -0.0200777 0.158679 0.10011 0.0442097 -0.0386846 -0.141522 -0.0351818 0.181924 0.0159206 -0.150938 0.0145771 0.0372618 -0.008216 0.00975052 -0.0633853 -0.116038 -0.132716 -0.09699 0.0708649 -0.0951477 -0.0092151 0.0101624 0.229559 -0.0405964 0.166298 -0.173537 -0.249557 0.0423804 -0.0262468 0.0528083 -0.0546538 0.100884 0.0568277 0.0246738 -0.00303124 -0.120775 -0.0331457 -0.015929 0.100811
